tree
version=v3
num_class=1
num_tree_per_iteration=1
label_index=0
max_feature_idx=264
objective=regression
feature_names=TurbID Wspd Wdir Etmp Itmp Ndir Pab1 Pab2 Pab3 Prtv Patv Wspd_simple_diff Wspd_simple_diff2 Wspd_rolling_mean6 Wspd_rolling_max6 Wspd_rolling_min6 Wspd_rolling_std6 Wspd_rolling_mean_diff6 Wspd_rolling_mean_diffn6 Wspd_rolling_mean_cal6 Wspd_rolling_mean12 Wspd_rolling_max12 Wspd_rolling_min12 Wspd_rolling_std12 Wspd_rolling_mean_diff12 Wspd_rolling_mean_diffn12 Wspd_rolling_mean_cal12 Wspd_rolling_mean36 Wspd_rolling_max36 Wspd_rolling_min36 Wspd_rolling_std36 Wspd_rolling_mean_diff36 Wspd_rolling_mean_diffn36 Wspd_rolling_mean_cal36 Wspd_rolling_mean72 Wspd_rolling_max72 Wspd_rolling_min72 Wspd_rolling_std72 Wspd_rolling_mean_diff72 Wspd_rolling_mean_diffn72 Wspd_rolling_mean_cal72 Wspd_rolling_mean144 Wspd_rolling_max144 Wspd_rolling_min144 Wspd_rolling_std144 Wspd_rolling_mean_diff144 Wspd_rolling_mean_diffn144 Wspd_rolling_mean_cal144 Wspd_past0 Wspd_past1 Wspd_past2 Wspd_past3 Wspd_past4 Wdir_simple_diff Wdir_simple_diff2 Wdir_rolling_mean6 Wdir_rolling_max6 Wdir_rolling_min6 Wdir_rolling_std6 Wdir_rolling_mean_diff6 Wdir_rolling_mean_diffn6 Wdir_rolling_mean_cal6 Wdir_rolling_mean12 Wdir_rolling_max12 Wdir_rolling_min12 Wdir_rolling_std12 Wdir_rolling_mean_diff12 Wdir_rolling_mean_diffn12 Wdir_rolling_mean_cal12 Wdir_rolling_mean36 Wdir_rolling_max36 Wdir_rolling_min36 Wdir_rolling_std36 Wdir_rolling_mean_diff36 Wdir_rolling_mean_diffn36 Wdir_rolling_mean_cal36 Wdir_rolling_mean72 Wdir_rolling_max72 Wdir_rolling_min72 Wdir_rolling_std72 Wdir_rolling_mean_diff72 Wdir_rolling_mean_diffn72 Wdir_rolling_mean_cal72 Wdir_rolling_mean144 Wdir_rolling_max144 Wdir_rolling_min144 Wdir_rolling_std144 Wdir_rolling_mean_diff144 Wdir_rolling_mean_diffn144 Wdir_rolling_mean_cal144 Wdir_past0 Wdir_past1 Wdir_past2 Wdir_past3 Wdir_past4 Etmp_simple_diff Etmp_simple_diff2 Etmp_rolling_mean6 Etmp_rolling_max6 Etmp_rolling_min6 Etmp_rolling_std6 Etmp_rolling_mean_diff6 Etmp_rolling_mean_diffn6 Etmp_rolling_mean_cal6 Etmp_rolling_mean12 Etmp_rolling_max12 Etmp_rolling_min12 Etmp_rolling_std12 Etmp_rolling_mean_diff12 Etmp_rolling_mean_diffn12 Etmp_rolling_mean_cal12 Etmp_rolling_mean36 Etmp_rolling_max36 Etmp_rolling_min36 Etmp_rolling_std36 Etmp_rolling_mean_diff36 Etmp_rolling_mean_diffn36 Etmp_rolling_mean_cal36 Etmp_rolling_mean72 Etmp_rolling_max72 Etmp_rolling_min72 Etmp_rolling_std72 Etmp_rolling_mean_diff72 Etmp_rolling_mean_diffn72 Etmp_rolling_mean_cal72 Etmp_rolling_mean144 Etmp_rolling_max144 Etmp_rolling_min144 Etmp_rolling_std144 Etmp_rolling_mean_diff144 Etmp_rolling_mean_diffn144 Etmp_rolling_mean_cal144 Etmp_past0 Etmp_past1 Etmp_past2 Etmp_past3 Etmp_past4 Itmp_simple_diff Itmp_simple_diff2 Itmp_rolling_mean6 Itmp_rolling_max6 Itmp_rolling_min6 Itmp_rolling_std6 Itmp_rolling_mean_diff6 Itmp_rolling_mean_diffn6 Itmp_rolling_mean_cal6 Itmp_rolling_mean12 Itmp_rolling_max12 Itmp_rolling_min12 Itmp_rolling_std12 Itmp_rolling_mean_diff12 Itmp_rolling_mean_diffn12 Itmp_rolling_mean_cal12 Itmp_rolling_mean36 Itmp_rolling_max36 Itmp_rolling_min36 Itmp_rolling_std36 Itmp_rolling_mean_diff36 Itmp_rolling_mean_diffn36 Itmp_rolling_mean_cal36 Itmp_rolling_mean72 Itmp_rolling_max72 Itmp_rolling_min72 Itmp_rolling_std72 Itmp_rolling_mean_diff72 Itmp_rolling_mean_diffn72 Itmp_rolling_mean_cal72 Itmp_rolling_mean144 Itmp_rolling_max144 Itmp_rolling_min144 Itmp_rolling_std144 Itmp_rolling_mean_diff144 Itmp_rolling_mean_diffn144 Itmp_rolling_mean_cal144 Itmp_past0 Itmp_past1 Itmp_past2 Itmp_past3 Itmp_past4 Ndir_simple_diff Ndir_simple_diff2 Ndir_rolling_mean6 Ndir_rolling_max6 Ndir_rolling_min6 Ndir_rolling_std6 Ndir_rolling_mean_diff6 Ndir_rolling_mean_diffn6 Ndir_rolling_mean_cal6 Ndir_rolling_mean12 Ndir_rolling_max12 Ndir_rolling_min12 Ndir_rolling_std12 Ndir_rolling_mean_diff12 Ndir_rolling_mean_diffn12 Ndir_rolling_mean_cal12 Ndir_rolling_mean36 Ndir_rolling_max36 Ndir_rolling_min36 Ndir_rolling_std36 Ndir_rolling_mean_diff36 Ndir_rolling_mean_diffn36 Ndir_rolling_mean_cal36 Ndir_rolling_mean72 Ndir_rolling_max72 Ndir_rolling_min72 Ndir_rolling_std72 Ndir_rolling_mean_diff72 Ndir_rolling_mean_diffn72 Ndir_rolling_mean_cal72 Ndir_rolling_mean144 Ndir_rolling_max144 Ndir_rolling_min144 Ndir_rolling_std144 Ndir_rolling_mean_diff144 Ndir_rolling_mean_diffn144 Ndir_rolling_mean_cal144 Ndir_past0 Ndir_past1 Ndir_past2 Ndir_past3 Ndir_past4 Patv_simple_diff Patv_simple_diff2 Patv_rolling_mean6 Patv_rolling_max6 Patv_rolling_min6 Patv_rolling_std6 Patv_rolling_mean_diff6 Patv_rolling_mean_diffn6 Patv_rolling_mean_cal6 Patv_rolling_mean12 Patv_rolling_max12 Patv_rolling_min12 Patv_rolling_std12 Patv_rolling_mean_diff12 Patv_rolling_mean_diffn12 Patv_rolling_mean_cal12 Patv_rolling_mean36 Patv_rolling_max36 Patv_rolling_min36 Patv_rolling_std36 Patv_rolling_mean_diff36 Patv_rolling_mean_diffn36 Patv_rolling_mean_cal36 Patv_rolling_mean72 Patv_rolling_max72 Patv_rolling_min72 Patv_rolling_std72 Patv_rolling_mean_diff72 Patv_rolling_mean_diffn72 Patv_rolling_mean_cal72 Patv_rolling_mean144 Patv_rolling_max144 Patv_rolling_min144 Patv_rolling_std144 Patv_rolling_mean_diff144 Patv_rolling_mean_diffn144 Patv_rolling_mean_cal144 Patv_past0 Patv_past1 Patv_past2 Patv_past3 Patv_past4 hour time_index
feature_infos=[34:67] [0:24.379999999999999] [-177.52000000000001:786.00999999999999] [-272.97000000000003:394.04000000000002] [-273.17000000000002:261.24000000000001] [-530.88999999999999:700.62] [-1.99:93.780000000000015] [-1.99:99.980000000000004] [-1.99:92.159999999999997] [-576.17999999999995:379.52999999999997] [0:1559.8099999999999] [-11.33:12.140000000000001] [-18.439999999999998:22.25] [0:23.579999999999998] [0:24.82] [0:22.600000000000001] [0:7.9042454837047256] [-2.4299999999999997:3.0183333333333335] [-17.401666666666664:20.033333333333331] [-10.811666666666669:9.2266666666666666] [0:21.764166666666668] [0:25.059999999999999] [0:19.890000000000001] [0:7.5935846128641078] [-1.2716666666666683:1.6033333333333326] [-16.310833333333335:19.444166666666664] [-11.960000000000001:10.490833333333333] [0:19.61333333333333] [0:25.059999999999999] [0:15.91] [0:7.3301705896258609] [-0.49166666666666536:0.50499999999999901] [-14.027222222222221:17.223611111111108] [-16.220555555555556:12.920833333333336] [0:17.164166666666667] [0:25.059999999999999] [0:15.07] [0:7.3246851214455555] [-0.31500000000000128:0.26805555555555571] [-13.222916666666668:13.949027777777779] [-16.756180555555556:13.240694444444445] [0:16.335625] [0:25.059999999999999] [0:13.56] [0:6.6455730966724484] [-0.15486111111111178:0.14201388888888822] [-10.666701388888889:12.818124999999998] [-17.443229166666669:12.144583333333332] [0:23.739999999999998] [0:24.82] [0:24.379999999999999] [0:24.379999999999999] [0:24.73] [-762.06999999999994:786.88999999999999] [-947.58000000000004:786.00999999999999] [-171.32000000000002:214.81499999999997] [-168.34:1284.51] [-710.98000000000002:169.38999999999999] [0:524.05465053751789] [-60.531666666666666:130.68833333333333] [-282.09333333333336:281.48666666666668] [-654.24166666666667:272.99166666666667] [-169.04499999999999:163.715] [-158.63:1284.51] [-1412.3399999999999:144.78999999999999] [0:407.65076866966621] [-65.888333333333321:65.780000000000001] [-257.92750000000001:228.79750000000001] [-710.79166666666663:283.34666666666669] [-153.62277777777777:142.81083333333333] [-135.88999999999999:1284.51] [-1412.3399999999999:115.98] [0:235.66990167426707] [-21.859444444444446:39.155000000000001] [-189.5025:190.67527777777775] [-761.43083333333334:255.98999999999998] [-117.78027777777775:109.84027777777777] [-42.380000000000003:1284.51] [-1412.3399999999999:67.030000000000001] [0:166.8690478555514] [-6.0647222222222226:10.869027777777777] [-125.83347222222221:125.63986111111113] [-773.24888888888893:242.39097222222222] [-56.370798611111113:78.583263888888894] [-3.149068825910931:1284.51] [-1412.3399999999999:27.010000000000002] [0:120.015477976079] [-9.1467361111111121:5.3963194444444449] [-83.732430555555553:92.480277777777758] [-781.32284722222221:218.24319444444444] [-177.78:762.16999999999996] [-177.78:1284.51] [-177.47999999999999:959.00999999999999] [-710.98000000000002:955.38999999999999] [-710.98000000000002:959.00999999999999] [-652.75:599.06999999999994] [-666.76999999999998:665.91999999999996] [-272.88200000000001:394.04000000000002] [-272.82400000000001:394.04000000000002] [-272.97000000000003:394.04000000000002] [0:357.00757637152014] [-108.79166666666669:109.90083333333334] [-656.63499999999999:656.23500000000001] [-485.28999999999996:543.95833333333326] [-272.81239999999997:394.04000000000002] [-272.6848:394.04000000000002] [-272.97000000000003:394.04000000000002] [0:339.08225817058099] [-55.564166666666672:55.564166666666665] [-652.75999999999999:652.63416666666672] [-561.34875:598.35416666666663] [-260.70069444444442:394.04000000000002] [-250.43000000000001:394.04000000000002] [-272.97000000000003:394.04000000000002] [0:326.78822068986358] [-18.52138888888885:18.498333333333335] [-369.74833333333333:340.75180555555556] [-341.46013888888888:634.61805555555554] [-259.10173611111111:394.04000000000002] [-250.43000000000001:394.04000000000002] [-272.97000000000003:394.04000000000002] [0:283.68884630122994] [-9.2606944444444252:9.2491666666666674] [-363.60750000000002:295.13930555555555] [-282.34500000000003:643.68402777777783] [-258.69246527777779:394.04000000000002] [-250.43000000000001:394.04000000000002] [-272.97000000000003:394.04000000000002] [0:217.34800095722917] [-4.6303472222222695:4.6302083333333144] [-362.29694444444448:294.76413194444444] [-288.47593749999999:648.21701388888891] [-272.94:394.04000000000002] [-272.95999999999998:394.04000000000002] [-272.97000000000003:394.04000000000002] [-272.95999999999998:394.04000000000002] [-272.95999999999998:394.04000000000002] [-306.62:315.72999999999996] [-319.05000000000001:321.39999999999998] [-273.17000000000002:73.924999999999997] [-273.17000000000002:324.20999999999998] [-273.17000000000002:57.270000000000003] [0:185.30964706853948] [-53.065000000000019:58.586666666666673] [-318.88833333333332:314.96333333333337] [-249.5983333333333:255.67333333333332] [-272.81239999999997:66.025833333333338] [-272.6848:324.20999999999998] [-273.17000000000002:56.340000000000003] [0:163.14970581981126] [-26.581666666666667:26.46333333333331] [-311.41906666666665:310.63999999999999] [-276.63083333333333:281.26833333333332] [-260.70069444444448:56.810277777777777] [-250.43000000000001:324.20999999999998] [-273.17000000000002:56.289999999999999] [0.08493648420740732:156.69706359724859] [-9.0555555555555571:9.6219444444444235] [-301.99083333333328:308.27611111111105] [-282.93888888888893:297.38972222222225] [-259.10173611111111:55.992638888888884] [-250.43000000000001:324.20999999999998] [-273.17000000000002:54.216778242677819] [0.19528960076743587:151.98190702136105] [-4.4268055555555463:4.4111111111111114] [-300.94027777777779:305.21513888888893] [-283.27125000000001:309.10625000000005] [-258.69246527777773:54.289689679218974] [-250.43000000000001:324.20999999999998] [-273.17000000000002:53.186820083682008] [0.45757135220651002:151.18579568401404] [-2.2185909748037993:2.2470833333333324] [-300.16499999999996:304.96920138888885] [-289.41406249999994:313.11368055555556] [-273.17000000000002:151.87] [-273.17000000000002:202.63] [-273.17000000000002:202.63] [-273.17000000000002:202.63] [-273.17000000000002:324.20999999999998] [-197.50999999999999:158.17000000000002] [-915.45000000000005:978.60000000000002] [-504.73499999999996:700.42999999999995] [-495.89999999999998:700.62] [-530.88999999999999:700.42999999999995] [0:231.51320573565434] [-86.855000000000047:80.685000000000016] [-890.52666666666676:979.43000000000006] [-211.44499999999999:290.16666666666674] [-495.27749999999997:700.40749999999991] [-483.00999999999999:700.62] [-530.88999999999999:700.39999999999998] [0:227.8856194353969] [-47.104999999999905:42.648333333333312] [-881.41333333333341:916.4758333333333] [-294.95833333333331:387.26583333333338] [-481.20611111111106:691.56305555555548] [-462.63:700.62] [-530.88999999999999:687.69000000000005] [0:267.44723594378041] [-18.446944444444455:13.861111111111086] [-856.06472222222214:894.73130165289251] [-391.95555555555552:471.86000000000001] [-448.85763888888891:690.58402777777781] [-416.19:700.62] [-530.88999999999999:681.15999999999997] [0:267.82570906394614] [-9.9693055555555574:9.2961111111111165] [-766.71875000000011:833.64791666666667] [-440.60777777777776:553.18430555555551] [-408.65041666666662:665.2561805555556] [-346.69181818181818:700.62] [-530.88999999999999:572.35000000000002] [0:302.19405599962892] [-5.8090277777777715:6.0847916666666642] [-679.32559027777779:774.81402777777782] [-537.20666666666671:701.84277777777788] [-517.25999999999999:700.62] [-509.38:700.62] [-517.25999999999999:700.62] [-514.13:700.62] [-517.25999999999999:700.62] [-1513.4000000000001:1513.4000000000001] [-1547.97:1548.6399999999999] [0:1558.4033333333336] [0:1567.02] [0:1554.8900000000001] [0:828.59021024814263] [-253.22375000000011:253.39833333333331] [-1531.5883333333331:1519.9566666666667] [-1261.1666666666667:1228.0099999999998] [0:1554.3908333333331] [0:1567.02] [0:1524.9000000000001] [0:778.14844598372463] [-126.54312500000003:129.89499999999998] [-1518.8699999999999:1518.2383333333335] [-1387.2833333333333:1358.0291666666665] [0:1519.6755000000001] [0:1567.02] [0:1519.01] [0:714.09440480654678] [-43.317777777777678:43.298333333333289] [-1447.9939583333332:1512.7680555555555] [-1377.9153240740741:1429.2708333333335] [0:1514.3774999999998] [0:1567.02] [0:1423.46] [0:726.92016165847645] [-21.12083333333328:21.66402777777779] [-1304.7105555555556:1492.1483333333333] [-1416.7046990740739:1319.2420833333333] [0:1452.6076388888889] [0:1567.02] [0:1128.6199999999999] [0:648.32761342414881] [-10.828125:10.824583333333351] [-1194.9389236111112:1376.5188368055558] [-1437.5614801460113:1292.0344444444445] [0:1560.55] [0:1560.55] [0:1561] [0:1559.54] [0:1567.02] -1:22:19:0:5:14:7:13:11:20:12:6:1:3:23:15:10:18:4:9:8:21:2:17:16 -1:0:3:4:1:5:2
tree_sizes=3031 3060 3047 3054 3052 3054 3055 3057 3057 3059 3061 3065 3058 3064 3057 3064 3067 3074 3053 3056 3065 3059 3076 3062 3061 3062 3071 3042 3064 3056 3070 3052 3069 3062 3109 3067 3090 3055 3053 3057 3081 3054 3091 3087 3063 3084 3066 3101 3092 3062 3105 3079 3084 3088 3070 3104 3101 3093 3091 3092 3082 3075 3076 3094 3083 3067 3092 3078 3099 3103 3071 3102 3082 3065 3082 3068 3087 3086 3098 3096 3086 3092 3083 3093 3075 3063 3091 3104 3071 3080 3087 3076 3068 3082 3084 3082 3071 3074 3077 3107 3074 3064 3065 3072 3087 3092 3044 3082 3104 3064 3096 3053 3074 3053 3057 3059 3071 3064 3078 3056 3070 3070 3081 3080 3082 3076 3058 3093 3066 3087 3050 3064 3053 3090 3079 3082 3073 3042 3089 3086 3075 3092 3077 3068 3091 3058 3054 3054 3097 3068 3055 3069 3040 3072 3099 3096 3067 3078 3062 3049 3108 3048 3056 3094 3047 3061 3059 3101 3045 3086 3067 3050 3056 3058 3080 3058 3108 3088 3062 3073 3083 3123 3106 3099 3064 3088 3106 3117 3062 3099 3077 3078 3081 3084 3074 3095 3066 3102 3058 3101 3096 3060 3091 3071 3073 3086 3073 3064 3074 3077 3096 3057 3060 3111 3077 3077 3111 3086 3101 3048 3097 3068 3123 3085 3084 3086 3088 3096 3082 3097 3094 3084 3078 3073 3076 3077 3090 3094 3060 3083 3112 3093 3091 3071 3090 3106 3098 3094 3104 3103 3094 3084 3080 3082 3086 3071 3069 3093 3095 3085 3077 3065 3094 3099 3095 3072 3096 3080 3073 3107 3073 3094 3069 3072 3080 3121 3105 3114 3133 3105 3092 3103 3091 3089 3093 3118 3097 3087 3101 3118 3108 3107 3124 3099 3119 3066 3131 3118 3058 3137 3117 3097 3059 3109 3082 3110 3056 3098 3019 3122 3095 3104 3041 3098 3037 3098 3112 3107 3089 3125 3045 3089 3053 3106 3065 3099 3106 3072 3064 3076 3079 3083 3078 3068 3114 3110 3078 3075 3080 3101 3081 3059 3105 3086 3036 3084 3066 3070 3120 3095 3066 3085 3064 3089 3041 3053 3091 3052 3107 3108 3069 3076 3051 3097 3073 3106 3088 3112 3102 3052 3092 3103 3096 3107 3096 3113 3104 3095 3053 3115 3125 3103 3094 3055 3076 3095 3097 3102 3098 3116 3063 3074 3074 3134 3032 3097 3063 3062 3047 3102 3119 3049 3048 3100 3086 3115 3092 3051 3075 3106 3051 3037 3110 3086 3055 3071 3107 3136 3071 3076 3082 3117 3084 3064 3096 3118 3103 3070 3130 3103 3105 3088 3099 3068 3073 3121 3043 3094 3113 3051 3074 3099 3066 3086 3096 3072 3074 3081 3092 3086 3090 3068 3080 3076 3065 3099 3103 3069 3090 3073 3084 3103 3094 3098 3095 3075 3103 3097 3090 3056 3102 3092 3098 3073 3111 3117 3124 3097 3137 3106 3080 3139 3126 3111 3099 3129 3082 3142 3117 3085 3095 3115 3066 3116 3096 3101 3101 3069 3053 3106 3097 3096 3063 3053 3126 3132 3077 3097 3065 3063 3118 3122 3058 3148 3076 3074 3110 3143 3102 3138 3007 3106 3071 3152 3042 3046 3089 3100 3093 3127 3140 3052 3122 3058 3127 3116 3049 3130 3095 3107 3107 3113 3100 3053 3123 3046 3096 3088 3098 3006 3109 3128 3094 3096 3098 3024 3106 3100 3083 3101 3018 3112 3075 3120 3101 3087 3099 3059 3106 3001 3110 3101 3105 3094 3064 3110 3102 3006 3121 3067 3100 3101 3083 3117 3129 3028 3100 3071 3092 2999 3130 3059 3078 3107 3065 3082 3059 3056 3072 3067 3152 3087 3090 3043 3048 3106 3057 3051 3075 3023 3074 3051 3109 3118 3012 3057 3047 3124 3101 3039 3053 3072 3071 3046 3103 3090 3056 3054 3046 3046 3074 3124 3083 3020 2996

Tree=0
num_leaves=31
num_cat=0
split_feature=10 10 10 10 1 10 10 10 10 10 10 10 10 224 10 10 1 9 9 9 1 9 9 14 9 14 9 10 14 223
split_gain=1.13117e+11 1.41815e+10 1.3403e+10 1.86731e+09 1.6858e+09 1.6066e+09 1.59894e+09 2.58652e+08 2.32607e+08 2.20952e+08 2.05299e+08 1.91317e+08 1.86185e+08 1.81155e+08 1.68453e+08 1.51186e+08 9.88063e+07 7.59282e+07 7.41859e+07 7.37737e+07 7.33041e+07 6.4622e+07 6.37796e+07 5.99383e+07 5.34053e+07 4.89233e+07 4.52783e+07 4.40394e+07 4.36126e+07 4.15035e+07
threshold=592.99500000000012 223.19500000000002 1067.8100000000002 382.04500000000007 2.9725000000000006 1357.0250000000003 816.16875000000016 44.674696969696981 483.88500000000005 1200.4150000000002 932.43500000000006 717.54000000000008 292.05700000000007 548.28000000000009 1479.9750000000001 158.33750000000003 7.5541313559322036 31.025000000000002 11.585000000000003 18.965000000000003 7.1407569721115545 11.585000000000003 13.085000000000003 7.0509090909090917 54.495000000000012 8.1000206611570267 -0.24499999999999997 87.338333333333352 6.8521784232365155 22.44824652777778
decision_type=2 2 2 2 2 2 2 2 2 2 2 2 2 2 2 2 2 2 2 2 2 2 2 2 2 2 2 2 2 2
left_child=1 4 6 12 7 9 11 29 20 18 19 21 28 15 -7 -6 -15 -12 -4 -8 -5 -2 -13 -14 -11 -10 -18 -9 -3 -1
right_child=2 3 5 8 13 14 10 27 25 24 17 22 23 16 -16 -17 26 -19 -20 -21 -22 -23 -24 -25 -26 -27 -28 -29 -30 -31
leaf_value=389.31099303762517 395.34695911746064 391.75019545598542 399.17119724926147 393.41794346431277 390.52064119327372 402.31784362788073 397.13904784318828 389.92560445417348 394.28821094376104 400.55922082511768 398.17738663227038 396.25580903967176 392.45368843573567 391.70827292235896 403.514791144703 391.15138655485106 393.18498507482155 399.13844920374481 400.23161205433161 398.1361988369103 394.39330777978915 396.26135301199884 397.24212914296862 393.1405100074029 401.44576501666359 394.95761244977797 396.86604175919763 390.4025249887199 392.30194903150033 389.59131865113335
leaf_weight=119342 37138 52679 10023 49005 93466 21829 21031 64974 34912 11064 18318 22649 46971 10769 25485 64039 955 14913 19303 11464 9143 9760 9227 17418 17610 15886 514 27581 19677 94745
leaf_count=119342 37138 52679 10023 49005 93466 21829 21031 64974 34912 11064 18318 22649 46971 10769 25485 64039 955 14913 19303 11464 9143 9760 9227 17418 17610 15886 514 27581 19677 94745
internal_value=393.082 391.075 398.882 393.026 390.069 401.595 396.904 389.626 394.003 400.479 398.056 395.944 392.248 390.868 402.963 390.777 392.04 398.609 399.869 397.491 393.571 395.537 396.541 392.639 401.104 394.498 394.473 390.068 391.9 389.435
internal_weight=0 722076 249814 245691 476385 105314 144500 306642 108946 58000 65726 78774 136745 169743 47314 157505 12238 33231 29326 32495 58148 46898 31876 64389 28674 50798 1469 92555 72356 214087
internal_count=971890 722076 249814 245691 476385 105314 144500 306642 108946 58000 65726 78774 136745 169743 47314 157505 12238 33231 29326 32495 58148 46898 31876 64389 28674 50798 1469 92555 72356 214087
is_linear=0
shrinkage=1


Tree=1
num_leaves=31
num_cat=0
split_feature=10 10 10 10 1 10 10 10 10 10 10 10 10 224 10 10 1 9 9 1 9 9 9 9 14 48 14 9 10 223
split_gain=1.10866e+11 1.38993e+10 1.31363e+10 1.83015e+09 1.65241e+09 1.57463e+09 1.56712e+09 2.40265e+08 2.27978e+08 2.16555e+08 2.0134e+08 1.87511e+08 1.82604e+08 1.80637e+08 1.65101e+08 1.57513e+08 9.76441e+07 8.4806e+07 7.27089e+07 7.18453e+07 6.35897e+07 6.33359e+07 6.25102e+07 5.23427e+07 5.07771e+07 4.92391e+07 4.79497e+07 4.43772e+07 4.03595e+07 4.01915e+07
threshold=592.99500000000012 223.19500000000002 1067.8100000000002 382.04500000000007 2.9325000000000006 1357.0250000000003 816.16875000000016 44.674696969696981 483.88500000000005 1200.4150000000002 946.57500000000016 717.54000000000008 305.12500000000006 548.28000000000009 1479.9750000000001 158.33750000000003 7.5541313559322036 18.965000000000003 11.585000000000003 7.1407569721115545 31.025000000000002 11.585000000000003 13.085000000000003 54.495000000000012 6.8521784232365155 6.7507203389830517 8.1000206611570267 -0.24499999999999997 87.338333333333352 22.44824652777778
decision_type=2 2 2 2 2 2 2 2 2 2 2 2 2 2 2 2 2 2 2 2 2 2 2 2 2 2 2 2 2 2
left_child=1 4 6 12 7 9 11 29 19 18 17 21 24 15 -7 -6 -15 -8 -4 -5 -12 -2 -13 -11 -3 -14 -10 -18 -9 -1
right_child=2 3 5 8 13 14 10 28 26 23 20 22 25 16 -16 -17 27 -19 -20 -21 -22 -23 -24 -25 -26 -27 -28 -29 -30 -31
leaf_value=-3.734318203167232 2.242609103341128 -1.2713172315873085 6.0286088480869005 0.33288405619483979 -2.5491412180218052 9.1437857895460173 4.0613411506179213 -3.1279892687851123 1.194449041630564 7.4027472263647871 5.1133837966771409 3.142372010551997 -0.50681887633320544 -1.3687613024739123 10.328762703551108 -1.9111874413624088 0.10225525956004078 5.0675292418448254 7.0784145477710716 1.2984948259170268 6.0461871309261221 3.1478577095406957 4.1188281085951894 8.2804280061044864 -0.71350891150115159 0.30778491738868574 1.8571564228625048 3.7465016254631927 -2.6562371797519133 -3.4578535348036268
leaf_weight=118989 37138 60332 10023 49005 97559 21829 23132 63724 34912 11064 16031 22649 45164 10919 25485 64152 955 13132 19303 9143 13431 9760 9227 17610 22370 8879 15886 514 25349 94224
leaf_count=118989 37138 60332 10023 49005 97559 21829 23132 63724 34912 11064 16031 22649 45164 10919 25485 64152 955 13132 19303 9143 13431 9760 9227 17610 22370 8879 15886 514 25349 94224
internal_value=0 -1.98659 5.74214 -0.054666 -2.98296 8.42822 3.78448 -3.42992 0.912273 7.32382 4.92458 2.83323 -0.825035 -2.20691 9.78206 -2.29606 -1.04312 4.4257 6.71961 0.484714 5.53863 2.431 3.42502 7.94177 -1.12044 -0.372983 1.4017 1.37737 -2.99373 -3.61214
internal_weight=0 722076 249814 245691 476385 105314 144500 302286 108946 58000 65726 78774 136745 174099 47314 161711 12388 36264 29326 58148 29462 46898 31876 28674 82702 54043 50798 1469 89073 213213
internal_count=971890 722076 249814 245691 476385 105314 144500 302286 108946 58000 65726 78774 136745 174099 47314 161711 12388 36264 29326 58148 29462 46898 31876 28674 82702 54043 50798 1469 89073 213213
is_linear=0
shrinkage=0.01


Tree=2
num_leaves=31
num_cat=0
split_feature=10 10 10 10 10 10 1 10 10 10 10 10 10 224 9 10 1 9 10 9 9 14 48 1 9 14 10 9 9 8
split_gain=1.08664e+11 1.36338e+10 1.2887e+10 1.67959e+09 1.6621e+09 1.56786e+09 1.56279e+09 2.34541e+08 2.23558e+08 2.04592e+08 2.01141e+08 1.92323e+08 1.79899e+08 1.74693e+08 1.72653e+08 1.43091e+08 9.51345e+07 8.02356e+07 7.94716e+07 7.1347e+07 6.12663e+07 5.79163e+07 5.53395e+07 5.51676e+07 4.59709e+07 4.53391e+07 4.46988e+07 4.30175e+07 4.29965e+07 4.10729e+07
threshold=577.25000000000011 1053.3100000000002 219.98500000000004 1336.5650000000003 382.04500000000007 816.16875000000016 2.9325000000000006 44.674696969696981 717.54000000000008 1200.4150000000002 1479.9750000000001 292.05700000000007 462.66750000000008 548.28000000000009 27.415000000000003 144.0266666666667 7.6121784232365153 11.585000000000003 932.43500000000006 1.8150000000000002 13.085000000000003 7.0509090909090917 7.4017131474103595 6.9903679653679669 58.339183266932274 6.8902191235059762 932.43500000000006 54.495000000000012 -0.24499999999999997 1.7018181818181819
decision_type=2 2 2 2 2 2 2 2 2 2 2 2 2 2 2 2 2 2 2 2 2 2 2 2 2 2 2 2 2 2
left_child=2 5 6 9 11 8 7 -1 19 17 24 25 23 15 18 -8 -15 -3 -7 29 -10 -13 -14 -6 -5 -4 -16 -11 -18 -2
right_child=1 3 4 10 12 14 13 -9 20 27 -12 21 22 16 26 -17 28 -19 -20 -21 -22 -23 -24 -25 -26 -27 -28 -29 -30 -31
leaf_value=-3.5760203214453368 1.9535648383660806 5.9091036645486419 -1.3203397308776539 8.3027913817036829 0.23870816995593253 4.0054228739231466 -2.5768542962313505 -2.96486194377872 3.1109482142044071 7.2732403905308356 10.225474004316265 -0.61548561055584461 1.0527476563758997 -1.3644061614351213 4.9873122380866857 -1.9755454309669389 0.10357290178345097 6.9479959073544579 4.926280527090876 2.980727996342365 4.0776397552275254 0.059652033823477384 1.797109638965998 1.1696468695417546 9.2404525170267409 -0.76319042266527037 5.8584381473808822 8.1183194211065572 3.728132100235118 2.7052838763729348
leaf_weight=213213 31288 11410 56256 7384 39570 22055 82082 89006 22649 9956 25485 46971 41886 10602 10440 76419 930 21334 16297 12931 9227 17418 13115 7586 17913 19728 13516 15250 505 9468
leaf_count=213213 31288 11410 56256 7384 39570 22055 82082 89006 22649 9956 25485 46971 41886 10602 10440 76419 930 21334 16297 12931 9227 17418 13115 7586 17913 19728 13516 15250 505 9468
internal_value=0 5.58269 -2.00274 8.27076 -0.128731 3.6061 -2.96413 -3.39603 2.7274 7.1073 9.59845 -0.834948 0.841676 -2.19874 4.81276 -2.28694 -1.03734 6.58598 4.39672 2.33354 3.39077 -0.432853 1.23024 0.388469 8.96676 -1.17569 5.4788 7.78453 1.37911 2.1282
internal_weight=0 256603 715287 108732 242530 147871 472757 302219 85563 57950 50782 140373 102157 170538 62308 158501 12037 32744 38352 53687 31876 64389 55001 47156 25297 75984 23956 25206 1435 40756
internal_count=971890 256603 715287 108732 242530 147871 472757 302219 85563 57950 50782 140373 102157 170538 62308 158501 12037 32744 38352 53687 31876 64389 55001 47156 25297 75984 23956 25206 1435 40756
is_linear=0
shrinkage=0.01


Tree=3
num_leaves=31
num_cat=0
split_feature=10 10 10 10 10 1 10 10 10 10 10 10 224 10 10 10 1 9 9 9 1 9 9 14 9 14 48 9 10 223
split_gain=1.06502e+11 1.3351e+10 1.26223e+10 1.75729e+09 1.65229e+09 1.58763e+09 1.36853e+09 2.43414e+08 2.19411e+08 2.12594e+08 2.00225e+08 1.75816e+08 1.7058e+08 1.66575e+08 1.58378e+08 1.42654e+08 9.30438e+07 8.14366e+07 6.92188e+07 6.52309e+07 6.48915e+07 6.09569e+07 5.85928e+07 5.11279e+07 5.02558e+07 4.87844e+07 4.76166e+07 4.26372e+07 4.23151e+07 3.98577e+07
threshold=592.99500000000012 223.19500000000002 1084.7460606060608 382.04500000000007 828.27500000000009 2.9725000000000006 1357.0250000000003 44.674696969696981 476.82625000000002 717.54000000000008 961.49500000000012 305.12500000000006 548.28000000000009 1200.4150000000002 1479.9750000000001 158.33750000000003 7.5541313559322036 18.965000000000003 21.375000000000004 42.625000000000007 7.1407569721115545 11.585000000000003 11.585000000000003 8.25222943722944 54.495000000000012 6.8521784232365155 6.7507203389830517 -0.24499999999999997 91.855000000000004 22.44824652777778
decision_type=2 2 2 2 2 2 2 2 2 2 2 2 2 2 2 2 2 2 2 2 2 2 2 2 2 2 2 2 2 2
left_child=1 5 4 11 9 7 13 29 20 21 17 25 15 22 -8 -7 -14 -6 -11 -12 -5 -2 -4 -10 -15 -3 -13 -18 -9 -1
right_child=2 3 6 8 10 12 14 28 23 18 19 26 16 24 -16 -17 27 -19 -20 -21 -22 -23 -24 -25 -26 -27 -28 -29 -30 -31
leaf_value=-3.6599563327359586 2.1984863382487698 -1.2462949905693947 5.9923862726246009 0.29723834472900235 4.0859358630599463 -2.4851751251380696 8.9626200238215219 -3.0489246193074839 1.1486511970403031 3.1484845868509992 5.1575097436316524 -0.49658846192887396 -1.3324836600175507 7.2549552426507136 10.123219933294095 -1.8724872154321974 0.10052465221769524 5.0616061781115835 4.1568354524665043 6.1096521000959045 1.2502337722976768 3.0865713365898757 7.0100830261430964 1.826496654219582 8.114960828808206 -0.69954136940790279 0.3044815965015108 3.6726117588921743 -2.5568067183255709 -3.3852449376237468
leaf_weight=119342 37138 60332 8467 46029 22664 93466 21829 69178 38868 26418 16873 45164 10769 11064 25485 64039 955 13742 9171 12545 8458 9760 17048 15591 17610 22370 8879 514 23377 94745
leaf_count=119342 37138 60332 8467 46029 22664 93466 21829 69178 38868 26418 16873 45164 10769 11064 25485 64039 955 13742 9171 12545 8458 9760 17048 15591 17610 22370 8879 514 23377 94745
internal_value=0 -1.9471 5.628 -0.0536686 3.76843 -2.92362 8.34511 -3.35313 0.893826 2.82555 4.95 -0.808546 -2.1477 7.26012 9.58776 -2.23607 -1.01044 4.45422 3.40833 5.56354 0.445172 2.38331 6.67237 1.34271 7.78312 -1.0984 -0.364977 1.35039 -2.92463 -3.53838
internal_weight=0 722076 249814 245691 148311 476385 101503 306642 108946 82487 65824 136745 169743 54189 47314 157505 12238 36406 35589 29418 54487 46898 25515 54459 28674 82702 54043 1469 92555 214087
internal_count=971890 722076 249814 245691 148311 476385 101503 306642 108946 82487 65824 136745 169743 54189 47314 157505 12238 36406 35589 29418 54487 46898 25515 54459 28674 82702 54043 1469 92555 214087
is_linear=0
shrinkage=0.01


Tree=4
num_leaves=31
num_cat=0
split_feature=10 10 10 10 10 10 1 10 10 10 10 10 10 224 9 10 1 9 10 9 14 48 1 9 9 10 9 14 9 10
split_gain=1.04386e+11 1.30979e+10 1.23788e+10 1.61365e+09 1.5959e+09 1.50556e+09 1.50121e+09 2.25405e+08 2.14593e+08 1.9675e+08 1.93001e+08 1.85186e+08 1.73042e+08 1.67812e+08 1.65978e+08 1.37853e+08 9.1393e+07 7.91089e+07 7.39515e+07 6.73527e+07 5.59628e+07 5.34335e+07 5.30154e+07 4.97911e+07 4.84158e+07 4.61948e+07 4.49088e+07 4.35407e+07 4.1306e+07 4.02347e+07
threshold=577.25000000000011 1053.3100000000002 219.98500000000004 1336.5650000000003 382.04500000000007 816.16875000000016 2.9325000000000006 43.241000000000007 687.35500000000013 1182.6800000000001 1479.9750000000001 292.05700000000007 462.66750000000008 548.28000000000009 18.965000000000003 144.0266666666667 7.6121784232365153 13.085000000000003 946.57500000000016 11.585000000000003 7.0509090909090917 7.4017131474103595 6.9903679653679669 6.1350000000000007 1.8150000000000002 932.43500000000006 58.339183266932274 6.8902191235059762 -0.24499999999999997 84.965000000000018
decision_type=2 2 2 2 2 2 2 2 2 2 2 2 2 2 2 2 2 2 2 2 2 2 2 2 2 2 2 2 2 2
left_child=2 5 6 9 11 8 7 -1 24 19 26 27 22 15 18 -8 -15 -10 -7 -3 -13 -14 -6 -11 -2 -16 -5 -4 -18 -9
right_child=1 3 4 10 12 14 13 29 17 23 -12 20 21 16 25 -17 28 -19 -20 -21 -22 -23 -24 -25 -26 -27 -28 -29 -30 -31
leaf_value=-3.5093103408441704 1.9926978363678007 5.7351952632408576 -1.2943613093216673 8.1327522980430658 0.23334878027170994 3.9400106276951301 -2.5260141786886834 -3.0524153273501469 2.9095982867116068 6.8330383289016243 10.02198763978811 -0.60321327581919515 1.0313228587760903 -1.3372836528519734 4.8546203689947882 -1.935813438647048 0.10153193599818856 3.872567923151172 4.876503315999698 6.7418337536745057 0.060440296204194971 1.7627540116130147 1.1459480219266989 7.7897701733979829 2.7916412234325736 5.7047949698816032 9.0595183403812864 -0.74837378519681641 3.6541246413263946 -2.5957771761384807
leaf_weight=210098 33189 10309 56256 7384 39570 23132 82082 64609 30733 7263 25485 46971 41886 10602 11464 76419 930 11809 13269 18710 17418 13115 7586 21668 9832 14443 17913 19728 505 27512
leaf_count=210098 33189 10309 56256 7384 39570 23132 82082 64609 30733 7263 25485 46971 41886 10602 11464 76419 930 11809 13269 18710 17418 13115 7586 21668 9832 14443 17913 19728 505 27512
internal_value=0 5.47171 -1.96293 8.10641 -0.12624 3.53436 -2.90517 -3.32847 2.67329 6.96602 9.40778 -0.818251 0.824645 -2.15501 4.7168 -2.24146 -1.01671 3.1769 4.28138 6.38423 -0.423687 1.20573 0.380159 7.54959 2.17529 5.32859 8.789 -1.1526 1.35175 -2.91604
internal_weight=0 256603 715287 108732 242530 147871 472757 302219 85563 57950 50782 140373 102157 170538 62308 158501 12037 42542 36401 29019 64389 55001 47156 28931 43021 25907 25297 75984 1435 92121
internal_count=971890 256603 715287 108732 242530 147871 472757 302219 85563 57950 50782 140373 102157 170538 62308 158501 12037 42542 36401 29019 64389 55001 47156 28931 43021 25907 25297 75984 1435 92121
is_linear=0
shrinkage=0.01


Tree=5
num_leaves=31
num_cat=0
split_feature=10 10 10 10 10 1 10 10 10 10 10 10 224 10 10 10 1 9 1 9 9 9 9 9 14 9 48 223 14 9
split_gain=1.02309e+11 1.28245e+10 1.21266e+10 1.68745e+09 1.5867e+09 1.52521e+09 1.31476e+09 2.34183e+08 2.11352e+08 2.05217e+08 1.92241e+08 1.6928e+08 1.63884e+08 1.59908e+08 1.52402e+08 1.37396e+08 8.94024e+07 7.8104e+07 6.65468e+07 6.44201e+07 6.28707e+07 6.15902e+07 5.6269e+07 4.84894e+07 4.68698e+07 4.66309e+07 4.60478e+07 4.49629e+07 4.47135e+07 4.09655e+07
threshold=592.99500000000012 223.19500000000002 1084.7460606060608 382.04500000000007 828.27500000000009 2.9725000000000006 1357.0250000000003 49.392000000000003 483.88500000000005 727.73500000000013 961.49500000000012 305.12500000000006 548.28000000000009 1200.4150000000002 1495.7150000000004 158.33750000000003 7.5541313559322036 18.965000000000003 6.9903679653679669 10.065000000000003 42.625000000000007 21.375000000000004 11.585000000000003 58.339183266932274 6.8521784232365155 78.145000000000024 6.7507203389830517 23.377518939393941 8.1000206611570267 -0.24499999999999997
decision_type=2 2 2 2 2 2 2 2 2 2 2 2 2 2 2 2 2 2 2 2 2 2 2 2 2 2 2 2 2 2
left_child=1 5 4 11 9 7 13 27 18 19 17 24 15 22 25 -7 -14 -6 -5 -2 -12 -11 -4 -15 -3 -8 -13 -1 -10 -18
right_child=2 3 6 8 10 12 14 -9 28 21 20 26 16 23 -16 -17 29 -19 -20 -21 -22 -23 -24 -25 -26 -27 -28 -29 -30 -31
leaf_value=-3.5829258786755371 2.182249006083 -1.2217654003661025 5.8736389161597975 0.31296850076692062 4.0048169837248775 -2.4360356478401015 8.2664147743974148 -2.8319245852992885 1.1469242488256186 3.1331391890214837 5.053848176566297 -0.48656628954749465 -1.3059089544032187 7.1257292685777021 10.008579890435975 -1.8347437611870305 0.098825235784990015 4.9603153020564239 1.2211733490756407 3.0491592301378816 5.9886059957590181 4.1291468098184021 6.8709506567852534 7.964781609352257 -0.68584840807106862 9.1742324209506627 0.30119712976523788 -3.2981245110013693 1.7868774392546898 3.6001840170464163
leaf_weight=122899 39390 60332 8467 48469 22664 93466 8505 82763 34912 23733 16873 45164 10769 11499 21905 64039 955 13742 9679 10956 12545 8408 17048 17175 22370 16904 8879 100980 15886 514
leaf_count=122899 39390 60332 8467 48469 22664 93466 8505 82763 34912 23733 16873 45164 10769 11499 21905 64039 955 13742 9679 10956 12545 8408 17048 17175 22370 16904 8879 100980 15886 514
internal_value=0 -1.90839 5.5161 -0.0526603 3.6934 -2.86546 8.17933 -3.28644 0.875817 2.76943 4.85128 -0.792387 -2.10495 7.11587 9.39732 -2.19156 -0.990232 4.36548 0.464143 2.3709 5.45247 3.39369 6.54 7.6283 -1.07681 8.87036 -0.357141 -3.45447 1.34706 1.32394
internal_weight=0 722076 249814 245691 148311 476385 101503 306642 108946 82487 65824 136745 169743 54189 47314 157505 12238 36406 58148 50346 29418 32141 25515 28674 82702 25409 54043 223879 50798 1469
internal_count=971890 722076 249814 245691 148311 476385 101503 306642 108946 82487 65824 136745 169743 54189 47314 157505 12238 36406 58148 50346 29418 32141 25515 28674 82702 25409 54043 223879 50798 1469
is_linear=0
shrinkage=0.01


Tree=6
num_leaves=31
num_cat=0
split_feature=10 10 10 10 10 1 10 10 10 10 10 9 10 224 10 10 1 10 9 9 14 9 48 1 10 8 223 9 14 9
split_gain=1.00277e+11 1.25845e+10 1.18907e+10 1.69132e+09 1.53237e+09 1.44216e+09 1.3106e+09 2.30613e+08 2.16694e+08 1.80679e+08 1.78311e+08 1.71246e+08 1.6666e+08 1.61199e+08 1.53496e+08 1.32791e+08 8.77972e+07 8.32874e+07 6.51756e+07 6.08872e+07 5.40753e+07 5.16709e+07 5.15794e+07 5.09236e+07 4.75379e+07 4.74801e+07 4.64318e+07 4.56774e+07 4.18128e+07 3.9682e+07
threshold=577.25000000000011 1037.7850000000001 219.98500000000004 1315.1950000000004 382.04500000000007 2.9325000000000006 791.75500000000011 1460.1950000000004 43.241000000000007 1166.0100000000002 292.05700000000007 18.965000000000003 462.66750000000008 548.28000000000009 687.35500000000013 144.0266666666667 7.6121784232365153 918.36500000000012 11.585000000000003 18.965000000000003 7.0509090909090917 6.1350000000000007 7.4017131474103595 7.1407569721115545 904.6350000000001 2.5605465587044542 1422.0191666666669 58.339183266932274 6.8902191235059762 -0.24499999999999997
decision_type=2 2 2 2 2 2 2 2 2 2 2 2 2 2 2 2 2 2 2 2 2 2 2 2 2 2 2 2 2 2
left_child=2 6 5 9 10 8 14 27 -1 18 28 17 23 15 25 -7 -15 -8 -3 -16 -12 -11 -14 -6 -13 -2 -9 -5 -4 -18
right_child=1 3 4 7 12 13 11 26 -10 21 20 24 22 16 19 -17 29 -19 -20 -21 -22 -23 -24 -25 -26 -27 -28 -29 -30 -31
leaf_value=-3.4395838663208123 1.9413794565926208 5.5076764463672632 -1.2688899362182182 7.8036186011715269 0.23240632215244852 -2.4761344041139082 3.6650075062986303 9.1626565655559098 -2.8578911395661004 6.5242913966905336 -0.59118648038114818 4.5609791575740779 1.0106166523793751 -1.3106801001896522 2.7876665724787011 -1.8968712071768801 0.099528357917262653 4.5972367240619496 6.488308242758583 3.7606070045662019 0.061179560233043988 7.4920877548706999 1.7292457318671368 1.1466624244346046 5.4308560029163973 2.7119934473528304 10.015853040753736 8.7220120142709767 -0.7338458125260624 3.5815816075707425
leaf_weight=210098 32407 10777 56256 7853 39968 82082 24162 9408 92121 7437 46971 10597 41886 10602 26674 76419 930 15884 18263 8476 17418 21365 13115 7188 15430 10614 19808 17448 19728 505
leaf_count=210098 32407 10777 56256 7853 39968 82082 24162 9408 92121 7437 46971 10597 41886 10602 26674 76419 930 15884 18263 8476 17418 21365 13115 7188 15430 10614 19808 17448 19728 505
internal_value=0 5.36292 -1.9239 7.8721 -0.123788 -2.84738 3.40839 9.13586 -3.26227 6.68099 -0.801885 4.44519 0.80798 -2.11213 2.53205 -2.19685 -0.996475 4.03477 6.12439 3.02228 -0.414714 7.24219 1.18197 0.371767 5.07668 2.1315 9.74111 8.43696 -1.12997 1.32492
internal_weight=0 256603 715287 112359 242530 472757 144244 54517 302219 57842 140373 66073 102157 170538 78171 158501 12037 40046 29040 35150 64389 28802 55001 47156 26027 43021 29216 25301 75984 1435
internal_count=971890 256603 715287 112359 242530 472757 144244 54517 302219 57842 140373 66073 102157 170538 78171 158501 12037 40046 29040 35150 64389 28802 55001 47156 26027 43021 29216 25301 75984 1435
is_linear=0
shrinkage=0.01


Tree=7
num_leaves=31
num_cat=0
split_feature=10 10 10 10 10 1 10 10 10 10 10 10 224 10 10 10 1 9 9 1 9 9 9 14 9 9 223 14 8 9
split_gain=9.82818e+10 1.23188e+10 1.16509e+10 1.62035e+09 1.52434e+09 1.46524e+09 1.26341e+09 2.25338e+08 2.03386e+08 1.97287e+08 1.84715e+08 1.62994e+08 1.57451e+08 1.53587e+08 1.46744e+08 1.32411e+08 8.59038e+07 6.68544e+07 6.6406e+07 6.40777e+07 6.25352e+07 5.9185e+07 5.4025e+07 5.29992e+07 4.67245e+07 4.50018e+07 4.38792e+07 4.31434e+07 3.94057e+07 3.93593e+07
threshold=592.99500000000012 223.19500000000002 1084.7460606060608 382.04500000000007 828.27500000000009 2.9725000000000006 1357.0250000000003 49.392000000000003 483.88500000000005 727.73500000000013 946.57500000000016 292.05700000000007 548.28000000000009 1200.4150000000002 1495.7150000000004 161.20500000000001 7.5541313559322036 42.625000000000007 18.965000000000003 7.2402118644067803 10.065000000000003 21.375000000000004 11.585000000000003 7.0509090909090917 54.495000000000012 78.145000000000024 22.44824652777778 8.1000206611570267 2.3202044609665431 -0.24499999999999997
decision_type=2 2 2 2 2 2 2 2 2 2 2 2 2 2 2 2 2 2 2 2 2 2 2 2 2 2 2 2 2 2
left_child=1 5 4 11 9 7 13 26 19 20 18 -3 15 22 25 -7 -14 -12 -6 -5 28 -11 -4 -13 -15 -8 -1 -10 -2 -18
right_child=2 3 6 8 10 12 14 -9 27 21 17 23 16 24 -16 -17 29 -19 -20 -21 -22 -23 -24 -25 -26 -27 -28 -29 -30 -31
leaf_value=-3.5164111363993902 1.9711983294624864 -1.1022365840211938 5.7571038272668886 0.31389197369096317 3.8747272576044907 -2.3783464306594979 8.1004823816872431 -2.7752297335463916 1.1238376662886329 3.0708802947850171 4.8982320133749679 -0.58527461487064603 -1.2798634731573628 6.9673396350918519 9.8106772426386666 -1.7830728425535973 0.09715646564149108 5.8068059901907798 4.8114544727198911 1.2390983013898724 2.9917203085245814 4.0472468736759257 6.7343268650006598 0.06056777255901144 7.7965805949655742 8.9923012212346194 -3.2357247669407121 1.7524540881613526 2.7388301785228459 3.5291894288911894
leaf_weight=119783 30852 72356 8467 49323 20582 96541 8505 82763 34912 23733 19340 46971 10769 11064 21905 60964 955 13933 11969 8825 10956 8408 17048 17418 17610 16904 104096 15886 8538 514
leaf_count=119783 30852 72356 8467 49323 20582 96541 8505 82763 34912 23733 19340 46971 10769 11064 21905 60964 955 13933 11969 8825 10956 8408 17048 17418 17610 16904 104096 15886 8538 514
internal_value=0 -1.87044 5.40644 -0.0516802 3.61985 -2.80846 8.01691 -3.22108 0.85815 2.71421 4.75474 -0.77655 -2.06304 6.97442 9.21088 -2.14794 -0.970425 5.2787 4.21916 0.454309 2.32346 3.3263 6.41004 -0.410566 7.47661 8.69379 -3.3859 1.32042 2.13759 1.29802
internal_weight=0 722076 249814 245691 148311 476385 101503 306642 108946 82487 65824 136745 169743 54189 47314 157505 12238 33273 32551 58148 50346 32141 25515 64389 28674 25409 223879 50798 39390 1469
internal_count=971890 722076 249814 245691 148311 476385 101503 306642 108946 82487 65824 136745 169743 54189 47314 157505 12238 33273 32551 58148 50346 32141 25515 64389 28674 25409 223879 50798 39390 1469
is_linear=0
shrinkage=0.01


Tree=8
num_leaves=31
num_cat=0
split_feature=10 10 10 10 10 1 10 10 10 10 10 9 10 14 10 10 10 258 9 9 48 9 48 1 8 10 223 9 14 10
split_gain=9.63293e+10 1.20912e+10 1.14218e+10 1.62523e+09 1.47138e+09 1.3855e+09 1.25865e+09 2.21837e+08 1.97139e+08 1.73248e+08 1.71215e+08 1.64473e+08 1.60521e+08 1.60295e+08 1.47809e+08 1.31859e+08 7.9853e+07 7.82112e+07 6.26299e+07 5.85145e+07 5.20105e+07 4.98233e+07 4.97849e+07 4.89885e+07 4.57805e+07 4.57082e+07 4.52762e+07 4.39214e+07 4.09389e+07 3.69379e+07
threshold=577.25000000000011 1037.7850000000001 219.98500000000004 1315.1950000000004 382.04500000000007 2.8950000000000005 791.75500000000011 1460.1950000000004 43.241000000000007 1166.0100000000002 292.05700000000007 18.965000000000003 462.66750000000008 6.1309311740890697 687.35500000000013 141.2942366412214 918.36500000000012 760.03500000000008 11.585000000000003 18.965000000000003 7.150129870129871 6.1350000000000007 7.4017131474103595 6.9903679653679669 2.5605465587044542 904.6350000000001 1422.0191666666669 58.339183266932274 6.8521784232365155 87.338333333333352
decision_type=2 2 2 2 2 2 2 2 2 2 2 2 2 2 2 2 2 2 2 2 2 2 2 2 2 2 2 2 2 2
left_child=2 6 5 9 10 8 14 27 -1 18 28 16 23 15 24 -7 -8 -15 -3 -16 -12 -11 -14 -6 -2 -13 -9 -5 -4 -10
right_child=1 3 4 7 12 13 11 26 29 21 20 25 22 17 19 -17 -18 -19 -20 -21 -22 -23 -24 -25 -26 -27 -28 -29 -30 -31
leaf_value=-3.3731199728937726 1.901917722640051 5.3986121268094092 -1.2467170553561382 7.6481085850948682 0.22242259859900176 -2.4978494804596418 3.592223093080043 8.9770410820578235 -2.9319475601578393 6.3927871831719782 -0.51731319847887114 4.4697012126073421 0.99034274660219856 -1.4452901584214439 2.7327303016572784 -1.9032748332797615 4.5050296682195921 1.9822399625722429 6.3599016924587968 3.6865246057802916 0.32221508642612584 7.3431236470278503 1.6963603671994139 1.0996782081095109 2.6586143171663719 5.3226730800388848 9.8195540943053317 8.5486765406493586 -0.72076590512211525 -2.4675348614212114
leaf_weight=209212 32407 10777 55849 7853 39570 77009 24162 9408 65371 7437 55887 10597 41886 24942 26674 72333 15884 684 18263 8476 8502 21365 13115 7586 10614 15430 19808 17448 20135 23206
leaf_count=209212 32407 10777 55849 7853 39570 77009 24162 9408 65371 7437 55887 10597 41886 24942 26674 72333 15884 684 18263 8476 8502 21365 13115 7586 10614 15430 19808 17448 20135 23206
internal_value=0 5.2563 -1.88565 7.71581 -0.121385 -2.79074 3.34046 8.95463 -3.2057 6.5482 -0.78585 4.35651 0.791651 -2.08449 2.48166 -2.20987 3.95428 -1.3538 6.00316 2.96273 -0.406461 7.09774 1.15869 0.363547 2.08861 4.97538 9.54825 8.26916 -1.10735 -2.81028
internal_weight=0 256603 715287 112359 242530 472757 144244 54517 297789 57842 140373 66073 102157 174968 78171 149342 40046 25626 29040 35150 64389 28802 55001 47156 43021 26027 29216 25301 75984 88577
internal_count=971890 256603 715287 112359 242530 472757 144244 54517 297789 57842 140373 66073 102157 174968 78171 149342 40046 25626 29040 35150 64389 28802 55001 47156 43021 26027 29216 25301 75984 88577
is_linear=0
shrinkage=0.01


Tree=9
num_leaves=31
num_cat=0
split_feature=10 10 10 10 10 1 10 10 10 10 14 9 10 10 10 10 221 10 1 9 9 9 10 223 9 14 9 1 1 8
split_gain=9.44127e+10 1.18337e+10 1.11938e+10 1.5032e+09 1.46487e+09 1.4611e+09 1.21406e+09 2.29057e+08 2.18547e+08 1.95839e+08 1.54697e+08 1.53773e+08 1.47516e+08 1.47045e+08 1.41296e+08 1.20424e+08 7.37294e+07 7.12605e+07 6.82131e+07 6.3169e+07 6.08677e+07 5.18695e+07 4.64894e+07 4.5295e+07 4.50197e+07 4.46094e+07 4.34307e+07 4.31642e+07 4.1619e+07 3.86017e+07
threshold=592.99500000000012 224.39125000000001 1084.7460606060608 382.04500000000007 840.19500000000005 3.0150000000000001 1357.0250000000003 51.041666666666671 727.73500000000013 491.55000000000007 6.3704858299595157 31.025000000000002 1200.4150000000002 305.12500000000006 1495.7150000000004 158.33750000000003 -329.50499999999994 946.57500000000016 7.2402118644067803 21.375000000000004 1.8150000000000002 11.585000000000003 961.49500000000012 23.377518939393941 58.339183266932274 6.8521784232365155 78.145000000000024 6.6107792207792215 7.1918181818181823 0.96026315789473693
decision_type=2 2 2 2 2 2 2 2 2 2 2 2 2 2 2 2 2 2 2 2 2 2 2 2 2 2 2 2 2 2
left_child=1 5 4 13 8 7 12 23 20 18 15 17 21 25 26 -7 28 -6 -5 -10 29 -4 -13 -1 -14 -3 -8 -15 -12 -2
right_child=2 3 6 9 11 10 14 -9 19 -11 16 22 24 27 -16 -17 -18 -19 -20 -21 -22 -23 -24 -25 -26 -27 -28 -29 -30 -31
leaf_value=-3.4423213775578261 1.8848725782441076 -1.1611688394410915 5.6428853702241053 0.33090306960665516 3.8889762060742328 -2.3621887556965366 7.9378698559670786 -2.6996254488723084 3.0485093135355208 1.3284144700377325 -0.48597218035529643 4.8400121316227009 6.8436907930852682 -0.45359735463314288 9.6166867153617908 -1.7798343359140534 -1.433482610352721 4.7641370184207572 1.2505535343589307 4.0044410515806339 2.8756066279373771 6.6004155660671335 5.7058401418082347 -3.1593965403475641 7.6521664960880642 -0.62309997896077807 8.813983043954094 0.37032948138839833 2.3076894450341108 2.6142991928999351
leaf_weight=123438 27833 58025 8467 52508 19486 83756 8505 83212 26187 46909 1700 11202 11499 46682 21905 61643 21075 17806 9529 9392 12700 17048 13892 104482 17175 20979 16904 7361 777 9813
leaf_count=123438 27833 58025 8467 52508 19486 83756 8505 83212 26187 46909 1700 11202 11499 46682 21905 61643 21075 17806 9529 9392 12700 17048 13892 104482 17175 20979 16904 7361 777 9813
internal_value=0 -1.83326 5.29895 -0.030131 3.54776 -2.74215 7.8577 -3.14868 2.70093 0.84084 -1.99351 4.71411 6.83577 -0.743329 9.02812 -2.1153 -1.24167 4.30684 0.472163 3.30085 2.27696 6.28266 5.31933 -3.31262 7.32795 -1.01829 8.52073 -0.341373 0.39036 2.07501
internal_weight=0 722076 249814 241993 148311 480083 101503 311132 85925 108946 168951 62386 54189 133047 47314 145399 23552 37292 62037 35579 50346 25515 25094 227920 28674 79004 25409 54043 2477 37646
internal_count=971890 722076 249814 241993 148311 480083 101503 311132 85925 108946 168951 62386 54189 133047 47314 145399 23552 37292 62037 35579 50346 25515 25094 227920 28674 79004 25409 54043 2477 37646
is_linear=0
shrinkage=0.01


Tree=10
num_leaves=31
num_cat=0
split_feature=10 10 10 10 10 1 10 10 10 10 10 9 10 1 10 229 10 9 9 10 14 48 9 1 223 10 9 10 12 14
split_gain=9.25371e+10 1.16169e+10 1.09719e+10 1.56181e+09 1.4127e+09 1.33133e+09 1.20911e+09 2.13395e+08 1.89885e+08 1.66158e+08 1.64776e+08 1.58051e+08 1.54798e+08 1.54636e+08 1.42597e+08 1.2212e+08 7.65463e+07 6.48582e+07 6.01306e+07 5.97357e+07 5.06248e+07 4.85164e+07 4.80584e+07 4.7087e+07 4.41507e+07 4.39084e+07 4.22248e+07 4.09599e+07 4.01207e+07 3.93722e+07
threshold=577.25000000000011 1037.7850000000001 219.98500000000004 1315.1950000000004 382.04500000000007 2.8950000000000005 791.75500000000011 1460.1950000000004 39.018000000000008 1166.0100000000002 292.05700000000007 18.965000000000003 462.66750000000008 3.7725000000000004 667.29000000000008 261.57166666666672 918.36500000000012 13.085000000000003 11.585000000000003 122.58500000000002 7.0509090909090917 7.4548484848484859 6.1350000000000007 6.9903679653679669 1422.0191666666669 904.6350000000001 58.339183266932274 82.722500000000011 3.4509297520661169 6.971017316017317
decision_type=2 2 2 2 2 2 2 2 2 2 2 2 2 2 2 2 2 2 2 2 2 2 2 2 2 2 2 2 2 2
left_child=2 6 5 9 10 8 14 26 -1 18 29 16 23 19 -2 -15 -8 -16 -3 -7 -12 -14 -11 -6 -9 -13 -5 -10 -17 -4
right_child=1 3 4 7 12 13 11 24 27 22 20 25 21 15 17 28 -18 -19 -20 -21 -22 -23 -24 -25 -26 -27 -28 -29 -30 -31
leaf_value=-3.3189951618801956 1.9657776476692659 5.2918562317319289 -1.2167524061002628 7.4957537724436518 0.21688918816733005 -2.5457454840804741 3.5209817545047493 8.7951453716252121 -2.9093861831174967 6.2638121102679172 -0.5686401707717309 4.380806251548198 0.97281067778931185 -1.8039040837504035 2.591124519793047 -0.52245532927147653 4.414688995215311 3.4803407540925719 6.2337698018192524 -2.0427381824325099 0.062569507073693575 1.6763331443705933 7.1971649583869644 1.0769505683784275 9.6271203475237286 5.2168161860012958 8.3787566268340203 -2.4546459594801919 1.9282955994897959 -0.69078110327313857
leaf_weight=199696 35654 10777 57018 7853 39570 51546 24162 9408 70554 7437 46971 10597 42236 76225 31416 2753 15884 11101 18263 43562 17418 12765 21365 7586 19808 15430 17448 27539 882 18966
leaf_count=199696 35654 10777 57018 7853 39570 51546 24162 9408 70554 7437 46971 10597 42236 76225 31416 2753 15884 11101 18263 43562 17418 12765 21365 7586 19808 15430 17448 27539 882 18966
internal_value=0 5.1518 -1.84816 7.56259 -0.118995 -2.73525 3.27391 8.77699 -3.14201 6.41798 -0.770076 4.26976 0.77565 -2.04294 2.43218 -1.71851 3.87547 2.82329 5.88422 -2.31535 -0.39789 1.13609 6.95616 0.355248 9.35921 4.87643 8.10469 -2.78172 0.0721973 -1.08547
internal_weight=0 256603 715287 112359 242530 472757 144244 54517 297789 57842 140373 66073 102157 174968 78171 79860 40046 42517 29040 95108 64389 55001 28802 47156 29216 26027 25301 98093 3635 75984
internal_count=971890 256603 715287 112359 242530 472757 144244 54517 297789 57842 140373 66073 102157 174968 78171 79860 40046 42517 29040 95108 64389 55001 28802 47156 29216 26027 25301 98093 3635 75984
is_linear=0
shrinkage=0.01


Tree=11
num_leaves=31
num_cat=0
split_feature=10 10 10 10 1 10 10 10 10 10 14 9 10 10 10 10 221 10 1 9 9 9 14 10 9 223 9 1 14 10
split_gain=9.06958e+10 1.17044e+10 1.04246e+10 1.52423e+09 1.40348e+09 1.3249e+09 1.16664e+09 2.20375e+08 2.10789e+08 1.87868e+08 1.50029e+08 1.47694e+08 1.41958e+08 1.41686e+08 1.36051e+08 1.13074e+08 7.49382e+07 6.8314e+07 6.56831e+07 6.07585e+07 5.62076e+07 4.97991e+07 4.81159e+07 4.46877e+07 4.33688e+07 4.23912e+07 4.19155e+07 4.18114e+07 3.98444e+07 3.66541e+07
threshold=602.03000000000009 224.39125000000001 1084.7460606060608 382.04500000000007 3.0150000000000001 840.19500000000005 1357.0250000000003 49.392000000000003 491.55000000000007 727.73500000000013 6.1309311740890697 31.025000000000002 314.70500000000004 1200.4150000000002 1495.7150000000004 161.20500000000001 -329.50499999999994 946.57500000000016 7.2402118644067803 21.375000000000004 1.8150000000000002 11.585000000000003 6.8902191235059762 961.49500000000012 54.495000000000012 18.522638888889009 78.145000000000024 7.1918181818181823 8.25222943722944 104.35300000000001
decision_type=2 2 2 2 2 2 2 2 2 2 2 2 2 2 2 2 2 2 2 2 2 2 2 2 2 2 2 2 2 2
left_child=1 4 5 12 7 9 13 25 18 20 15 17 22 21 26 -6 27 -7 -5 -11 -2 -4 -3 -13 -15 -1 -8 -12 -10 -9
right_child=2 3 6 8 10 11 14 29 28 19 16 23 -14 24 -16 -17 -18 -19 -20 -21 -22 -23 -24 -25 -26 -27 -28 -29 -30 -31
leaf_value=-3.3951938175015863 2.0674850180397444 -1.1093645388389477 5.530940065105705 0.32346100088319873 -2.3162922669463373 3.8121035364733014 7.7785078630217521 -2.7551413556289712 1.1506142707412979 2.9881104472161759 -0.49259047649563609 4.7435734010249284 -0.28477175093228246 6.6915934774380883 9.4265313855284187 -1.7385489711042015 -1.4481642434954372 4.6689795925530726 1.2258958385258161 3.9256259815534498 2.8619436211508349 6.469164738898991 -0.57183739894328178 5.5924584743017567 7.4905016902683137 -3.1202210243275772 8.6392024446876476 2.2779571676561114 1.7665730600209077 -2.2257352256406939
leaf_weight=106907 34741 63726 8467 52508 84911 19486 8505 70264 35652 26187 1822 11202 46777 11064 21905 56362 25079 17806 9529 9392 11975 17048 22544 13892 17610 117892 16904 777 14887 16069
leaf_count=106907 34741 63726 8467 52508 84911 19486 8505 70264 35652 26187 1822 11202 46777 11064 21905 56362 25079 17806 9529 9392 11975 17048 22544 13892 17610 117892 16904 777 14887 16069
internal_value=0 -1.77924 5.24488 -0.0037501 -2.68763 3.52129 7.70166 -3.08606 0.852638 2.6881 -1.9539 4.62037 -0.728371 6.69989 8.849 -2.0858 -1.28066 4.22124 0.462077 3.23559 2.27113 6.15782 -0.968898 5.21351 7.18224 -3.25099 8.35111 0.335696 1.33205 -2.6566
internal_weight=0 725706 246184 245623 480083 144681 101503 311132 112576 82295 168951 62386 133047 54189 47314 141273 27678 37292 62037 35579 46716 25515 86270 25094 28674 224799 25409 2599 50539 86333
internal_count=971890 725706 246184 245623 480083 144681 101503 311132 112576 82295 168951 62386 133047 54189 47314 141273 27678 37292 62037 35579 46716 25515 86270 25094 28674 224799 25409 2599 50539 86333
is_linear=0
shrinkage=0.01


Tree=12
num_leaves=31
num_cat=0
split_feature=10 10 10 10 10 1 10 10 10 10 10 9 14 10 10 10 258 10 9 9 1 1 9 223 10 48 10 9 14 9
split_gain=8.88954e+10 1.11609e+10 1.05393e+10 1.50086e+09 1.35631e+09 1.27909e+09 1.16136e+09 2.05273e+08 1.8371e+08 1.82784e+08 1.59353e+08 1.5188e+08 1.49611e+08 1.37255e+08 1.28444e+08 1.21589e+08 7.4546e+07 7.33755e+07 6.23605e+07 5.77302e+07 5.07539e+07 4.88764e+07 4.63414e+07 4.30545e+07 4.2477e+07 4.2197e+07 4.21799e+07 4.05993e+07 3.78341e+07 3.50359e+07
threshold=577.25000000000011 1037.7850000000001 219.98500000000004 1315.1950000000004 370.82000000000005 2.8950000000000005 791.75500000000011 1460.1950000000004 455.88500000000005 36.540227272727279 1166.0100000000002 18.965000000000003 6.0515789473684221 667.29000000000008 292.05700000000007 141.2942366412214 760.03500000000008 918.36500000000012 13.085000000000003 11.585000000000003 7.2402118644067803 6.742446808510639 6.1350000000000007 1422.0191666666669 82.722500000000011 6.7507203389830517 904.6350000000001 58.339183266932274 6.971017316017317 11.585000000000003
decision_type=2 2 2 2 2 2 2 2 2 2 2 2 2 2 2 2 2 2 2 2 2 2 2 2 2 2 2 2 2 2
left_child=2 6 5 10 14 9 13 27 21 -1 19 17 15 29 28 -7 -14 -8 -15 -3 -10 -6 -12 -9 -11 -16 -13 -5 -4 -2
right_child=1 3 4 7 8 12 11 23 20 24 22 26 16 18 25 -17 -18 -19 -20 -21 -22 -23 -24 -25 -26 -27 -28 -29 -30 -31
leaf_value=-3.2612500770558257 1.7774398035921015 5.1872203100352605 -1.1929846021739263 7.3463984106392459 0.12536403540855134 -2.4045548338546183 3.4511525490698207 8.6168948301977046 0.94182188247398002 -2.8628175144996044 6.137533726006791 4.2936755906742476 -1.4041350951262701 2.5398681670155634 -0.55326818551644541 -1.8306103532736302 1.9395544322052893 4.3261540307856965 3.4117939636104011 6.1101423215654602 1.6760611049699035 0.94069058382968507 7.0540617448952734 9.4384762943002833 -2.4048957692669943 0.19676269562166052 5.113065456902139 8.2122376937901205 -0.67738933492031184 2.5866950465710814
leaf_weight=193645 29099 10777 57018 7853 41973 76484 24162 9408 46803 76605 7437 10597 26461 31416 48187 71339 684 15884 11101 18263 11785 8914 21365 19808 27539 8884 15430 17448 18966 6555
leaf_count=193645 29099 10777 57018 7853 41973 76484 24162 9408 46803 76605 7437 10597 26461 31416 48187 71339 684 15884 11101 18263 11785 8914 21365 19808 27539 8884 15430 17448 18966 6555
internal_value=0 5.04941 -1.81143 7.41241 -0.116693 -2.68085 3.20875 8.60288 0.707739 -3.07956 6.29036 4.18474 -2.00226 2.3838 -0.795019 -2.12757 -1.31988 3.79822 2.76752 5.76764 1.08951 0.268187 6.8174 9.17391 -2.74173 -0.436514 4.77945 7.9435 -1.06429 1.92622
internal_weight=0 256603 715287 112359 242530 472757 144244 54517 109475 297789 57842 66073 174968 78171 133055 147823 27145 40046 42517 29040 58588 50887 28802 29216 104144 57071 26027 25301 75984 35654
internal_count=971890 256603 715287 112359 242530 472757 144244 54517 109475 297789 57842 66073 174968 78171 133055 147823 27145 40046 42517 29040 58588 50887 28802 29216 104144 57071 26027 25301 75984 35654
is_linear=0
shrinkage=0.01


Tree=13
num_leaves=31
num_cat=0
split_feature=10 10 10 10 10 10 1 10 10 10 10 10 10 224 9 10 1 10 9 9 1 9 14 9 48 9 8 14 10 10
split_gain=8.71264e+10 1.09398e+10 1.03296e+10 1.34871e+09 1.32983e+09 1.25771e+09 1.25371e+09 1.89004e+08 1.80879e+08 1.63655e+08 1.62357e+08 1.5554e+08 1.46312e+08 1.44084e+08 1.38946e+08 1.17579e+08 8.00291e+07 6.32799e+07 6.01388e+07 5.60755e+07 4.96004e+07 4.95647e+07 4.86852e+07 4.23741e+07 4.15053e+07 3.7822e+07 3.75273e+07 3.70812e+07 3.6156e+07 3.60637e+07
threshold=577.25000000000011 1053.3100000000002 219.98500000000004 1336.5650000000003 382.04500000000007 816.16875000000016 2.9325000000000006 43.241000000000007 717.54000000000008 1182.6800000000001 1479.9750000000001 292.05700000000007 469.66629870129879 548.28000000000009 27.415000000000003 144.0266666666667 8.6225324675324693 932.43500000000006 1.8150000000000002 11.585000000000003 6.8902191235059762 13.085000000000003 7.0509090909090917 54.495000000000012 7.4017131474103595 58.339183266932274 1.4813070539419091 6.971017316017317 87.338333333333352 932.43500000000006
decision_type=2 2 2 2 2 2 2 2 2 2 2 2 2 2 2 2 2 2 2 2 2 2 2 2 2 2 2 2 2 2
left_child=2 5 6 9 11 8 7 -1 18 19 25 27 20 15 17 -8 -15 -7 26 -3 -6 -10 -13 -11 -14 -5 -2 -4 -9 -16
right_child=1 3 4 10 12 14 13 28 21 23 -12 22 24 16 29 -17 -18 -19 -20 -21 -22 -23 -24 -25 -26 -27 -28 -29 -30 -31
leaf_value=-3.2064737286635734 1.729070708733413 5.2414050223106026 -1.1810549313494614 7.4267644146126761 0.23056098010504614 3.586696206925867 -2.3114111816011405 -2.7850596433804555 2.7863558308486303 6.4298379283949298 9.1598847361192863 -0.55306258641676853 0.96827545386197911 -1.1760709626883608 4.4651171126676248 -1.7663350883063276 1.6207436643183177 4.4084081426029336 2.6812507952364957 6.1599124465526458 1.0628923428169208 3.6558436422574374 0.065936884532389273 7.2103436172019544 1.632165657080314 8.2772689701613356 2.4418665200500174 -0.67061542244283356 -2.3410948180307383 5.2475877663509918
leaf_weight=210098 31066 10309 57018 7384 42166 22055 82082 66839 22649 11635 25485 46971 38947 10908 10440 76419 1129 16297 12931 18710 8624 9227 17418 17296 12420 17913 9690 18966 25282 13516
leaf_count=210098 31066 10309 57018 7384 42166 22055 82082 66839 22649 11635 25485 46971 38947 10908 10440 76419 1129 16297 12931 18710 8624 9227 17418 17296 12420 17913 9690 18966 25282 13516
internal_value=0 4.99891 -1.79332 7.4068 -0.115526 3.22835 -2.65404 -3.04088 2.44135 6.36423 8.59654 -0.747221 0.75248 -1.96851 4.30909 -2.04861 -0.913746 3.93587 2.08706 5.83361 0.371889 3.03804 -0.385616 6.89645 1.1288 8.02901 1.89854 -1.05365 -2.66322 4.90659
internal_weight=0 256603 715287 108732 242530 147871 472757 302219 85563 57950 50782 140373 102157 170538 62308 158501 12037 38352 53687 29019 50790 31876 64389 28931 51367 25297 40756 75984 92121 23956
internal_count=971890 256603 715287 108732 242530 147871 472757 302219 85563 57950 50782 140373 102157 170538 62308 158501 12037 38352 53687 29019 50790 31876 64389 28931 51367 25297 40756 75984 92121 23956
is_linear=0
shrinkage=0.01


Tree=14
num_leaves=31
num_cat=0
split_feature=10 10 10 10 1 10 10 10 10 10 9 14 10 10 10 10 221 10 1 9 9 9 1 258 14 10 9 9 1 8
split_gain=8.53973e+10 1.10194e+10 9.81716e+09 1.43421e+09 1.32209e+09 1.24727e+09 1.09889e+09 2.19143e+08 2.0505e+08 1.76916e+08 1.38953e+08 1.37854e+08 1.36212e+08 1.3329e+08 1.2861e+08 1.03755e+08 6.93677e+07 6.40804e+07 5.73907e+07 5.73679e+07 5.29382e+07 4.68797e+07 4.68662e+07 4.5567e+07 4.54356e+07 4.22691e+07 4.09473e+07 3.98203e+07 3.79541e+07 3.40575e+07
threshold=602.03000000000009 224.39125000000001 1084.7460606060608 404.70000000000005 3.0512500000000005 840.19500000000005 1357.0250000000003 52.660555555555554 314.70500000000004 727.73500000000013 31.025000000000002 6.3704858299595157 498.62500000000006 1200.4150000000002 1495.7150000000004 161.20500000000001 -329.50499999999994 946.57500000000016 6.6107792207792215 21.375000000000004 1.8150000000000002 11.585000000000003 7.2402118644067803 24.247500000000006 6.8521784232365155 1006.5150000000001 58.339183266932274 78.145000000000024 7.1918181818181823 0.96026315789473693
decision_type=2 2 2 2 2 2 2 2 2 2 2 2 2 2 2 2 2 2 2 2 2 2 2 2 2 2 2 2 2 2
left_child=1 4 5 8 7 9 13 23 24 20 17 15 22 21 27 -6 28 -7 -10 -11 29 -4 -5 -1 -3 -12 -15 -8 -13 -2
right_child=2 3 6 12 11 10 14 -9 18 19 25 16 -14 26 -16 -17 -18 -19 -20 -21 -22 -23 -24 -25 -26 -27 -28 -29 -30 -31
leaf_value=-3.2492612701469858 1.8192293401977686 -1.0790867388229783 5.3672610149606559 0.44523541090306384 -2.2275021792064704 3.6997501772105612 7.5448278953556738 -2.5473092828850286 -0.3122189216416571 2.8991582523129917 4.7473972532234283 -0.42574920980300673 1.3234450860193263 6.5072546704129159 9.1485370919881301 -1.6774094779830151 -1.3571567565731317 4.5296506444456925 0.5473673249294444 3.8101392511371048 2.7770813743639091 6.277569860765376 1.2723054327114771 -2.9566883041516965 -0.5602541530893953 5.5999606815203142 7.2782971496315501 8.383735136654046 2.2457990550626659 2.5307480603755077
leaf_weight=149352 25618 63247 8467 42969 82621 19486 8505 83394 52230 26187 15938 1685 46879 11499 21905 58611 20928 17806 9124 9392 11975 17048 8151 82715 23023 9156 17175 16904 777 9123
leaf_count=149352 25618 63247 8467 42969 82621 19486 8505 83394 52230 26187 15938 1685 46879 11499 21905 58611 20928 17806 9124 9392 11975 17048 8151 82715 23023 9156 17175 16904 777 9123
internal_value=0 -1.72649 5.08937 -0.00373369 -2.60789 3.41675 7.4735 -2.98698 -0.626326 2.60834 4.48315 -1.88145 0.934129 6.50125 8.58702 -1.99921 -1.17037 4.09601 -0.184389 3.13964 2.20371 5.97549 0.57711 -3.14498 -0.940625 5.05847 6.96909 8.10293 0.417384 2.00607
internal_weight=0 725706 246184 245623 480083 144681 101503 315461 147624 82295 62386 164622 97999 54189 47314 141232 23390 37292 61354 35579 46716 25515 51120 232067 86270 25094 28674 25409 2462 34741
internal_count=971890 725706 246184 245623 480083 144681 101503 315461 147624 82295 62386 164622 97999 54189 47314 141232 23390 37292 61354 35579 46716 25515 51120 232067 86270 25094 28674 25409 2462 34741
is_linear=0
shrinkage=0.01


Tree=15
num_leaves=31
num_cat=0
split_feature=10 10 10 10 1 10 10 10 10 10 10 10 14 10 10 10 221 9 1 9 9 9 258 14 9 9 14 1 9 1
split_gain=8.36979e+10 1.08001e+10 9.6218e+09 1.40656e+09 1.29578e+09 1.22245e+09 1.07716e+09 2.14782e+08 1.9502e+08 1.73394e+08 1.60632e+08 1.36321e+08 1.35111e+08 1.31427e+08 1.0169e+08 9.97025e+07 6.79873e+07 6.41124e+07 6.0942e+07 5.68035e+07 5.62265e+07 5.18847e+07 4.46807e+07 4.45416e+07 4.42639e+07 4.16392e+07 3.79101e+07 3.71988e+07 3.53237e+07 3.47355e+07
threshold=602.03000000000009 224.39125000000001 1084.7460606060608 382.04500000000007 3.0512500000000005 840.19500000000005 1378.1650000000002 52.660555555555554 491.55000000000007 727.73500000000013 1235.6200000000001 976.28500000000008 6.3704858299595157 314.70500000000004 161.20500000000001 1508.1100000000001 -329.50499999999994 18.965000000000003 7.2402118644067803 11.585000000000003 21.375000000000004 1.8150000000000002 25.298870967741944 6.8902191235059762 42.625000000000007 78.145000000000024 8.25222943722944 7.1918181818181823 58.339183266932274 6.7905194805194817
decision_type=2 2 2 2 2 2 2 2 2 2 2 2 2 2 2 2 2 2 2 2 2 2 2 2 2 2 2 2 2 2
left_child=1 4 5 13 7 9 10 22 18 21 19 17 14 23 -6 25 27 -7 -5 -4 -11 -2 -1 -3 -13 -8 -10 -14 -12 -15
right_child=2 3 6 8 12 11 15 -9 26 20 28 24 16 29 -16 -17 -18 -19 -20 -21 -22 -23 -24 -25 -26 -27 -28 -29 -30 -31
leaf_value=-3.2138670927374391 1.9860155870517724 -1.0663669640702971 5.4342584564078127 0.30978328265157212 -2.2052268778577879 3.7121199916531924 7.5796548078726866 -2.5218358964556615 1.1031265355686568 2.8701650408152184 6.6207236029177299 4.6306226807739064 -0.42149173806753637 -0.37740725203309849 -1.6606353782779684 9.1449083733886827 -1.3435851979766054 4.5687578515706679 1.1790383898002152 6.3269874622968532 3.7720379659467502 2.7493122643201988 -2.9216423975796744 -0.54919011134302642 5.4671904782986109 8.451026303634853 1.7039480925576846 2.2233410685771222 7.3962931044826261 0.43798523906712861
leaf_weight=152386 34741 63726 10495 52508 82621 22342 7996 83394 35652 26187 9408 14447 1685 40785 58611 18308 20928 14347 9529 22213 9392 11975 79681 22544 11250 17456 14887 777 15627 5992
leaf_count=152386 34741 63726 10495 52508 82621 22342 7996 83394 35652 26187 9408 14447 1685 40785 58611 18308 20928 14347 9529 22213 9392 11975 79681 22544 11250 17456 14887 777 15627 5992
internal_value=0 -1.70922 5.03848 -0.00369628 -2.58181 3.38259 7.39876 -2.95711 0.818971 2.58226 6.50198 4.43831 -1.86264 -0.699786 -1.97922 8.58211 -1.15867 4.0471 0.443303 6.04054 3.10824 2.18168 -3.11353 -0.931219 4.99687 8.17728 1.28011 0.41321 7.10484 -0.272958
internal_weight=0 725706 246184 245623 480083 144681 101503 315461 112576 82295 57743 62386 164622 133047 141232 43760 23390 36689 62037 32708 35579 46716 232067 86270 25697 25452 50539 2462 25035 46777
internal_count=971890 725706 246184 245623 480083 144681 101503 315461 112576 82295 57743 62386 164622 133047 141232 43760 23390 36689 62037 32708 35579 46716 232067 86270 25697 25452 50539 2462 25035 46777
is_linear=0
shrinkage=0.01


Tree=16
num_leaves=31
num_cat=0
split_feature=10 10 10 10 10 1 10 10 10 10 10 14 9 10 10 10 258 10 9 9 1 48 9 223 10 10 9 14 14 8
split_gain=8.20362e+10 1.03017e+10 9.72527e+09 1.38686e+09 1.2983e+09 1.13935e+09 1.07214e+09 2.00908e+08 1.9022e+08 1.60525e+08 1.47114e+08 1.41237e+08 1.40306e+08 1.27967e+08 1.12651e+08 1.01367e+08 7.07137e+07 6.78168e+07 5.76441e+07 5.31865e+07 5.18436e+07 4.78652e+07 4.32523e+07 4.16138e+07 3.92295e+07 3.75577e+07 3.7469e+07 3.65374e+07 3.56603e+07 3.35854e+07
threshold=577.25000000000011 1037.7850000000001 216.48500000000004 1315.1950000000004 359.81000000000006 2.8550000000000004 791.75500000000011 455.88500000000005 1460.1950000000004 36.540227272727279 1166.0100000000002 6.0515789473684221 18.965000000000003 667.29000000000008 135.96500000000003 283.08500000000004 760.03500000000008 891.02500000000009 13.085000000000003 11.585000000000003 6.742446808510639 7.3012396694214887 6.1350000000000007 1422.0191666666669 904.6350000000001 84.965000000000018 58.339183266932274 7.0913070539419092 6.8120119521912352 2.5605465587044542
decision_type=2 2 2 2 2 2 2 2 2 2 2 2 2 2 2 2 2 2 2 2 2 2 2 2 2 2 2 2 2 2
left_child=2 6 5 10 15 9 13 20 26 -1 19 14 17 29 -7 28 -13 -8 -15 -3 -6 -9 -12 -10 -14 -11 -5 -17 -4 -2
right_child=1 3 4 8 7 11 12 21 23 25 22 16 24 18 -16 27 -18 -19 -20 -21 -22 -23 -24 -25 -26 -27 -28 -29 -30 -31
leaf_value=-3.1354583811750447 1.6736538252379785 4.9829663070079802 -1.2018097420460419 7.0569156293773085 0.08146761813759866 -2.3408601230177242 3.2292708628222178 0.88258938218187466 8.2673578005420918 -2.7482899404552863 5.8919010101519431 -1.3583576139553919 4.1231777216576626 2.4413084439208923 -1.7914427231745886 -0.64913869304582439 1.9299201931221475 4.0524511263911362 3.2796140708748083 5.8688240354473526 0.87375086154318027 1.5426968344199141 6.7773539521413522 9.0750768786601377 4.9133905946208687 -2.2891915509103056 7.888706531550894 -0.061567461257027514 -0.6988933188880706 2.3886076660305555
leaf_weight=192806 26967 10777 53178 7853 48083 75058 19649 43942 9408 77327 7437 25788 10597 31416 74223 43239 671 20397 11101 18263 9972 14646 21365 19808 15430 23155 17448 14013 19186 8687
leaf_count=192806 26967 10777 53178 7853 48083 75058 19649 43942 9408 77327 7437 25788 10597 31416 74223 43239 671 20397 11101 18263 9972 14646 21365 19808 15430 23155 17448 14013 19186 8687
internal_value=0 4.85069 -1.74014 7.12091 -0.130929 -2.58505 3.0823 0.634477 8.26528 -2.96657 6.04232 -1.94834 4.02005 2.28968 -2.06769 -0.819726 -1.27497 3.64855 2.66019 5.54007 0.217557 1.0476 6.54872 8.81498 4.59165 -2.6425 7.63053 -0.505325 -1.06847 1.84785
internal_weight=0 256603 715287 112359 246259 469028 144244 116643 54517 293288 57842 175740 66073 78171 149281 129616 26459 40046 42517 29040 58055 58588 28802 29216 26027 100482 25301 57252 72364 35654
internal_count=971890 256603 715287 112359 246259 469028 144244 116643 54517 293288 57842 175740 66073 78171 149281 129616 26459 40046 42517 29040 58055 58588 28802 29216 26027 100482 25301 57252 72364 35654
is_linear=0
shrinkage=0.01


Tree=17
num_leaves=31
num_cat=0
split_feature=10 10 10 10 10 1 10 10 10 10 10 14 10 10 10 10 221 9 1 9 9 9 9 223 14 225 46 14 1 1
split_gain=8.04039e+10 1.00764e+10 9.53682e+09 1.27954e+09 1.24794e+09 1.24515e+09 1.03546e+09 2.06597e+08 1.68083e+08 1.62359e+08 1.52249e+08 1.29939e+08 1.26352e+08 1.25923e+08 1.21524e+08 9.79903e+07 6.59985e+07 6.11391e+07 5.3014e+07 5.27712e+07 5.02576e+07 4.85012e+07 4.41202e+07 4.36367e+07 4.28092e+07 3.90309e+07 3.90159e+07 3.76592e+07 3.61548e+07 3.35228e+07
threshold=592.99500000000012 224.39125000000001 1084.7460606060608 382.04500000000007 828.27500000000009 3.0512500000000005 1357.0250000000003 52.660555555555554 483.88500000000005 717.54000000000008 961.49500000000012 6.3704858299595157 314.70500000000004 1200.4150000000002 1495.7150000000004 161.20500000000001 -329.50499999999994 18.965000000000003 6.8902191235059762 13.085000000000003 42.625000000000007 13.085000000000003 11.585000000000003 23.377518939393941 6.8902191235059762 1008.8050000000002 0.25873263888888892 8.1000206611570267 7.1918181818181823 6.7905194805194817
decision_type=2 2 2 2 2 2 2 2 2 2 2 2 2 2 2 2 2 2 2 2 2 2 2 2 2 2 2 2 2 2
left_child=1 5 4 12 9 7 13 23 18 21 17 15 24 22 25 -7 28 -6 -5 -11 -12 -2 -4 -1 -3 -8 -15 -10 -13 -14
right_child=2 3 6 8 10 11 14 -9 27 19 20 16 29 26 -16 -17 -18 -19 -20 -21 -22 -23 -24 -25 -26 -27 -28 -29 -30 -31
leaf_value=-3.1799185494118563 1.9062252777140354 -1.0453465532612278 5.2069817263899552 0.2699145835176876 3.5490960734293653 -2.1616899157754146 7.2188579756106428 -2.4714804021305303 1.0122168354765195 2.7147951275940039 4.4791355694239687 -0.40932739547593655 -0.37003408666444465 6.0658698705179281 8.8785722437799581 -1.6270968540195099 -1.3173314016382995 4.3944777209865284 1.0663033828433794 3.5596796321331845 5.3148846581992322 2.7080097215928634 6.0900925752379322 -2.9050348099275407 -0.53832682645430885 8.1009571714289557 6.9580315666994066 1.5995222540188689 2.1981266228910274 0.43099834447231727
leaf_weight=123897 37450 63726 8467 48028 22664 82621 6878 83394 34912 25112 16873 1685 40785 6275 21905 58611 20928 13742 10120 10477 12545 9448 17048 108170 22544 18531 22399 15886 777 5992
leaf_count=123897 37450 63726 8467 48028 22664 82621 6878 83394 34912 25112 16873 1685 40785 6275 21905 58611 20928 13742 10120 10477 12545 9448 17048 108170 22544 18531 22399 15886 777 5992
internal_value=0 -1.69179 4.89005 -0.0279269 3.27366 -2.53049 7.25183 -2.89838 0.775641 2.45423 4.30052 -1.8255 -0.685931 6.30806 8.33274 -1.93983 -1.13514 3.8682 0.408517 2.96352 4.83553 2.06775 5.79704 -3.05179 -0.912853 7.86218 6.76279 1.19588 0.413577 -0.267424
internal_weight=0 722076 249814 241993 148311 480083 101503 315461 108946 82487 65824 164622 133047 54189 47314 141232 23390 36406 58148 35589 29418 46898 25515 232067 86270 25409 28674 50798 2462 46777
internal_count=971890 722076 249814 241993 148311 480083 101503 315461 108946 82487 65824 164622 133047 54189 47314 141232 23390 36406 58148 35589 29418 46898 25515 232067 86270 25409 28674 50798 2462 46777
is_linear=0
shrinkage=0.01


Tree=18
num_leaves=31
num_cat=0
split_feature=10 10 10 10 10 10 1 10 10 10 10 10 14 9 10 10 258 9 10 1 9 1 9 8 223 14 9 14 45 9
split_gain=7.88066e+10 9.89738e+09 9.34377e+09 1.3329e+09 1.33272e+09 1.02993e+09 1.01691e+09 1.93279e+08 1.82965e+08 1.43984e+08 1.41098e+08 1.37817e+08 1.37307e+08 1.21871e+08 1.12788e+08 1.08295e+08 6.97076e+07 5.5732e+07 5.49369e+07 4.98155e+07 4.84433e+07 4.63638e+07 4.3856e+07 4.15453e+07 4.05025e+07 3.97926e+07 3.65699e+07 3.60314e+07 3.43278e+07 4.60215e+07
threshold=577.25000000000011 1037.7850000000001 209.38500000000002 1315.1950000000004 359.81000000000006 804.08500000000015 2.7750000000000008 455.88500000000005 1460.1950000000004 687.35500000000013 1148.615 35.231375000000007 6.0515789473684221 18.965000000000003 274.43000000000006 122.58500000000002 760.03500000000008 18.965000000000003 918.36500000000012 6.742446808510639 6.1350000000000007 7.2402118644067803 11.585000000000003 2.5605465587044542 1422.0191666666669 7.0913070539419092 58.339183266932274 6.6107792207792215 0.022500000000001744 1.0000000180025095e-35
decision_type=2 2 2 2 2 2 2 2 2 2 2 2 2 2 2 2 2 2 2 2 2 2 2 2 2 2 2 2 2 2
left_child=2 5 6 10 14 9 11 19 26 23 22 -1 15 18 27 -8 28 -11 -7 -6 -12 -9 -3 -2 -10 -16 -5 -4 -14 -30
right_child=1 3 4 8 7 13 12 21 24 17 20 -13 16 -15 25 -17 -18 -19 -20 -21 -22 -23 -24 -25 -26 -27 -28 -29 29 -31
leaf_value=-3.0814562908913188 1.70742774338916 4.830994777800325 -1.2417900502059884 6.9121453982554444 0.079586248536466245 3.2979976918275731 -2.3649861013093365 0.88596344260826299 8.1002171356823975 2.5093064752721159 5.7113865804169839 -2.6163222635788457 -1.5135108517677258 4.5304190360100582 -0.66789104821141221 -1.829289356400372 1.9706699192727259 3.3896002067158126 4.0738401850919166 0.85621773167016091 6.5884329327136175 1.5877294120157377 5.6882652676816017 2.4282733060097503 8.8970774276807365 -0.086529646080980724 7.7338965604940393 -0.74535013990488197 -0.89118719973009175 2.4905270418029111
leaf_weight=187766 32407 9625 52258 7853 48083 21454 68969 46803 9408 29382 8542 96408 20970 24980 48953 83335 645 9523 15884 9972 23971 11785 15704 10614 19808 15502 17448 20299 3076 463
leaf_count=187766 32407 9625 52258 7853 48083 21454 68969 46803 9408 29382 8542 96408 20970 24980 48953 83335 645 9523 15884 9972 23971 11785 15704 10614 19808 15502 17448 20299 3076 463
internal_value=0 4.75425 -1.70555 6.97948 -0.163679 3.02091 -2.55276 0.621915 8.10137 2.28394 5.92208 -2.92366 -1.95883 3.98976 -0.832482 -2.07187 -1.27437 2.72478 3.62805 0.212987 6.35801 1.02712 5.3625 1.88527 8.64048 -0.528068 7.47884 -1.1029 -1.35977 -0.448765
internal_weight=0 256603 715287 112359 253655 144244 461632 116643 54517 81926 57842 284174 177458 62318 137012 152304 25154 38905 37338 58055 32513 58588 25329 43021 29216 64455 25301 72557 24509 3539
internal_count=971890 256603 715287 112359 253655 144244 461632 116643 54517 81926 57842 284174 177458 62318 137012 152304 25154 38905 37338 58055 32513 58588 25329 43021 29216 64455 25301 72557 24509 3539
is_linear=0
shrinkage=0.01


Tree=19
num_leaves=31
num_cat=0
split_feature=10 10 10 10 1 10 10 10 10 10 10 10 10 224 10 10 1 9 9 9 1 1 258 9 14 9 9 9 46 9
split_gain=7.72421e+10 1.02501e+10 8.60167e+09 1.37459e+09 1.1966e+09 1.05886e+09 9.95989e+08 2.09957e+08 1.8503e+08 1.49028e+08 1.41381e+08 1.38109e+08 1.26519e+08 1.22946e+08 9.72005e+07 9.29506e+07 6.83202e+07 5.8985e+07 5.24543e+07 5.18227e+07 4.9941e+07 4.77217e+07 4.61709e+07 4.58711e+07 4.37833e+07 4.11095e+07 3.9593e+07 3.72835e+07 3.35205e+07 3.27846e+07
threshold=610.94500000000016 224.39125000000001 1084.7460606060608 404.70000000000005 3.0950000000000002 840.19500000000005 1378.1650000000002 56.220117647058828 319.27500000000003 1235.6200000000001 727.73500000000013 505.57000000000005 976.28500000000008 548.28000000000009 164.34500000000003 1508.1100000000001 7.5541313559322036 18.965000000000003 11.585000000000003 21.375000000000004 6.6107792207792215 7.2402118644067803 25.298870967741944 8.7050000000000018 6.8902191235059762 42.625000000000007 78.145000000000024 -0.24499999999999997 0.10013888888888879 1.8150000000000002
decision_type=2 2 2 2 2 2 2 2 2 2 2 2 2 2 2 2 2 2 2 2 2 2 2 2 2 2 2 2 2 2
left_child=1 4 5 8 7 10 9 22 24 18 23 21 17 14 -6 26 -15 -7 -4 -12 -10 -5 -1 -2 -3 -14 -8 -18 -11 -13
right_child=2 3 6 11 13 12 15 -9 20 28 19 29 25 16 -16 -17 27 -19 -20 -21 -22 -23 -24 -25 -26 -27 -28 -29 -30 -31
leaf_value=-3.0862474989827575 1.956276715568934 -1.0123154037418247 5.2183587608682709 0.44349304773450976 -2.0669894138980855 3.5656510549252807 7.2720113181590795 -2.3919464679811027 -0.27909771367090591 6.0876304180914387 2.7577944580012868 1.1885067052626221 4.4489890965955299 -1.0943754223191102 -1.5462004171055399 8.7890575158400708 0.044308732821603407 4.3873203722631473 6.076231589820714 3.6236294482879381 0.54328726486748691 1.2453872804719257 -2.7966599772062337 2.7300375973131152 -0.50990251280719989 5.2551971796875003 8.1217029961044904 3.3087542057782411 7.007417233170087 1.8742379545829666
leaf_weight=153388 33192 66263 10495 45811 87617 22342 7996 80513 49176 4935 26187 38375 14447 10474 60643 18308 1037 14347 22213 9392 8689 8856 85883 9961 23496 11250 17456 528 20100 8520
leaf_count=153388 33192 66263 10495 45811 87617 22342 7996 80513 49176 4935 26187 38375 14447 10474 60643 18308 1037 14347 22213 9392 8689 8856 85883 9961 23496 11250 17456 528 20100 8520
internal_value=0 -1.62607 4.88763 0.0195013 -2.4802 3.29074 7.10776 -2.83367 -0.596543 6.24542 2.51966 0.914943 4.26384 -1.77505 -1.85397 8.24565 -0.803183 3.88696 5.80097 2.98635 -0.155609 0.573399 -2.9823 2.13488 -0.8808 4.80194 7.85476 1.14567 6.82611 1.31309
internal_weight=0 729269 242621 249186 480083 141118 101503 319784 147624 57743 78732 101562 62386 160299 148260 43760 12039 36689 32708 35579 57865 54667 239271 43153 89759 25697 25452 1565 25035 46895
internal_count=971890 729269 242621 249186 480083 141118 101503 319784 147624 57743 78732 101562 62386 160299 148260 43760 12039 36689 32708 35579 57865 54667 239271 43153 89759 25697 25452 1565 25035 46895
is_linear=0
shrinkage=0.01


Tree=20
num_leaves=31
num_cat=0
split_feature=10 10 10 10 10 10 1 10 10 10 10 10 14 10 10 10 258 9 9 9 1 48 14 9 9 223 9 14 45 9
split_gain=7.57056e+10 9.50811e+09 8.97682e+09 1.3207e+09 1.28112e+09 9.89792e+08 9.40947e+08 1.85779e+08 1.76058e+08 1.36082e+08 1.32181e+08 1.30581e+08 1.29345e+08 1.18829e+08 1.16427e+08 1.00897e+08 6.461e+07 5.90494e+07 5.32962e+07 4.90966e+07 4.78771e+07 4.50329e+07 4.08798e+07 4.07539e+07 4.02743e+07 3.94727e+07 3.53952e+07 3.53044e+07 3.28154e+07 4.6056e+07
threshold=577.25000000000011 1037.7850000000001 205.78000000000003 359.81000000000006 1315.1950000000004 791.75500000000011 2.7750000000000008 455.88500000000005 1460.1950000000004 1166.0100000000002 35.231375000000007 891.02500000000009 6.3704858299595157 667.29000000000008 270.53500000000003 122.58500000000002 760.03500000000008 10.065000000000003 11.585000000000003 11.585000000000003 6.742446808510639 7.3012396694214887 7.0509090909090917 6.1350000000000007 18.965000000000003 1422.0191666666669 58.339183266932274 6.6107792207792215 0.022916666666667588 1.0000000180025095e-35
decision_type=2 2 2 2 2 2 2 2 2 2 2 2 2 2 2 2 2 2 2 2 2 2 2 2 2 2 2 2 2 2
left_child=2 5 6 14 9 13 10 20 26 19 -1 24 15 -2 27 -8 28 -13 -15 -3 -5 -9 -16 -11 -7 -10 -6 -4 -14 -30
right_child=1 4 3 7 8 11 12 21 25 23 -12 17 16 18 22 -17 -18 -19 -20 -21 -22 -23 -24 -25 -26 -27 -28 -29 29 -31
leaf_value=-3.0204501590556618 1.7735254634823583 4.7858344956272623 -1.2421101850066516 0.077962439399222441 6.7725031635998985 3.1013669529142702 -2.3081236015098905 0.84686677938034793 7.9361737517272539 5.6536187831955091 -2.5648413932222747 3.8647122822913933 -1.4536568750274337 2.342111407648765 -0.67109064286344267 -1.7947237402198213 1.9923389499305346 4.6617595862091532 3.141508781562349 5.6369510288903788 0.83933426680643308 1.4871464038282636 -0.10005203195588677 6.513118282676106 3.9024217352187702 8.7228384917078969 7.5809485417383087 -0.74808616387128413 -0.80296267141007582 2.8087051878367948
leaf_weight=187766 35654 10777 52934 48083 7853 19649 70417 43942 9408 7437 96354 19055 15863 31124 51233 83875 627 18147 11393 18263 9972 14646 16598 21365 9222 19808 17448 19905 2665 407
leaf_count=187766 35654 10777 52934 48083 7853 19649 70417 43942 9408 7437 96354 19055 15863 31124 51233 83875 627 18147 11393 18263 9972 14646 16598 21365 9222 19808 17448 19905 2665 407
internal_value=0 4.65977 -1.67165 -0.177103 6.8408 2.96086 -2.51137 0.609657 7.94069 5.80414 -2.86594 3.86188 -1.93191 2.19929 -0.829482 -2.02903 -1.16588 4.25351 2.55632 5.32109 0.208742 1.00693 -0.53136 6.29119 3.35724 8.46952 7.33002 -1.10711 -1.27046 -0.324464
internal_weight=0 256603 715287 257313 112359 144244 457974 116643 54517 57842 284120 66073 173854 78171 140670 154292 19562 37202 42517 29040 58055 58588 67831 28802 28871 29216 25301 72839 18935 3072
internal_count=971890 256603 715287 257313 112359 144244 457974 116643 54517 57842 284120 66073 173854 78171 140670 154292 19562 37202 42517 29040 58055 58588 67831 28802 28871 29216 25301 72839 18935 3072
is_linear=0
shrinkage=0.01


Tree=21
num_leaves=31
num_cat=0
split_feature=10 10 10 10 1 10 10 10 10 10 10 10 14 10 10 223 221 9 9 9 1 9 1 9 223 14 1 46 9 9
split_gain=7.42024e+10 9.84682e+09 8.264e+09 1.32098e+09 1.14995e+09 1.0169e+09 9.57372e+08 1.82451e+08 1.77857e+08 1.43254e+08 1.36165e+08 1.32899e+08 1.24847e+08 1.21974e+08 9.30764e+07 8.98022e+07 6.57119e+07 5.03319e+07 4.98469e+07 4.9809e+07 4.81608e+07 4.67594e+07 4.59863e+07 4.44223e+07 4.38362e+07 4.20931e+07 3.63407e+07 3.28029e+07 3.20037e+07 3.07816e+07
threshold=610.94500000000016 224.39125000000001 1084.7460606060608 404.70000000000005 3.0150000000000001 840.19500000000005 1378.1650000000002 56.220117647058828 319.27500000000003 1235.6200000000001 727.73500000000013 505.57000000000005 6.0515789473684221 961.49500000000012 158.33750000000003 1422.0191666666669 -329.50499999999994 11.585000000000003 21.375000000000004 18.965000000000003 6.6107792207792215 42.625000000000007 7.2402118644067803 8.7050000000000018 23.377518939393941 6.8902191235059762 6.8902191235059762 0.10013888888888879 1.8150000000000002 94.125000000000014
decision_type=2 2 2 2 2 2 2 2 2 2 2 2 2 2 2 2 2 2 2 2 2 2 2 2 2 2 2 2 2 2
left_child=1 4 5 8 7 10 9 24 25 17 23 22 14 19 -6 29 26 -4 -12 -7 -10 -15 -5 -2 -1 -3 -14 -11 -13 -8
right_child=2 3 6 11 12 13 15 -9 20 27 18 28 16 21 -16 -17 -18 -19 -20 -21 -22 -23 -24 -25 -26 -27 -28 -29 -30 -31
leaf_value=-3.0565735430023295 1.9162388684761673 -0.99243421487296002 5.1146946388161032 0.4343676877721781 -2.1095212795439111 3.4529841373365016 7.1236942150297615 -2.3568041296593343 -0.27375381995977299 5.9599499113475183 2.7034563661492941 1.1644028768195236 -0.47195636310181144 4.303208361152989 -1.5860151697714284 8.4928888426311406 -1.3215179320894976 5.9550324591736823 3.5526255738552424 4.251385387457522 0.53384023326795194 5.1093467773826724 1.2215459571018237 2.6776825973837028 -2.784582278437306 -0.49981447239980675 2.0492463598908266 6.8698381685323389 1.8419186005928148 7.9223742146164025
leaf_weight=123852 33192 66263 10495 45811 81425 20241 8400 73671 49176 4935 26187 38375 1781 16873 58264 24020 26639 22213 9392 12727 8689 12545 8856 9961 113609 23496 842 20100 8520 11340
leaf_count=123852 33192 66263 10495 45811 81425 20241 8400 73671 49176 4935 26187 38375 1781 16873 58264 24020 26639 22213 9392 12727 8689 12545 8856 9961 113609 23496 842 20100 8520 11340
internal_value=0 -1.59375 4.79049 0.0191224 -2.43091 3.22526 6.96661 -2.79156 -0.584789 6.12116 2.46962 0.896929 -1.76675 4.17889 -1.89117 8.08222 -1.17282 5.68539 2.92762 3.7612 -0.152486 4.64698 0.56189 2.092 -2.92644 -0.863482 0.337366 6.69048 1.2875 7.58251
internal_weight=0 729269 242621 249186 480083 141118 101503 311132 147624 57743 78732 101562 168951 62386 139689 43760 29262 32708 35579 32968 57865 29418 54667 43153 237461 89759 2623 25035 46895 19740
internal_count=971890 729269 242621 249186 480083 141118 101503 311132 147624 57743 78732 101562 168951 62386 139689 43760 29262 32708 35579 32968 57865 29418 54667 43153 237461 89759 2623 25035 46895 19740
is_linear=0
shrinkage=0.01


Tree=22
num_leaves=31
num_cat=0
split_feature=10 10 10 10 10 10 1 10 10 10 10 10 221 9 10 10 1 9 10 9 1 14 8 14 46 14 225 10 12 10
split_gain=7.27267e+10 9.1347e+09 8.62437e+09 1.26884e+09 1.12844e+09 1.04989e+09 9.04226e+08 1.78569e+08 1.52406e+08 1.37597e+08 1.37558e+08 1.2726e+08 1.25224e+08 1.16537e+08 1.12179e+08 1.09745e+08 7.43276e+07 5.57947e+07 5.33022e+07 4.67034e+07 4.60128e+07 4.37186e+07 4.04089e+07 3.94266e+07 3.74305e+07 3.39274e+07 3.38718e+07 3.3172e+07 3.13192e+07 3.11419e+07
threshold=577.25000000000011 1053.3100000000002 205.78000000000003 359.81000000000006 1336.5650000000003 816.16875000000016 2.7750000000000008 455.88500000000005 687.35500000000013 1182.6800000000001 1479.9750000000001 32.741363636363644 -172.49499999999998 27.415000000000003 270.53500000000003 125.17500000000003 6.2613278008298758 13.085000000000003 932.43500000000006 62.405000000000008 6.742446808510639 7.9525396825396841 2.5605465587044542 7.0509090909090917 0.25873263888888892 6.5745454545454551 1008.8050000000002 80.615000000000023 4.2511440677966119 932.43500000000006
decision_type=2 2 2 2 2 2 2 2 2 2 2 2 2 2 2 2 2 2 2 2 2 2 2 2 2 2 2 2 2 2
left_child=2 5 6 14 9 8 11 20 22 19 26 -1 16 18 25 28 -8 -10 -7 -3 -5 -9 -2 -16 -11 -4 -6 -13 -14 -15
right_child=1 4 3 7 10 13 12 21 17 24 -12 27 15 29 23 -17 -18 -19 -20 -21 -22 -23 -24 -25 -26 -27 -28 -29 -30 -31
leaf_value=-2.9682449838096172 1.6351345896599494 4.9587922589739515 -1.2197527428579231 0.076373874443832798 6.7570643958935204 3.2744210266237816 -1.1375249894294497 0.80210439541388368 2.43014493896397 5.6337091829622361 8.3742572101236021 -2.6243378634686216 -2.2530470869817085 4.073645043851772 -0.65755014390182054 -1.7127020155588497 1.3369759188584291 3.2388618821085879 4.0285733570595816 5.7640416141087432 0.82277504796633694 1.3904336199860075 2.3460533767090648 -0.09675270881289702 6.4954764423344855 -0.73859779302363604 7.5656808246200358 -2.1933549952510125 -0.54046896021341906 4.8007632620597809
leaf_weight=181480 32407 15740 52511 48083 7269 22055 7105 40163 30733 6501 25485 79617 76334 10440 51233 87868 1464 11809 16297 13279 9972 18425 10614 16598 22430 20328 18028 23023 1083 13516
leaf_count=181480 32407 15740 52511 48083 7269 22055 7105 40163 30733 6501 25485 79617 76334 10440 51233 87868 1464 11809 16297 13279 9972 18425 10614 16598 22430 20328 18028 23023 1083 13516
internal_value=0 4.56717 -1.63843 -0.173517 6.76746 2.94927 -2.4615 0.597641 2.23022 5.81381 7.85572 -2.80908 -1.89346 3.93669 -0.812958 -1.95457 -0.71476 2.65463 3.59488 5.32727 0.204582 0.987125 1.81053 -0.520325 6.30183 -1.08547 7.33333 -2.52766 -2.22909 4.48389
internal_weight=0 256603 715287 257313 108732 147871 457974 116643 85563 57950 50782 284120 173854 62308 140670 165285 8569 42542 38352 29019 58055 58588 43021 67831 28931 72839 25297 102640 77417 23956
internal_count=971890 256603 715287 257313 108732 147871 457974 116643 85563 57950 50782 284120 173854 62308 140670 165285 8569 42542 38352 29019 58055 58588 43021 67831 28931 72839 25297 102640 77417 23956
is_linear=0
shrinkage=0.01


Tree=23
num_leaves=31
num_cat=0
split_feature=10 10 10 10 1 10 10 10 10 10 10 10 10 224 10 10 1 9 48 9 9 1 224 9 194 14 9 9 9 9
split_gain=7.12835e+10 9.45911e+09 7.93895e+09 1.2693e+09 1.10543e+09 9.76458e+08 9.20185e+08 1.9465e+08 1.71045e+08 1.37793e+08 1.31037e+08 1.27821e+08 1.17301e+08 1.15732e+08 9.05638e+07 8.75911e+07 6.46563e+07 5.44511e+07 4.93956e+07 4.87791e+07 4.79523e+07 4.43534e+07 4.36401e+07 4.30781e+07 3.92231e+07 3.80574e+07 3.80472e+07 3.24793e+07 3.13614e+07 3.12011e+07
threshold=610.94500000000016 224.39125000000001 1084.7460606060608 404.70000000000005 3.0950000000000002 840.19500000000005 1378.1650000000002 56.220117647058828 314.70500000000004 1235.6200000000001 727.73500000000013 505.57000000000005 976.28500000000008 548.28000000000009 164.34500000000003 1508.1100000000001 8.8069431122128226 18.965000000000003 6.5705668016194343 11.585000000000003 13.085000000000003 7.2402118644067803 23.515691389063488 8.7050000000000018 -23.013749999999984 6.8521784232365155 42.625000000000007 58.339183266932274 -0.24499999999999997 1.8150000000000002
decision_type=2 2 2 2 2 2 2 2 2 2 2 2 2 2 2 2 2 2 2 2 2 2 2 2 2 2 2 2 2 2
left_child=1 4 5 8 7 10 9 22 25 19 23 21 17 14 -6 24 -15 -7 -10 -4 -12 -5 -1 -2 -8 -3 -14 -11 -18 -13
right_child=2 3 6 11 13 12 15 -9 18 27 20 29 26 16 -16 -17 28 -19 -20 -21 -22 -23 -24 -25 -26 -27 -28 -29 -30 -31
leaf_value=-3.0314494424555241 1.8771985253117751 -0.98704772447403943 5.0101414847844215 0.42536422364101961 -1.9870379079961991 3.4240482016773344 5.4162625438521959 -2.2970243932123151 -0.3117693894556019 6.0934941007653061 2.6294935442290939 1.1406696363497557 4.2742281566891052 -1.0015700212529846 -1.4843427634372475 8.4494552927681887 0.21210557413035788 4.213507358899073 0.39680145846399661 5.8374146948718089 3.4303730308807618 1.1984408103439759 -2.7555793997317575 2.6270330838120231 7.6149753474061672 -0.512206212684861 5.0498279618055557 6.8371814807704618 3.6074113080908075 1.8096363576969632
leaf_weight=95299 33192 63247 10495 45811 87617 22342 839 80513 49047 9408 24894 38375 14447 10876 60643 18308 729 14347 12307 22213 10685 8856 143972 9961 24613 23023 11250 15627 434 8520
leaf_count=95299 33192 63247 10495 45811 87617 22342 839 80513 49047 9408 24894 38375 14447 10876 60643 18308 729 14347 12307 22213 10685 8856 143972 9961 24613 23023 11250 15627 434 8520
internal_value=0 -1.56209 4.69532 0.0187121 -2.3826 3.16118 6.82822 -2.72234 -0.573269 5.99934 2.42072 0.879178 4.09566 -1.70485 -1.78142 7.92194 -0.761927 3.73276 -0.169637 5.57197 2.87001 0.550602 -2.86546 2.05028 7.5425 -0.860326 4.61378 6.55771 1.47914 1.26221
internal_weight=0 729269 242621 249186 480083 141118 101503 319784 147624 57743 78732 101562 62386 160299 148260 43760 12039 36689 61354 32708 35579 54667 239271 43153 25452 86270 25697 25035 1163 46895
internal_count=971890 729269 242621 249186 480083 141118 101503 319784 147624 57743 78732 101562 62386 160299 148260 43760 12039 36689 61354 32708 35579 54667 239271 43153 25452 86270 25697 25035 1163 46895
is_linear=0
shrinkage=0.01


Tree=24
num_leaves=31
num_cat=0
split_feature=10 10 10 10 1 10 10 10 10 10 10 10 221 10 10 223 1 9 9 9 1 8 9 223 14 1 12 9 9 9
split_gain=6.9866e+10 9.01365e+09 8.03261e+09 1.17703e+09 1.08343e+09 1.01992e+09 9.01874e+08 1.90776e+08 1.67707e+08 1.45586e+08 1.35051e+08 1.15066e+08 1.13863e+08 1.12194e+08 9.71401e+07 8.63699e+07 5.2993e+07 4.78087e+07 4.70711e+07 4.69076e+07 4.57815e+07 4.55035e+07 4.40813e+07 4.29361e+07 3.96928e+07 3.86946e+07 3.50038e+07 3.18329e+07 3.12114e+07 3.09068e+07
threshold=602.03000000000009 224.39125000000001 1084.7460606060608 404.70000000000005 3.0950000000000002 840.19500000000005 1378.1650000000002 56.220117647058828 319.27500000000003 727.73500000000013 1235.6200000000001 961.49500000000012 -228.83999999999995 498.62500000000006 167.31500000000003 1422.0191666666669 6.1804382470119528 11.585000000000003 21.375000000000004 18.965000000000003 6.6107792207792215 2.6400413223140498 42.625000000000007 26.436375534187984 6.8902191235059762 7.2402118644067803 4.1705378486055791 58.339183266932274 1.8150000000000002 1.2950000000000002
decision_type=2 2 2 2 2 2 2 2 2 2 2 2 2 2 2 2 2 2 2 2 2 2 2 2 2 2 2 2 2 2
left_child=1 4 5 8 7 9 10 23 24 21 17 19 16 25 26 -8 -6 -4 -11 -7 -10 29 -13 -1 -3 -5 -14 -12 -15 -2
right_child=2 3 6 13 12 11 15 -9 20 18 27 22 14 28 -16 -17 -18 -19 -20 -21 -22 -23 -24 -25 -26 -27 -28 -29 -30 -31
leaf_value=-2.955133397010854 1.6534718276078935 -0.96338155525481206 4.9600379272868036 0.4022585066323251 -0.82000163513844415 3.3499095136997621 7.35265742147923 -2.2740543249445158 -0.26598473989034604 2.6234810006068137 6.0325593577274663 4.1755608506147022 -1.9676510925487734 1.0790333396007319 -1.4286135268744427 8.2454690882597834 1.4941744946121076 5.7790415276245897 3.4486676732441839 4.124707926707246 0.5214082485870245 2.5303123631004656 4.9582731580373158 -2.6851559741044593 -0.48501357782849008 1.1537732872596154 -0.56295582844579728 6.7688093724003329 1.7524105703162283 2.3716640366202673
leaf_weight=134397 27275 66263 10495 42969 4064 20241 19740 80513 49176 26187 9408 16873 91664 38497 61454 24020 1308 22213 9392 12727 8689 11762 12545 104874 23496 8151 1809 15627 8382 7679
leaf_count=134397 27275 66263 10495 42969 4064 20241 19740 80513 49176 26187 9408 16873 91664 38497 61454 24020 1308 22213 9392 12727 8689 11762 12545 104874 23496 8151 1809 15627 8382 7679
internal_value=0 -1.56161 4.60336 -0.00352034 -2.35878 3.09038 6.75993 -2.69512 -0.567536 2.35935 5.93935 4.0547 -1.6878 0.846104 -1.73743 7.84272 -0.256535 5.51625 2.84131 3.64901 -0.14775 1.99229 4.50934 -2.8368 -0.83816 0.522086 -1.94047 6.49213 1.19943 1.81125
internal_weight=0 725706 246184 245623 480083 144681 101503 319784 147624 82295 57743 62386 160299 97999 154927 43760 5372 32708 35579 32968 57865 46716 29418 239271 89759 51120 93473 25035 46879 34954
internal_count=971890 725706 246184 245623 480083 144681 101503 319784 147624 82295 57743 62386 160299 97999 154927 43760 5372 32708 35579 32968 57865 46716 29418 239271 89759 51120 93473 25035 46879 34954
is_linear=0
shrinkage=0.01


Tree=25
num_leaves=31
num_cat=0
split_feature=10 10 10 10 10 10 1 10 10 10 14 10 10 10 10 10 258 9 9 46 48 48 9 9 14 223 9 45 9 14
split_gain=6.84779e+10 8.60294e+09 8.12142e+09 1.19535e+09 1.16073e+09 8.95658e+08 8.52678e+08 1.68238e+08 1.61343e+08 1.23874e+08 1.23123e+08 1.18559e+08 1.1424e+08 1.08113e+08 1.0626e+08 9.39946e+07 6.53245e+07 4.8355e+07 4.7181e+07 4.41248e+07 4.37916e+07 4.21777e+07 4.19259e+07 3.83674e+07 3.73949e+07 3.65794e+07 3.34434e+07 3.30401e+07 4.75815e+07 3.20801e+07
threshold=577.25000000000011 1037.7850000000001 205.78000000000003 359.81000000000006 1315.1950000000004 791.75500000000011 2.7316666666666669 455.88500000000005 1460.1950000000004 1148.615 5.8514893617021277 904.6350000000001 32.741363636363644 667.29000000000008 270.53500000000003 122.58500000000002 760.03500000000008 11.585000000000003 27.415000000000003 0.25873263888888892 6.8513016528925625 7.4017131474103595 18.965000000000003 11.585000000000003 7.0509090909090917 1422.0191666666669 58.339183266932274 0.026874999999998875 1.0000000180025095e-35 6.5745454545454551
decision_type=2 2 2 2 2 2 2 2 2 2 2 2 2 2 2 2 2 2 2 2 2 2 2 2 2 2 2 2 2 2
left_child=2 5 6 14 9 13 12 20 26 23 15 22 -1 -2 29 -8 27 -15 -13 -11 -5 -9 -7 -3 -16 -10 -6 -12 -29 -4
right_child=1 4 3 7 8 11 10 21 25 19 16 18 -14 17 24 -17 -18 -19 -20 -21 -22 -23 -24 -25 -26 -27 -28 28 -30 -31
leaf_value=-2.8829111126869367 1.6851698792561844 4.4981789387175324 -1.1847423836596067 0.057140953189036892 6.4267866977588186 2.9945490649952404 -2.2239767435044362 0.80942720960670378 7.5461281622023808 5.2618404040580256 -1.4331921020647269 3.7656563604126649 -2.4602556156288662 2.2277988317646753 -0.63777738283499219 -1.7228211772801256 1.9471661002175851 2.9892382195344731 4.5242131128184893 6.1317860543737446 0.73161323187279403 1.4419840612870902 3.760222073740652 5.3000129084847014 -0.091620287253405902 8.3034140877423255 7.2126248889557543 -0.80046788927507695 3.0185545577647837 -0.71686997336695768
leaf_weight=180568 35654 9625 52511 45872 7853 21995 71790 44804 9408 7613 24947 19131 99020 31124 51233 78181 627 11393 14350 24900 12183 13784 10597 15704 16598 19808 17448 2465 376 20328
leaf_count=180568 35654 9625 52511 45872 7853 21995 71790 44804 9408 7613 24947 19131 99020 31124 51233 78181 627 11393 14350 24900 12183 13784 10597 15704 16598 19808 17448 2465 376 20328
internal_value=0 4.43176 -1.58985 -0.168294 6.50637 2.81573 -2.38856 0.5802 7.5533 5.51963 -1.84836 3.67284 -2.73322 2.09128 -0.788942 -1.96272 -1.24481 2.43184 4.09077 5.92809 0.198681 0.958249 3.2435 4.99532 -0.504135 8.05956 6.96871 -1.31683 -0.295029 -1.05417
internal_weight=0 256603 715287 257313 112359 144244 457974 116643 54517 57842 178386 66073 279588 78171 140670 149971 28415 42517 33481 32513 58055 58588 32592 25329 67831 29216 25301 27788 2841 72839
internal_count=971890 256603 715287 257313 112359 144244 457974 116643 54517 57842 178386 66073 279588 78171 140670 149971 28415 42517 33481 32513 58055 58588 32592 25329 67831 29216 25301 27788 2841 72839
is_linear=0
shrinkage=0.01


Tree=26
num_leaves=31
num_cat=0
split_feature=10 10 10 10 1 10 10 10 10 10 10 10 224 10 10 10 1 9 48 9 1 258 9 9 14 9 225 46 9 10
split_gain=6.71172e+10 8.90565e+09 7.47462e+09 1.19525e+09 1.04116e+09 9.19214e+08 8.67055e+08 1.83994e+08 1.61314e+08 1.23674e+08 1.20613e+08 1.10795e+08 1.10778e+08 1.07035e+08 1.04631e+08 8.57405e+07 6.19607e+07 5.12507e+07 4.6964e+07 4.66566e+07 4.20391e+07 4.16584e+07 3.99972e+07 3.73633e+07 3.58623e+07 3.58497e+07 3.56063e+07 3.56008e+07 3.44264e+07 3.02767e+07
threshold=610.94500000000016 224.39125000000001 1084.7460606060608 404.70000000000005 3.0950000000000002 840.19500000000005 1357.0250000000003 56.220117647058828 314.70500000000004 738.02500000000009 505.57000000000005 976.28500000000008 548.28000000000009 1200.4150000000002 1495.7150000000004 170.19500000000002 7.5541313559322036 18.965000000000003 6.5705668016194343 17.055000000000003 7.1407569721115545 25.298870967741944 13.085000000000003 78.145000000000024 6.8521784232365155 42.625000000000007 1008.8050000000002 0.10013888888888879 -0.24499999999999997 104.35300000000001
decision_type=2 2 2 2 2 2 2 2 2 2 2 2 2 2 2 2 2 2 2 2 2 2 2 2 2 2 2 2 2 2
left_child=1 4 5 8 7 9 13 21 24 19 20 17 15 23 26 -6 -14 -7 -10 -2 -5 -1 -11 -4 -3 -13 -8 -15 -18 -9
right_child=2 3 6 10 12 11 14 29 18 22 -12 25 16 27 -16 -17 28 -19 -20 -21 -22 -23 -24 -25 -26 -27 -28 -29 -30 -31
leaf_value=-2.8794896722364731 1.8643362822395195 -0.95813306047757818 4.9733876774134851 0.40899464539897135 -1.9123741136746111 3.3219230793775454 6.5636543031222745 -2.3376073447699621 -0.30295610424162067 2.5926724963655481 1.2251670620535238 4.1480635705888336 -1.008933027237227 5.4862214310080164 8.1212107966217761 -1.4135857369864788 0.065990280419904221 4.0878302649018528 0.3879538454846343 2.6648473079178427 1.1495092725784808 -2.6044171653153607 3.3590781491446795 5.7521168555325906 -0.49718929354231028 4.9009312751736109 7.4061670014098002 6.3598809236771734 3.2028620736887961 -1.8846925955231237
leaf_weight=153388 37534 63247 15113 45445 93771 22342 6878 61047 49047 22377 46895 14447 10474 5863 21905 54489 1037 14347 12307 9033 9222 85883 9788 10402 23023 11250 18531 22811 528 19466
leaf_count=153388 37534 63247 15113 45445 93771 22342 6878 61047 49047 22377 46895 14447 10474 5863 21905 54489 1037 14347 12307 9033 9222 85883 9788 10402 23023 11250 18531 22811 528 19466
internal_value=0 -1.51575 4.55605 0.0181044 -2.3119 3.06744 6.62563 -2.64161 -0.556348 2.34901 0.853092 3.97411 -1.65415 5.762 7.61474 -1.72906 -0.731624 3.62143 -0.164366 2.01962 0.533915 -2.78076 2.82589 5.29086 -0.83512 4.47766 7.17811 6.18124 1.12431 -2.2281
internal_weight=0 729269 242621 249186 480083 141118 101503 319784 147624 78732 101562 62386 160299 54189 47314 148260 12039 36689 61354 46567 54667 239271 32165 25515 86270 25697 25409 28674 1565 80513
internal_count=971890 729269 242621 249186 480083 141118 101503 319784 147624 78732 101562 62386 160299 54189 47314 148260 12039 36689 61354 46567 54667 239271 32165 25515 86270 25697 25409 28674 1565 80513
is_linear=0
shrinkage=0.01


Tree=27
num_leaves=31
num_cat=0
