tree
version=v3
num_class=1
num_tree_per_iteration=1
label_index=0
max_feature_idx=264
objective=regression
feature_names=TurbID Wspd Wdir Etmp Itmp Ndir Pab1 Pab2 Pab3 Prtv Patv Wspd_simple_diff Wspd_simple_diff2 Wspd_rolling_mean6 Wspd_rolling_max6 Wspd_rolling_min6 Wspd_rolling_std6 Wspd_rolling_mean_diff6 Wspd_rolling_mean_diffn6 Wspd_rolling_mean_cal6 Wspd_rolling_mean12 Wspd_rolling_max12 Wspd_rolling_min12 Wspd_rolling_std12 Wspd_rolling_mean_diff12 Wspd_rolling_mean_diffn12 Wspd_rolling_mean_cal12 Wspd_rolling_mean36 Wspd_rolling_max36 Wspd_rolling_min36 Wspd_rolling_std36 Wspd_rolling_mean_diff36 Wspd_rolling_mean_diffn36 Wspd_rolling_mean_cal36 Wspd_rolling_mean72 Wspd_rolling_max72 Wspd_rolling_min72 Wspd_rolling_std72 Wspd_rolling_mean_diff72 Wspd_rolling_mean_diffn72 Wspd_rolling_mean_cal72 Wspd_rolling_mean144 Wspd_rolling_max144 Wspd_rolling_min144 Wspd_rolling_std144 Wspd_rolling_mean_diff144 Wspd_rolling_mean_diffn144 Wspd_rolling_mean_cal144 Wspd_past0 Wspd_past1 Wspd_past2 Wspd_past3 Wspd_past4 Wdir_simple_diff Wdir_simple_diff2 Wdir_rolling_mean6 Wdir_rolling_max6 Wdir_rolling_min6 Wdir_rolling_std6 Wdir_rolling_mean_diff6 Wdir_rolling_mean_diffn6 Wdir_rolling_mean_cal6 Wdir_rolling_mean12 Wdir_rolling_max12 Wdir_rolling_min12 Wdir_rolling_std12 Wdir_rolling_mean_diff12 Wdir_rolling_mean_diffn12 Wdir_rolling_mean_cal12 Wdir_rolling_mean36 Wdir_rolling_max36 Wdir_rolling_min36 Wdir_rolling_std36 Wdir_rolling_mean_diff36 Wdir_rolling_mean_diffn36 Wdir_rolling_mean_cal36 Wdir_rolling_mean72 Wdir_rolling_max72 Wdir_rolling_min72 Wdir_rolling_std72 Wdir_rolling_mean_diff72 Wdir_rolling_mean_diffn72 Wdir_rolling_mean_cal72 Wdir_rolling_mean144 Wdir_rolling_max144 Wdir_rolling_min144 Wdir_rolling_std144 Wdir_rolling_mean_diff144 Wdir_rolling_mean_diffn144 Wdir_rolling_mean_cal144 Wdir_past0 Wdir_past1 Wdir_past2 Wdir_past3 Wdir_past4 Etmp_simple_diff Etmp_simple_diff2 Etmp_rolling_mean6 Etmp_rolling_max6 Etmp_rolling_min6 Etmp_rolling_std6 Etmp_rolling_mean_diff6 Etmp_rolling_mean_diffn6 Etmp_rolling_mean_cal6 Etmp_rolling_mean12 Etmp_rolling_max12 Etmp_rolling_min12 Etmp_rolling_std12 Etmp_rolling_mean_diff12 Etmp_rolling_mean_diffn12 Etmp_rolling_mean_cal12 Etmp_rolling_mean36 Etmp_rolling_max36 Etmp_rolling_min36 Etmp_rolling_std36 Etmp_rolling_mean_diff36 Etmp_rolling_mean_diffn36 Etmp_rolling_mean_cal36 Etmp_rolling_mean72 Etmp_rolling_max72 Etmp_rolling_min72 Etmp_rolling_std72 Etmp_rolling_mean_diff72 Etmp_rolling_mean_diffn72 Etmp_rolling_mean_cal72 Etmp_rolling_mean144 Etmp_rolling_max144 Etmp_rolling_min144 Etmp_rolling_std144 Etmp_rolling_mean_diff144 Etmp_rolling_mean_diffn144 Etmp_rolling_mean_cal144 Etmp_past0 Etmp_past1 Etmp_past2 Etmp_past3 Etmp_past4 Itmp_simple_diff Itmp_simple_diff2 Itmp_rolling_mean6 Itmp_rolling_max6 Itmp_rolling_min6 Itmp_rolling_std6 Itmp_rolling_mean_diff6 Itmp_rolling_mean_diffn6 Itmp_rolling_mean_cal6 Itmp_rolling_mean12 Itmp_rolling_max12 Itmp_rolling_min12 Itmp_rolling_std12 Itmp_rolling_mean_diff12 Itmp_rolling_mean_diffn12 Itmp_rolling_mean_cal12 Itmp_rolling_mean36 Itmp_rolling_max36 Itmp_rolling_min36 Itmp_rolling_std36 Itmp_rolling_mean_diff36 Itmp_rolling_mean_diffn36 Itmp_rolling_mean_cal36 Itmp_rolling_mean72 Itmp_rolling_max72 Itmp_rolling_min72 Itmp_rolling_std72 Itmp_rolling_mean_diff72 Itmp_rolling_mean_diffn72 Itmp_rolling_mean_cal72 Itmp_rolling_mean144 Itmp_rolling_max144 Itmp_rolling_min144 Itmp_rolling_std144 Itmp_rolling_mean_diff144 Itmp_rolling_mean_diffn144 Itmp_rolling_mean_cal144 Itmp_past0 Itmp_past1 Itmp_past2 Itmp_past3 Itmp_past4 Ndir_simple_diff Ndir_simple_diff2 Ndir_rolling_mean6 Ndir_rolling_max6 Ndir_rolling_min6 Ndir_rolling_std6 Ndir_rolling_mean_diff6 Ndir_rolling_mean_diffn6 Ndir_rolling_mean_cal6 Ndir_rolling_mean12 Ndir_rolling_max12 Ndir_rolling_min12 Ndir_rolling_std12 Ndir_rolling_mean_diff12 Ndir_rolling_mean_diffn12 Ndir_rolling_mean_cal12 Ndir_rolling_mean36 Ndir_rolling_max36 Ndir_rolling_min36 Ndir_rolling_std36 Ndir_rolling_mean_diff36 Ndir_rolling_mean_diffn36 Ndir_rolling_mean_cal36 Ndir_rolling_mean72 Ndir_rolling_max72 Ndir_rolling_min72 Ndir_rolling_std72 Ndir_rolling_mean_diff72 Ndir_rolling_mean_diffn72 Ndir_rolling_mean_cal72 Ndir_rolling_mean144 Ndir_rolling_max144 Ndir_rolling_min144 Ndir_rolling_std144 Ndir_rolling_mean_diff144 Ndir_rolling_mean_diffn144 Ndir_rolling_mean_cal144 Ndir_past0 Ndir_past1 Ndir_past2 Ndir_past3 Ndir_past4 Patv_simple_diff Patv_simple_diff2 Patv_rolling_mean6 Patv_rolling_max6 Patv_rolling_min6 Patv_rolling_std6 Patv_rolling_mean_diff6 Patv_rolling_mean_diffn6 Patv_rolling_mean_cal6 Patv_rolling_mean12 Patv_rolling_max12 Patv_rolling_min12 Patv_rolling_std12 Patv_rolling_mean_diff12 Patv_rolling_mean_diffn12 Patv_rolling_mean_cal12 Patv_rolling_mean36 Patv_rolling_max36 Patv_rolling_min36 Patv_rolling_std36 Patv_rolling_mean_diff36 Patv_rolling_mean_diffn36 Patv_rolling_mean_cal36 Patv_rolling_mean72 Patv_rolling_max72 Patv_rolling_min72 Patv_rolling_std72 Patv_rolling_mean_diff72 Patv_rolling_mean_diffn72 Patv_rolling_mean_cal72 Patv_rolling_mean144 Patv_rolling_max144 Patv_rolling_min144 Patv_rolling_std144 Patv_rolling_mean_diff144 Patv_rolling_mean_diffn144 Patv_rolling_mean_cal144 Patv_past0 Patv_past1 Patv_past2 Patv_past3 Patv_past4 hour time_index
feature_infos=[102:134] [0:23.690000000000001] [-928.71000000000004:175.09] [-272.97000000000003:394.32999999999998] [-272.97000000000003:102.13] [-637.90999999999997:700.44000000000005] [-1.9933333333333334:93.576666666666668] [-2:90.870000000000005] [-1.99:99.980000000000004] [-500.19999999999999:419.79000000000002] [0:1521.5699999999999] [-13.31:16.060000000000002] [-19.620000000000001:21.66] [0:22.668333333333337] [0:24.43] [0:21.550000000000001] [0:7.7394332264492638] [-2.6266666666666669:2.8383333333333365] [-17.999999999999996:19.816666666666666] [-10.813333333333333:9.9416666666666664] [0:21.716666666666669] [0:26.289999999999999] [0:19.59] [0:7.5708958278636986] [-1.2741666666666696:1.6300000000000008] [-17.038333333333334:19.533333333333335] [-13.523333333333335:11.260833333333336] [0:19.189722222222219] [0:26.289999999999999] [0:16.460000000000001] [0:7.7331883555786263] [-0.51666666666666661:0.61972222222222229] [-15.056111111111113:16.439722222222223] [-18.313333333333333:13.191666666666665] [0:19.056111111111111] [0:26.289999999999999] [0:15.81] [0:7.3145308129299895] [-0.31208333333333371:0.3098611111111107] [-12.803750000000001:14.942638888888885] [-19.173611111111114:12.417916666666665] [0.035095108695652175:18.001111111111115] [0.2406521739130435:26.289999999999999] [0:14.460000000000001] [0.044338620266575007:6.6001586107357069] [-0.15381944444444517:0.14222222222222314] [-10.344027777777779:13.554791666666665] [-19.706944444444446:13.50763888888889] [0:24.43] [0:24.43] [0:24.43] [0:23.629999999999999] [0:23.699999999999999] [-298.59000000000003:2101.75] [-1799.79:1029.1900000000001] [-658.52333333333331:478.31666666666666] [-168.84999999999999:1797.48] [-3030.46:164.97] [0:1220.9844287199844] [-153.95499999999998:358.75166666666667] [-667.6633333333333:658.35333333333335] [-654.15333333333331:490.17666666666668] [-329.22250000000003:239.54250000000005] [-155.15000000000001:1797.48] [-3030.46:153.05000000000001] [0:891.92806763060923] [-89.649166666666645:67.663333333333341] [-330.26999999999998:328.92833333333334] [-324.21499999999997:599.48749999999995] [-150.14361111111114:157.43972222222223] [-109.08:1797.48] [-3030.46:143.40000000000001] [0:524.9035522911397] [-26.30194444444443:84.027777777777786] [-153.25305555555556:157.4325] [-283.98750000000001:822.44916666666677] [-120.0522222222222:150.67402777777778] [-62.75:1797.48] [-3030.46:138.41] [0:372.55257133871942] [-12.990277777777777:42.072638888888889] [-127.1495138888889:151.69555555555556] [-238.08472222222224:876.24694444444447] [-63.942743055555553:149.00677083333332] [-38.369999999999997:1797.48] [-3030.46:94.400000000000006] [0.006952232480040399:264.23662977171028] [-6.430347222222224:14.970138888888888] [-124.42593749999999:141.37239583333331] [-203.24465277777779:902.36395833333336] [-3030.46:175.47999999999999] [-1872.3199999999999:1797.48] [-928.71000000000004:1078.1700000000001] [-3030.46:384.97000000000003] [-1872.3199999999999:356.27999999999997] [-666.05999999999995:667] [-667.26999999999998:667.03999999999996] [-272.69000000000005:394.32999999999998] [-272.64000000000004:394.32999999999998] [-272.97000000000003:394.32999999999998] [0:361.57840897929736] [-111.00500000000002:108.72500000000001] [-656.35500000000002:657.56999999999994] [-451.07833333333338:544.89166666666665] [-272.11999999999995:394.32999999999998] [-271.83999999999997:394.32999999999998] [-272.97000000000003:394.32999999999998] [0:341.31661882756123] [-55.605833333333322:55.586666666666702] [-653.58333333333337:653.58333333333337] [-490.2233333333333:599.38083333333327] [-259.36597222222218:394.32999999999998] [-250.43000000000001:394.32999999999998] [-272.97000000000003:394.32999999999998] [0:325.95743226855734] [-18.535277777777793:18.535277777777765] [-651.77166666666665:651.87833333333333] [-597.03055555555557:635.70694444444439] [-258.80416666666667:394.32999999999998] [-250.43000000000001:394.32999999999998] [-272.97000000000003:394.32999999999998] [0:326.53793540255646] [-9.2676388888888823:9.2647222222222183] [-651.26986111111114:645.14569444444442] [-624.14444444444439:644.78791666666666] [-251.30610507246377:394.32999999999998] [-6.9854347826086922:394.32999999999998] [-272.97000000000003:394.32999999999998] [0:326.25058053373863] [-4.6338194444443843:4.6338194444443843] [-628.77312500000005:628.63666666666654] [-540.59375:652.28618055555557] [-272.94:394.32999999999998] [-272.95999999999998:394.32999999999998] [-272.95999999999998:394.32999999999998] [-272.94:394.32999999999998] [-272.97000000000003:394.32999999999998] [-304.98000000000002:313.43000000000001] [-317.25717557251909:318.13] [-272.69:77.001666666666665] [-272.64000000000004:104.44] [-272.97000000000003:55.170000000000002] [0:166.37529537163908] [-52.486666666666657:51.766666666666644] [-310.80272727272728:310.29924242424238] [-250.01333333333332:256.54666666666668] [-272.12:90.226666666666674] [-271.83999999999997:104.44] [-272.97000000000003:54.740000000000002] [0:160.49364637891102] [-26.233333333333338:26.170000000000016] [-310.91250000000002:306.83174242424241] [-256.52750000000003:284.46249999999998] [-259.36597222222218:71.129444444444445] [-250.43000000000001:104.44] [-272.97000000000003:53.07] [0.028733601124161082:155.28280744621006] [-8.6872222222222248:8.8572222222222194] [-296.35416666666669:297.91638888888889] [-272.54069444444445:301.6513888888889] [-258.80416666666667:55.926111111111112] [-250.43000000000001:104.44] [-272.97000000000003:52.004303797468353] [0.057077589639900929:148.31879908900316] [-4.3740277777777763:4.3768055555555563] [-294.09748188405803:297.16180555555559] [-280.39680555555555:303.91847222222219] [-251.41860205314009:51.994026898734177] [-6.4506521739130385:104.44] [-272.97000000000003:50.341645569620255] [0.11376356514852579:149.10808802982154] [-2.2381249999999966:2.2012500000000017] [-284.72825483091788:287.29774456521739] [-268.97381944444447:309.59791666666666] [-272.94:68.799999999999997] [-272.95999999999998:72.349999999999994] [-272.95999999999998:104.25] [-272.97000000000003:104.44] [-272.97000000000003:104.02] [-196.51999999999998:179.72] [-837.68000000000006:836.63999999999999] [-604.48166666666668:693.58500000000004] [-577.73000000000002:700.44000000000005] [-637.90999999999997:688.32000000000005] [0:194.82334063624737] [-76.585000000000093:71.288333333333355] [-823.84333333333336:811.77999999999997] [-258.005:283.83166666666659] [-577.53583333333336:688.87333333333333] [-577.38999999999999:700.44000000000005] [-637.90999999999997:683.62] [0:215.22972970230404] [-47.971666666666678:41.639166666666654] [-822.04666666666674:797.36833333333334] [-327.40250000000003:348.83999999999997] [-577.39972222222218:676.91611111111115] [-577.10000000000002:700.44000000000005] [-637.90999999999997:655.04999999999995] [0:304.00306360650723] [-20.436388888888871:15.841944444444437] [-797.90944444444449:781.32499999999993] [-413.53777777777776:513.96583333333331] [-560.98652777777772:656.78694444444443] [-536.24000000000001:700.44000000000005] [-637.90999999999997:626.40999999999997] [0:327.03478477701259] [-11.341805555555553:9.2411111111111097] [-786.39430555555555:719.60180555555553] [-481.35333333333335:639.96138888888891] [-548.61326388888892:590.23152777777784] [-491.79000000000002:700.44000000000005] [-637.90999999999997:551.49000000000001] [0:341.10723244849413] [-6.2015972222222331:5.5777083333333337] [-780.43607638888898:658.16777777777781] [-576.62673611111109:707.229375] [-637.90999999999997:694.96000000000004] [-637.90999999999997:700.38] [-637.90999999999997:700.38] [-609.85000000000002:700.14999999999998] [-637.90999999999997:700.44000000000005] [-1482.9359999999999:1471.8520000000001] [-1520.8:1521.5699999999999] [0:1519.8433333333335] [0:1523.2] [0:1519.6099999999999] [0:794.61651031802774] [-251.12166666666667:253.39666666666682] [-1519.5550000000003:1519.7033333333331] [-1224.6338888888886:1206.9393333333335] [0:1519.7441666666671] [0:1523.2] [0:1519.5899999999999] [0:762.13447046053693] [-125.57666666666665:126.68583333333328] [-1518.8512500000002:1518.4075] [-1288.8791666666666:1270.1541666666665] [0:1519.0680555555557] [0:1523.2] [0:1510.9400000000001] [0:702.79085347165335] [-42.205277777777724:42.247222222222206] [-1465.0223611111112:1509.2075] [-1351.1658888888887:1273.7660000000001] [0:1517.1300000000001] [0:1523.2] [0:1479.4100000000001] [0:719.61252164151517] [-21.125416666666752:21.121249999999918] [-1322.2474999999999:1447.9299305555558] [-1383.6472222222224:1274.4148611111111] [0.30618055555555557:1469.7720833333335] [4.0729276315789473:1523.2] [0:874.05999999999995] [0.0096046354570741253:661.33185779653229] [-10.558194444444439:10.559375000000045] [-1090.9448715277781:1321.0982696759258] [-1446.9761979166667:1213.4925694444444] [0:1521.8299999999999] [0:1523.2] [0:1521.5699999999999] [0:1521.5699999999999] [0:1521.2] -1:3:23:9:22:20:21:15:13:14:19:18:8:12:6:2:1:0:16:10:7:11:17:4:5 -1:4:5:3:1:0:2
tree_sizes=5394 5574 5566 5616 5602 5583 5581 5561 5589 5525 5636 5592 5576 5641 5541 5612 5542 5535 5616 5585 5577 5599 5546 5645 5548 5588 5573 5545 5623 5577 5528 5581 5590 5559 5630 5632 5591 5638 5602 5602 5579 5549 5596 5554 5605 5581 5592 5587 5564 5567 5583 5548 5609 5574 5654 5553 5558 5612 5564 5562 5541 5629 5578 5512 5613 5603 5575 5603 5597 5574 5606 5561 5644 5597 5615 5611 5615 5566 5599 5588 5564 5593 5583 5616 5651 5619 5651 5586 5523 5564 5558 5546 5595 5570 5611 5593 5573 5576 5568 5581 5612 5607 5590 5605 5634 5595 5581 5627 5578 5614 5595 5557 5616 5615 5610 5570 5585 5580 5608 5572 5577 5618 5553 5575 5625 5557 5601 5567 5576 5575 5588 5607 5572 5588 5561 5610 5605 5616 5580 5531 5541 5603 5565 5625 5574 5602 5575 5592 5605 5633 5608 5537 5612 5598 5636 5572 5619 5594 5599 5539 5593 5619 5650 5591 5570 5561 5625 5603 5604 5622 5632 5598 5612 5653 5576 5610 5590 5605 5537 5602 5611 5623 5592 5587 5551 5557 5584 5619 5595 5622 5587 5604 5566 5594 5620 5627 5610 5615 5608 5574 5608 5580 5627 5666 5551 5652 5609 5620 5592 5628 5620 5617 5599 5641 5560 5600 5603 5605 5618 5564 5579 5581 5620 5565 5578 5566 5567 5612 5551 5626 5618 5612 5623 5588 5587 5593 5598 5595 5631 5658 5635 5553 5572 5592 5616 5583 5603 5596 5647 5584 5600 5586 5572 5514 5621 5609 5551 5542 5574 5577 5583 5561 5569 5601 5583 5572 5565 5568 5642 5626 5582 5636 5669 5620 5620 5598 5655 5614 5613 5604 5601 5507 5619 5569 5617 5569 5583 5584 5597 5564 5587 5569 5550 5570 5627 5621 5637 5593 5623 5644 5589 5562 5582 5630 5605 5628 5611 5567 5584 5570 5617 5524 5603 5566 5606 5633 5607 5618 5662 5650 5647 5591 5582 5613 5593 5565 5625 5600 5592 5599 5619 5600 5622 5587 5568 5611 5583 5604 5622 5625 5627 5596 5647 5595 5549 5650 5610 5621 5614 5565 5601 5588 5652 5597 5560 5630 5623 5634 5653 5606 5616 5607 5600 5602 5633 5558 5622 5584 5636 5572 5561 5630 5588 5576 5642 5575 5628 5635 5603 5628 5612 5617 5612 5574 5597 5632 5588 5637 5587 5609 5613 5631 5604 5603 5558 5601 5602 5620 5626 5590 5627 5629 5607 5614 5633 5641 5630 5582 5600 5560 5607 5548 5605 5629 5575 5634 5553 5555 5562 5675 5637 5590 5624 5650 5601 5615 5603 5606 5604 5635 5625 5599 5608 5664 5577 5555 5549 5578 5591 5625 5622 5633 5616 5618 5573 5592 5636 5584 5610 5600 5576 5621 5626 5635 5660 5605 5591 5608 5613 5602 5578 5567 5581 5569 5591 5636 5628 5587 5615 5606 5616 5601 5569 5607 5609 5623 5621 5588 5593 5621 5635 5620 5640 5601 5619 5579 5610 5584 5613 5631 5616 5641 5616 5621 5645 5582 5574 5579 5640 5662 5616 5612 5577 5648 5579 5624 5619 5602 5589 5589 5616 5607 5623 5653 5594 5584 5605 5609 5621 5584 5582 5595 5622 5547 5606 5591 5628 5600 5563 5612 5635 5607 5535 5616 5667 5637 5665 5636 5560 5617 5584 5594 5626 5622 5594 5583 5593 5611 5623 5590 5608 5608 5652 5602 5595 5615 5608 5610 5588 5540 5685 5640 5583 5600 5579 5591 5621 5592 5607 5614 5624 5586 5644 5596 5659 5649 5600 5622 5589 5629 5573

Tree=0
num_leaves=57
num_cat=0
split_feature=257 77 8 160 160 262 77 77 192 77 160 8 240 160 192 240 56 262 257 160 77 257 77 240 262 257 262 77 77 8 192 240 160 262 160 8 262 160 67 240 77 257 192 240 240 67 56 67 77 77 257 240 107 192 240 262
split_gain=6.42198e+08 2.78495e+08 2.55931e+08 2.54487e+08 2.47162e+08 9.04232e+07 6.93643e+07 1.07504e+08 6.55749e+07 5.76962e+07 5.74982e+07 5.22667e+07 4.6022e+07 4.0432e+07 3.98983e+07 3.831e+07 3.64569e+07 3.63235e+07 3.41282e+07 3.3562e+07 4.78674e+07 4.81186e+07 1.0762e+08 3.5251e+07 4.22296e+07 3.37885e+07 3.30226e+07 3.12128e+07 4.96266e+07 3.08742e+07 2.90231e+07 2.73885e+07 3.4161e+07 2.72654e+07 2.62654e+07 3.84707e+07 2.56999e+07 2.47958e+07 2.64095e+07 2.47518e+07 2.4678e+07 2.41386e+07 2.37905e+07 2.32047e+07 2.28036e+07 2.10272e+07 2.17517e+07 2.10051e+07 2.05343e+07 2.59379e+07 3.8293e+07 2.88493e+07 2.30427e+07 1.91156e+07 1.86407e+07 2.35016e+07
threshold=-16.478456307870356 17.525000000000002 0.061020408163265316 23.741597222222225 26.919930555555563 887.7700000000001 2.5725000000000002 5.5150000000000006 0.94916666666665972 45.445000000000007 21.029583333333338 0.14181818181818187 90.629848161008326 19.673611111111111 0.084583333333313263 171.75780853609956 -13.864999999999997 1518.0900000000001 -615.86957002314807 19.673611111111111 44.725000000000001 226.70813657407408 156.30500000000004 11.543909817184346 3.8290996168582381 160.33683407738096 763.93000000000018 157.63500000000002 83.670000000000016 0.56081632653061242 1.047499999999989 364.71794781007475 20.857916666666672 113.67416666666669 31.065902777777783 12.165000000000001 874.92500000000007 28.264513888888892 -24.156249999999986 45.144605421995621 6.455000000000001 240.36353472222228 -0.23999999999997354 46.097618452086323 336.26085052604122 35.314166666666672 5.5750000000000011 31.059166666666673 117.37500000000001 159.18500000000003 271.85785590277777 8.3164375488664284 0.60937219306642221 1.0000000180025095e-35 232.42026918440482 1286.3650000000002
decision_type=2 2 2 2 2 2 2 2 2 2 2 2 2 2 2 2 2 2 2 2 2 2 2 2 2 2 2 2 2 2 2 2 2 2 2 2 2 2 2 2 2 2 2 2 2 2 2 2 2 2 2 2 2 2 2 2
left_child=1 2 13 31 19 9 26 8 12 42 -3 -7 -8 -1 -15 -10 41 30 44 23 36 33 53 24 -2 -25 -5 28 43 -20 37 -4 -33 -22 -31 47 -21 -9 -39 -24 -13 -11 -6 -12 -14 46 54 -36 52 -50 51 -51 -18 -23 55 -40
right_child=4 10 3 6 5 11 7 17 15 16 27 40 18 14 -16 -17 48 -19 29 20 21 22 39 25 -26 -27 -28 -29 -30 34 -32 32 -34 -35 35 -37 -38 38 45 -41 -42 -43 -44 -45 -46 -47 -48 -49 49 50 -52 -53 -54 -55 -56 -57
leaf_value=359.10730455422726 359.17040441587642 359.16352591389165 359.20194517848955 359.57482511628672 359.13758441790401 359.27418138080691 359.38350504473419 359.43954713001847 359.77005764158383 359.01717620228953 359.04879913676132 359.67830815444256 359.44523655989775 359.38322751591284 359.24287632048492 359.25304967270733 359.24023506592931 359.15727514535195 359.60768121694889 359.07586001198922 359.10432742715653 359.32219256529936 360.12577636961117 359.15553072742102 358.8618693217449 359.03351014756555 359.14221210155091 359.44274836474153 359.22510091037697 359.73627631763998 359.4084194223596 359.24196755792292 359.81371034781074 359.26401712487569 360.12345952349062 359.56145436857776 359.32822049280838 359.34873834774606 359.83415899941673 359.44379273295658 359.39797505254194 359.30334097426731 359.2021274751807 359.31895516495132 359.92967973638974 359.15100602885133 359.47190999082227 359.29516966926627 359.18858924027887 358.84849544550696 359.79157800450844 359.35828138425359 359.30631862192109 359.11089049676218 359.60529355641245 359.50146850443662
leaf_weight=4523 2508 18472 10031 1072 34316 5958 891 4144 933 4443 1299 2756 1166 15345 17164 1487 49516 1039 1111 33069 15743 4437 739 18203 6067 18107 2066 4747 43405 1509 5293 1029 704 5872 4368 601 1697 1354 4536 299 2308 1605 68329 60655 583 340 2164 126 28485 537 688 2565 36786 2789 5183 1045
leaf_count=4523 2508 18472 10031 1072 34316 5958 891 4144 933 4443 1299 2756 1166 15345 17164 1487 49516 1039 1111 33069 15743 4437 739 18203 6067 18107 2066 4747 43405 1509 5293 1029 704 5872 4368 601 1697 1354 4536 299 2308 1605 68329 60655 583 340 2164 126 28485 537 688 2565 36786 2789 5183 1045
internal_value=359.242 359.326 359.412 359.501 359.188 359.224 359.576 359.599 359.749 359.216 359.267 359.401 359.818 359.284 359.309 359.452 359.245 359.523 359.859 359.109 359.139 359.197 359.327 359.067 358.952 359.095 359.29 359.284 359.277 359.916 359.539 359.242 359.474 359.148 359.968 360.037 359.088 359.576 359.615 359.929 359.551 359.093 359.181 359.313 359.607 359.642 359.655 360.1 359.252 359.209 359.365 359.27 359.268 359.241 359.692 359.772
internal_weight=0 218385 89807 52775 347822 238292 41011 37873 12775 227270 128578 11022 10355 37032 32509 2420 124625 25098 9464 109530 64645 29879 8264 44885 8575 36310 3138 110106 105359 7715 24059 11764 1733 21615 6604 5095 34766 18766 14622 1038 5064 6048 102645 61954 1749 13268 12928 4494 118577 32275 3790 3102 86302 7226 10764 5581
internal_count=566207 218385 89807 52775 347822 238292 41011 37873 12775 227270 128578 11022 10355 37032 32509 2420 124625 25098 9464 109530 64645 29879 8264 44885 8575 36310 3138 110106 105359 7715 24059 11764 1733 21615 6604 5095 34766 18766 14622 1038 5064 6048 102645 61954 1749 13268 12928 4494 118577 32275 3790 3102 86302 7226 10764 5581
is_linear=0
shrinkage=1


Tree=1
num_leaves=57
num_cat=0
split_feature=15 257 177 205 141 253 197 180 141 253 253 141 206 237 237 180 197 180 141 7 237 180 253 197 257 205 180 206 197 206 237 7 206 237 180 231 197 253 180 205 253 180 180 180 257 7 231 205 180 257 180 205 231 177 206 257
split_gain=7.07047e+08 3.13443e+08 1.86066e+08 1.80945e+08 1.33069e+08 1.4227e+08 1.33687e+08 1.89465e+08 1.13029e+08 1.24878e+08 1.68874e+08 8.90175e+07 1.05265e+08 8.80276e+07 9.72548e+07 8.03769e+07 8.40197e+07 7.20133e+07 6.74516e+07 6.51656e+07 7.13976e+07 6.50209e+07 6.30236e+07 1.2796e+08 6.24315e+07 6.05943e+07 6.48583e+07 5.97687e+07 5.95374e+07 6.16915e+07 5.72277e+07 5.52699e+07 5.46098e+07 5.42849e+07 5.3427e+07 5.19266e+07 5.17815e+07 4.7303e+07 4.55715e+07 4.43446e+07 4.23702e+07 4.22229e+07 4.91079e+07 4.09281e+07 3.80209e+07 4.10583e+07 3.69316e+07 5.37454e+07 3.67291e+07 3.51528e+07 3.40097e+07 4.50046e+07 4.80094e+07 3.37081e+07 3.32794e+07 3.26184e+07
threshold=7.8509591836734698 -16.478456307870356 24.955000000000002 69.843408501870883 19.835000000000004 0.052500000000000012 261.96500000000009 -112.32999999999998 27.685000000000006 18.930000000000003 133.50000000000003 25.935000000000006 1.8843749999999988 1334.2559722222225 751.97805555555567 -6.1300000000000372 -135.25499999999997 -214.36499999999998 35.880222672064782 0.010099601593625501 699.09085858585865 19.86000000000001 68.805000000000021 135.66500000000002 189.6643450292398 42.733308824501961 97.220000000000027 0.57375000000000853 121.855 1.057777777777716 464.27325925925931 1.020085106382979 -0.10638888888888774 434.91151388888898 -126.295 1192.9950000000001 247.28500000000005 224.38000000000002 56.100000000000016 36.249131711758814 11.400078125000002 173.67500000000004 -6.1300000000000372 -30.369999999999997 240.36353472222228 85.095000000000013 1181.3550000000002 8.9063510415644682 70.235000000000028 472.78965422453706 -214.36499999999998 21.486723020951196 611.71500000000015 35.31272727272728 1.9940277777777811 -346.96726041666665
decision_type=2 2 2 2 2 2 2 2 2 2 2 2 2 2 2 2 2 2 2 2 2 2 2 2 2 2 2 2 2 2 2 2 2 2 2 2 2 2 2 2 2 2 2 2 2 2 2 2 2 2 2 2 2 2 2 2
left_child=1 11 21 4 -2 34 7 17 -8 46 13 25 15 14 38 16 -13 37 28 20 -18 22 39 33 -9 -1 35 53 -4 40 41 -19 -12 -24 -6 43 -17 -7 -11 49 -30 42 -20 -27 45 54 48 -48 -10 -3 -21 52 -52 -16 -31 -50
right_child=3 2 18 -5 5 6 8 24 9 10 32 12 -14 -15 27 36 19 31 30 50 -22 -23 23 -25 -26 26 -28 -29 29 44 -32 -33 -34 -35 -36 -37 -38 -39 -40 -41 -42 -43 -44 -45 -46 -47 47 -49 55 -51 51 -53 -54 -55 -56 -57
leaf_value=-0.091986956370236628 -0.093700528380275316 -0.1815561195611396 -0.10673941194220142 -0.11248830264707493 0.25629971960193015 0.31945574576538527 0.12125807588965493 0.13910127096996969 0.12634676340415424 0.03342975933647855 0.5823527533876155 -0.085350808866909073 -0.078605918897661387 0.092150160341005066 0.91508604656860404 -0.012650351436363933 0.053625469915513792 0.18384773164626966 0.065074121617087588 0.36641825373159581 0.40421300871674143 -0.20508470434840548 0.59663178310796927 -0.2236558253831844 -0.12893824467025969 -0.016005011962267821 -0.13369864733054801 0.15323402164225675 -0.041778969450481408 0.15568902311039542 -0.098319818173511098 0.62996212480052927 0.15063269167303736 0.01601749168669727 -0.056554762357395046 0.64645453646896012 0.12576369605947199 -0.14682785206388038 0.77374033227510375 -0.027594164564550036 -0.17785618218181079 0.13854577577167645 -0.055976734317659954 0.21264462037054485 0.12598838524262099 -0.12807539696137912 0.66550442200204596 -0.0051211607464620064 1.0091223903558193 0.13857224505467397 0.60080863944232121 0.12425217473606344 0.22083560826375484 1.3313440448952176 -0.03379076188926463 0.35671836202633306
leaf_weight=26442 5521 27179 64744 7987 2954 4464 4520 18671 849 546 2043 5191 15391 555 1238 28733 17598 1405 30183 7417 2677 38577 1883 2465 4271 6125 5121 245 49115 6680 15710 5306 2749 979 8370 739 17333 1081 851 13866 11249 12914 24116 6407 12634 7837 575 2834 585 1445 1929 10552 4284 2095 8333 644
leaf_count=26442 5521 27179 64744 7987 2954 4464 4520 18671 849 546 2043 5191 15391 555 1238 28733 17598 1405 30183 7417 2677 38577 1883 2465 4271 6125 5121 245 49115 6680 15710 5306 2749 979 8370 739 17333 1081 851 13866 11249 12914 24116 6407 12634 7837 575 2834 585 1445 1929 10552 4284 2095 8333 644
internal_value=0 -0.0293313 -0.0642566 0.173192 0.204719 0.229365 0.271031 0.196451 0.400159 0.479901 0.609501 0.0445575 0.0749123 0.847637 0.931918 0.0995983 0.155426 0.397211 -0.0359658 0.18354 0.0999151 -0.143999 -0.0947167 0.110349 0.0892017 -0.0306659 0.0574947 1.10665 -0.0598846 -0.0282347 0.0103563 0.536565 0.33469 0.398022 0.025057 0.131272 0.0394299 0.228554 0.484399 -0.120426 -0.0671373 0.0357576 0.0113114 0.100892 0.0379448 -0.0107353 0.2361 0.107994 0.446262 -0.165395 0.253654 0.203765 0.338809 1.17673 0.0505178 0.667261
internal_weight=0 485848 329909 80359 72372 66851 55527 35198 20329 15809 10322 155939 111105 5530 4975 95714 49648 12256 243515 44457 20275 86394 47817 5327 22942 44834 18392 3578 160592 95848 82923 6711 4792 2862 11324 13271 46066 5545 1397 42490 60364 67213 54299 12532 35484 22850 5487 3409 2078 28624 24182 16765 6213 3333 15013 1229
internal_count=566207 485848 329909 80359 72372 66851 55527 35198 20329 15809 10322 155939 111105 5530 4975 95714 49648 12256 243515 44457 20275 86394 47817 5327 22942 44834 18392 3578 160592 95848 82923 6711 4792 2862 11324 13271 46066 5545 1397 42490 60364 67213 54299 12532 35484 22850 5487 3409 2078 28624 24182 16765 6213 3333 15013 1229
is_linear=0
shrinkage=0.002


Tree=2
num_leaves=57
num_cat=0
split_feature=242 36 162 196 182 132 242 162 132 196 245 260 196 71 245 162 260 245 242 36 245 196 245 245 242 196 132 242 245 132 36 71 162 245 36 196 245 36 162 245 245 162 245 260 132 36 162 242 245 242 196 260 36 245 36 245
split_gain=8.99646e+08 3.4044e+08 2.5068e+08 2.62792e+08 2.48107e+08 2.1924e+08 2.35564e+08 1.47647e+08 1.45431e+08 8.99053e+07 8.13225e+07 7.43296e+07 6.3867e+07 6.3103e+07 1.06393e+08 6.26907e+07 6.89009e+07 1.06904e+08 6.43696e+07 5.80376e+07 5.68666e+07 5.86512e+07 5.536e+07 5.49605e+07 5.39379e+07 5.2388e+07 5.08473e+07 7.45472e+07 5.05098e+07 4.74689e+07 4.67567e+07 7.29091e+07 6.91554e+07 4.57647e+07 4.45649e+07 4.2418e+07 4.1363e+07 1.34711e+08 4.05013e+07 4.41192e+07 3.9912e+07 3.9798e+07 4.85424e+07 4.21734e+07 3.91634e+07 3.52073e+07 3.66428e+07 5.5294e+07 4.45203e+07 3.51072e+07 3.22233e+07 3.151e+07 3.14805e+07 4.31793e+07 3.10751e+07 3.17477e+07
threshold=76.123074845679028 5.6518750000000013 25.715000000000003 275.74500000000006 100.73500000000001 31.39049800796813 -352.8713425925925 16.705000000000002 17.305000000000003 85.905000000000015 565.16500000000008 955.34500000000014 13.075000000000001 -2.2993426294820711 1473.865 17.605000000000004 447.60000000000008 547.70500000000015 208.91045138888893 1.2725000000000002 1087.9750000000001 321.04500000000007 212.57000000000002 1404.9000000000003 615.85686342592601 389.69500000000005 17.785000000000004 837.56895601851863 1212.2600000000002 18.385000000000002 0.6150000000000001 -142.43499999999997 28.595000000000002 676.10500000000013 6.2703305785123975 302.20500000000004 811.10500000000013 2.1800699300699304 19.875000000000004 1410.4800000000002 233.80833333333337 38.223872340425537 1398.4650000000004 999.18000000000018 13.645000000000001 1.0250000000000001 30.104545454545459 475.90792328042335 1293.3400000000004 -585.10152777777773 -7.6884230769230761 775.08500000000015 1.993657342657343 385.30500000000006 3.1150000000000007 990.33000000000015
decision_type=2 2 2 2 2 2 2 2 2 2 2 2 2 2 2 2 2 2 2 2 2 2 2 2 2 2 2 2 2 2 2 2 2 2 2 2 2 2 2 2 2 2 2 2 2 2 2 2 2 2 2 2 2 2 2 2
left_child=5 4 26 12 15 6 49 -8 33 -9 52 23 -4 14 -13 36 17 18 -17 30 21 50 -23 28 -16 45 -3 -28 -5 -26 31 32 44 -6 -31 -35 37 -2 39 -18 -32 42 -14 -44 -11 -12 47 -47 -48 -1 -7 -37 -10 -54 55 -40
right_child=1 2 3 11 8 20 7 9 10 19 25 13 41 -15 24 16 38 -19 -20 -21 -22 22 -24 -25 29 -27 27 -29 -30 34 40 -33 -34 35 -36 51 -38 -39 54 -41 -42 -43 43 -45 -46 46 48 -49 -50 -51 -52 -53 53 -55 -56 -57
leaf_value=-0.22754174600989033 -0.086099514427920687 -0.12551292188229979 0.024005384852447315 0.14882156973999816 0.026728315576049905 -0.162675625011799 -0.16683795356958744 -0.13633708684767956 0.16201996403356778 -0.097517340103785211 -0.016606594536170253 1.130403075187437 0.57673787891751593 -0.043117152202560245 0.19614016624493788 0.26539368772636879 0.31986526558483919 0.045257197837280036 0.84646984395673197 -0.068085558575257762 -0.075763796926290816 0.34369032282543555 0.07162028609022654 0.20901789521548156 0.12492197584713438 -0.057446515290327266 0.0089391534114842928 0.36740305862114631 0.82490147467177521 0.072173871224576774 -0.10467187600168373 -0.066955865202281722 -0.15647532559776842 -0.26285148380340673 0.87224028747621607 -0.1395062226956964 -0.099552643820687681 0.71933378704015405 0.11113208943274162 1.0708566871672467 0.1077104153666668 0.056582009329288571 0.045772698507840097 0.3861290772609447 0.47929317736172689 0.066137658667270893 0.10684014719349771 0.25441518916803835 -0.05960735477408588 -0.14347094310283134 0.0072388040032379773 0.13923708955798927 0.94798087997362734 0.28388630061193887 0.15278737930016198 0.35096989497047859
leaf_weight=42668 2541 4699 5503 616 6005 4966 35651 21548 6004 576 20676 2139 2633 415 1062 3297 788 16451 992 28824 24447 3321 30155 2756 486 22138 7210 3422 1565 308 3953 23609 1428 10047 2906 6887 5051 1234 2681 519 33826 2350 2406 3689 2579 18034 13292 9540 12447 37183 44205 2122 517 1615 7720 12505
leaf_count=42668 2541 4699 5503 616 6005 4966 35651 21548 6004 576 20676 2139 2633 415 1062 3297 788 16451 992 28824 24447 3321 30155 2756 486 22138 7210 3422 1565 308 3953 23609 1428 10047 2906 6887 5051 1234 2681 519 33826 2350 2406 3689 2579 18034 13292 9540 12447 37183 44205 2122 517 1615 7720 12505
internal_value=0 0.0967705 0.254383 0.364254 0.058754 -0.065868 -0.100439 -0.0542315 0.0112786 -0.0197255 0.0441602 0.586363 0.200119 0.714326 0.759876 0.172919 0.203177 0.118574 0.39979 0.00678164 0.00897391 0.0340393 0.0986111 0.396739 0.593442 0.0279102 0.0477411 0.124314 0.63395 0.707479 0.0394926 -0.0221439 0.208702 -0.125521 0.795569 -0.173498 0.0188124 0.177186 0.275644 0.618078 0.0854878 0.287604 0.349806 0.251773 0.373986 0.0534495 0.0806189 0.131278 0.0263486 -0.188394 -0.00992162 -0.0738504 0.236154 0.444926 0.256105 0.308628
internal_weight=0 227268 44165 28834 183103 338939 231845 151994 129324 116343 104263 12253 16581 7316 6901 53779 44953 20740 4289 94795 107094 82647 33476 4937 4762 96127 15331 10632 2181 3700 65971 28192 4583 25061 3214 19056 8826 3775 24213 1307 37779 11078 8728 6095 3155 73989 53313 27574 25739 79851 49171 9009 8136 2132 22906 15186
internal_count=566207 227268 44165 28834 183103 338939 231845 151994 129324 116343 104263 12253 16581 7316 6901 53779 44953 20740 4289 94795 107094 82647 33476 4937 4762 96127 15331 10632 2181 3700 65971 28192 4583 25061 3214 19056 8826 3775 24213 1307 37779 11078 8728 6095 3155 73989 53313 27574 25739 79851 49171 9009 8136 2132 22906 15186
is_linear=0
shrinkage=0.002


Tree=3
num_leaves=57
num_cat=0
split_feature=249 99 1 249 99 129 244 129 121 121 228 99 129 129 249 228 101 34 34 121 244 129 129 1 34 34 129 129 1 34 129 34 34 249 34 244 228 99 99 34 121 228 34 228 259 228 129 121 244 249 99 99 99 249 34 99
split_gain=1.03779e+09 5.18007e+08 3.75203e+08 2.40697e+08 2.12965e+08 1.28511e+08 1.25516e+08 9.37632e+07 1.25257e+08 8.39708e+07 1.17105e+08 8.21447e+07 7.27406e+07 7.11504e+07 6.76499e+07 6.14515e+07 8.0357e+07 6.62056e+07 5.44799e+07 4.98642e+07 4.86777e+07 4.75441e+07 4.65093e+07 4.56198e+07 4.36134e+07 4.33328e+07 5.60487e+07 5.37945e+07 4.28996e+07 4.94528e+07 3.94471e+07 3.77285e+07 9.78579e+07 4.20248e+07 3.72786e+07 5.0206e+07 3.59373e+07 3.48853e+07 3.45318e+07 3.22486e+07 3.18196e+07 3.15564e+07 3.45359e+07 3.12492e+07 7.24892e+07 5.79463e+07 3.67002e+07 6.17276e+07 5.24757e+07 3.08418e+07 4.01483e+07 3.07437e+07 3.03974e+07 4.55153e+07 4.12025e+07 3.80339e+07
threshold=-246.04646472953218 17.365000000000006 8.8824166666666695 172.1992789558532 29.925000000000004 0.0026388888888893018 748.26283564814833 0.00021352005532904175 1.2198746295677825 3.3863558679150221 735.47981060606082 10.135000000000003 0.020833333333332819 1.0000000180025095e-35 -671.93211689814802 558.89825362318868 0.0033333333333311903 2.2871527777777785 1.2856250000000002 1.9992564687937342 68.823469907407429 -0.014236111111109116 0.029652777777778198 15.365 5.8361805555555568 5.4846527777777796 0.0059722222222231567 -0.024861111111110553 13.095000000000001 9.0678472222222233 0.0086805555555580245 1.0050694444444448 1.5629861111111112 -95.644105683940253 9.1756597222222229 1042.2439583333335 534.25153623188407 21.955000000000002 14.805000000000001 10.542291666666669 2.9275717530581269 16.430185185185191 5.6529861111111117 262.56615384615401 234.06500000000003 401.34840579710152 -0.014236111111109116 1.4796904803258482 119.41675925925928 1016.7268473351402 28.055000000000003 26.555000000000003 36.241557692307701 471.80953635620909 3.8585069444444451 28.145000000000003
decision_type=2 2 2 2 2 2 2 2 2 2 2 2 2 2 2 2 2 2 2 2 2 2 2 2 2 2 2 2 2 2 2 2 2 2 2 2 2 2 2 2 2 2 2 2 2 2 2 2 2 2 2 2 2 2 2 2
left_child=4 9 5 -4 14 31 19 23 -9 11 41 -2 28 -6 -1 17 30 22 -13 -5 21 -16 37 34 -15 26 27 -20 29 36 -17 -3 33 -33 51 -36 -10 -7 -28 -21 -18 -11 -43 46 45 -45 47 48 -34 50 -14 -8 55 54 -54 -19
right_child=1 2 3 6 13 15 7 8 12 10 -12 18 49 24 20 16 40 52 25 39 -22 -23 -24 -25 -26 -27 38 -29 -30 -31 -32 32 43 -35 35 -37 -38 -39 -40 -41 -42 42 -44 44 -46 -47 -48 -49 -50 -51 -52 -53 53 -55 -56 -57
leaf_value=-0.3039402739961517 -0.24200174165702251 -0.48580780225051073 0.0071548623264959393 0.028478228977201731 -0.14623865627274438 -0.068073227333179873 0.39801717927018565 -0.019302243588820038 0.77482368627439768 -0.10478028969218904 0.59835926356651981 -0.44120231517393199 -0.079717079051848383 0.027862541863315132 -0.063853419365574482 0.11721583986711932 -0.021581668407023344 0.10184457341580912 -0.16336977178677339 0.29688639742606399 -0.1468211499958563 -0.33041939011089694 0.47526665796087697 -0.1382061429936835 -0.22122188264873455 -0.14052864156085312 -0.20538792365391684 0.079912421633656958 0.31888085334329042 0.73501034178808722 0.46204239561953392 -0.23518208975320334 -0.47325235926063319 0.82659827623771898 0.50262809403268915 0.21436471974763938 0.17937410236143519 0.25288484131886185 -0.0028208460482526763 0.054869990533184108 0.3136618698840925 0.21561221424538662 -0.10871090851960359 0.10312017189625944 0.039765743708569903 0.83459794528111464 0.025780225166652515 -0.019425848102783212 -0.10364654972916401 0.62726305777186764 0.39360395407045218 -0.057865884029152666 0.092929997401243983 -0.16989363744703392 0.31060522474435398 0.017665870337576866
leaf_weight=20837 15329 608 15863 6979 18570 1924 845 1864 598 6098 1446 1608 1240 32626 3417 1776 4594 38775 4505 9402 55949 12348 2580 1128 3077 21113 8647 18839 1700 7640 5249 182 2266 825 4275 5560 1259 4577 5512 2876 1503 3737 2025 890 33443 844 56350 39731 4773 846 1699 1974 8079 1593 6108 48106
leaf_count=20837 15329 608 15863 6979 18570 1924 845 1864 598 6098 1446 1608 1240 32626 3417 1776 4594 38775 4505 9402 55949 12348 2580 1128 3077 21113 8647 18839 1700 7640 5249 182 2266 825 4275 5560 1259 4577 5512 2876 1503 3737 2025 890 33443 844 56350 39731 4773 846 1699 1974 8079 1593 6108 48106
internal_value=0 0.0500771 0.0865224 0.221748 -0.145298 0.0529437 0.289987 0.369535 0.469626 -0.0854865 0.0610161 -0.111288 0.530457 -0.0458296 -0.203627 0.0995849 0.22906 0.0843805 -0.0780168 0.163467 -0.174481 -0.272642 0.248064 0.247192 0.00639564 -0.0680536 -0.0272524 0.032963 0.611481 0.663858 0.374866 0.0113189 0.0134886 0.634698 0.281547 0.339665 0.371124 0.157896 -0.12653 0.240196 0.0610608 -0.00449806 0.101632 0.00896531 0.060439 0.459157 -0.00859375 -0.0500086 -0.22263 0.290766 0.193904 0.0787858 0.0699017 0.150654 0.186647 0.0552348
internal_weight=0 419383 330524 65748 146824 264776 49885 30628 16846 88859 13306 75553 14982 54273 92551 124864 13122 111742 60224 19257 71714 15765 9081 13782 35703 58616 37503 23344 11197 9497 7025 139912 139304 1007 12654 9835 1857 6501 14159 12278 6097 11860 5762 138297 35177 1734 103120 46770 7039 3785 2939 2819 102661 15780 14187 86881
internal_count=566207 419383 330524 65748 146824 264776 49885 30628 16846 88859 13306 75553 14982 54273 92551 124864 13122 111742 60224 19257 71714 15765 9081 13782 35703 58616 37503 23344 11197 9497 7025 139912 139304 1007 12654 9835 1857 6501 14159 12278 6097 11860 5762 138297 35177 1734 103120 46770 7039 3785 2939 2819 102661 15780 14187 86881
is_linear=0
shrinkage=0.002


Tree=4
num_leaves=57
num_cat=0
split_feature=235 102 112 112 201 252 235 102 252 252 112 252 220 235 252 65 165 165 197 235 112 112 112 102 165 165 112 112 252 102 226 252 165 252 102 197 165 65 165 252 197 165 252 148 65 252 235 201 197 102 235 112 148 252 252 165
split_gain=9.41595e+08 5.13313e+08 2.24566e+08 2.15496e+08 1.82245e+08 1.72942e+08 1.56984e+08 1.24262e+08 1.22934e+08 1.45366e+08 1.09712e+08 1.1047e+08 1.0135e+08 9.37209e+07 9.06171e+07 8.4652e+07 8.91775e+07 9.36231e+07 8.22112e+07 8.08769e+07 7.98092e+07 7.6102e+07 7.55814e+07 6.85214e+07 6.8284e+07 6.38805e+07 7.49191e+07 6.19666e+07 6.06579e+07 5.9192e+07 6.84783e+07 5.85028e+07 5.32109e+07 5.02149e+07 4.63138e+07 4.50361e+07 4.49469e+07 4.4425e+07 4.30205e+07 4.23644e+07 3.99264e+07 4.02009e+07 3.86338e+07 3.78516e+07 3.74861e+07 3.65709e+07 3.64157e+07 3.6348e+07 3.53457e+07 6.42162e+07 5.16087e+07 3.53222e+07 3.21945e+07 3.21778e+07 5.24043e+07 3.3517e+07
threshold=78.526208333333344 1.2199999999999995 37.55131914893618 19.365000000000006 -16.808194444444435 227.18000000000004 -291.96749999999992 -9.0145833333333201 1199.0400000000002 1492.8400000000001 18.015000000000004 662.43500000000006 108.40500000000002 -47.554444444444407 662.43500000000006 2.818613725160064 0.65812500000000018 6.5677777777777786 15.010000000000002 432.50845238095241 29.535000000000004 24.185000000000006 20.445000000000004 1.3766666666666663 6.5677777777777786 2.5174305555555549 33.700384615384628 32.003147410358572 1519.9950000000001 -1.6749999999999978 0.080615806703934784 868.42000000000019 -1.9536805555555554 1519.2950000000003 6.6966666666666672 274.98000000000008 1.5698611111111076 0.63455272930076057 1.7644444444444451 431.17500000000007 -93.61999999999999 -5.1334722222222178 1518.8950000000002 27.565000000000001 2.7974131719275319 516.85500000000013 919.77129432624122 38.431666666666679 259.20500000000004 5.0958333333333359 919.77129432624122 34.695000000000007 29.005000000000006 1519.0450000000003 1161.2304545454547 3.6760416666666651
decision_type=2 2 2 2 2 2 2 2 2 2 2 2 2 2 2 2 2 2 2 2 2 2 2 2 2 2 2 2 2 2 2 2 2 2 2 2 2 2 2 2 2 2 2 2 2 2 2 2 2 2 2 2 2 2 2 2
left_child=2 3 5 33 -3 51 24 -5 31 15 11 13 19 38 32 16 -10 21 45 40 46 -18 -11 -4 27 -24 48 -7 -16 -20 39 37 -14 -2 36 -23 -25 -6 -8 -31 -9 -42 -26 -34 -45 -12 -21 -33 49 -27 -50 -1 53 54 55 -32
right_child=1 4 23 7 8 6 10 12 9 22 18 -13 14 -15 28 -17 17 -19 29 20 -22 35 25 34 42 26 -28 -29 -30 30 52 47 43 -35 -36 -37 -38 -39 -40 -41 41 -43 -44 44 -46 -47 -48 -49 50 -51 -52 -53 -54 -55 -56 -57
leaf_value=-0.37484627623632133 -0.078574771317572401 0.075698596153575701 -0.013860108933900271 -0.17558165987927582 0.60924628330650121 -0.17463373653133318 -0.087386586579759506 -0.11152340882957999 0.241313797646276 -0.19364854245069552 0.051459386222029446 -0.24420679592859226 0.0094286843895578249 0.16403282518252563 0.045022348423092121 0.33209722577218131 0.30760148955704703 0.10860342057762233 -0.059686461700233291 0.29939648418676984 0.15402458127261959 0.71878965408891426 0.10810476278107506 0.055626730199518373 0.038634626971152115 0.14308442067144564 0.20108292790029789 -0.065788332336946337 -0.13951289705368763 0.67208666342819234 0.15471640899128764 0.06137201585085688 0.19836654865592451 -0.27778274089372851 -0.048116956608866217 1.0747055703869153 0.24708553286107382 0.23817695980175371 -0.50990325127076574 0.18368090169330439 -0.21498541583331099 0.15304810993442503 0.59797680875990122 0.23312322984756498 0.87515405500998222 -0.13742403027543565 0.5725549077772556 0.43802669979634568 0.44995899895499214 0.72913202069414795 1.0874199340820312 0.066559041081642623 -0.0024243029071444244 0.2949309945284681 -0.12491465710857801 -0.11882140176485309
leaf_weight=9662 23354 21942 30840 7748 1528 80595 3468 3866 1942 1476 4889 18589 1428 6463 55942 6802 1053 882 32121 5026 13088 2907 5571 8295 3467 1647 4981 28257 8165 943 13416 12298 1118 6462 4883 2784 12000 8305 1335 2880 1311 12571 576 531 1155 25414 3192 1118 1079 1370 960 784 44356 2703 4601 2068
leaf_count=9662 23354 21942 30840 7748 1528 80595 3468 3866 1942 1476 4889 18589 1428 6463 55942 6802 1053 882 32121 5026 13088 2907 5571 8295 3467 1647 4981 28257 8165 943 13416 12298 1118 6462 4883 2784 12000 8305 1335 2880 1311 12571 576 531 1155 25414 3192 1118 1079 1370 960 784 44356 2703 4601 2068
internal_value=0 0.100372 -0.0664741 0.0297887 0.230469 -0.0891123 -0.0795566 0.0690297 0.290359 0.367991 -0.0399007 -0.149496 0.0866775 0.0067785 0.040231 0.502673 0.623937 0.721374 -0.0153716 0.167952 0.25102 0.801513 0.238938 0.0493422 -0.136899 0.279847 0.375171 -0.146378 0.021519 0.0115482 0.0437903 0.178651 0.323684 -0.121749 0.126757 0.892901 0.168832 0.295839 -0.204826 0.304153 0.0682315 0.118291 0.118323 0.483725 0.672949 -0.10695 0.405495 0.0927599 0.546677 0.409205 0.750088 -0.341718 0.0289659 0.0900658 0.0624954 0.118183
internal_weight=0 223602 342605 144957 78645 286587 276141 115141 56703 33454 163246 29855 107393 11266 68339 16370 9568 7626 133391 39054 21306 6744 17084 56018 112895 15608 10037 108852 64107 103088 70967 23249 4232 29816 25178 5691 20295 9833 4803 3823 17748 13882 4043 2804 1686 30303 8218 13416 5056 3017 2039 10446 67144 22788 20085 15484
internal_count=566207 223602 342605 144957 78645 286587 276141 115141 56703 33454 163246 29855 107393 11266 68339 16370 9568 7626 133391 39054 21306 6744 17084 56018 112895 15608 10037 108852 64107 103088 70967 23249 4232 29816 25178 5691 20295 9833 4803 3823 17748 13882 4043 2804 1686 30303 8218 13416 5056 3017 2039 10446 67144 22788 20085 15484
is_linear=0
shrinkage=0.002


Tree=5
num_leaves=57
num_cat=0
split_feature=235 109 252 109 42 252 261 186 42 186 252 235 109 23 235 42 252 252 40 252 186 109 109 252 186 107 235 186 186 235 186 252 235 40 194 23 23 261 252 40 252 109 109 235 23 252 109 252 252 186 23 42 252 252 42 186
split_gain=9.55303e+08 5.18778e+08 1.88234e+08 1.87385e+08 1.68833e+08 2.70471e+08 2.16923e+08 1.53468e+08 1.21113e+08 1.19882e+08 1.24744e+08 9.45652e+07 8.99792e+07 7.01263e+07 6.72732e+07 6.67793e+07 6.52917e+07 9.21601e+07 6.16242e+07 5.43421e+07 1.23427e+08 8.75519e+07 5.64681e+07 6.54157e+07 5.40477e+07 5.03723e+07 4.2596e+07 5.05648e+07 4.2027e+07 4.50488e+07 4.43994e+07 4.0755e+07 3.92553e+07 3.86437e+07 3.78751e+07 3.60647e+07 3.592e+07 3.5817e+07 3.58012e+07 3.52227e+07 3.45437e+07 3.44741e+07 3.31003e+07 3.80625e+07 3.29893e+07 4.53342e+07 3.28017e+07 3.26645e+07 3.20621e+07 3.07439e+07 4.43361e+07 5.47919e+07 2.96024e+07 3.13633e+07 3.2834e+07 2.95388e+07
threshold=78.526208333333344 1.1741666666666675 175.12000000000003 -2.9591666666666669 12.445000000000002 1477.2450000000001 810.21000000000015 -0.5600000000000066 16.625000000000004 -6.2591666666666859 1512.1550000000004 -343.12385648148143 -8.772083333333331 0.62116215615738579 919.77129432624122 10.465000000000002 1215.4150000000002 868.42000000000019 -1.5115625000000008 550.3950000000001 -3.5674999999999959 5.3666666666666689 3.2625000000000051 1518.8950000000002 235.53333333333339 0.54868403172748714 -112.52669871794872 -190.64749999999995 12.815833333333362 897.4537916666668 -70.355833333333308 960.47500000000002 -99.324263888888865 2.2809722222222231 6.6737500000000134 1.2268330441283062 0.40925421813046114 51.778793103448287 482.05493506493514 -3.6101388888888883 440.92500000000001 -5.3183333333333298 16.969166666666673 611.43319683908055 0.17511900693547175 534.3850000000001 1.6450000000000007 1487.4750000000001 1237.4350000000002 154.3983333333334 0.67060522189856664 7.7816666666666672 608.03000000000009 942.02500000000009 16.295000000000005 192.88500000000005
decision_type=2 2 2 2 2 2 2 2 2 2 2 2 2 2 2 2 2 2 2 2 2 2 2 2 2 2 2 2 2 2 2 2 2 2 2 2 2 2 2 2 2 2 2 2 2 2 2 2 2 2 2 2 2 2 2 2
left_child=2 9 -1 24 7 6 48 16 28 12 -11 13 -2 55 33 38 17 44 25 20 21 26 -21 49 40 -8 -13 37 30 -30 -7 -26 36 52 -31 -20 -22 -28 -15 -19 -4 -12 43 -32 -3 -46 -34 -18 -6 -24 51 -51 -14 -54 -55 -5
right_child=1 4 3 11 5 8 18 -9 -10 10 41 19 14 15 -16 -17 47 39 35 22 32 -23 23 -25 31 -27 27 -29 29 34 42 -33 46 -35 -36 -37 -38 -39 -40 -41 -42 -43 -44 -45 45 -47 -48 -49 -50 50 -52 -53 53 54 -56 -57
leaf_value=-0.39858652566266634 -0.18288894163766084 0.68867564577131135 0.026516014506453175 -0.17245076302377199 0.2098949198837228 0.23153302502869766 0.27450066273218598 0.043251687298502102 -0.042210395629483505 0.027819726838153945 -0.011788494583920995 0.10653593183103888 0.25300669589735614 -0.14536291968154358 0.2482037601356317 -0.13172414447982778 0.44204465668182158 0.35942605608234052 1.2177869596059274 -0.046289206330359094 -0.350730735801908 -0.10599462364425881 -0.012489376122861719 0.34472648931865213 -0.18976602536251672 0.9844024553218228 0.75045172095187873 0.24630290953329043 -0.00097264636411729813 0.27147921911599943 0.3369413607309456 0.048764040745211588 0.14729324868569388 -0.067436907572685917 1.086791899130378 0.52821913380705554 -0.062194917695925458 0.27014947684017226 0.03957642012881929 0.017669238648195536 -0.17644276054397109 -0.19603564342390414 -0.31171548385999687 0.65531847438500512 0.58712622087009048 0.19424463940548492 -0.057779500286308724 0.14219232664070283 0.53806032372658585 -0.14469032668489398 -0.014454032651315151 0.52582299278197908 -0.02163116679541523 0.13757829804411661 -0.039724699175119692 0.023032731409033863
leaf_weight=6657 4507 1072 3540 32058 2918 4816 774 23777 5197 52255 5362 4326 4521 4871 11481 19905 8404 1402 2463 98203 2312 3097 20207 2809 4180 827 1720 5906 2879 1154 2713 9109 5805 6320 284 346 6807 972 29815 8641 63976 16756 201 3365 1645 4110 6745 1757 2012 660 2815 1865 9048 28148 4906 3422
leaf_count=6657 4507 1072 3540 32058 2918 4816 774 23777 5197 52255 5362 4326 4521 4871 11481 19905 8404 1402 2463 98203 2312 3097 20207 2809 4180 827 1720 5906 2879 1154 2713 9109 5805 6320 284 346 6807 972 29815 8641 63976 16756 201 3365 1645 4110 6745 1757 2012 660 2815 1865 9048 28148 4906 3422
internal_value=0 0.102464 -0.0655679 -0.0589527 0.23066 0.349769 0.632097 0.160451 0.221818 0.0302202 -0.0254698 -0.032295 0.0903068 -0.0843742 0.109419 -0.0393849 0.263542 0.187257 0.954362 -0.00373578 0.0629265 0.196032 -0.0235882 0.0550303 -0.142853 0.641202 0.268408 0.349852 0.310849 0.143418 0.375996 -0.0262646 -0.0354855 0.0793228 0.432501 1.13285 -0.135349 0.577029 0.0136051 0.0653784 -0.165801 -0.151369 0.486799 0.513206 0.366549 0.306545 0.0370769 0.390195 0.343824 0.023177 0.158142 0.35056 0.0992169 0.0827026 0.111262 -0.153597
internal_weight=0 224061 341782 335125 80757 29949 9340 50808 20609 143304 74373 254320 68931 90071 64424 54591 27031 16870 4410 164249 37690 16021 126559 28356 80805 1601 12924 8598 15412 4317 11095 13289 21669 52943 1438 2809 9119 2692 34686 10043 67516 22118 6279 6078 6827 5755 12550 10161 4930 25547 5340 2525 46623 42102 33054 35480
internal_count=565843 224061 341782 335125 80757 29949 9340 50808 20609 143304 74373 254320 68931 90071 64424 54591 27031 16870 4410 164249 37690 16021 126559 28356 80805 1601 12924 8598 15412 4317 11095 13289 21669 52943 1438 2809 9119 2692 34686 10043 67516 22118 6279 6078 6827 5755 12550 10161 4930 25547 5340 2525 46623 42102 33054 35480
is_linear=0
shrinkage=0.002


Tree=6
num_leaves=57
num_cat=0
split_feature=46 109 238 252 206 197 46 252 214 70 252 238 109 70 206 252 197 214 252 46 238 46 252 214 214 214 46 206 197 252 238 252 252 109 70 46 46 238 238 46 252 214 214 197 214 252 214 214 252 197 214 46 252 46 6 206
split_gain=1.45089e+09 3.82243e+08 3.67201e+08 2.10187e+08 1.99926e+08 1.94682e+08 2.37078e+08 1.33249e+08 1.1545e+08 1.4255e+08 1.35064e+08 1.1461e+08 1.30987e+08 1.13786e+08 1.10441e+08 1.08355e+08 1.95034e+08 1.15115e+08 1.08218e+08 1.02921e+08 9.32705e+07 1.02323e+08 1.04692e+08 8.78312e+07 8.18447e+07 8.93415e+07 7.11714e+07 7.0121e+07 7.0539e+07 7.71199e+07 6.31227e+07 6.16077e+07 6.15458e+07 5.87956e+07 5.63119e+07 5.5154e+07 7.94861e+07 5.39507e+07 5.34666e+07 8.0728e+07 5.13916e+07 5.13729e+07 5.04239e+07 6.21656e+07 5.42327e+07 5.0283e+07 4.9237e+07 8.07107e+07 5.14451e+07 5.55104e+07 4.84972e+07 4.74411e+07 7.10293e+07 5.66478e+07 4.50309e+07 4.31276e+07
threshold=-2.1380270007769999 1.5225000000000029 1175.5300000000002 662.43500000000006 0.57375000000000853 261.96500000000009 1.5239583333333333 1508.5250000000003 8.0004166666666681 148.50000000000003 1518.6000000000001 187.89000000000001 -3.2816666666666641 14.425000000000002 -1.8384027777777729 868.42000000000019 264.75500000000005 -25.688298611111076 147.55417177914114 5.94902777777778 1021.6200000000001 0.92408645190329242 1507.1950000000004 -97.527951388888894 176.41222222222225 -17.299045138888911 3.6879513888888895 2.2094444444444226 91.865000000000023 1443.1050000000002 249.20500000000001 830.85000000000014 882.22000000000014 -1.5431249999999979 18.985000000000003 -1.2460590277777774 -1.0000000180025095e-35 148.22500000000002 1457.7150000000004 2.736597222222223 1215.4150000000002 102.8559817176871 -15.181736111111105 -93.61999999999999 -275.64130074786317 1477.2450000000001 -1.0000000180025095e-35 -132.71315972222217 868.42000000000019 84.680000000000021 240.56343750000002 0.50157986111111097 1487.4750000000001 5.1870486111111118 0.44010204081632659 1.2152777777777859
decision_type=2 2 2 2 2 2 2 2 2 2 2 2 2 2 2 2 2 2 2 2 2 2 2 2 2 2 2 2 2 2 2 2 2 2 2 2 2 2 2 2 2 2 2 2 2 2 2 2 2 2 2 2 2 2 2 2
left_child=11 3 8 18 5 23 54 24 10 14 13 32 -13 15 37 16 30 -18 -2 -9 21 31 33 45 25 -8 -12 28 38 -30 -3 -5 -1 -23 -14 -20 -37 -10 39 -22 -17 -21 43 -40 -45 -4 47 -35 49 -49 -34 52 -25 -53 -7 -48
right_child=1 2 4 20 -6 6 7 19 9 -11 26 12 34 -15 -16 40 17 -19 35 41 27 22 -24 51 -26 -27 -28 -29 29 -31 -32 -33 50 46 -36 36 -38 -39 42 -41 -42 -43 -44 44 -46 -47 55 48 -50 -51 -52 53 -54 -55 -56 -57
leaf_value=-0.35087207370727441 -0.37026184815357827 -0.22556294226532128 0.66230983498547336 -0.10228559363602883 0.04005663725959839 -0.19236594736780541 0.20627263144975827 0.19388148811402173 0.53577339261123558 0.56475238526194593 0.60303858904522878 -0.28083962458813894 -0.16708531719091976 0.02435549520935187 -0.048204984780894904 0.026070789191391698 0.10308755664726291 1.1884767916663532 0.015874182867896932 0.99810854224519363 0.16597400022576003 -0.13266428797303853 -0.22622928974539178 0.67099288769303778 -0.1123771591827649 1.198428457763097 -0.23272761519130691 -0.11838893928750914 0.10425814767594771 -0.046049362506929523 0.31106727441186605 0.031231990160653998 -0.19675410614060543 -0.1174382796438974 -0.055651720921079784 0.30372888709746237 0.096324688317013255 0.12499867763817847 -0.051232398690382194 -0.063962470133544683 0.27736832567592912 -0.18687458585961467 0.037918029202060999 0.73805548041543845 0.29446640903314775 0.32101743214905243 -0.1265414911398548 0.91632188084870925 0.15804596281008398 0.12841172784566879 0.39609212270883415 0.016457538505167513 -0.026376856045146425 0.44138380526616794 0.40081258367455525 0.13788315069042251
leaf_weight=21557 1522 1043 2607 17167 8397 1341 405 1974 1530 1822 3459 23692 35153 24773 42019 9395 517 1602 7136 1432 13681 18035 18642 1525 238 3504 462 10260 22000 35993 5502 70976 9767 3747 37480 16629 13305 7794 1763 11033 4981 163 4501 1296 7382 5114 10175 838 5514 624 585 7241 947 1518 828 3257
leaf_count=21557 1522 1043 2607 17167 8397 1341 405 1974 1530 1822 3459 23692 35153 24773 42019 9395 517 1602 7136 1432 13681 18035 18642 1525 238 3504 462 10260 22000 35993 5502 70976 9767 3747 37480 16629 13305 7794 1763 11033 4981 163 4501 1296 7382 5114 10175 838 5514 624 585 7241 947 1518 828 3257
internal_value=0 0.0557892 0.141015 0.014793 0.311643 0.390725 0.618265 0.782483 0.0804502 0.0149991 0.147712 -0.186119 -0.151705 0.118448 -0.00450991 0.219617 0.396291 0.92366 0.152416 0.499174 -0.00588227 -0.0383167 -0.101411 0.272045 1.02631 1.09563 0.504563 0.0388954 0.0554213 0.0109707 0.225551 0.0052277 -0.290004 -0.0462584 -0.109583 0.173876 0.211542 0.192404 0.120426 0.0633241 0.11314 0.87701 0.214872 0.291155 0.360713 0.436255 0.0182553 0.119317 0.246484 0.580032 -0.163252 0.159155 0.403837 0.0901004 0.0340756 -0.0624236
internal_weight=0 437609 142133 295476 37234 28837 9885 7716 104899 53165 51734 128234 96325 47813 51343 23040 8664 2119 38592 3569 256884 148975 60832 18952 4147 3909 3921 107909 97649 57993 6545 88143 31909 42190 72633 37070 29934 9324 39656 24714 14376 1595 14942 10441 8678 7721 24155 10723 6976 1462 10352 11231 2472 8759 2169 13432
internal_count=565843 437609 142133 295476 37234 28837 9885 7716 104899 53165 51734 128234 96325 47813 51343 23040 8664 2119 38592 3569 256884 148975 60832 18952 4147 3909 3921 107909 97649 57993 6545 88143 31909 42190 72633 37070 29934 9324 39656 24714 14376 1595 14942 10441 8678 7721 24155 10723 6976 1462 10352 11231 2472 8759 2169 13432
is_linear=0
shrinkage=0.002


Tree=7
num_leaves=57
num_cat=0
split_feature=49 172 172 37 99 21 253 253 247 247 37 253 172 83 99 37 253 253 99 253 247 172 6 6 99 37 172 83 37 83 253 124 99 253 83 99 253 99 83 99 253 247 99 253 247 99 247 21 124 99 115 247 37 172 83 37
split_gain=6.64554e+08 3.47343e+08 3.23882e+08 2.47679e+08 2.08814e+08 1.83775e+08 1.74236e+08 1.70153e+08 1.15704e+08 1.05716e+08 1.05165e+08 9.49628e+07 9.22823e+07 9.22253e+07 9.08127e+07 6.76461e+07 7.23901e+07 8.90051e+07 6.37993e+07 6.31307e+07 6.92257e+07 7.18821e+07 6.33072e+07 9.09364e+07 8.07712e+07 1.13325e+08 8.98675e+07 6.20713e+07 6.14101e+07 6.11289e+07 5.90682e+07 5.87982e+07 5.83093e+07 5.45601e+07 6.83076e+07 5.20649e+07 4.92716e+07 6.05641e+07 4.90499e+07 5.05743e+07 4.90421e+07 4.88569e+07 4.44639e+07 4.42835e+07 4.41349e+07 4.32794e+07 4.19544e+07 4.1269e+07 4.08865e+07 3.99608e+07 3.90512e+07 3.59481e+07 8.17161e+07 3.56509e+07 3.441e+07 3.43212e+07
threshold=8.1421011673151771 0.87562500000000132 2.1515277777777748 1.9456439221628985 19.905000000000005 10.983636363636366 184.16734782608697 41.355000000000011 56.475905123905115 140.19528895199554 3.1486243580533979 21.145000000000003 -5.1648784722222194 2.3095312499999996 30.595000000000002 0.71581330894737472 17.805000000000003 98.060000000000016 14.645000000000001 0.052500000000000012 327.40972322891372 -1.1249652777777752 0.13012658227848103 16.541666666666668 29.675000000000004 1.0771733998082533 -1.6394097222222166 -2.0571874999999995 0.70040796833550012 -7.7466840277777793 51.135000000000012 4.1647916666666687 26.645000000000003 152.74840277777781 1.5325347222222225 23.075000000000003 11.400078125000002 27.315000000000001 -24.875937499999999 9.8050000000000015 300.90500000000003 341.63046092208236 26.065000000000001 118.02000000000002 534.385195557668 34.065000000000005 76.925394627369243 13.895000000000001 5.9961111111111149 11.155000000000003 -0.0019444444444465245 158.1364222818967 1.9756982828746759 14.545405092592596 12.758645833333334 1.8719136435466248
decision_type=2 2 2 2 2 2 2 2 2 2 2 2 2 2 2 2 2 2 2 2 2 2 2 2 2 2 2 2 2 2 2 2 2 2 2 2 2 2 2 2 2 2 2 2 2 2 2 2 2 2 2 2 2 2 2 2
left_child=1 14 12 5 7 15 11 8 54 53 13 -7 -2 28 31 -4 -17 35 -14 -20 22 36 -21 24 -24 -26 -27 -28 30 48 -6 38 50 34 -29 -18 37 -22 -1 -40 -8 -16 46 -5 -41 -42 -15 -13 -10 -31 -30 52 -44 -9 -3 -33
right_child=2 4 3 43 10 6 40 9 29 -11 -12 47 18 42 41 16 17 -19 19 20 21 -23 23 -25 25 26 27 33 32 49 -32 55 -34 -35 -36 -37 -38 -39 39 44 45 -43 51 -45 -46 -47 -48 -49 -50 -51 -52 -53 -54 -55 -56 -57
leaf_value=-0.34380565677825986 -0.12385836522108844 -0.24571432196987375 -0.17750500665264071 0.16314914309876902 0.41822593675072856 0.48206813975924134 -0.021123644195999682 0.92466001335330128 -0.34653637904568291 0.092241232554552868 -0.10294326438493753 1.1436267947118652 -0.097431110650377212 -0.14341457765107057 0.0033262541603967283 0.14156327375333772 0.32825919698908712 0.29769016781234564 -0.0098813847256521894 0.01512830487577767 0.54983998020290881 -0.026533927683266529 0.25854466723304004 0.070912260199278029 -0.073534134477672014 0.21820403684160572 0.10739479349510463 1.2894710681126678 0.21082617510677573 -0.22645106217448172 -0.098361059934564204 -0.10128406529142642 0.013029266179191694 0.1610958293095108 0.098214455608988921 1.2521974625055099 0.026198640569991796 0.083337403121330922 -0.23353629363339848 -0.10284138806553858 0.66764515790832046 -0.14401529691852316 0.22704893416504329 -0.15214460517905895 0.15422058180668372 0.15786383360429243 0.13002739606481095 0.67038601687739319 1.1449339274088541 -0.0069067932575868343 0.0087209408706314627 0.12608557352795435 0.78464138760006719 -0.33214757930871214 -0.52589143833031404 0.037342169052333049
leaf_weight=3603 8967 4028 1276 14786 3278 1804 1171 1025 3728 2923 12838 3142 6256 3062 64731 4048 345 2151 12285 4291 2634 12248 7425 5361 808 917 311 1843 11426 3989 1213 11739 69432 242 215 833 3109 1928 11917 153141 1689 10456 16258 2026 2719 1100 8406 963 75 19664 5748 13692 1124 99 3105 18250
leaf_count=3603 8967 4028 1276 14786 3278 1804 1171 1025 3728 2923 12838 3142 6256 3062 64731 4048 345 2151 12285 4291 2634 12248 7425 5361 808 917 311 1843 11426 3989 1213 11739 69432 242 215 833 3109 1928 11917 153141 1689 10456 16258 2026 2719 1100 8406 963 75 19664 5748 13692 1124 99 3105 18250
internal_value=0 -0.0315934 0.145254 0.30091 0.0354594 0.460441 0.646983 -0.0953324 -0.140732 0.29269 0.0699581 0.86453 0.0653588 0.0865679 -0.0764752 0.247684 0.321229 0.5397 0.0936973 0.115998 0.153413 0.0685485 0.232356 0.286796 0.385203 0.602093 0.756828 0.945996 0.0506637 -0.0817725 0.278698 -0.0986208 0.0388388 1.05939 1.16502 0.981604 0.220363 0.352686 -0.112917 -0.107959 0.322365 -0.017164 0.163451 0.125153 -0.0983569 0.466584 0.0570173 1.03261 -0.317123 -0.0439322 0.143183 0.202731 0.263105 0.813963 -0.367676 -0.0169222
internal_weight=0 461669 104174 35334 185113 18522 9869 38636 34589 4047 146477 5909 68840 133639 276556 8653 7377 3329 59873 53617 41332 19919 21413 17122 11761 4336 3528 2611 91097 27456 4491 201369 86606 2300 2058 1178 7671 4562 171380 167777 3960 75187 42542 16812 155860 2789 11468 4105 3803 23653 17174 31074 17382 1124 7133 29989
internal_count=565843 461669 104174 35334 185113 18522 9869 38636 34589 4047 146477 5909 68840 133639 276556 8653 7377 3329 59873 53617 41332 19919 21413 17122 11761 4336 3528 2611 91097 27456 4491 201369 86606 2300 2058 1178 7671 4562 171380 167777 3960 75187 42542 16812 155860 2789 11468 4105 3803 23653 17174 31074 17382 1124 7133 29989
is_linear=0
shrinkage=0.002


Tree=8
num_leaves=57
num_cat=0
split_feature=9 127 171 255 127 169 128 28 8 28 48 128 169 255 9 28 127 127 28 127 171 128 28 127 255 232 169 150 150 9 255 169 127 232 171 128 171 127 169 127 28 169 127 48 127 127 127 171 128 28 171 171 28 9 9 171
split_gain=1.12267e+09 4.24377e+08 1.83608e+08 1.78277e+08 1.71704e+08 1.08058e+08 9.34095e+07 9.05387e+07 1.38205e+08 8.01502e+07 7.59478e+07 7.6754e+07 7.24781e+07 6.13858e+07 5.74393e+07 5.631e+07 5.27655e+07 5.09154e+07 1.2552e+08 7.52035e+07 6.58124e+07 6.18292e+07 5.77199e+07 5.01447e+07 5.80841e+07 4.73764e+07 4.69802e+07 5.65377e+07 4.65246e+07 4.61399e+07 4.80648e+07 4.57755e+07 4.51629e+07 4.30742e+07 4.11902e+07 5.35626e+07 3.94018e+07 3.93311e+07 5.06311e+07 3.77821e+07 4.94654e+07 3.76846e+07 3.74171e+07 3.64328e+07 4.40073e+07 4.12497e+07 3.61525e+07 3.56466e+07 3.06083e+07 3.01716e+07 3.68784e+07 2.97718e+07 5.05332e+07 4.13771e+07 2.89256e+07 2.873e+07
threshold=39.800000000000004 9.9050000000000029 0.0072916666666689176 -1.0067708333333323 13.905000000000003 1.0000000180025095e-35 3.8017393009384324 14.705000000000002 1.0716455696202534 2.271839160839161 10.365 2.3618602360473058 25.705000000000002 1.9930138221153799 -0.29499999999999993 6.2211814345991572 10.415000000000001 19.785000000000004 9.5527826086956544 22.415000000000003 0.046666666666668639 3.6176121994646433 3.0400279720279726 29.245000000000001 2.9968855676328592 431.39000000000004 25.705000000000002 0.029999999999995811 -0.09499999999999352 85.585000000000022 6.2857291666665995 19.595000000000002 28.605000000000004 1069.8166666666668 -0.01213541666666451 3.1221738347118988 -0.0080555555555523722 17.165000000000003 15.615 28.705000000000002 9.0613043478260895 28.905000000000005 24.765000000000004 3.0748412698412699 18.475000000000005 11.725000000000003 31.295000000000005 -0.051041666666668199 2.7780571091076993 6.6723966942148767 0.03222222222222549 0.01708333333333734 6.8628906250000012 -25.084999999999997 -0.45761188811188808 -0.051041666666668199
decision_type=2 2 2 2 2 2 2 2 2 2 2 2 2 2 2 2 2 2 2 2 2 2 2 2 2 2 2 2 2 2 2 2 2 2 2 2 2 2 2 2 2 2 2 2 2 2 2 2 2 2 2 2 2 2 2 2
left_child=1 5 6 15 -4 -1 -2 8 23 -7 11 32 -10 -8 26 -3 -17 18 34 22 48 39 36 25 -25 -6 -12 -28 -27 46 33 -11 -5 42 54 43 -19 38 -15 -21 -41 -26 -31 45 -45 -36 -14 -23 -20 -37 -51 52 53 -24 -13 -18
right_child=2 3 4 10 7 9 13 -9 12 31 14 17 29 37 -16 16 55 19 20 21 -22 47 51 24 41 28 27 -29 -30 30 -32 -33 -34 -35 35 49 -38 -39 -40 40 -42 -43 -44 44 -46 -47 -48 -49 -50 50 -52 -53 -54 -55 -56 -57
leaf_value=-0.041877962064873341 0.07155613016119225 -0.020952004696376304 0.014751008517962924 -0.12306444805731495 0.14742414633481671 -0.45330182683339737 0.009833618900059217 0.053755086277854996 0.27878125842515022 -0.22469593635797899 0.086734075283150691 -0.18634479866850748 0.54932138457575075 0.10082906408458023 -0.02847817235400105 0.29007245441533169 -0.23474513511954195 0.91480274142118023 -0.10261978037885128 -0.033031696390028446 0.81169034457044542 -0.26277209104142102 0.4584329379991986 0.47196758150980572 0.50783979709870231 0.93810446508283374 0.19482589858024427 0.59262867150205167 0.40722915328745396 0.62231431161453898 0.47934666898060996 -0.085635551120446893 0.0068944401125317399 0.54061701310934485 -0.25860042311899151 -0.13260183160220579 0.24095018595968873 0.25766851580418154 0.67352328776701675 0.1291858093980694 -0.065320825379017358 -0.12839677586450848 1.05598029604779 0.19053793724399143 -0.22623546615039405 0.082180209546837704 -0.035151913042555237 0.10932011763697196 0.16718826613759569 -0.032295271697985968 0.37242253515911666 0.0039453421181054422 0.068047277837157624 0.17073142095930313 -0.00064492200494667201 -0.092859464540488518
leaf_weight=19485 25798 73300 5497 22450 2614 5117 2322 2743 2476 38879 4190 12377 2119 805 4275 1385 6176 641 1965 49113 588 1060 3295 1292 436 737 3356 2489 6347 1082 2075 12517 20430 1455 2364 15105 757 4592 2651 15705 7841 2552 3009 9000 1142 3561 529 36216 11672 7581 1022 5560 9004 5086 4603 75405
leaf_count=19485 25798 73300 5497 22450 2614 5117 2322 2743 2476 38879 4190 12377 2119 805 4275 1385 6176 641 1965 49113 588 1060 3295 1292 436 737 3356 2489 6347 1082 2075 12517 20430 1455 2364 15105 757 4592 2651 15705 7841 2552 3009 9000 1142 3561 529 36216 11672 7581 1022 5560 9004 5086 4603 75405
internal_value=0 -0.0328172 0.235902 -0.00786135 0.33925 -0.170312 0.135997 0.399787 0.435306 -0.214595 0.0239828 0.0158124 0.585933 0.296309 0.165658 -0.0613434 -0.0970289 0.0318897 -0.0114354 0.0547915 0.156559 0.0325192 0.155375 0.297966 0.117648 0.377545 0.248361 0.364224 0.46246 0.659991 0.739015 -0.190829 -0.0611461 0.836168 -0.0535412 -0.0183375 0.54992 0.378963 0.540127 -0.00145341 0.0644136 -0.035559 0.941283 0.0708155 0.143609 -0.0537869 0.432559 0.0987391 0.128311 -0.0787568 0.0157835 0.131336 0.172078 0.283842 -0.136005 -0.103601
internal_weight=0 494712 71131 418714 34963 75998 36168 29466 26723 56513 262448 248138 12745 10370 14310 156266 82966 205258 70980 134278 14225 109935 24343 13978 4280 9698 10035 5845 7084 10269 7621 51396 42880 5546 56755 39775 1398 8048 3456 72659 23546 2988 4091 16067 10142 5925 2648 37276 13637 23708 8603 22945 17385 8381 16980 81581
internal_count=565843 494712 71131 418714 34963 75998 36168 29466 26723 56513 262448 248138 12745 10370 14310 156266 82966 205258 70980 134278 14225 109935 24343 13978 4280 9698 10035 5845 7084 10269 7621 51396 42880 5546 56755 39775 1398 8048 3456 72659 23546 2988 4091 16067 10142 5925 2648 37276 13637 23708 8603 22945 17385 8381 16980 81581
is_linear=0
shrinkage=0.002


Tree=9
num_leaves=57
num_cat=14
split_feature=15 134 29 134 263 215 114 148 15 263 215 215 215 215 134 263 173 263 215 263 243 29 215 29 263 15 263 215 263 134 215 114 114 15 134 243 148 263 263 15 243 134 114 263 243 263 101 114 215 263 29 29 215 215 263 215
split_gain=6.77644e+08 3.02046e+08 1.60274e+08 1.72135e+08 1.31062e+08 1.07413e+08 1.11525e+08 1.16118e+08 8.55549e+07 1.49618e+08 8.29848e+07 8.12726e+07 7.47504e+07 6.07583e+07 5.9331e+07 5.82451e+07 5.61837e+07 5.66376e+07 5.45334e+07 4.92162e+07 7.29107e+07 5.59604e+07 4.37172e+07 4.36392e+07 6.31002e+07 6.07904e+07 5.39738e+07 4.26466e+07 4.50524e+07 4.22198e+07 4.05793e+07 3.60512e+07 3.58762e+07 3.48878e+07 3.3954e+07 5.74053e+07 3.34829e+07 3.3314e+07 3.3303e+07 3.28841e+07 3.28596e+07 3.10478e+07 3.00866e+07 3.00189e+07 2.91613e+07 2.87575e+07 2.70361e+07 2.69624e+07 2.6531e+07 2.48655e+07 2.4803e+07 2.44279e+07 3.06453e+07 3.91566e+07 3.02283e+07 2.78752e+07
threshold=7.7216135458167345 20.805000000000003 5.4748804780876501 17.905000000000005 0 -23.973402777777775 0.57776381980872593 31.543181818181822 5.3901244813278018 1 26.918072916666663 88.48145833333335 125.13878472222221 44.465381944444445 10.795000000000002 2 0.082013888888889511 3 -67.895920138888883 4 -218.57652777777776 2.1713496503496508 80.989687500000031 9.5450000000000017 5 8.7511814345991592 6 -130.8035243055555 7 35.630886075949377 -119.11621527777775 1.5133749207046849 1.2804123219864241 10.685 36.351865079365091 175.21788194444443 35.911363636363639 8 9 1.1330000000000002 -353.97666666666663 31.274561752988053 2.1458818995605728 10 160.5470833333334 11 1.0000000180025095e-35 2.1777950750422868 -112.74190972222219 12 0.62500000000000011 4.3305696202531658 -33.149027777777754 12.159322916666698 13 -54.252638888888889
decision_type=2 2 2 2 1 2 2 2 2 1 2 2 2 2 2 1 2 1 2 1 2 2 2 2 1 2 1 2 1 2 2 2 2 2 2 2 2 1 1 2 2 2 2 1 2 1 2 2 2 1 2 2 2 2 1 2
left_child=1 11 4 -4 13 -5 46 10 16 -10 -8 14 30 -2 47 -14 34 -18 27 21 -21 -16 23 25 40 26 -9 -19 39 -28 -11 49 -20 -12 50 36 -36 -15 -27 -29 -25 -40 -22 -38 -41 -34 -7 -1 -6 -23 -3 52 -33 54 -54 -53
right_child=2 8 3 5 48 6 7 22 9 12 33 -13 15 37 19 -17 17 18 32 20 42 31 -24 24 -26 38 29 28 -30 -31 -32 51 45 -35 35 -37 43 -39 41 44 -42 -43 -44 -45 -46 -47 -48 -49 -50 -51 -52 55 53 -55 -56 -57
leaf_value=-0.24358093385642185 0.12039355189102866 -0.065875013876042873 -0.050350703693676266 0.032651633239429829 -0.27559124266684198 0.18113716791972462 0.16498126448886441 0.014759062975333109 -0.045543983561707642 -0.11013828658659285 0.22821869223201977 0.024189061424243222 0.088908699678349981 0.7678097915569021 -0.22422373598131634 0.54931005695515567 -0.20637139222276513 -0.048384205539619557 -0.09287068877704012 0.15833849924421348 -0.10320674908188855 -0.20705409085073892 0.013658628463745118 0.90220591730467026 -0.040450980740773447 0.48907881461607589 0.35081496291853953 -0.090179391469895467 -0.011001649040182155 0.86893792733638253 0.13866007843175038 -0.11697742068757988 0.078942073911241445 0.72510855647043571 -0.010271686388098675 -0.10442025404878824 0.6393931341150304 0.28979636283059723 0.55379390072467682 0.26332457330211112 0.36649850288374985 0.86762620425452608 0.055826905289981486 0.12058555943111475 -0.054437889771967549 -0.052536199060830166 -0.068060785768008794 -0.03969568692916936 -0.048338261380331468 0.031147026604416525 0.010449299880926943 0.32795556227161043 -0.02771072140298628 -0.099893131520759543 0.56042000082767374 -0.21712546407116101
leaf_weight=19484 9145 21044 7806 6658 2458 4208 13762 1423 26333 2873 850 16953 1735 939 22335 3063 7921 14838 50536 5188 53380 7019 860 568 1461 4517 2462 1590 9333 845 30041 1247 10508 1687 9200 6954 445 1638 2217 8456 2365 2924 5224 26610 1338 18105 2971 2993 12531 2339 89307 465 468 836 1442 1945
leaf_count=19484 9145 21044 7806 6658 2458 4208 13762 1423 26333 2873 850 16953 1735 939 22335 3063 7921 14838 50536 5188 53380 7019 860 568 1461 4517 2462 1590 9333 845 30041 1247 10508 1687 9200 6954 445 1638 2217 8456 2365 2924 5224 26610 1338 18105 2971 2993 12531 2339 89307 465 468 836 1442 1945
internal_value=0 -0.0279966 0.166386 0.225782 0.0383402 0.269084 0.305591 0.351049 0.00428527 0.0701455 0.226254 -0.105717 0.1509 0.196662 -0.123425 0.384155 -0.0109872 -0.0429088 -0.0316 -0.102908 -0.0689019 -0.15979 0.454604 0.474794 0.300346 0.52807 0.342306 0.0334619 0.0920819 0.481748 0.116943 -0.0685823 -0.0608308 0.55863 0.0145037 0.0620304 0.093957 0.468078 0.619047 0.176448 0.468645 0.730868 -0.0890304 0.1294 0.219914 -0.00424215 0.0780076 -0.216432 -0.0855477 -0.147705 -0.00410579 0.047055 0.143026 0.261097 0.419102 -0.111954
internal_weight=0 481548 84295 57584 26711 49778 43120 35941 340230 64045 16299 141318 37712 11722 124365 4798 276185 122625 114704 101888 63792 38096 19642 18782 4394 14388 4730 35555 20717 3307 32914 15761 79149 2537 153560 43209 36255 2577 9658 11384 2933 5141 58604 27055 9794 28613 7179 22477 14989 9358 110351 6403 3993 2746 1910 2410
internal_count=565843 481548 84295 57584 26711 49778 43120 35941 340230 64045 16299 141318 37712 11722 124365 4798 276185 122625 114704 101888 63792 38096 19642 18782 4394 14388 4730 35555 20717 3307 32914 15761 79149 2537 153560 43209 36255 2577 9658 11384 2933 5141 58604 27055 9794 28613 7179 22477 14989 9358 110351 6403 3993 2746 1910 2410
cat_boundaries=0 1 2 3 4 5 6 7 8 9 10 11 12 13 14
cat_threshold=4095 1047552 15728656 1040384 4192256 16760835 32256 8128 1936 16256057 1022 3149944 4128768 6144
is_linear=0
shrinkage=0.002


Tree=10
num_leaves=57
num_cat=0
split_feature=10 109 106 43 58 254 254 109 254 58 109 109 254 196 254 196 106 196 239 254 109 196 196 43 43 196 254 162 10 43 196 43 106 196 109 254 109 162 196 254 254 109 254 196 239 109 43 4 162 43 239 162 196 109 254 109
split_gain=6.40221e+08 3.14082e+08 3.00424e+08 2.94703e+08 1.95544e+08 1.71977e+08 1.62722e+08 1.58262e+08 1.55819e+08 1.44218e+08 1.28473e+08 1.01842e+08 1.0171e+08 9.02123e+07 8.91351e+07 8.41656e+07 8.38685e+07 8.18863e+07 7.72319e+07 1.13944e+08 1.07982e+08 9.05603e+07 6.81817e+07 9.20075e+07 1.90761e+08 6.86613e+07 6.79742e+07 6.40225e+07 5.97927e+07 5.92398e+07 1.69258e+08 5.09617e+07 4.97088e+07 4.50325e+07 4.49964e+07 7.75399e+07 8.28456e+07 8.47513e+07 8.0319e+07 5.38962e+07 4.7947e+07 4.42116e+07 4.34114e+07 4.24147e+07 4.23103e+07 4.09304e+07 4.88861e+07 4.08172e+07 4.03544e+07 3.85798e+07 3.84742e+07 3.77706e+07 4.81323e+07 4.2546e+07 3.91095e+07 6.2644e+07
threshold=719.59500000000014 0.95487304687499386 20.805000000000003 5.5850000000000009 0.051268668756022824 46.76168504010095 170.71925913614459 2.1950000000000016 562.24908076942108 0.31059082809470373 -3.7041666666666617 -6.5337499999999977 465.14787725848817 127.26000000000002 458.55331943159109 280.55500000000006 10.045000000000002 412.55000000000007 264.4332051282052 345.19520322121713 3.4933333333333336 -7.6884230769230761 18.545000000000005 1.7850000000000004 3.5903286713286717 288.45500000000004 401.48841520412407 21.005000000000006 104.36676470588237 2.0703286713286717 184.715 0.6150000000000001 24.505000000000006 127.26000000000002 5.6038343881856543 113.37535152718503 -2.2916666666666665 23.645000000000003 299.77500000000003 154.40534959527722 76.118879775585455 3.9983333333333326 281.0740498457281 130.97500000000002 18.711470588235297 0.60083333333333588 0.37433333333333335 28.415000000000003 25.905000000000005 1.5650000000000002 789.47500000000014 17.605000000000004 102.07500000000002 -2.590376984126983 270.66933810407085 -1.7341666666666702
decision_type=2 2 2 2 2 2 2 2 2 2 2 2 2 2 2 2 2 2 2 2 2 2 2 2 2 2 2 2 2 2 2 2 2 2 2 2 2 2 2 2 2 2 2 2 2 2 2 2 2 2 2 2 2 2 2 2
left_child=2 13 5 14 -4 -1 7 10 16 -5 33 12 31 -2 17 42 -8 22 19 21 -21 -13 -3 43 25 47 50 -23 -9 45 -31 -6 -22 -7 35 36 -29 -38 -37 -40 -36 -20 -11 -24 -39 46 -12 -25 -17 -41 -15 52 53 -18 -53 -56
right_child=1 3 4 9 11 6 8 28 -10 15 29 18 -14 26 -16 48 51 -19 41 20 32 27 23 24 -26 -27 -28 34 -30 30 -32 -33 -34 -35 40 38 37 44 39 49 -42 -43 -44 -45 -46 -47 -48 -49 -50 -51 -52 54 -54 -55 55 -57
leaf_value=-0.39752447601766255 0.14534328129388049 0.055890705255330186 0.63618121689472007 -0.22259062627473147 -0.31887243168904916 -0.27442228516111133 -0.29283106702035977 -0.36440862232675564 0.4178664898835564 0.70494943358088946 0.015725083423442757 -0.13706448035436747 0.097997450153479423 0.0276509568473997 -0.013643124500683888 0.071793176881357099 -0.28473083723201309 -0.10874801115885382 0.09317609657452261 -0.10310281784918018 0.36762533459031438 -0.082932086568909866 0.43357115578863753 -0.21104500195876413 0.20812068163776956 1.1747754218019659 -0.12874663818257664 -0.17230815760528084 -0.042237478843369342 1.2400053493304131 0.0066345630225382356 -0.094719270521594637 0.041216144088690426 -0.029045535608527965 -0.25606444906080639 -0.011944395371376388 0.58532170633887126 0.12215472019845841 -0.059422592773474218 0.13300414751067682 0.0041036680059505261 0.36082931392560275 0.24899700830990015 0.18256766452407644 0.36373154333399649 -0.044267410184880084 0.20768807335183875 0.72488002500796012 0.98149953047048766 -0.034988956967912446 0.32697685067030574 -0.16479748994747637 -0.2418804730329831 0.072483023598762408 -0.14115039978996291 0.044698041577109791
leaf_weight=7668 24258 4655 1940 723 8552 4771 14649 5755 1943 1756 8507 12687 5696 23682 6665 207 1935 2423 11120 58914 2241 16115 3481 230 3420 1643 12902 2723 3843 702 1216 7719 11160 8022 3379 60660 2044 18678 8312 47469 17549 3173 1593 11894 3433 6532 14105 983 3379 6180 1852 19008 18446 4292 14488 14531
leaf_count=7668 24258 4655 1940 723 8552 4771 14649 5755 1943 1756 8507 12687 5696 23682 6665 207 1935 2423 11120 58914 2241 16115 3481 230 3420 1643 12902 2723 3843 702 1216 7719 11160 8022 3379 60660 2044 18678 8312 47469 17549 3173 1593 11894 3433 6532 14105 983 3379 6180 1852 19008 18446 4292 14488 14531
internal_value=0 0.14017 -0.0324064 0.271703 0.00320477 -0.10574 -0.0900659 -0.00279034 -0.142312 0.627443 0.0481208 -0.000784693 -0.132014 0.0498459 0.194734 0.716062 -0.154772 0.243076 0.00930044 0.00175802 -0.0662432 0.0264407 0.275482 0.322695 0.52676 0.908324 -0.0104251 0.037561 -0.235413 0.117591 0.458056 -0.212534 0.0958004 -0.120556 0.0489544 0.0611133 0.158401 0.195682 0.0397882 0.0904347 -0.0379026 0.152594 0.488069 0.239396 0.159662 0.0951846 0.135468 0.547417 0.928987 0.113652 0.0493613 -0.126954 -0.190556 -0.0385189 -0.0942793 -0.0480885
internal_weight=0 105746 460157 43052 309744 150413 142745 53453 89292 7658 43855 307804 21967 62694 35394 6935 87349 28729 285837 271544 72315 199229 26306 21651 6276 2856 38436 186542 9598 31062 1918 16271 13401 12793 170427 149499 26878 24155 122621 61961 20928 14293 3349 15375 22111 29144 22612 1213 3586 53649 25534 72700 24673 6227 48027 29019
internal_count=565903 105746 460157 43052 309744 150413 142745 53453 89292 7658 43855 307804 21967 62694 35394 6935 87349 28729 285837 271544 72315 199229 26306 21651 6276 2856 38436 186542 9598 31062 1918 16271 13401 12793 170427 149499 26878 24155 122621 61961 20928 14293 3349 15375 22111 29144 22612 1213 3586 53649 25534 72700 24673 6227 48027 29019
is_linear=0
shrinkage=0.002


Tree=11
num_leaves=57
num_cat=0
split_feature=25 223 43 172 169 172 207 172 23 81 169 169 207 16 172 169 25 207 169 43 169 81 25 81 172 207 16 169 43 207 43 169 169 169 172 172 81 207 43 43 172 43 169 207 223 223 169 169 43 43 207 207 43 169 169 172
split_gain=8.96283e+08 2.8617e+08 2.66764e+08 2.40965e+08 2.26956e+08 1.79453e+08 1.69927e+08 1.48105e+08 1.52469e+08 1.13456e+08 8.90406e+07 1.43362e+08 8.62681e+07 8.02586e+07 7.3793e+07 7.35086e+07 7.22982e+07 6.70471e+07 6.30611e+07 6.02013e+07 5.43101e+07 5.08014e+07 7.21854e+07 4.95545e+07 4.92437e+07 5.28387e+07 4.83141e+07 4.71697e+07 4.64126e+07 4.51804e+07 5.49455e+07 4.13114e+07 4.03438e+07 5.83867e+07 4.52121e+07 8.00887e+07 6.45355e+07 4.02861e+07 3.98765e+07 3.79452e+07 8.77549e+07 6.53516e+07 4.61887e+07 5.94525e+07 3.78822e+07 3.54341e+07 3.4103e+07 3.39979e+07 3.84764e+07 4.02332e+07 3.39654e+07 3.90391e+07 1.12593e+08 1.49221e+08 1.03114e+08 5.93025e+07
threshold=0.41500000000000031 806.46250000000009 5.5016734693877565 1.0926388888888907 14.775 -2.0695486111111161 17.076666666666743 1.3521354166666655 0.20276871433695462 -13.331249999999999 29.605000000000004 17.275000000000002 236.54003472222226 0.075740786015994502 -5.7844965277777751 23.305000000000003 -7.6995833333333321 -105.06006944444445 17.275000000000002 0.9850000000000001 20.795000000000005 -1.7857986111111106 9.9408333333333356 -3.4888888888888885 -0.10918402777777912 -143.47678019323669 0.075740786015994502 21.375000000000004 2.1327482517482523 449.58361111111111 0.42500000000000004 22.545000000000005 13.345000000000001 1.0000000180025095e-35 -4.2709722222222188 -1.9294270833333316 -13.008680555555555 -101.38847222222223 0.57500000000000007 1.3950000000000002 1.8250000000000013 3.5903286713286717 27.505000000000006 119.92590277777781 387.16500000000002 71.437500000000085 11.705000000000002 21.665000000000003 0.85500000000000009 3.7511118881118888 -311.33076388888878 -177.21388888888887 0.57500000000000007 19.595000000000002 23.665000000000003 1.429756944444444
decision_type=2 2 2 2 2 2 2 2 2 2 2 2 2 2 2 2 2 2 2 2 2 2 2 2 2 2 2 2 2 2 2 2 2 2 2 2 2 2 2 2 2 2 2 2 2 2 2 2 2 2 2 2 2 2 2 2
left_child=3 5 10 12 19 23 13 37 -9 -10 11 -3 16 -7 -13 -11 24 20 -8 -5 -16 22 -17 -2 -1 -26 -20 38 32 31 -31 -14 33 -18 45 36 -36 -4 -6 -19 42 -42 -41 -44 -28 -34 -35 -25 -49 -50 -15 52 53 -52 -55 -54
right_child=1 2 7 4 27 6 18 8 9 15 -12 14 29 50 17 21 28 39 26 -21 -22 -23 -24 47 25 -27 44 -29 -30 30 -32 -33 34 46 35 -37 -38 -39 -40 40 41 -43 43 -45 -46 -47 -48 48 49 -51 51 -53 55 54 -56 -57
leaf_value=-0.28520038380633056 -0.15163623743614899 -0.028588007552259386 0.40572226035330933 -0.32983168784846567 -0.20383435833237618 0.55186076755318592 -0.1651078366073013 -0.22225101141973375 -0.10194782523951904 -0.15451101782543414 0.039755249440958831 -0.1190028924085423 -0.1355200030525491 0.0017592017008908729 0.72757434715170044 1.1282431427937263 -0.052749300778913918 0.14378245667325323 0.54638364647249982 0.13831772121839692 0.34753954751947119 0.65162682945260464 0.11788439903846154 -0.093233160850777194 0.63401108796825967 -0.14135844822087801 -0.033371610266434891 0.051389698361111291 -0.20628078930457389 0.78218443685696448 0.059466602013905842 0.063794849828755745 -0.080408173517532947 -0.32836739031140921 -0.21716713922867698 -0.10875716007221856 0.044829059687424164 0.034526252698377932 0.019216304934205824 0.1211217826852532 0.9687549308825143 0.25748799904969522 0.24998193049855078 1.1838976964074981 0.083985288718776543 -0.21945483271361885 -0.13553776786809188 -0.048804959305835449 0.21527524117022837 -0.14359074975043229 -0.056622526824510216 0.11878488572000423 -0.050823221137120352 1.2345801151287796 0.48389151188468815 0.25260678329727182
leaf_weight=15439 16469 8598 1761 9297 5671 1860 8277 872 729 366 24559 1837 6942 7312 2116 2181 9689 9511 699 1246 5202 5300 325 12338 478 1329 25886 85311 18810 648 1200 10378 13748 9168 4297 60343 30132 3482 7376 4938 1264 874 843 403 19135 15706 6116 8374 6414 1552 1661 52893 5019 941 3294 5294
leaf_count=15439 16469 8598 1761 9297 5671 1860 8277 872 729 366 24559 1837 6942 7312 2116 2181 9689 9511 699 1246 5202 5300 325 12338 478 1329 25886 85311 18810 648 1200 10378 13748 9168 4297 60343 30132 3482 7376 4938 1264 874 843 403 19135 15706 6116 8374 6414 1552 1661 52893 5019 941 3294 5294
internal_value=0 0.0884922 0.191922 -0.0716214 0.00436911 0.0446753 0.0818364 0.430385 0.575868 0.654057 0.132387 0.196315 -0.112103 0.141376 0.267965 0.721498 -0.125319 0.296229 -0.004472 -0.274505 0.457427 0.762571 0.997211 -0.0641987 -0.248638 0.0637476 0.024609 0.0342616 -0.11266 0.0156249 0.312887 -0.0160922 -0.100857 -0.174209 -0.0861118 -0.064841 0.0121299 0.159202 -0.0777347 0.23008 0.328707 0.677994 0.207947 0.552043 0.0165079 -0.154553 -0.251205 -0.0139857 0.0458525 0.145358 0.131384 0.145101 0.230973 0.45143 0.650692 0.104937
internal_weight=0 252579 75161 313324 108901 177418 132271 15016 9773 8901 60145 35586 204423 78274 26988 8172 185255 25151 53997 10543 7318 7806 2506 45147 17246 1807 45720 98358 168009 19168 1848 17320 149199 24973 124226 94772 34429 5243 13047 17833 8322 2138 6184 1246 45021 29454 15284 28678 16340 7966 76414 69102 16209 5896 4235 10313
internal_count=565903 252579 75161 313324 108901 177418 132271 15016 9773 8901 60145 35586 204423 78274 26988 8172 185255 25151 53997 10543 7318 7806 2506 45147 17246 1807 45720 98358 168009 19168 1848 17320 149199 24973 124226 94772 34429 5243 13047 17833 8322 2138 6184 1246 45021 29454 15284 28678 16340 7966 76414 69102 16209 5896 4235 10313
is_linear=0
shrinkage=0.002


Tree=12
num_leaves=57
num_cat=4
split_feature=256 120 14 44 135 44 256 44 120 108 134 44 256 256 120 204 256 263 44 256 204 44 263 256 8 8 134 120 135 14 256 120 256 256 256 256 14 204 120 263 256 108 134 44 263 44 44 8 14 135 256 44 120 256 134 256
split_gain=1.34788e+09 6.40371e+08 3.3477e+08 2.46546e+08 2.426e+08 2.35306e+08 1.96473e+08 1.48207e+08 1.19027e+08 1.29144e+08 1.05904e+08 1.03605e+08 1.0008e+08 9.48483e+07 8.66915e+07 1.10316e+08 8.56971e+07 8.16061e+07 8.77377e+07 7.66498e+07 1.38103e+08 8.72572e+07 7.21623e+07 7.08834e+07 6.54844e+07 6.36802e+07 8.2967e+07 9.4238e+07 7.54522e+07 7.52404e+07 5.88559e+07 5.79404e+07 5.62736e+07 5.58673e+07 5.35911e+07 5.33878e+07 5.05495e+07 7.10622e+07 5.05078e+07 4.77693e+07 4.68082e+07 4.41773e+07 4.15472e+07 4.38914e+07 4.09778e+07 4.09215e+07 4.02802e+07 6.26769e+07 3.99336e+07 3.96743e+07 3.93666e+07 4.59657e+07 3.81257e+07 3.79065e+07 3.78886e+07 3.77347e+07
threshold=-243.78920949074066 13.005000000000001 9.5011181434599177 1.9254055863518504 29.225000000000005 1.8603274067786812 752.24733593750011 2.9656604784393719 24.295000000000005 0.082499999999996923 18.365000000000006 0.86389154009299318 -632.8884397095959 -536.38489149305553 22.815000000000001 255.00500000000002 427.39259224123685 0 2.559443167446783 192.34848487103179 69.605000000000004 1.3283471588891169 1 82.914967898322871 0.010099601593625501 7.2650000000000006 24.745000000000001 15.785000000000002 20.545000000000005 2.9210349650349654 -22.518521267361091 22.405000000000005 19.160397569444431 -62.755393518518503 -11.092264727011495 -163.00236979166664 2.8009790209790215 11.610000000000001 36.761634615384615 2 427.39259224123685 -0.18083333333333759 28.355000000000004 1.9083793509873275 3 0.82269600106833918 2.4399836752622623 8.0850000000000026 16.555000000000003 34.750250000000001 339.53099784301355 1.3485048520536564 9.2450000000000028 319.68929050925937 25.405000000000005 626.98112356222703
decision_type=2 2 2 2 2 2 2 2 2 2 2 2 2 2 2 2 2 1 2 2 2 2 1 2 2 2 2 2 2 2 2 2 2 2 2 2 2 2 2 1 2 2 2 2 1 2 2 2 2 2 2 2 2 2 2 2
left_child=4 3 7 11 12 6 8 24 -4 38 52 30 -1 -6 34 16 -16 -17 -19 39 21 -21 -23 44 -3 28 27 -27 41 33 -2 -8 35 -29 -7 -30 37 -9 55 -13 54 -26 43 -34 -20 -14 -36 -48 53 -28 -11 -52 -5 -49 -39 -10
right_child=1 2 5 10 13 14 31 36 9 50 -12 19 45 -15 15 17 -18 18 23 20 -22 22 -24 -25 25 26 49 29 32 -31 -32 -33 42 -35 46 -37 -38 40 -40 -41 -42 -43 -44 -45 -46 -47 47 48 -50 -51 51 -53 -54 -55 -56 -57
leaf_value=-0.38951563059534466 -0.46426780553310448 0.036370896059530172 0.066994795310771571 -0.31748732951279257 -0.21257739573288331 -0.038334897330637732 0.41777628746312645 -0.21595350340411287 0.33514968805408341 -0.10503579051554704 -0.0227385206393153 0.09166545309188591 -0.46349322342046562 -0.029151528066017961 0.10009681789654534 0.58151651924688708 -0.14477054481284732 0.44602270092817586 0.88064643079548399 1.2131385844712479 -0.0015259793454402619 0.018238483977986275 0.78472639737515837 -0.14557843093196904 0.34438477476964019 -0.014245543450584125 -0.010596227478844597 0.15224297051783411 0.06729562348585863 0.10278188194995125 0.13051719959680314 0.88637478135485659 0.068431601985151344 0.59925282149976988 0.13791934252877749 0.29794443599447407 -0.064778794852156041 0.34165014006836797 -0.016365789821968475 -0.063336453268342294 -0.22974248298133737 -0.027812699564178263 0.079371884685811481 0.346261847693356 0.053151664306640624 -0.20239913215970853 0.23387407021266976 0.33512389333811299 0.024174550747164049 0.099809880129471965 0.34566322051885029 1.2838706006693794 -0.1847215129192892 0.71362568081068178 0.084667906052610334 0.85573373426258992
leaf_weight=16755 2692 76635 5650 18458 15555 2136 1499 2643 2804 119 10117 13283 2511 40995 20566 2600 7918 2765 473 669 3956 1060 915 3390 1435 5169 34429 1564 4992 3697 884 3567 3746 3925 4583 20494 43226 4109 1354 19788 1149 11483 22284 5790 490 54880 7016 1613 573 20936 261 1046 16285 3078 5198 695
leaf_count=16755 2692 76635 5650 18458 15555 2136 1499 2643 2804 119 10117 13283 2511 40995 20566 2600 7918 2765 473 669 3956 1060 915 3390 1435 5169 34429 1564 4992 3697 884 3567 3746 3925 4583 20494 43226 4109 1354 19788 1149 11483 22284 5790 490 54880 7016 1613 573 20936 261 1046 16285 3078 5198 695
internal_value=0 0.0533316 0.0919839 -0.0989403 -0.178273 0.211105 0.417738 0.0595977 0.277601 0.46711 -0.202818 0.00881176 -0.253525 -0.0796058 0.149713 0.0948046 0.0320284 0.278805 0.167182 0.0382021 0.234991 0.588872 0.377411 -0.00955268 0.0833662 0.109101 0.0662841 0.201778 0.151611 0.323336 -0.317235 0.747719 0.182737 0.471885 0.260119 0.252767 -0.0317962 0.0770444 0.311629 -0.00107122 0.151107 0.013533 0.126648 0.237123 0.469292 -0.213823 0.297924 0.357639 0.522596 0.0311533 0.996246 1.09652 -0.255256 0.583478 0.198124 0.438552
internal_weight=0 435207 347100 88107 130696 74196 16995 272904 11929 6279 44860 43247 74146 56550 57201 38202 28484 9718 7118 39671 6600 2644 1975 4353 216579 139944 69720 14355 70224 9186 3576 5066 57306 5489 18999 25486 56325 13099 4853 33071 10456 12918 31820 9536 963 57391 16863 12280 5264 55365 1426 1307 34743 4691 9307 3499
internal_count=565903 435207 347100 88107 130696 74196 16995 272904 11929 6279 44860 43247 74146 56550 57201 38202 28484 9718 7118 39671 6600 2644 1975 4353 216579 139944 69720 14355 70224 9186 3576 5066 57306 5489 18999 25486 56325 13099 4853 33071 10456 12918 31820 9536 963 57391 16863 12280 5264 55365 1426 1307 34743 4691 9307 3499
cat_boundaries=0 1 2 3 4
cat_threshold=2080768 16760834 14680319 15360
is_linear=0
shrinkage=0.002


Tree=13
num_leaves=57
num_cat=0
split_feature=111 102 191 102 111 191 98 191 217 98 33 217 217 115 217 155 33 102 191 102 155 102 102 155 115 217 3 115 33 111 33 217 115 33 33 111 102 217 115 155 102 217 217 102 102 139 217 115 111 191 191 217 191 111 115 217
split_gain=4.879e+08 2.96651e+08 2.42006e+08 9.15071e+07 9.08492e+07 6.55757e+07 7.71057e+07 5.95002e+07 5.73697e+07 4.73847e+07 4.55562e+07 4.50292e+07 5.61886e+07 3.7991e+07 3.653e+07 3.58704e+07 3.18572e+07 5.20161e+07 3.43576e+07 3.55642e+07 3.31743e+07 2.9191e+07 3.11814e+07 2.94612e+07 2.84987e+07 4.1797e+07 4.55853e+07 2.85706e+07 2.78937e+07 3.32596e+07 2.94996e+07 2.65938e+07 2.58216e+07 2.67781e+07 2.55928e+07 2.84298e+07 2.31362e+07 3.38718e+07 2.40618e+07 2.20204e+07 2.18501e+07 3.60468e+07 2.09437e+07 2.03402e+07 2.85618e+07 1.98456e+07 1.93876e+07 1.92783e+07 3.23253e+07 1.91152e+07 2.4327e+07 2.57805e+07 2.64013e+07 2.84037e+07 2.14475e+07 1.8783e+07
threshold=19.411944444444451 0.44500000000000212 7.0507201168154525 -6.8049999999999971 11.031805555555559 1.0000000180025095e-35 23.775000000000002 4.5681356436797671 92.50500000000001 37.571371308016886 2.5206944444444455 269.33500000000004 391.27500000000003 -0.17194444444444465 -98.919999999999987 -1.0000000180025095e-35 -1.8158333333333323 -2.7691666666666674 4.4599652625358113 -3.7116666666666682 17.525000000000002 1.7766666666666648 5.888333333333339 38.201099585062245 -0.13999999999998988 38.350000000000009 25.595000000000002 -0.1894444444444465 -0.49833333333333257 29.527083333333337 -2.9610416666666657 378.76200000000006 -0.054999999999998821 -1.5319444444444443 0.3116666666666667 17.139305555555559 -2.0283333333333329 316.79500000000007 0.0022222222222199055 29.955000000000002 -4.1050000000000004 22.286340425531918 -139.595 7.0837499999999993 3.8908333333333354 25.862500000000011 -17.964999999999996 0.023055555555560051 29.76402777777778 11.321600749148315 1.0000000180025095e-35 108.29500000000002 6.4695542795347114 26.450277777777782 0.18527777777777835 402.60500000000008
decision_type=2 2 2 2 2 2 2 2 2 2 2 2 2 2 2 2 2 2 2 2 2 2 2 2 2 2 2 2 2 2 2 2 2 2 2 2 2 2 2 2 2 2 2 2 2 2 2 2 2 2 2 2 2 2 2 2
left_child=4 3 5 31 15 32 -7 11 16 42 43 21 28 -10 -5 -1 18 -18 19 20 -6 -8 39 -24 25 26 27 -16 29 -13 -31 -2 -3 -34 -15 -36 37 49 -38 -23 -17 -42 -4 44 -11 -39 -35 -30 -49 50 -26 52 53 54 -52 -44
right_child=1 2 9 14 8 6 7 -9 13 10 -12 12 -14 34 24 40 17 -19 -20 -21 -22 22 23 -25 36 -27 -28 -29 47 30 -32 -33 33 46 35 -37 38 45 -40 -41 41 -43 55 -45 -46 -47 -48 48 -50 -51 51 -53 -54 -55 -56 -57
leaf_value=-0.049129347736807528 -0.13214066017098208 0.14627613590037666 -0.15648307385940163 -0.13764571588949712 -0.2590418505887373 0.024432741109472123 0.077390935071996514 0.15583366047373684 0.070867379808343262 0.10836209769627506 -0.17367235168220918 0.75420017506945258 0.032275352751156026 -0.084045081200091826 0.69990799948132998 -0.32553534884060703 -0.16584730533035369 0.026645981773380897 -0.012407590638489282 0.17016654002804055 0.95694439170116519 0.10188404353152586 0.25485847672572404 -0.10840433542243887 -0.14093896449194807 0.023405111146020414 0.069209353970778029 0.24987158417667515 0.27599068122815335 -0.023859993143284575 0.50336117429608696 0.075087694177277758 0.29186584252992448 -0.24204348778018125 -0.1971981508595444 -0.068618042945378266 -0.0083819068800951302 -0.10888102651111173 0.060196012493415892 0.36508304688791748 0.049799255542443778 -0.23178162527157248 0.023539468874684048 -0.00032756482817668437 0.27780832250484594 0.072818285234281466 0.0079176486496156558 0.20449396165583075 0.74218877457453047 -0.11325806148907049 0.22264655199078467 -0.058010184970504988 -0.072477483070077203 0.018876293652653121 0.70421353516143159 -0.080444386221687189
leaf_weight=4946 30128 9649 2935 7467 109 8768 4349 26286 4616 11992 2068 1820 1676 43107 948 7503 7981 18943 2380 1473 508 1501 2238 1486 6159 19697 3390 1394 4883 517 2373 2699 1167 1451 22741 9861 59058 2899 31318 8316 2096 13737 85654 3590 5955 14095 8584 771 1065 18115 2768 12519 3038 3127 427 7562
leaf_count=4946 30128 9649 2935 7467 109 8768 4349 26286 4616 11992 2068 1820 1676 43107 948 7503 7981 18943 2380 1473 508 1501 2238 1486 6159 19697 3390 1394 4883 517 2373 2699 1167 1451 22741 9861 59058 2899 31318 8316 2096 13737 85654 3590 5955 14095 8584 771 1065 18115 2768 12519 3038 3127 427 7562
internal_value=0 0.0335121 0.0878796 -0.0177335 -0.102584 0.168224 0.199093 0.225829 -0.0769501 0.029578 0.109871 0.28519 0.374257 -0.105284 -0.000587531 -0.203843 -0.00445483 -0.0304142 0.151905 0.339018 0.742127 0.219945 0.265729 0.109905 0.0051314 0.0671463 0.217455 0.432038 0.424407 0.542417 0.409045 -0.115103 0.070442 0.00512118 -0.116024 -0.158307 -0.00514053 -0.034513 0.0153824 0.32484 -0.236634 -0.194505 0.00986627 0.137097 0.164586 0.0418223 -0.0282252 0.341682 0.516392 -0.0626204 -0.029904 0.00135266 0.0807505 0.154383 0.287006 0.0151039
internal_weight=0 425902 206656 219246 140001 86900 66049 57281 111719 119756 23605 30995 13105 80325 186419 28282 31394 26924 4470 2090 617 17890 13541 3724 178952 25429 5732 2342 11429 4710 2890 32827 20851 11202 75709 32602 153523 63147 90376 9817 23336 15833 96151 21537 17947 16994 10035 6719 1836 46153 28038 21879 9360 6322 3195 93216
internal_count=565903 425902 206656 219246 140001 86900 66049 57281 111719 119756 23605 30995 13105 80325 186419 28282 31394 26924 4470 2090 617 17890 13541 3724 178952 25429 5732 2342 11429 4710 2890 32827 20851 11202 75709 32602 153523 63147 90376 9817 23336 15833 96151 21537 17947 16994 10035 6719 1836 46153 28038 21879 9360 6322 3195 93216
is_linear=0
shrinkage=0.002


Tree=14
num_leaves=57
num_cat=0
split_feature=22 161 86 214 22 166 212 214 212 214 212 161 214 86 36 212 162 162 86 86 86 86 162 162 86 212 214 36 36 36 212 199 164 36 86 164 86 212 178 36 214 22 214 212 164 164 212 212 214 214 214 212 86 212 212 162
split_gain=6.34833e+08 3.49613e+08 2.25581e+08 2.37112e+08 1.22897e+08 1.14124e+08 1.0942e+08 1.70396e+08 1.60991e+08 1.25332e+08 1.01603e+08 9.70222e+07 1.065e+08 9.73183e+07 8.63874e+07 1.19476e+08 1.12396e+08 1.11243e+08 1.47005e+08 8.15407e+07 6.84349e+07 7.87045e+07 7.45021e+07 6.65526e+07 6.18014e+07 9.25788e+07 6.16751e+07 5.83683e+07 5.81449e+07 5.70355e+07 9.90336e+07 7.0798e+07 6.65764e+07 5.67862e+07 5.27654e+07 5.23711e+07 5.00997e+07 4.98631e+07 4.93559e+07 4.49482e+07 4.42388e+07 4.42202e+07 4.35814e+07 4.34131e+07 5.81738e+07 4.32495e+07 4.09379e+07 4.0937e+07 4.07373e+07 3.45632e+07 4.60314e+07 1.28879e+08 1.32258e+08 7.85463e+07 7.58217e+07 5.87864e+07
threshold=7.7628481012658233 25.475000000000005 2.7307855507481551 44.985052083333365 5.180105485232068 -1.3788888888888902 15.004454297397805 -42.386969521604925 38.61490070225414 -142.999650832757 9.1780226359979693 38.415000000000006 475.77670138888891 16.55965153789472 1.9605874125874128 27.214333829610361 32.685000000000009 21.665000000000003 5.2228165096629313 1.5195815756058844 27.459986553620343 4.724166378474643 25.715000000000003 28.835000000000004 1.5195815756058844 20.680781278342014 -263.99809027777769 0.3842857142857144 0.41500000000000004 8.1902553191489371 13.686937575498316 -0.17527777777780071 -0.011647376543205466 4.1534825174825185 62.417794980629417 0.10625000000000463 4.63384943218231 51.468546632611918 29.865000000000006 8.3409090909090917 73.853121897163135 10.090843881856541 179.50807291666672 45.688215653549101 -0.005555555555555535 0.1013888888888861 15.994317388266959 42.725061469544833 -72.578125 -275.64130074786317 -50.258472222222203 16.321647957906439 54.113545981484982 52.211016283754262 82.518651744705494 26.465000000000003
decision_type=2 2 2 2 2 2 2 2 2 2 2 2 2 2 2 2 2 2 2 2 2 2 2 2 2 2 2 2 2 2 2 2 2 2 2 2 2 2 2 2 2 2 2 2 2 2 2 2 2 2 2 2 2 2 2 2
left_child=1 6 3 10 11 34 7 9 -8 -1 -2 12 49 -13 -4 17 36 -16 29 -5 21 22 -7 -12 -24 -26 -15 -10 -28 30 32 -31 33 -19 -6 -25 -17 38 -21 -20 -32 -38 -42 -22 -45 -30 -33 -18 -11 -3 51 52 -51 -52 55 -53
right_child=2 4 14 19 5 20 8 -9 27 48 23 13 -14 26 15 16 47 18 39 37 43 -23 24 35 25 -27 28 -29 45 31 40 46 -34 -35 -36 -37 41 -39 -40 -41 42 -43 -44 44 -46 -47 -48 -49 -50 50 53 54 -54 -55 -56 -57
leaf_value=-0.15057832240307426 -0.16933332278335039 -0.16276827935710353 -0.01446765732909081 -0.20475622535980853 -0.047011798181531922 -0.079495393281968876 -0.2946863513642583 -0.12118654882330308 -0.23308781658921365 0.79249021251427065 0.030778654269374754 -0.054122997198858915 0.56492508001789643 -0.12109491995193974 -0.10908553240076789 -0.059849551395259118 0.35327620838410262 1.4630038761162907 -0.074681231682460922 0.3995642969777265 0.016248755025584795 0.025720530851894734 -0.10535179267537938 0.43975925444444713 0.50443133694078202 -0.019263791282364523 -0.041606404215282271 -0.049159473749997247 0.073280794129655782 0.52478030286082233 0.18621721499463512 -0.2154887017696952 1.1702669173306313 0.1184630878429381 0.77025680236816407 1.0923585974978705 0.38507915263740122 -0.28590617343653807 1.3455998233221937 0.17553004845623818 0.85323254865313336 0.68259010237973994 -0.10645030623946447 0.40480078208727183 0.047640466908991187 0.20534207173809793 0.26596659372998521 -0.11417722528631037 0.27313250941321965 0.25153958328111692 -0.12024529089019596 0.14820457398093617 1.5071393254077647 -0.023263381451305239 -0.10902130035920359 -0.0414774072316971
leaf_weight=1270 1521 10215 12262 194 25245 2486 28138 10502 9145 1745 1507 46049 1135 7211 7235 704 1090 159 7256 254 2394 26378 1215 4803 5725 1767 15317 28131 65433 1506 3217 1656 1104 599 320 548 5401 92 1677 4753 882 3172 241 7390 2422 11692 1232 2398 924 2367 55425 13313 391 84078 19779 12838
leaf_count=1270 1521 10215 12262 194 25245 2486 28138 10502 9145 1745 1507 46049 1135 7211 7235 704 1090 159 7256 254 2394 26378 1215 4803 5725 1767 15317 28131 65433 1506 3217 1656 1104 599 320 548 5401 92 1677 4753 882 3172 241 7390 2422 11692 1232 2398 924 2367 55425 13313 391 84078 19779 12838
