tree
version=v3
num_class=1
num_tree_per_iteration=1
label_index=0
max_feature_idx=264
objective=regression
feature_names=TurbID Wspd Wdir Etmp Itmp Ndir Pab1 Pab2 Pab3 Prtv Patv Wspd_simple_diff Wspd_simple_diff2 Wspd_rolling_mean6 Wspd_rolling_max6 Wspd_rolling_min6 Wspd_rolling_std6 Wspd_rolling_mean_diff6 Wspd_rolling_mean_diffn6 Wspd_rolling_mean_cal6 Wspd_rolling_mean12 Wspd_rolling_max12 Wspd_rolling_min12 Wspd_rolling_std12 Wspd_rolling_mean_diff12 Wspd_rolling_mean_diffn12 Wspd_rolling_mean_cal12 Wspd_rolling_mean36 Wspd_rolling_max36 Wspd_rolling_min36 Wspd_rolling_std36 Wspd_rolling_mean_diff36 Wspd_rolling_mean_diffn36 Wspd_rolling_mean_cal36 Wspd_rolling_mean72 Wspd_rolling_max72 Wspd_rolling_min72 Wspd_rolling_std72 Wspd_rolling_mean_diff72 Wspd_rolling_mean_diffn72 Wspd_rolling_mean_cal72 Wspd_rolling_mean144 Wspd_rolling_max144 Wspd_rolling_min144 Wspd_rolling_std144 Wspd_rolling_mean_diff144 Wspd_rolling_mean_diffn144 Wspd_rolling_mean_cal144 Wspd_past0 Wspd_past1 Wspd_past2 Wspd_past3 Wspd_past4 Wdir_simple_diff Wdir_simple_diff2 Wdir_rolling_mean6 Wdir_rolling_max6 Wdir_rolling_min6 Wdir_rolling_std6 Wdir_rolling_mean_diff6 Wdir_rolling_mean_diffn6 Wdir_rolling_mean_cal6 Wdir_rolling_mean12 Wdir_rolling_max12 Wdir_rolling_min12 Wdir_rolling_std12 Wdir_rolling_mean_diff12 Wdir_rolling_mean_diffn12 Wdir_rolling_mean_cal12 Wdir_rolling_mean36 Wdir_rolling_max36 Wdir_rolling_min36 Wdir_rolling_std36 Wdir_rolling_mean_diff36 Wdir_rolling_mean_diffn36 Wdir_rolling_mean_cal36 Wdir_rolling_mean72 Wdir_rolling_max72 Wdir_rolling_min72 Wdir_rolling_std72 Wdir_rolling_mean_diff72 Wdir_rolling_mean_diffn72 Wdir_rolling_mean_cal72 Wdir_rolling_mean144 Wdir_rolling_max144 Wdir_rolling_min144 Wdir_rolling_std144 Wdir_rolling_mean_diff144 Wdir_rolling_mean_diffn144 Wdir_rolling_mean_cal144 Wdir_past0 Wdir_past1 Wdir_past2 Wdir_past3 Wdir_past4 Etmp_simple_diff Etmp_simple_diff2 Etmp_rolling_mean6 Etmp_rolling_max6 Etmp_rolling_min6 Etmp_rolling_std6 Etmp_rolling_mean_diff6 Etmp_rolling_mean_diffn6 Etmp_rolling_mean_cal6 Etmp_rolling_mean12 Etmp_rolling_max12 Etmp_rolling_min12 Etmp_rolling_std12 Etmp_rolling_mean_diff12 Etmp_rolling_mean_diffn12 Etmp_rolling_mean_cal12 Etmp_rolling_mean36 Etmp_rolling_max36 Etmp_rolling_min36 Etmp_rolling_std36 Etmp_rolling_mean_diff36 Etmp_rolling_mean_diffn36 Etmp_rolling_mean_cal36 Etmp_rolling_mean72 Etmp_rolling_max72 Etmp_rolling_min72 Etmp_rolling_std72 Etmp_rolling_mean_diff72 Etmp_rolling_mean_diffn72 Etmp_rolling_mean_cal72 Etmp_rolling_mean144 Etmp_rolling_max144 Etmp_rolling_min144 Etmp_rolling_std144 Etmp_rolling_mean_diff144 Etmp_rolling_mean_diffn144 Etmp_rolling_mean_cal144 Etmp_past0 Etmp_past1 Etmp_past2 Etmp_past3 Etmp_past4 Itmp_simple_diff Itmp_simple_diff2 Itmp_rolling_mean6 Itmp_rolling_max6 Itmp_rolling_min6 Itmp_rolling_std6 Itmp_rolling_mean_diff6 Itmp_rolling_mean_diffn6 Itmp_rolling_mean_cal6 Itmp_rolling_mean12 Itmp_rolling_max12 Itmp_rolling_min12 Itmp_rolling_std12 Itmp_rolling_mean_diff12 Itmp_rolling_mean_diffn12 Itmp_rolling_mean_cal12 Itmp_rolling_mean36 Itmp_rolling_max36 Itmp_rolling_min36 Itmp_rolling_std36 Itmp_rolling_mean_diff36 Itmp_rolling_mean_diffn36 Itmp_rolling_mean_cal36 Itmp_rolling_mean72 Itmp_rolling_max72 Itmp_rolling_min72 Itmp_rolling_std72 Itmp_rolling_mean_diff72 Itmp_rolling_mean_diffn72 Itmp_rolling_mean_cal72 Itmp_rolling_mean144 Itmp_rolling_max144 Itmp_rolling_min144 Itmp_rolling_std144 Itmp_rolling_mean_diff144 Itmp_rolling_mean_diffn144 Itmp_rolling_mean_cal144 Itmp_past0 Itmp_past1 Itmp_past2 Itmp_past3 Itmp_past4 Ndir_simple_diff Ndir_simple_diff2 Ndir_rolling_mean6 Ndir_rolling_max6 Ndir_rolling_min6 Ndir_rolling_std6 Ndir_rolling_mean_diff6 Ndir_rolling_mean_diffn6 Ndir_rolling_mean_cal6 Ndir_rolling_mean12 Ndir_rolling_max12 Ndir_rolling_min12 Ndir_rolling_std12 Ndir_rolling_mean_diff12 Ndir_rolling_mean_diffn12 Ndir_rolling_mean_cal12 Ndir_rolling_mean36 Ndir_rolling_max36 Ndir_rolling_min36 Ndir_rolling_std36 Ndir_rolling_mean_diff36 Ndir_rolling_mean_diffn36 Ndir_rolling_mean_cal36 Ndir_rolling_mean72 Ndir_rolling_max72 Ndir_rolling_min72 Ndir_rolling_std72 Ndir_rolling_mean_diff72 Ndir_rolling_mean_diffn72 Ndir_rolling_mean_cal72 Ndir_rolling_mean144 Ndir_rolling_max144 Ndir_rolling_min144 Ndir_rolling_std144 Ndir_rolling_mean_diff144 Ndir_rolling_mean_diffn144 Ndir_rolling_mean_cal144 Ndir_past0 Ndir_past1 Ndir_past2 Ndir_past3 Ndir_past4 Patv_simple_diff Patv_simple_diff2 Patv_rolling_mean6 Patv_rolling_max6 Patv_rolling_min6 Patv_rolling_std6 Patv_rolling_mean_diff6 Patv_rolling_mean_diffn6 Patv_rolling_mean_cal6 Patv_rolling_mean12 Patv_rolling_max12 Patv_rolling_min12 Patv_rolling_std12 Patv_rolling_mean_diff12 Patv_rolling_mean_diffn12 Patv_rolling_mean_cal12 Patv_rolling_mean36 Patv_rolling_max36 Patv_rolling_min36 Patv_rolling_std36 Patv_rolling_mean_diff36 Patv_rolling_mean_diffn36 Patv_rolling_mean_cal36 Patv_rolling_mean72 Patv_rolling_max72 Patv_rolling_min72 Patv_rolling_std72 Patv_rolling_mean_diff72 Patv_rolling_mean_diffn72 Patv_rolling_mean_cal72 Patv_rolling_mean144 Patv_rolling_max144 Patv_rolling_min144 Patv_rolling_std144 Patv_rolling_mean_diff144 Patv_rolling_mean_diffn144 Patv_rolling_mean_cal144 Patv_past0 Patv_past1 Patv_past2 Patv_past3 Patv_past4 hour time_index
feature_infos=[102:134] [0:25.870000000000001] [-1028.75:176.50999999999999] [-272.97000000000003:394.32999999999998] [-272.97000000000003:103.86] [-637.90999999999997:697.40999999999997] [-1.9933333333333334:93.576666666666668] [-2:90.879999999999995] [-1.99:99.980000000000004] [-500.16000000000003:413.93000000000001] [0:1521.8299999999999] [-12.75:13.710000000000001] [-19.25:20.379999999999999] [0:21.021666666666665] [0:26.289999999999999] [0:20.09] [0:8.4007777417728811] [-2.6266666666666669:2.8383333333333312] [-17.999999999999996:19.066666666666666] [-12.518333333333334:10.996666666666668] [0:21.549166666666668] [0:26.289999999999999] [0:19.190000000000001] [0:7.1419161230786887] [-1.2891666666666666:1.6300000000000008] [-17.161666666666665:18.99666666666667] [-13.523333333333335:12.165833333333333] [0:19.322777777777777] [0:26.289999999999999] [0:17.710000000000001] [0:7.7331883555786263] [-0.52833333333333243:0.61972222222222229] [-14.631111111111112:16.383055555555558] [-18.313333333333333:13.507361111111111] [0:19.075416666666669] [0:26.289999999999999] [0:15.81] [0:7.3145308129299895] [-0.30597222222222165:0.3098611111111107] [-12.779027777777777:14.769583333333335] [-19.173611111111114:13.222638888888888] [0.020217391304347829:18.001111111111115] [0.18195652173913046:26.289999999999999] [0:14.460000000000001] [0.044338620266587747:6.5854083415872386] [-0.1466666666666665:0.14493055555555401] [-10.378888888888888:13.559236111111113] [-18.988124999999997:12.859652777777777] [0:26.289999999999999] [0:23.109999999999999] [0:23.109999999999999] [0:23.5] [0:23.109999999999999] [-1793.0899999999999:933.5] [-1799.79:3029.3099999999999] [-659.85333333333335:479.95166666666665] [-166.74000000000001:1797.48] [-3030.46:171.34] [0:1220.9876822419901] [-172.98333333333332:358.75166666666667] [-667.75166666666667:659.67500000000007] [-664.21333333333337:858.46333333333337] [-329.07249999999999:239.9941666666667] [-158.46000000000001:1797.48] [-3030.46:153.86000000000001] [0:891.97397979612231] [-86.210833333333341:135.63749999999999] [-333.36916666666667:329.36083333333335] [-333.26166666666666:944.0766666666666] [-150.19277777777779:157.43972222222223] [-109.08:1797.48] [-3030.46:143.40000000000001] [0:524.71795502410873] [-49.884999999999998:45.36333333333333] [-152.99833333333333:157.4325] [-294.9952777777778:1004.2608333333334] [-121.46722222222222:150.82569444444442] [-62.75:1797.48] [-3030.46:138.41] [0:372.56015729571226] [-15.006111111111114:26.059861111111111] [-127.30604166666667:151.5563888888889] [-249.44916666666666:1017.6018055555555] [-63.995451388888881:149.26225694444443] [-38.369999999999997:1797.48] [-3030.46:108.09] [0.0069522324802395426:264.23960479814741] [-12.473333333333333:2.1567361111111154] [-124.64767361111112:143.7402083333333] [-213.54291666666666:1025.2019444444445] [-928.71000000000004:1797.48] [-3030.46:1078.1700000000001] [-1028.75:384.97000000000003] [-2157.0799999999999:1797.48] [-3030.46:1078.1700000000001] [-653.14999999999998:666.05999999999995] [-667.03999999999996:667.28999999999996] [-272.69000000000005:394.32999999999998] [-272.64000000000004:394.32999999999998] [-272.97000000000003:394.32999999999998] [0:341.08292261071449] [-111.17333333333332:111.1766666666667] [-658.68666666666672:656.95666666666659] [-438.16166666666669:544.29166666666663] [-268.08517241379315:394.32999999999998] [-264.19724137931036:394.32999999999998] [-272.97000000000003:394.32999999999998] [0:341.31661882756123] [-55.586666666666659:55.587499999999999] [-653.12583333333328:653.78499999999997] [-545.85333333333335:598.7208333333333] [-259.31333333333328:394.32999999999998] [-250.43000000000001:394.32999999999998] [-272.97000000000003:394.32999999999998] [0:326.24637986047219] [-18.528888888888929:18.529444444444444] [-652.08916666666664:651.91361111111109] [-603.85833333333335:635.00694444444434] [-258.81606582125602:394.32999999999998] [-250.43000000000001:394.32999999999998] [-272.97000000000003:394.32999999999998] [0:324.36117430020477] [-9.2679166666666788:9.2647222222221899] [-651.3151388888889:651.05097222222219] [-628.00791666666669:648.69347222222223] [-251.36601902173911:394.32999999999998] [-76.069999999999993:394.32999999999998] [-272.97000000000003:394.32999999999998] [0:326.31925821078153] [-4.6323611111111234:4.6339583333333252] [-628.82583333333332:628.71034722222214] [-617.57326388888896:657.86673611111109] [-272.95999999999998:394.32999999999998] [-272.95999999999998:394.32999999999998] [-272.97000000000003:394.32999999999998] [-272.95999999999998:394.32999999999998] [-272.97000000000003:394.32999999999998] [-304.98000000000002:311.56999999999999] [-315.79296153846155:318.16999999999996] [-272.69:102.93833333333333] [-272.64000000000004:104.44] [-272.97000000000003:102.41] [0:166.37529537163908] [-52.148333333333341:51.653333333333329] [-310.70575757575756:310.2207575757576] [-250.01333333333332:256.54666666666668] [-268.08517241379315:102.59250000000002] [-264.19724137931036:104.44] [-272.97000000000003:101.43000000000001] [0:160.49364637891102] [-26.122500000000016:26.631666666666661] [-306.77378787878786:305.8004545454545] [-269.54833333333335:284.46249999999998] [-259.31333333333328:71.129444444444445] [-250.43000000000001:104.44] [-272.97000000000003:53.07] [0.028733601124185361:155.13889010899155] [-8.7005555555555567:8.8808333333333316] [-296.69805555555547:297.96460748792276] [-274.2497222222222:301.6513888888889] [-258.81552234299517:55.928194444444443] [-250.43000000000001:104.44] [-272.97000000000003:51.887215189873416] [0.057077589639899735:148.51448269112998] [-4.4315277777777773:4.3505555555555553] [-294.13010567632853:297.1598278985507] [-284.54944444444442:303.91847222222219] [-251.47915006038647:51.998521448663858] [-79.370000000000005:104.44] [-272.97000000000003:50.411898734177214] [0.11376356514862808:149.22111632905259] [-2.2126388888888897:2.1939583333333275] [-284.7531083937198:286.97071708937193] [-274.88090277777781:308.92725694444442] [-272.95999999999998:103.19] [-272.95999999999998:103.47] [-272.97000000000003:104.25] [-272.95999999999998:104.44] [-272.97000000000003:104.25] [-198.79000000000002:170.97999999999999] [-831.03999999999996:836.63999999999999] [-577.68166666666673:694.50666666666666] [-577.44000000000005:700.44000000000005] [-637.90999999999997:688.32000000000005] [0:193.73093908821184] [-71.068333333333385:71.226666666666659] [-838.02833333333342:816.76666666666665] [-226.81666666666663:272.82166666666677] [-577.59249999999997:691.04750000000001] [-577.38999999999999:700.44000000000005] [-637.90999999999997:683.62] [0:201.44424328966522] [-52.660833333333329:41.639166666666654] [-828.99666666666667:797.36833333333334] [-322.34916666666663:348.83999999999997] [-572.5963888888889:673.4422222222222] [-536.24000000000001:700.44000000000005] [-637.90999999999997:652.63999999999999] [0:304.48429570106117] [-20.435555555555553:15.513055555555557] [-794.99944444444441:781.32499999999993] [-419.07166666666666:541.90333333333331] [-559.33000000000004:655.44583333333333] [-536.11000000000001:700.44000000000005] [-637.90999999999997:583.08000000000004] [0:327.03478477701259] [-11.094444444444463:9.4215277777777828] [-786.41222222222223:716.66701388888896] [-481.35333333333335:639.96138888888891] [-547.78500000000008:590.67111111111114] [-491.79000000000002:700.44000000000005] [-637.90999999999997:551.49000000000001] [0:341.13848896781553] [-5.6705555555555662:5.6059027777777857] [-780.2578125:656.85874999999999] [-586.32444444444445:707.229375] [-637.90999999999997:700.44000000000005] [-637.90999999999997:697.40999999999997] [-609.85000000000002:700.44000000000005] [-577.73000000000002:696.61000000000001] [-577.73000000000002:700.38] [-1509.3400000000001:1498.8966666666665] [-1520.9400000000001:1520.6800000000001] [0:1519.9200000000001] [0:1523.2] [0:1519.6700000000001] [0:784.45904982631055] [-253.02966666666657:252.87666666666678] [-1519.9216666666669:1519.5616666666665] [-1219.5022222222221:1160.509] [0:1519.7741666666668] [0:1523.2] [0:1519.5899999999999] [0:762.13447046053693] [-126.42666666666662:126.68583333333328] [-1519.0920833333332:1519.1091666666666] [-1282.4077777777779:1287.7481666666665] [0:1519.4141666666667] [0:1523.2] [0:1513.3299999999999] [0:705.48002982713047] [-42.237777777777865:42.247222222222206] [-1436.7834722222224:1512.24] [-1318.5827083333334:1215.5055] [0:1517.1300000000001] [0:1523.2] [0:1479.4100000000001] [0:715.65853426922286] [-21.125555555555593:21.121249999999918] [-1322.2474999999999:1449.4247916666668] [-1369.8104869162639:1272.3231944444444] [0.30618055555555557:1411.4885416666666] [4.0745394736842107:1523.2] [0:874.05999999999995] [0.0096046354574600614:656.84151897427944] [-10.558819444444453:10.559236111111119] [-1088.293204861111:1318.0002835648149] [-1423.4875347222221:1280.8285416666665] [0:1523.2] [0:1523.2] [0:1521.8299999999999] [0:1523.2] [0:1523.2] -1:19:0:22:7:5:14:11:13:6:20:12:15:3:10:1:23:18:8:2:4:21:9:17:16 -1:0:3:4:1:5:2
tree_sizes=3026 3051 3051 3059 3060 3053 3050 3055 3051 3055 3051 3055 3063 3053 3054 3056 3045 3068 3042 3062 3050 3055 3068 3038 3060 3050 3049 3034 3056 3062 3082 3071 3040 3043 3078 3067 3034 3058 3082 3061 3055 3045 3058 3082 3075 3066 3089 3082 3059 3089 3077 3111 3062 3090 3093 3072 3061 3065 3066 3092 3063 3076 3078 3094 3085 3087 3084 3054 3086 3060 3073 3087 3075 3080 3095 3083 3084 3093 3093 3070 3088 3097 3078 3057 3090 3085 3098 3079 3090 3072 3104 3088 3086 3104 3081 3048 3071 3062 3084 3087 3090 3085 3068 3064 3096 3060 3089 3058 3058 3098 3083 3091 3078 3043 3066 3099 3077 3107 3083 3085 3089 3093 3087 3081 3072 3076 3066 3082 3077 3081 3091 3078 3071 3077 3082 3075 3086 3071 3085 3082 3056 3077 3051 3084 3093 3054 3062 3071 3054 3074 3084 3068 3080 3076 3070 3072 3078 3090 3087 3051 3068 3078 3045 3046 3071 3061 3070 3057 3080 3071 3073 3078 3080 3062 3051 3056 3047 3069 3056 3077 3079 3095 3048 3083 3073 3056 3050 3089 3052 3065 3032 3095 3050 3052 3070 3052 3079 3051 3068 3080 3069 3062 3076 3064 3053 3062 3074 3091 3084 3076 3075 3073 3054 3093 3056 3072 3064 3063 3053 3064 3074 3022 3067 3063 3050 3032 3038 3061 3053 3058 3067 3078 3064 3064 3067 3075 3074 3082 3050 3067 3052 3058 3083 3073 3084 3084 3068 3079 3090 3093 3050 3076 3046 3086 3075 3075 3071 3086 3074 3080 3105 3071 3104 3099 3104 3052 3092 3100 3091 3056 3089 3101 3073 3096 3079 3090 3104 3095 3053 3110 3041 3063 3119 3094 3095 3080 3061 3105 3073 3076 3112 3077 3111 3097 3066 3120 3065 3109 3077 3067 3118 3095 3093 3096 3124 3049 3060 3077 3061 3091 3093 3096 3119 3111 3081 3083 3085 3096 3088 3080 3109 3106 3075 3091 3091 3076 3096 3095 3102 3076 3067 3093 3095 3082 3084 3109 3067 3085 3094 3100 3093 3090 3084 3119 3086 3062 3108 3049 3086 3055 3063 3071 3114 3071 3060 3100 3071 3070 3078 3064 3054 3073 3077 3088 3073 3074 3042 3083 3059 3106 3078 3082 3060 3077 3092 3073 3092 3078 3068 3076 3083 3069 3073 3080 3074 3069 3035 3076 3064 3073 3075 3050 3095 3073 3071 3070 3107 3083 3072 3087 3088 3055 3083 3102 3087 3054 3076 3076 3092 3064 3057 3087 3054 3083 3073 3085 3055 3090 3061 3075 3036 3085 3073 3053 3095 3056 3056 3093 3063 3103 3085 3092 3073 3060 3029 3042 3078 3062 3082 3052 3104 3098 3073 3057 3090 3057 3083 3100 3085 3060 3073 3083 3091 3057 3096 3080 3041 3104 3089 3118 3055 3108 3123 3088 3110 3104 3098 3110 3080 3076 3070 3090 3119 3123 3100 3089 3120 3104 3071 3085 3119 3088 3070 3083 3150 3104 3076 3096 3084 3115 3114 3081 3108 3097 3096 3084 3124 3067 3092 3098 3090 3094 3096 3099 3067 3088 3107 3063 3110 3090 3036 3098 3075 3126 3058 3043 3122 3065 3097 3075 3020 3084 3026 3090 3075 3064 3109 3092 3068 3024 3120 3094 3074 3074 3115 3067 3116 3040 3073 3114 3066 3118 3114 3019 3070 3053 3121 3060 3049 3074 3103 3129 3032 3076 3057 3021 3072 3099 3032 3056 3090 3107 3107 3074 3092 3094 3105 3085 3020 3087 3069 3120 3042 3088 3070 3120 3093 3063 3036 3020 3078 3069 3031 3034 3034 3005 3083 3107 3092 3012 3092 3132 3077 3069 3029 3092 3034 3097 3099 3023 3080 3042 3074 3118 3052 3080 3083 3026 3063 3055 3033 3096 3040 3081 3055 3068 3071 3023 3035 3089 3089 3014 3022 3030 3054 3043 3077 3065 2981 3136 3068 3036 2999 3039 3046 3030 2966 3050 3018 3054 3103 2981 2995 3021 3022 3092 3095 3028 3010 3081 2977 3090 3035 3064 3011 3077 3013 3057 3127 3074 2989 3085 3065 3080 3068 3043 2976 2955 3062 3133 3078 3002 3072 3103 3044 3058 2975 3016 3034 3103 3037 3061 3026 3074 3092 3019 3069 2973 3087 3044 3023 3019 2999 3137 3070 3004 3051 3041 3057 3010 3042 3071 2962 3006 3018 3066 3067 3043 3112 3060 3062 3070 3063 3041 3076 3039 3056 2977 3099 3067

Tree=0
num_leaves=31
num_cat=0
split_feature=10 10 10 10 10 1 10 10 10 9 10 226 10 10 10 10 1 9 10 9 1 9 10 9 9 9 14 14 8 223
split_gain=9.71714e+10 1.24896e+10 1.12265e+10 1.68559e+09 1.44307e+09 1.39504e+09 1.3809e+09 2.67502e+08 2.04867e+08 2.01672e+08 1.77919e+08 1.77112e+08 1.74614e+08 1.69826e+08 1.6023e+08 1.52319e+08 1.02456e+08 8.61759e+07 7.97958e+07 7.79494e+07 6.38108e+07 6.14228e+07 5.92965e+07 5.12901e+07 5.00484e+07 4.82816e+07 4.73059e+07 4.30378e+07 4.12686e+07 3.72825e+07
threshold=541.05500000000018 995.5100000000001 208.73500000000004 1310.3100000000002 357.08500000000009 2.9009370629370634 747.1350000000001 1145.9000000000003 44.244714285714295 23.935000000000006 1473.5400000000002 121.34640698521464 449.58500000000004 134.41500000000002 278.43500000000006 652.02500000000009 6.6510833333333341 11.045000000000002 855.88000000000011 13.695000000000002 7.205000000000001 -0.29749999999999993 882.53250000000014 14.805000000000001 71.105000000000004 -46.604999999999997 7.7227685950413232 7.1205063291139252 3.7150000000000003 21.708040935672443
decision_type=2 2 2 2 2 2 2 2 2 2 2 2 2 2 2 2 2 2 2 2 2 2 2 2 2 2 2 2 2 2
left_child=2 6 5 7 14 8 15 17 29 18 24 13 20 -7 27 25 -13 -3 -8 -9 -6 -18 -11 -17 -5 -2 -16 -4 -14 -1
right_child=1 3 4 10 12 11 9 19 -10 22 -12 16 28 -15 26 23 21 -19 -20 -21 -22 -23 -24 -25 -26 -27 -28 -29 -30 -31
leaf_value=358.82699660191599 364.15044623072731 368.03531530111292 361.12265990914068 370.69831139584784 362.64541928406339 359.79961043274591 365.98559865048554 369.17692471864746 359.54313581435866 367.06725197470308 372.82325861844424 360.84665686144871 363.48128288130641 360.44334645099786 361.82425837422403 365.18010096754165 362.01829015374949 369.14772907440482 366.90007662203209 370.41533661816629 363.62102705485398 365.5061883990175 367.97382730866155 366.06392957848448 371.77140542860195 364.82625320038858 362.59203509932667 361.71572674992137 364.22631903664234 359.09260473851555
leaf_weight=118969 19203 10154 58052 6051 45289 84707 20391 6622 78170 14436 17696 16871 33141 79391 46658 22773 1724 22166 17934 21863 7869 714 14423 9226 15427 23519 9692 15504 9585 95085
leaf_count=118969 19203 10154 58052 6051 45289 84707 20391 6622 78170 14436 17696 16871 33141 79391 46658 22773 1724 22166 17934 21863 7869 714 14423 9226 15427 23519 9692 15504 9585 95085
internal_value=362.29 367.756 360.406 370.463 362.242 359.534 365.849 369.421 359.105 366.889 372.081 360.218 363.172 360.111 361.555 364.913 361.124 368.798 366.414 370.127 362.79 363.04 367.52 365.435 371.469 364.522 361.956 361.248 363.648 358.945
internal_weight=0 241884 701421 99979 225790 475631 141905 60805 292224 67184 39174 183407 95884 164098 129906 74721 19309 32320 38325 28485 53158 2438 28859 31999 21478 42722 56350 73556 42726 214054
internal_count=943305 241884 701421 99979 225790 475631 141905 60805 292224 67184 39174 183407 95884 164098 129906 74721 19309 32320 38325 28485 53158 2438 28859 31999 21478 42722 56350 73556 42726 214054
is_linear=0
shrinkage=1


Tree=1
num_leaves=31
num_cat=0
split_feature=10 10 10 10 10 10 1 10 9 10 10 226 10 10 10 10 1 9 10 9 10 1 9 9 9 14 14 8 9 258
split_gain=9.52376e+10 1.22427e+10 1.10031e+10 1.52614e+09 1.4861e+09 1.41435e+09 1.36728e+09 2.64686e+08 2.01706e+08 2.0079e+08 1.75681e+08 1.73587e+08 1.71139e+08 1.66446e+08 1.57041e+08 1.31723e+08 1.00454e+08 8.79917e+07 7.85068e+07 7.26115e+07 6.51386e+07 6.2541e+07 5.93195e+07 5.89703e+07 4.73208e+07 4.63645e+07 4.21813e+07 4.04474e+07 3.84666e+07 3.66139e+07
threshold=541.05500000000018 1011.2450000000001 208.73500000000004 1336.2650000000001 758.55000000000007 357.08500000000009 2.9009370629370634 1162.657272727273 23.935000000000006 44.244714285714295 652.02500000000009 121.34640698521464 449.58500000000004 134.41500000000002 278.43500000000006 1473.5400000000002 6.1816455696202537 9.7350000000000012 868.99000000000012 13.695000000000002 896.1450000000001 7.205000000000001 -0.29749999999999993 14.805000000000001 -46.604999999999997 7.7227685950413232 7.1205063291139252 3.7150000000000003 16.595000000000002 22.835607142857146
decision_type=2 2 2 2 2 2 2 2 2 2 2 2 2 2 2 2 2 2 2 2 2 2 2 2 2 2 2 2 2 2
left_child=2 4 6 7 10 14 9 17 18 29 24 13 21 -8 26 28 -13 -3 -6 -9 -10 -7 -18 -12 -2 -16 -4 -14 -5 -1
right_child=1 3 5 15 8 12 11 19 20 -11 23 16 27 -15 25 -17 22 -19 -20 -21 -22 -23 -24 -25 -26 -27 -28 -29 -30 -31
leaf_value=-3.4027977291596416 1.8413752866170001 5.787879599261653 -1.1561328326866431 8.1972343547930819 3.7536617921225486 0.35139860767446285 -2.4659519026321024 6.9772798405345817 4.8167872952812942 -2.7198619527808234 2.8979503364130812 -1.4528417977442885 1.1789036355816149 -1.8286534038217495 -0.4615506559250373 10.427458889014467 -0.307329763248049 6.9293430268829397 4.673938199315903 8.1820643217520441 5.7511504134731757 1.3172504596756258 2.9387395105986296 3.7913429235201295 2.5104244864192249 0.29854832566182971 -0.56899681516476097 1.9164894288669481 9.422925069972095 -3.1235779072581482
leaf_weight=144473 19203 9633 58052 3093 20039 45289 84707 6463 14971 78170 25068 16500 33141 79391 46658 17696 2030 22591 17249 22137 14874 7869 779 10476 23519 9692 15504 9585 14872 69581
leaf_count=144473 19203 9633 58052 3093 20039 45289 84707 6463 14971 78170 25068 16500 33141 79391 46658 17696 2030 22591 17249 22137 14874 7869 779 10476 23519 9692 15504 9585 14872 69581
internal_value=0 5.41083 -1.86592 8.17259 3.57817 -0.0480957 -2.72887 7.20959 4.66976 -3.15363 2.64184 -2.05209 0.873133 -2.15763 -0.728058 9.81509 -1.15524 6.58812 4.17937 7.90981 5.28245 0.494374 0.59288 3.16126 2.2097 -0.330816 -1.03238 1.34437 9.2119 -3.31203
internal_weight=0 241884 701421 96485 145399 225790 475631 60824 67133 292224 78266 183407 95884 164098 129906 35661 19309 32224 37288 28600 29845 53158 2809 35544 42722 56350 73556 42726 17965 214054
internal_count=943305 241884 701421 96485 145399 225790 475631 60824 67133 292224 78266 183407 95884 164098 129906 35661 19309 32224 37288 28600 29845 53158 2809 35544 42722 56350 73556 42726 17965 214054
is_linear=0
shrinkage=0.01


Tree=2
num_leaves=31
num_cat=0
split_feature=10 10 10 10 10 1 10 10 10 9 10 226 10 10 10 10 1 9 10 9 1 9 10 9 9 9 14 14 8 223
split_gain=9.33424e+10 1.19991e+10 1.07842e+10 1.61974e+09 1.3862e+09 1.34007e+09 1.32664e+09 2.57688e+08 1.96794e+08 1.93678e+08 1.70691e+08 1.70139e+08 1.67734e+08 1.63685e+08 1.53916e+08 1.46178e+08 9.7768e+07 8.45835e+07 7.68776e+07 7.31529e+07 6.12964e+07 5.80172e+07 5.69485e+07 4.92483e+07 4.83815e+07 4.63794e+07 4.54419e+07 4.13497e+07 3.96425e+07 3.60509e+07
threshold=541.05500000000018 995.5100000000001 208.73500000000004 1310.3100000000002 357.08500000000009 2.9009370629370634 747.1350000000001 1128.4350000000002 44.244714285714295 23.935000000000006 1473.5400000000002 122.91544001126445 449.58500000000004 134.41500000000002 278.43500000000006 652.02500000000009 6.8504618473895587 13.695000000000002 843.08500000000015 12.445000000000002 7.205000000000001 -0.29749999999999993 882.53250000000014 14.805000000000001 81.27500000000002 -46.604999999999997 7.7227685950413232 7.172951807228916 3.7150000000000003 24.294583333333335
decision_type=2 2 2 2 2 2 2 2 2 2 2 2 2 2 2 2 2 2 2 2 2 2 2 2 2 2 2 2 2 2
left_child=2 6 5 7 14 8 15 19 29 18 24 13 20 -7 27 25 -13 -9 -8 -3 -6 -18 -11 -17 -5 -2 -16 -4 -14 -1
right_child=1 3 4 10 12 11 9 17 -10 22 -12 16 28 -15 26 23 21 -19 -20 -21 -22 -23 -24 -25 -26 -27 -28 -29 -30 -31
leaf_value=-3.3855193955130627 1.8229616628912149 5.5731114901344032 -1.1428086512848779 8.3089845779806577 0.34788466803128243 -2.4401689260221517 3.5729474584959604 6.6872937816999345 -2.6926634383595047 4.6816239268365551 10.323184476717902 -1.4012147438133156 1.1671145992883931 -1.8090197163975372 -0.45693515436981158 2.8317527425055165 -0.24238521121180007 7.893045829383583 4.4695705663301011 6.6506431043873064 1.3040779656524017 3.2152743567704811 5.5700690737017258 3.6978103777283629 9.3242999892611689 2.485321880713466 0.29556285174877939 -0.55652197574829509 1.8973245046931004 -3.1209302365419536
leaf_weight=127809 19203 9319 58406 6928 45289 84909 18319 7640 78170 14436 17696 16562 33141 79624 46658 22773 1619 24395 20006 19451 7869 693 14423 9226 14550 23519 9692 15150 9585 86245
leaf_count=127809 19203 9319 58406 6928 45289 84909 18319 7640 78170 14436 17696 16562 33141 79624 46658 22773 1619 24395 20006 19451 7869 693 14423 9226 14550 23519 9692 15150 9585 86245
internal_value=0 5.35672 -1.84726 8.0102 -0.0476148 -2.70158 3.48722 6.98856 -3.12209 4.50691 9.59596 -2.03157 0.864402 -2.13473 -0.720777 2.57039 -1.13231 7.60549 4.04099 6.30162 0.48943 0.794015 5.12565 3.08146 8.9968 2.1876 -0.327508 -1.02205 1.33093 -3.27891
internal_weight=0 241884 701421 99979 225790 475631 141905 60805 292224 67184 39174 183407 95884 164533 129906 74721 18874 32035 38325 28770 53158 2312 28859 31999 21478 42722 56350 73556 42726 214054
internal_count=943305 241884 701421 99979 225790 475631 141905 60805 292224 67184 39174 183407 95884 164533 129906 74721 18874 32035 38325 28770 53158 2312 28859 31999 21478 42722 56350 73556 42726 214054
is_linear=0
shrinkage=0.01


Tree=3
num_leaves=31
num_cat=0
split_feature=10 10 10 10 10 10 10 10 10 10 9 14 10 10 10 10 9 9 9 10 10 258 14 1 1 48 9 14 8 258
split_gain=9.14861e+10 1.14041e+10 1.0926e+10 1.47658e+09 1.45155e+09 1.34236e+09 1.31615e+09 2.09974e+08 2.0127e+08 1.84437e+08 1.83862e+08 1.7993e+08 1.52009e+08 1.51502e+08 1.26296e+08 1.03214e+08 7.23417e+07 6.97698e+07 6.88971e+07 6.65382e+07 6.44779e+07 6.24287e+07 5.5746e+07 5.54971e+07 5.03887e+07 4.88181e+07 4.57156e+07 4.34893e+07 4.02371e+07 3.94328e+07
threshold=549.53000000000009 1027.6600000000003 208.73500000000004 780.95500000000015 367.95800000000003 1336.2650000000001 76.421063829787244 1162.657272727273 662.50500000000011 282.81500000000005 23.935000000000006 5.2203125000000012 456.89500000000004 144.66500000000002 1473.5400000000002 27.592500000000005 9.7350000000000012 13.695000000000002 16.595000000000002 896.1450000000001 923.37500000000011 278.00500000000005 6.0903797468354437 7.205000000000001 7.4605447470817134 7.4250000000000007 -45.304999999999993 7.172951807228916 3.7150000000000003 435.09500000000008
decision_type=2 2 2 2 2 2 2 2 2 2 2 2 2 2 2 2 2 2 2 2 2 2 2 2 2 2 2 2 2 2
left_child=2 3 6 8 9 7 11 16 26 27 19 15 23 22 -7 -1 -3 -9 -10 -5 -12 -13 -8 -6 -23 -11 -2 -4 -14 -15
right_child=1 5 4 10 12 14 13 17 18 25 20 21 28 29 -16 -17 -18 -19 -20 -21 -22 24 -24 -25 -26 -27 -28 -29 -30 -31
leaf_value=-3.2896061952397999 1.8806112940208726 5.7518215744101635 -1.1160725527796254 3.863813949951461 0.43025099297824188 9.0296953799053714 -2.3353304970497137 6.8388190347942137 2.9600387062091404 -0.35510330882040431 4.8910319926860453 -2.327279187136269 1.2202321044075191 -1.6966388628885321 10.219953379294756 -2.8902844798577667 6.8620666248826749 8.0197929971597333 3.8753437349708801 4.7547273868494271 5.8247028219655705 -1.2035949355585682 -1.5860361242912695 1.3505421507122037 2.9141153567815947 0.56227858069415904 2.5389807919170035 -0.52836264168443692 1.9526627286911011 -0.15672672496122472
leaf_weight=177584 19128 8265 61248 19443 42059 17965 88677 6463 26998 53306 15984 16441 33079 76193 17696 101853 20243 22137 11826 14737 13767 1639 11181 7762 363 6509 23510 15849 9700 1700
leaf_count=177584 19128 8265 61248 19443 42059 17965 88677 6463 26998 53306 15984 16441 33079 76193 17696 101853 20243 22137 11826 14737 13767 1639 11181 7762 363 6509 23510 15849 9700 1700
internal_value=0 5.35863 -1.80988 3.6107 -0.0179371 8.09809 -2.67456 7.14753 2.71794 -0.671968 4.74827 -3.08092 0.949068 -1.99359 9.62034 -3.14406 6.54019 7.75292 3.23885 4.24794 5.32308 -2.12426 -2.25143 0.57363 -0.456977 -0.255275 2.24363 -0.995256 1.38631 -1.66303
internal_weight=0 238162 705143 145393 229512 92769 475631 57108 81462 136912 63931 297880 92600 177751 35661 279437 28508 28600 38824 34180 29751 18443 99858 49821 2002 59815 42638 77097 42779 77893
internal_count=943305 238162 705143 145393 229512 92769 475631 57108 81462 136912 63931 297880 92600 177751 35661 279437 28508 28600 38824 34180 29751 18443 99858 49821 2002 59815 42638 77097 42779 77893
is_linear=0
shrinkage=0.01


Tree=4
num_leaves=31
num_cat=0
split_feature=10 10 10 10 10 10 1 10 9 10 10 10 226 10 10 10 1 9 10 9 10 1 9 9 8 9 48 14 9 223
split_gain=8.96662e+10 1.15286e+10 1.03588e+10 1.43724e+09 1.39969e+09 1.33255e+09 1.29082e+09 2.49427e+08 1.89759e+08 1.89202e+08 1.77814e+08 1.65173e+08 1.64867e+08 1.56204e+08 1.31769e+08 1.23783e+08 9.60575e+07 8.27987e+07 7.41164e+07 6.83818e+07 6.1422e+07 5.71108e+07 5.66005e+07 5.55232e+07 4.4804e+07 4.46038e+07 4.22682e+07 3.84879e+07 3.71785e+07 3.48342e+07
threshold=541.05500000000018 1011.2450000000001 208.73500000000004 1336.2650000000001 758.55000000000007 351.45000000000005 2.9009370629370634 1162.657272727273 23.935000000000006 44.244714285714295 435.67500000000007 652.02500000000009 121.34640698521464 131.91500000000002 274.05500000000006 1473.5400000000002 6.1816455696202537 9.7350000000000012 868.99000000000012 13.695000000000002 909.66000000000008 6.9515175097276272 -0.29749999999999993 16.595000000000002 3.2147095435684654 -46.604999999999997 6.9601452282157696 7.172951807228916 16.595000000000002 20.868591269841236
decision_type=2 2 2 2 2 2 2 2 2 2 2 2 2 2 2 2 2 2 2 2 2 2 2 2 2 2 2 2 2 2
left_child=2 4 6 7 11 14 9 17 18 29 21 25 13 -8 27 28 -14 -3 -6 -9 -10 -7 -18 -13 -12 -2 -16 -4 -5 -1
right_child=1 3 5 15 8 10 12 19 20 -11 24 23 16 -15 26 -17 22 -19 -20 -21 -22 -23 -24 -25 -26 -27 -28 -29 -30 -31
leaf_value=-3.3316349547837469 1.7864549809925532 5.6160952017154573 -1.1381671957882906 7.9418660331797604 3.6418691305859823 0.24783291666448479 -2.4024188165908815 6.7704266715341168 4.7202453841216423 -2.6394675741460421 1.0766428941817761 2.8167039959663422 -1.4072188840646456 -1.7853609317448307 -0.47466696790369162 10.117753447106692 -0.28610600363679711 6.7233639467874378 4.5360423430343788 7.9395944537143697 5.6333581892320472 1.1808905699099284 2.8846981519728478 3.6915250155934674 1.7895372248208921 2.4360125589948551 0.33946091907539205 -0.55851094648379307 9.1468595924808369 -3.0756072718966312
leaf_weight=115953 19203 9633 55510 3093 20039 41774 81835 6463 16602 78170 38513 25386 16500 82263 49014 17696 2030 22591 17249 22137 13243 7782 779 10158 11433 23519 7331 14433 14872 98101
leaf_count=115953 19203 9633 55510 3093 20039 41774 81835 6463 16602 78170 38513 25386 16500 82263 49014 17696 2030 22591 17249 22137 13243 7782 779 10158 11433 23519 7331 14433 14872 98101
internal_value=0 5.25018 -1.81052 7.93018 3.47176 -0.0467257 -2.64782 6.99565 4.53115 -3.06053 0.818749 2.56307 -1.99024 -2.09309 -0.728631 9.52413 -1.1162 6.39236 4.0555 7.67539 5.12542 0.394355 0.593231 3.06672 1.23983 2.14404 -0.368741 -1.01855 8.9394 -3.2143
internal_weight=0 241884 701421 96485 145399 225790 475631 60824 67133 292224 99502 78266 183407 164098 126288 35661 19309 32224 37288 28600 29845 49556 2809 35544 49946 42722 56345 69943 17965 214054
internal_count=943305 241884 701421 96485 145399 225790 475631 60824 67133 292224 99502 78266 183407 164098 126288 35661 19309 32224 37288 28600 29845 49556 2809 35544 49946 42722 56345 69943 17965 214054
is_linear=0
shrinkage=0.01


Tree=5
num_leaves=31
num_cat=0
split_feature=10 10 10 10 10 10 10 10 10 10 9 14 10 10 10 10 9 9 9 10 10 258 14 1 1 14 9 14 8 258
split_gain=8.78832e+10 1.09561e+10 1.04949e+10 1.41873e+09 1.39502e+09 1.28908e+09 1.26716e+09 2.01454e+08 1.93213e+08 1.7722e+08 1.76514e+08 1.7405e+08 1.46272e+08 1.45667e+08 1.2132e+08 1.0014e+08 6.94802e+07 6.70201e+07 6.61285e+07 6.39962e+07 6.18452e+07 5.76872e+07 5.3721e+07 5.33823e+07 4.7969e+07 4.74112e+07 4.3945e+07 4.17979e+07 3.87134e+07 3.82392e+07
threshold=549.53000000000009 1027.6600000000003 208.73500000000004 780.95500000000015 367.95800000000003 1336.2650000000001 76.421063829787244 1162.657272727273 662.50500000000011 282.81500000000005 23.935000000000006 5.3606818181818197 456.89500000000004 144.66500000000002 1473.5400000000002 27.592500000000005 9.7350000000000012 13.695000000000002 16.595000000000002 896.1450000000001 923.37500000000011 278.00500000000005 6.0903797468354437 7.2501898734177219 7.4605447470817134 7.7227685950413232 -45.304999999999993 7.172951807228916 3.7150000000000003 435.09500000000008
decision_type=2 2 2 2 2 2 2 2 2 2 2 2 2 2 2 2 2 2 2 2 2 2 2 2 2 2 2 2 2 2
left_child=2 3 6 8 9 7 11 16 26 27 19 15 23 22 -7 -1 -3 -9 -10 -5 -12 -13 -8 -6 -23 -11 -2 -4 -14 -15
right_child=1 5 4 10 12 14 13 17 18 25 20 21 28 29 -16 -17 -18 -19 -20 -21 -22 24 -24 -25 -26 -27 -28 -29 -30 -31
leaf_value=-3.2223284724458621 1.8430666247614753 5.6381467076905629 -1.0941545257648082 3.7869219581758218 0.42294331642374522 8.8500051489006406 -2.2883486849894128 6.7027302469344727 2.9009304745591686 -0.38116664588240562 4.7939409795537733 -2.2412505347079819 1.1963517034248046 -1.662125044195075 10.016575638562387 -2.8305098871007046 6.7262118984803383 7.8601983969852505 3.7976566187089094 4.6606510398995731 5.7083517196920175 -1.1616784093337509 -1.5527894357146139 1.3322685449500622 2.871444174396105 0.35556028583922766 2.4885604147836027 -0.51798654196563076 1.9147809409701946 -0.14569776184979608
leaf_weight=178311 19128 8265 61248 19443 42199 17965 88677 6463 26998 49194 15984 14781 33079 76193 17696 102853 20243 22137 11826 14737 13767 1572 11181 7622 363 10621 23510 15849 9700 1700
leaf_count=178311 19128 8265 61248 19443 42199 17965 88677 6463 26998 49194 15984 14781 33079 76193 17696 102853 20243 22137 11826 14737 13767 1572 11181 7622 363 10621 23510 15849 9700 1700
internal_value=0 5.25205 -1.77388 3.5388 -0.0176427 7.93716 -2.62134 7.00566 2.6637 -0.65881 4.65387 -3.02006 0.930344 -1.95316 9.42889 -3.079 6.41076 7.59863 3.17408 4.16364 5.21708 -2.0287 -2.20599 0.562059 -0.405077 -0.25035 2.19898 -0.97571 1.35925 -1.62903
internal_weight=0 238162 705143 145393 229512 92769 475631 57108 81462 136912 63931 297880 92600 177751 35661 281164 28508 28600 38824 34180 29751 16716 99858 49821 1935 59815 42638 77097 42779 77893
internal_count=943305 238162 705143 145393 229512 92769 475631 57108 81462 136912 63931 297880 92600 177751 35661 281164 28508 28600 38824 34180 29751 16716 99858 49821 1935 59815 42638 77097 42779 77893
is_linear=0
shrinkage=0.01


Tree=6
num_leaves=31
num_cat=0
split_feature=10 10 10 10 10 1 10 10 10 9 10 226 10 10 10 10 1 9 10 9 10 9 1 9 8 230 48 9 9 14
split_gain=8.61348e+10 1.10772e+10 9.95013e+09 1.49587e+09 1.28084e+09 1.24341e+09 1.22531e+09 2.38502e+08 1.81903e+08 1.78564e+08 1.70954e+08 1.59722e+08 1.5693e+08 1.49523e+08 1.35287e+08 1.26635e+08 9.35158e+07 7.80322e+07 6.88968e+07 6.7293e+07 5.5652e+07 5.50969e+07 5.50087e+07 5.01018e+07 4.30593e+07 4.28158e+07 4.08234e+07 3.99321e+07 3.79519e+07 3.6977e+07
threshold=541.05500000000018 995.5100000000001 208.73500000000004 1310.3100000000002 351.45000000000005 2.9009370629370634 747.1350000000001 1128.4350000000002 44.244714285714295 21.195000000000004 435.67500000000007 121.34640698521464 1446.6800000000003 131.91500000000002 642.21000000000015 274.05500000000006 6.1816455696202537 13.695000000000002 843.08500000000015 12.445000000000002 882.53250000000014 -0.29749999999999993 6.9515175097276272 18.785000000000004 3.2147095435684654 1233.3737500000004 6.9601452282157696 -46.604999999999997 81.27500000000002 7.1205063291139252
decision_type=2 2 2 2 2 2 2 2 2 2 2 2 2 2 2 2 2 2 2 2 2 2 2 2 2 2 2 2 2 2
left_child=2 6 5 7 15 8 14 19 -1 18 22 13 28 -7 27 29 -13 -9 -8 -3 -11 -18 -6 -16 -12 -14 -17 -2 -5 -4
right_child=1 3 4 12 10 11 9 17 -10 20 24 16 25 -15 23 26 21 -19 -20 -21 -22 -23 -24 -25 -26 -27 -28 -29 -30 -31
leaf_value=-3.1509603778973556 1.7120852364290651 5.3538692099977201 -1.1175752878730103 7.8759384158851118 0.2427360367739578 -2.3536112533311093 3.4253982370179745 6.4250597211428344 -2.5873270302555729 4.4806984910663328 1.0555631008945048 -1.3765858341748787 9.1466500436808378 -1.7498941772975851 2.6884250710312618 -0.4656870589091095 -0.27035662877618388 7.5831762135875698 4.2819729643765907 6.3873425701522413 5.3486692049253017 2.8580461423755152 1.1584609283392364 3.5368186247061577 1.7544386738170155 10.105166241291302 0.3344063173376543 2.3532896644264558 8.8537925932378787 -0.55420342959307711
leaf_weight=214054 17724 9319 55174 5971 41774 81835 17984 7640 78170 14891 38513 16500 6868 82263 26005 49014 2030 24395 19650 19451 14659 779 7782 9505 11433 14497 7331 21487 11838 14769
leaf_count=214054 17724 9319 55174 5971 41774 81835 17984 7640 78170 14891 38513 16500 6868 82263 26005 49014 2030 24395 19650 19451 14659 779 7782 9505 11433 14497 7331 21487 11838 14769
internal_value=0 5.14575 -1.77451 7.69526 -0.0458532 -2.59513 3.3495 6.71346 -3.00019 4.32947 0.802663 -1.94974 9.21918 -2.05097 2.46838 -0.714397 -1.08944 7.30698 3.87265 6.05259 4.91128 0.597221 0.386536 2.91552 1.21554 9.79704 -0.361588 2.06345 8.52594 -0.998615
internal_weight=0 241884 701421 99979 225790 475631 141905 60805 292224 67184 99502 183407 39174 164098 74721 126288 19309 32035 37634 28770 29550 2809 49556 35510 49946 21365 56345 39211 17809 69943
internal_count=943305 241884 701421 99979 225790 475631 141905 60805 292224 67184 99502 183407 39174 164098 74721 126288 19309 32035 37634 28770 29550 2809 49556 35510 49946 21365 56345 39211 17809 69943
is_linear=0
shrinkage=0.01


Tree=7
num_leaves=31
num_cat=0
split_feature=10 10 10 10 10 10 10 1 10 10 9 10 10 10 224 10 9 10 9 9 10 1 10 258 8 1 9 258 14 9
split_gain=8.4422e+10 1.05264e+10 1.00828e+10 1.3922e+09 1.3631e+09 1.23848e+09 1.17526e+09 1.94887e+08 1.93768e+08 1.85643e+08 1.69562e+08 1.48069e+08 1.4783e+08 1.26083e+08 1.2374e+08 1.16793e+08 6.67259e+07 6.61618e+07 6.4399e+07 6.34568e+07 6.03652e+07 5.87679e+07 5.59899e+07 4.87085e+07 4.57003e+07 4.28649e+07 4.22659e+07 3.92483e+07 3.85889e+07 3.80999e+07
threshold=549.53000000000009 1027.6600000000003 221.63500000000002 85.458333333333343 780.95500000000015 1336.2650000000001 373.76500000000004 2.4440000000000004 1162.657272727273 662.50500000000011 13.695000000000002 152.39375000000001 301.24500000000006 456.89500000000004 391.26500000000004 1473.5400000000002 9.7350000000000012 923.37500000000011 13.695000000000002 16.595000000000002 27.592500000000005 7.4605447470817134 896.1450000000001 300.47000000000008 3.5840476190476198 6.8504618473895587 -45.304999999999993 396.90500000000003 7.172951807228916 -63.054999999999993
decision_type=2 2 2 2 2 2 2 2 2 2 2 2 2 2 2 2 2 2 2 2 2 2 2 2 2 2 2 2 2 2
left_child=2 4 3 7 9 8 12 20 16 26 22 23 28 24 -9 -7 -3 -12 -10 -11 -1 -16 -6 -5 -8 -14 -2 -13 -4 -15
right_child=1 5 6 11 10 15 13 14 18 19 17 27 25 29 21 -17 -18 -19 -20 -21 -22 -23 -24 -25 -26 -27 -28 -29 -30 -31
leaf_value=-3.191831067828482 1.8059253072638932 5.5258993685722935 -0.94757245319473149 -2.1305569133031592 3.6818186729535642 8.6736991372112442 0.42142114101720074 -2.6157968942108609 6.5698273646623093 2.8432045798242003 4.6621447810462309 -1.5500750126947223 -0.23692471347502098 0.99173872839592991 -1.4557771879560932 9.8182987680831832 6.5921804064985432 5.5760526701877939 7.7044362714996391 3.7216290063340307 -2.8410803450261892 1.5543805858352422 4.5269121834869042 -0.84174784636403022 1.2034422320405502 0.66909386910125679 2.4389673584711291 -0.32768742469411466 -0.413436067778851 1.5939232048035297
leaf_weight=159329 19128 8265 60430 92907 18181 17965 36922 77037 6463 26998 17483 78157 43141 18553 4293 17696 20243 14484 22137 11826 70902 764 13783 3028 9369 5941 23510 2718 17426 24226
leaf_count=159329 19128 8265 60430 92907 18181 17965 36922 77037 6463 26998 17483 78157 43141 18553 4293 17696 20243 14484 22137 11826 70902 764 13783 3028 9369 5941 23510 2718 17426 24226
internal_value=0 5.14759 -1.7386 -2.53324 3.46827 7.77952 0.0608147 -2.93465 6.86648 2.6105 4.56125 -1.82417 -0.557063 0.941382 -2.51633 9.24168 6.28305 5.07623 7.44804 3.11078 -3.08381 -1.00101 4.04623 -2.08988 0.579697 -0.127258 2.15498 -1.50899 -0.82802 1.33276
internal_weight=0 238162 705143 489135 145393 92769 216008 312325 57108 81462 63931 176810 126938 89070 82094 35661 28508 31967 28600 38824 230231 5057 31964 95935 46291 49082 42638 80875 77856 42779
internal_count=943305 238162 705143 489135 145393 92769 216008 312325 57108 81462 63931 176810 126938 89070 82094 35661 28508 31967 28600 38824 230231 5057 31964 95935 46291 49082 42638 80875 77856 42779
is_linear=0
shrinkage=0.01


Tree=8
num_leaves=31
num_cat=0
split_feature=10 10 10 10 10 10 1 10 9 10 10 226 10 10 10 10 1 9 10 9 9 1 10 9 9 8 48 9 14 10
split_gain=8.27425e+10 1.06425e+10 9.55996e+09 1.43728e+09 1.27095e+09 1.17751e+09 1.15689e+09 2.29256e+08 1.71641e+08 1.6434e+08 1.64296e+08 1.54881e+08 1.50985e+08 1.44614e+08 1.30846e+08 1.29987e+08 8.9639e+07 7.49539e+07 6.84062e+07 6.45491e+07 5.48311e+07 5.30625e+07 5.06568e+07 4.81587e+07 4.54362e+07 4.18558e+07 4.14951e+07 3.85846e+07 3.59986e+07 3.42685e+07
threshold=541.05500000000018 995.5100000000001 205.64125000000004 1310.3100000000002 351.45000000000005 747.1350000000001 2.8611111111111116 1128.4350000000002 23.935000000000006 435.67500000000007 37.532909090909094 127.47211300956937 1473.5400000000002 126.78500000000001 269.97500000000008 642.21000000000015 6.8504618473895587 13.695000000000002 843.08500000000015 12.445000000000002 -0.29749999999999993 6.9515175097276272 882.53250000000014 18.785000000000004 81.27500000000002 3.2147095435684654 6.9601452282157696 -26.164999999999996 7.1205063291139252 81.042699386503088
decision_type=2 2 2 2 2 2 2 2 2 2 2 2 2 2 2 2 2 2 2 2 2 2 2 2 2 2 2 2 2 2
left_child=2 5 6 7 14 15 10 19 18 21 -1 13 24 -8 28 27 -13 -9 -7 -3 -18 -6 -10 -17 -5 -11 -16 -2 -4 -12
right_child=1 3 4 12 9 8 11 17 22 25 29 16 -14 -15 26 23 20 -19 -20 -21 -22 -23 -24 -25 -26 -27 -28 -29 -30 -31
leaf_value=-3.1093406542033724 1.7366293419471155 5.2477446593485082 -1.1253605339962243 7.806093795106813 0.23764889515701304 3.3633058935565532 -2.3329280135926052 6.297558923531577 4.4071181827332708 1.0339658173748869 -2.7091317824335013 -1.3140465926008977 9.7201159866636537 -1.744020529852482 -0.47348834951669039 2.6346336687055372 -0.19716189234203083 7.4326023703307547 4.2090866802459264 6.259928667910712 3.2248043851140724 1.137028998083518 5.2450492702627756 3.4664136186546557 8.7900199097938145 1.7230054808834934 0.31284422566462405 2.3668079283393038 -0.56507499863146848 -2.2629652348280835
leaf_weight=198301 21450 9319 55425 6928 41774 18319 80709 7640 14436 38513 66091 15395 17696 86269 52063 26005 1555 24395 20006 19451 670 7782 14423 9505 14550 11433 7704 17761 14459 23278
leaf_count=198301 21450 9319 55425 6928 41774 18319 80709 7640 14436 38513 66091 15395 17696 86269 52063 26005 1555 24395 20006 19451 670 7782 14423 9505 14550 11433 7704 17761 14459 23278
internal_value=0 5.04341 -1.73921 7.54238 -0.0632261 3.28276 -2.55243 6.58001 4.24342 0.78688 -2.94891 -1.93458 9.03616 -2.02867 -0.715649 2.41899 -1.04289 7.16191 3.80481 5.93207 0.833273 0.378883 4.82589 2.85728 8.47264 1.19169 -0.37213 2.02207 -1.00944 -2.59292
internal_weight=0 241884 701421 99979 229153 141905 472268 60805 67184 99502 287670 184598 39174 166978 129651 74721 17620 32035 38325 28770 2225 49556 28859 35510 21478 49946 59767 39211 69884 89369
internal_count=943305 241884 701421 99979 229153 141905 472268 60805 67184 99502 287670 184598 39174 166978 129651 74721 17620 32035 38325 28770 2225 49556 28859 35510 21478 49946 59767 39211 69884 89369
is_linear=0
shrinkage=0.01


Tree=9
num_leaves=31
num_cat=0
split_feature=10 10 10 10 10 10 10 1 10 9 10 10 10 10 224 10 10 9 9 1 9 10 10 258 1 1 9 258 9 9
split_gain=8.10986e+10 1.0011e+10 9.80416e+09 1.38353e+09 1.22852e+09 1.19003e+09 1.16093e+09 1.87428e+08 1.86335e+08 1.63014e+08 1.56431e+08 1.52246e+08 1.36958e+08 1.32495e+08 1.19607e+08 1.11985e+08 6.63113e+07 6.40806e+07 6.2342e+07 6.13547e+07 6.09031e+07 5.82211e+07 5.19286e+07 4.95144e+07 4.86031e+07 4.1332e+07 3.78045e+07 3.77417e+07 3.77127e+07 3.54825e+07
threshold=558.25500000000011 224.24500000000003 1027.6600000000003 85.458333333333343 780.95500000000015 1336.2650000000001 373.76500000000004 2.4440000000000004 1162.657272727273 9.7350000000000012 662.50500000000011 155.02500000000003 464.06500000000005 301.24500000000006 364.76000000000005 1473.5400000000002 923.37500000000011 9.7350000000000012 53.255000000000003 7.4605447470817134 16.595000000000002 27.592500000000005 896.1450000000001 300.47000000000008 7.2501898734177219 6.8504618473895587 -63.054999999999993 396.90500000000003 -78.124999999999986 16.595000000000002
decision_type=2 2 2 2 2 2 2 2 2 2 2 2 2 2 2 2 2 2 2 2 2 2 2 2 2 2 2 2 2 2
left_child=1 3 4 7 10 8 13 21 17 22 28 23 24 -3 -9 29 -11 -4 -10 -16 -12 -1 -6 -5 -8 -15 -14 -13 -2 -7
right_child=2 6 5 11 9 15 12 14 18 16 20 27 26 25 19 -17 -18 -19 -20 -21 -22 -23 -24 -25 -26 -27 -28 -29 -30 -31
leaf_value=-3.1288191046472589 1.7076786404105249 -0.79377212325821678 5.4158875812915914 -2.0791356547034483 3.5943271886778754 7.5276083090850312 0.46081182863220599 -2.5705957802609736 6.6251409323659756 4.5556307160689151 2.7866141155131863 -1.4946756036521138 1.0270267576649512 -0.23206559874700247 -1.4844081720839271 9.6229156306509953 5.4584359766418418 6.4608193148557529 7.6231569719738479 1.5241588775984205 3.6471816535071033 -2.7843537598826993 4.4199859660574417 -0.82021467303963935 1.3147505668375394 0.65760587729823416 1.6264179930567679 -0.30749702200492368 2.3697316277062224 8.7047962614308769
leaf_weight=159329 12822 74376 8265 96229 17643 3093 41927 76382 9252 18113 26998 78059 18532 43141 4926 17696 14770 20243 19348 786 11826 70902 13405 3229 7925 5941 24347 2773 26155 14872
leaf_count=159329 12822 74376 8265 96229 17643 3093 41927 76382 9252 18113 26998 78059 18532 43141 4926 17696 14770 20243 19348 786 11826 70902 13405 3229 7925 5941 24347 2773 26155 14872
internal_value=0 -1.68651 5.09767 -2.47381 3.44342 7.62502 0.107447 -2.87646 6.73001 4.47047 2.59946 -1.77629 0.952984 -0.527647 -2.46621 9.05829 4.96114 6.15787 7.3003 -1.07041 3.04875 -3.02274 3.95081 -2.03826 0.596563 -0.124378 1.36737 -1.45395 2.15194 8.50212
internal_weight=0 708804 234501 492615 141732 92769 216189 312325 57108 63931 77801 180290 92731 123458 82094 35661 32883 28508 28600 5712 38824 230231 31048 99458 49852 49082 42879 80832 38977 17965
internal_count=943305 708804 234501 492615 141732 92769 216189 312325 57108 63931 77801 180290 92731 123458 82094 35661 32883 28508 28600 5712 38824 230231 31048 99458 49852 49082 42879 80832 38977 17965
is_linear=0
shrinkage=0.01


Tree=10
num_leaves=31
num_cat=0
split_feature=10 10 10 10 10 10 1 10 10 10 10 9 226 10 10 10 1 9 10 9 9 9 8 10 9 1 9 48 223 14
split_gain=7.94849e+10 1.02245e+10 9.1845e+09 1.38106e+09 1.22098e+09 1.13142e+09 1.11255e+09 1.86807e+08 1.83172e+08 1.72514e+08 1.68433e+08 1.65018e+08 1.47781e+08 1.32498e+08 1.25079e+08 1.1318e+08 7.92071e+07 7.24945e+07 6.57564e+07 5.52599e+07 5.39614e+07 4.94478e+07 4.87261e+07 4.86874e+07 4.53502e+07 4.4933e+07 4.19e+07 3.71719e+07 3.57263e+07 3.51108e+07
threshold=541.05500000000018 995.5100000000001 205.64125000000004 1284.0350000000001 346.38500000000005 747.1350000000001 2.9009370629370634 1446.6800000000003 1110.2100000000003 422.64500000000004 47.335833333333341 23.935000000000006 146.64738719135951 137.04500000000004 622.37500000000011 269.97500000000008 6.8504618473895587 6.1450000000000005 843.08500000000015 16.595000000000002 12.445000000000002 -0.29749999999999993 3.7150000000000003 882.53250000000014 81.27500000000002 6.9515175097276272 110.72500000000001 6.9601452282157696 24.294583333333335 7.1205063291139252
decision_type=2 2 2 2 2 2 2 2 2 2 2 2 2 2 2 2 2 2 2 2 2 2 2 2 2 2 2 2 2 2
left_child=2 5 6 8 15 14 10 24 20 25 28 18 13 -8 -2 29 -14 -10 -7 -16 -3 -18 -11 -13 -5 -6 -9 -17 -1 -4
right_child=1 3 4 7 9 11 12 26 17 22 -12 23 16 -15 19 27 21 -19 -20 -21 -22 -23 -24 -25 -26 -27 -28 -29 -30 -31
leaf_value=-3.1279269241549281 1.9009712484100145 5.0793885601808837 -1.1040156419422802 7.4572878436484293 0.1599609819369312 3.2961435861929558 -2.2240327552873933 8.7272037143880308 5.9963000921656997 0.95918663026105122 -2.4628453657806095 4.3196471075458058 -1.1961386797133828 -1.6578443086364696 2.5106946077414567 -0.48569007526561275 -0.1197367344911282 7.1334774097711273 4.125381479306208 3.3281603739055137 6.063543555222985 3.2560146640052254 1.6648518115607365 5.1411286226859874 8.4255804494722586 1.0391650487151531 9.6991575429319727 0.28295254619821536 -2.8696693773811006 -0.55068204900207451
leaf_weight=128195 32233 8341 55425 7384 39063 18319 90371 6283 7239 44402 71995 14436 11536 76169 31242 49210 1352 24850 20006 11246 16778 639 12551 14423 14022 6829 15082 7214 92011 14459
leaf_count=128195 32233 8341 55425 7384 39063 18319 90371 6283 7239 44402 71995 14436 11536 76169 31242 49210 1352 24850 20006 11246 16778 639 12551 14423 14022 6829 15082 7214 92011 14459
internal_value=0 4.94313 -1.70463 7.39255 -0.061887 3.2174 -2.50172 8.75181 6.3763 0.74705 -2.88274 4.15908 -1.88343 -1.96508 2.37071 -0.720556 -0.87824 6.87694 3.72901 2.72707 5.73675 0.963691 1.1147 4.7302 8.09157 0.290792 9.41333 -0.387417 -3.02002 -0.989531
internal_weight=0 241884 701421 99979 229153 141905 472268 42771 57208 102845 292201 67184 180067 166540 74721 126308 13527 32089 38325 42488 25119 1991 56953 28859 21406 45892 21365 56424 220206 69884
internal_count=943305 241884 701421 99979 229153 141905 472268 42771 57208 102845 292201 67184 180067 166540 74721 126308 13527 32089 38325 42488 25119 1991 56953 28859 21406 45892 21365 56424 220206 69884
is_linear=0
shrinkage=0.01


Tree=11
num_leaves=31
num_cat=0
split_feature=10 10 10 10 10 10 10 1 10 9 10 10 10 10 224 10 10 9 9 1 9 10 10 258 8 9 1 9 258 14
split_gain=7.79054e+10 9.61786e+09 9.41911e+09 1.33118e+09 1.18034e+09 1.14398e+09 1.11531e+09 1.80105e+08 1.79347e+08 1.56762e+08 1.50587e+08 1.46096e+08 1.32157e+08 1.27413e+08 1.15695e+08 1.07641e+08 6.36934e+07 6.15021e+07 6.01268e+07 5.91205e+07 5.84245e+07 5.59553e+07 5.00647e+07 4.79794e+07 4.26753e+07 3.98684e+07 3.98394e+07 3.6831e+07 3.66516e+07 3.46116e+07
threshold=558.25500000000011 224.24500000000003 1027.6600000000003 85.458333333333343 780.95500000000015 1336.2650000000001 373.76500000000004 2.4440000000000004 1162.657272727273 9.7350000000000012 662.50500000000011 155.02500000000003 456.89500000000004 301.24500000000006 359.64500000000004 1473.5400000000002 923.37500000000011 9.7350000000000012 53.255000000000003 7.3601619433198389 16.595000000000002 25.562222222222228 896.1450000000001 295.86500000000007 3.5840476190476198 -20.577590909090905 6.8504618473895587 -78.124999999999986 396.90500000000003 7.172951807228916
decision_type=2 2 2 2 2 2 2 2 2 2 2 2 2 2 2 2 2 2 2 2 2 2 2 2 2 2 2 2 2 2
left_child=1 3 4 7 10 8 13 21 17 22 27 23 24 29 -9 -7 -11 -4 -10 -16 -12 -1 -6 -5 -8 -14 -15 -2 -13 -3
right_child=2 6 5 11 9 15 12 14 18 16 20 28 25 26 19 -17 -18 -19 -20 -21 -22 -23 -24 -25 -26 -27 -28 -29 -30 -31
leaf_value=-3.0729886181671771 1.669497535668675 -0.89489616949527961 5.307796253497429 -2.0384128889066271 3.5219511124277334 8.3335182298914567 0.40309568191490303 -2.5215893354819201 6.4924454066519397 4.4653201580874233 2.7316889935640489 -1.4648336522272141 1.0879239352397059 -0.22735424217976963 -1.465334501658814 9.4323566060126591 5.3501248730534874 6.3314889203598161 7.4725700381257107 1.4477742890084144 3.5745637727682915 -2.7420211876559355 4.3326566113390532 -0.8296503864961513 1.1587925003162507 1.6957918272192967 0.64610481938977093 2.3237656078247468 -0.29492537533209467 -0.3797596043046208
leaf_weight=153727 12822 57507 8265 96058 17643 17965 36922 76230 9252 18113 26998 78059 29392 43141 5056 17696 14770 20243 19348 808 11826 76504 13405 3400 9369 17048 5941 26155 2773 16869
leaf_count=153727 12822 57507 8265 96058 17643 17965 36922 76230 9252 18113 26998 78059 29392 43141 5056 17696 14770 20243 19348 808 11826 76504 13405 3400 9369 17048 5941 26155 2773 16869
internal_value=0 -1.65298 4.9963 -2.42466 3.37486 7.47352 0.105404 -2.81962 6.59601 4.38158 2.54762 -1.74046 0.934164 -0.517089 -2.41747 8.87879 4.86275 6.0347 7.1555 -1.06394 2.98843 -2.96301 3.87197 -1.99709 0.556044 1.31107 -0.121629 2.10854 -1.4247 -0.77806
internal_weight=0 708804 234501 492615 141732 92769 216189 312325 57108 63931 77801 180290 92731 123458 82094 35661 32883 28508 28600 5864 38824 230231 31048 99458 46291 46440 49082 38977 80832 74376
internal_count=943305 708804 234501 492615 141732 92769 216189 312325 57108 63931 77801 180290 92731 123458 82094 35661 32883 28508 28600 5864 38824 230231 31048 99458 46291 46440 49082 38977 80832 74376
is_linear=0
shrinkage=0.01


Tree=12
num_leaves=31
num_cat=0
split_feature=10 10 10 10 10 10 10 10 9 10 14 10 10 10 10 10 9 10 9 14 9 1 258 10 230 9 48 1 258 9
split_gain=7.63558e+10 9.82292e+09 8.82374e+09 1.32755e+09 1.17305e+09 1.08712e+09 1.07135e+09 2.12095e+08 1.58651e+08 1.52189e+08 1.51214e+08 1.39818e+08 1.2941e+08 1.21136e+08 1.20314e+08 7.95788e+07 6.97287e+07 6.32599e+07 5.93458e+07 5.36656e+07 5.31924e+07 4.92621e+07 4.89238e+07 4.69253e+07 4.15717e+07 3.97367e+07 3.88571e+07 3.82588e+07 3.50683e+07 3.48933e+07
threshold=541.05500000000018 995.5100000000001 205.64125000000004 1310.3100000000002 351.45000000000005 747.1350000000001 72.40928571428573 1128.4350000000002 23.935000000000006 435.67500000000007 5.5212500000000011 1446.6800000000003 144.66500000000002 269.97500000000008 622.37500000000011 25.562222222222228 13.695000000000002 855.88000000000011 12.445000000000002 6.0903797468354437 16.595000000000002 6.9515175097276272 278.00500000000005 868.99000000000012 1233.3737500000004 -63.054999999999993 6.9601452282157696 7.4605447470817134 612.25500000000011 81.27500000000002
decision_type=2 2 2 2 2 2 2 2 2 2 2 2 2 2 2 2 2 2 2 2 2 2 2 2 2 2 2 2 2 2
left_child=2 5 6 7 13 14 10 18 17 21 15 29 19 -4 -2 -1 -9 -7 -3 -8 -16 -6 -12 -10 -13 -11 -15 -24 -14 -5
right_child=1 3 4 11 9 8 12 16 23 25 22 24 28 26 20 -17 -18 -19 -20 -21 -22 -23 27 -25 -26 -27 -28 -29 -30 -31
leaf_value=-3.0115060393089865 1.8627038671547795 5.0413939976459385 -0.97005302551035477 7.4037006207084248 0.22742094107765895 3.2737076502041345 -2.1503016018862975 6.0467919512843586 4.1879945403927383 0.82647607619481867 -2.0416444585192219 8.5858847644874778 -1.5462668455959518 -0.45493190497136488 2.4606252211503645 -2.6618747022225784 7.1415570605528798 4.0879386918701908 6.0119245455728496 -1.4314062705343855 3.2626531069553897 1.0939957832879561 -0.98892139465402729 4.9990239565053898 9.5303716932813689 1.3949245831072725 0.30599564285912123 2.7281263689787494 1.1242878306995738 8.3413231621684414
leaf_weight=172254 32233 9319 69884 5971 41774 20391 94954 7640 12903 21899 12474 6868 74035 52063 31242 104649 24395 17934 19451 11659 11246 7782 1403 15956 14497 28047 7704 345 495 11838
leaf_count=172254 32233 9319 69884 5971 41774 20391 94954 7640 12903 21899 12474 6868 74035 52063 31242 104649 24395 17934 19451 11659 11246 7782 1403 15956 14497 28047 7704 345 495 11838
internal_value=0 4.84485 -1.67074 7.24568 -0.0605827 3.15335 -2.45202 6.32077 4.07641 0.756128 -2.82772 8.68131 -1.84821 -0.687375 2.32341 -2.87937 6.88047 3.65472 5.69756 -2.07168 2.67291 0.363503 -1.82209 4.63641 9.22676 1.14569 -0.356848 -0.255294 -1.52853 8.02696
internal_weight=0 241884 701421 99979 229153 141905 472268 60805 67184 99502 291125 39174 181143 129651 74721 276903 32035 38325 28770 106613 42488 49556 14222 28859 21365 49946 59767 1748 74530 17809
internal_count=943305 241884 701421 99979 229153 141905 472268 60805 67184 99502 291125 39174 181143 129651 74721 276903 32035 38325 28770 106613 42488 49556 14222 28859 21365 49946 59767 1748 74530 17809
is_linear=0
shrinkage=0.01


Tree=13
num_leaves=31
num_cat=0
split_feature=10 10 10 10 10 10 1 10 10 10 9 226 10 10 10 10 1 9 10 9 9 9 10 1 8 9 9 14 14 9
split_gain=7.4838e+10 9.90224e+09 8.38893e+09 1.302e+09 1.23233e+09 1.12974e+09 9.09235e+08 1.7566e+08 1.72807e+08 1.60796e+08 1.5554e+08 1.4155e+08 1.33516e+08 1.3131e+08 1.25932e+08 1.11053e+08 8.47295e+07 6.85237e+07 6.00415e+07 5.21338e+07 5.07181e+07 4.89026e+07 4.89019e+07 4.59224e+07 4.5109e+07 4.33889e+07 4.08759e+07 3.76632e+07 3.65429e+07 3.19644e+07
threshold=532.93500000000006 995.5100000000001 192.50500000000002 1284.0350000000001 341.3534375000001 747.1350000000001 2.7840699300699305 1446.6800000000003 1110.2100000000003 422.64500000000004 21.195000000000004 121.34640698521464 622.37500000000011 37.532909090909094 258.2817674418605 119.25500000000001 6.1816455696202537 6.1450000000000005 843.08500000000015 16.595000000000002 12.445000000000002 -0.29749999999999993 868.99000000000012 6.9515175097276272 3.7150000000000003 56.775000000000013 110.72500000000001 7.0345957446808525 7.1205063291139252 -78.124999999999986
decision_type=2 2 2 2 2 2 2 2 2 2 2 2 2 2 2 2 2 2 2 2 2 2 2 2 2 2 2 2 2 2
left_child=2 5 6 8 14 12 13 25 20 23 18 15 29 -1 27 -8 -13 -10 -7 -14 -3 -18 -12 -6 -11 -5 -9 -4 -16 -2
right_child=1 3 4 7 9 10 11 26 17 24 22 16 19 -15 28 -17 21 -19 -20 -21 -22 -23 -24 -25 -26 -27 -28 -29 -30 -31
leaf_value=-2.9627660240997158 1.4033183021172639 4.928004979169164 -1.1685495974927278 7.1036444487235917 0.13282170292515616 3.1917667766313111 -2.269291783462053 8.4568030300015913 5.8165840952652301 0.89737479595563918 4.1295971782329204 -1.3479873692557482 2.4360184989388536 -2.4868462250401211 -0.57876802297368402 -1.7448106768739646 -0.24393761918365314 6.9221790838782695 3.9914014312977102 3.2300259586655118 5.8821258772648708 2.8300844155395377 4.9471768330252619 0.99410810856254306 1.5987981066929857 8.1233477700146253 9.4168047382641564 -0.60253129858295207 -0.0049832732454186479 2.0332643842638074
leaf_weight=195968 12280 8341 59295 5680 42025 17984 79436 6283 7239 41746 13320 15375 31242 82329 49107 82092 1860 24850 19650 11246 16778 717 16230 7260 11749 15726 15082 14663 14341 23411
leaf_count=195968 12280 8341 59295 5680 42025 17984 79436 6283 7239 41746 13320 15375 31242 82329 49107 82092 1860 24850 19650 11246 16778 717 16230 7260 11749 15726 15082 14663 14341 23411
internal_value=0 4.75079 -1.66996 7.17323 -0.156429 3.08466 -2.46407 8.49302 6.1865 0.671776 4.03564 -1.90912 2.26742 -2.82197 -0.775927 -2.00274 -1.06673 6.67277 3.60928 2.64618 5.5653 0.611349 4.57864 0.259695 1.05143 7.85277 9.13449 -1.05633 -0.449077 1.81652
internal_weight=0 245342 697963 99979 240186 145363 457777 42771 57208 102780 67184 179480 78179 278297 137406 161528 17952 32089 37634 42488 25119 2577 29550 49285 53495 21406 21365 73958 63448 35691
internal_count=943305 245342 697963 99979 240186 145363 457777 42771 57208 102780 67184 179480 78179 278297 137406 161528 17952 32089 37634 42488 25119 2577 29550 49285 53495 21406 21365 73958 63448 35691
is_linear=0
shrinkage=0.01


Tree=14
num_leaves=31
num_cat=0
split_feature=10 10 10 10 10 10 10 14 10 10 9 10 10 10 10 10 10 9 258 9 9 10 258 1 1 1 9 258 9 14
split_gain=7.33518e+10 9.05814e+09 8.87051e+09 1.25518e+09 1.11153e+09 1.078e+09 1.0507e+09 1.72437e+08 1.69407e+08 1.47853e+08 1.478e+08 1.42334e+08 1.37399e+08 1.04261e+08 1.0235e+08 1.01621e+08 6.00735e+07 5.78373e+07 5.71867e+07 5.69962e+07 5.48933e+07 4.73764e+07 4.6152e+07 4.4126e+07 4.369e+07 4.3409e+07 3.53934e+07 3.53184e+07 3.33038e+07 3.30725e+07
threshold=558.25500000000011 224.24500000000003 1027.6600000000003 85.458333333333343 780.95500000000015 1336.2650000000001 385.16500000000008 5.2203125000000012 1162.657272727273 301.24500000000006 9.7350000000000012 662.50500000000011 155.02500000000003 31.801250000000007 479.06000000000006 1473.5400000000002 923.37500000000011 9.7350000000000012 278.00500000000005 53.255000000000003 16.595000000000002 896.1450000000001 300.47000000000008 7.205000000000001 6.8504618473895587 7.7516147859922189 -78.124999999999986 396.90500000000003 16.595000000000002 7.172951807228916
decision_type=2 2 2 2 2 2 2 2 2 2 2 2 2 2 2 2 2 2 2 2 2 2 2 2 2 2 2 2 2 2
left_child=1 3 4 7 11 8 9 13 17 29 21 26 22 -1 23 28 -12 -4 -9 -10 -13 -6 -5 -8 -11 -20 -2 -14 -7 -3
right_child=2 6 5 12 10 15 14 18 19 24 16 20 27 -15 -16 -17 -18 -19 25 -21 -22 -23 -24 -25 -26 -27 -28 -29 -30 -31
leaf_value=-2.9365734678716731 1.6145401747850374 -0.86928354519920614 5.1498009277639145 -1.9767868150174843 3.4161810455988211 7.1422973751212417 0.53548280256486558 -2.0406611222414388 6.2984511309210163 -0.18073835587135267 4.3327423846132609 2.6515055037714017 -1.4216307296531061 -2.5392815182400117 1.3711333669270178 9.1540889183996388 5.1920366029113065 6.1425245310493128 -0.96828774724409106 7.2527182466776292 3.4685111753069244 4.2048200764640056 -0.76136254680086568 1.324146694567583 0.66187278896091639 2.7755528038221855 2.2559123830589276 -0.2731980252463681 8.2827722712984126 -0.36573094705772413
leaf_weight=190579 12822 57507 8265 96229 17643 3093 41480 18330 9252 49017 18113 26998 78059 101093 35721 17696 14770 20243 1955 19348 11826 13405 3229 8558 7037 368 26155 2773 14872 16869
leaf_count=190579 12822 57507 8265 96229 17643 3093 41480 18330 9252 49017 18113 26998 78059 101093 35721 17696 14770 20243 1955 19348 11826 13405 3229 8558 7037 368 26155 2773 14872 16869
internal_value=0 -1.60394 4.84808 -2.35283 3.27457 7.25208 0.102508 -2.73635 6.40024 -0.462785 4.2515 2.47181 -1.68845 -2.79887 0.962256 8.61623 4.71871 5.85472 -1.85333 6.94402 2.90037 3.75668 -1.93733 0.670368 -0.0749572 -0.375204 2.04492 -1.38223 8.08642 -0.755074
internal_weight=0 708804 234501 492615 141732 92769 216189 312325 57108 130430 63931 77801 180290 291672 85759 35661 32883 28508 20653 28600 38824 31048 99458 50038 56054 2323 38977 80832 17965 74376
internal_count=943305 708804 234501 492615 141732 92769 216189 312325 57108 130430 63931 77801 180290 291672 85759 35661 32883 28508 20653 28600 38824 31048 99458 50038 56054 2323 38977 80832 17965 74376
is_linear=0
shrinkage=0.01


Tree=15
num_leaves=31
num_cat=0
split_feature=10 10 10 10 10 10 10 1 10 9 10 10 10 10 224 10 9 1 10 9 10 9 10 258 8 1 9 9 258 14
split_gain=7.1892e+10 8.87788e+09 8.69399e+09 1.2302e+09 1.08941e+09 1.05655e+09 1.03001e+09 1.69387e+08 1.66379e+08 1.44966e+08 1.39501e+08 1.34725e+08 1.31345e+08 1.11392e+08 1.085e+08 9.95983e+07 6.58571e+07 5.54398e+07 5.41413e+07 5.38011e+07 5.15476e+07 4.97263e+07 4.94211e+07 4.78586e+07 4.47097e+07 4.13857e+07 3.46892e+07 3.26409e+07 3.25605e+07 3.24143e+07
threshold=558.25500000000011 224.24500000000003 1027.6600000000003 85.458333333333343 780.95500000000015 1336.2650000000001 379.48000000000008 2.4440000000000004 1180.3104021739134 27.155000000000005 662.50500000000011 157.72000000000003 301.24500000000006 479.06000000000006 359.64500000000004 1473.5400000000002 9.7350000000000012 7.3601619433198389 896.1450000000001 16.595000000000002 25.562222222222228 53.255000000000003 923.37500000000011 300.47000000000008 3.5840476190476198 6.8504618473895587 -78.124999999999986 16.595000000000002 396.90500000000003 7.172951807228916
decision_type=2 2 2 2 2 2 2 2 2 2 2 2 2 2 2 2 2 2 2 2 2 2 2 2 2 2 2 2 2 2
left_child=1 3 4 7 10 8 12 20 16 18 26 23 29 24 -9 27 -4 -16 -6 -12 -1 -10 -11 -5 -8 -14 -2 -7 -13 -3
right_child=2 6 5 11 9 15 13 14 21 22 19 28 25 -15 17 -17 -18 -19 -20 -21 -22 -23 -24 -25 -26 -27 -28 -29 -30 -31
leaf_value=-2.9536039161361844 1.5983948304184217 -0.86059073336125624 5.1386579914181265 -1.9481382904616331 3.4319176889163008 7.070876986592709 0.48994319704933809 -2.4198164295825562 6.29672029683584 4.3470229264654865 2.6249892005889324 -1.3947970621903603 -0.19965019429288841 1.3574220434058399 -1.3969221380692494 9.0625471858047018 6.1443269841932038 1.4240479712911174 4.2261376817580967 3.433826182775241 -2.6359391600694488 7.2534692072901974 5.1751775573454086 -0.74403271541584293 1.2076759903444718 0.65448559791126149 2.233354052164978 8.199945029617318 -0.27392663972027032 -0.36207371390108267
leaf_weight=153727 12822 57507 9078 99632 19836 3093 42582 76230 7980 15494 26998 74559 46141 35721 5056 17696 23034 808 15130 11826 76504 17016 13471 3414 10901 6468 26155 14872 2685 16869
leaf_count=153727 12822 57507 9078 99632 19836 3093 42582 76230 7980 15494 26998 74559 46141 35721 5056 17696 23034 808 15130 11826 76504 17016 13471 3414 10901 6468 26155 14872 2685 16869
internal_value=0 -1.5879 4.7996 -2.3293 3.24183 7.17956 0.101483 -2.70898 6.33624 4.20898 2.44709 -1.67157 -0.477038 0.925027 -2.31899 8.53006 5.86003 -1.00822 3.77558 2.87137 -2.84805 6.94803 4.73218 -1.90825 0.636233 -0.0946387 2.02448 8.00556 -1.35584 -0.747524
internal_weight=0 708804 234501 492615 141732 92769 216189 312325 57108 63931 77801 180290 126985 89204 82094 35661 32112 5864 34966 38824 230231 24996 28965 103046 53483 52609 38977 17965 77244 74376
internal_count=943305 708804 234501 492615 141732 92769 216189 312325 57108 63931 77801 180290 126985 89204 82094 35661 32112 5864 34966 38824 230231 24996 28965 103046 53483 52609 38977 17965 77244 74376
is_linear=0
shrinkage=0.01


Tree=16
num_leaves=31
num_cat=0
split_feature=10 10 10 10 10 10 1 10 10 9 10 226 10 10 10 10 1 10 9 10 9 9 9 8 9 230 1 48 14 9
split_gain=7.04639e+10 9.32514e+09 7.90142e+09 1.22715e+09 1.16076e+09 1.06478e+09 8.5901e+08 1.6546e+08 1.63299e+08 1.57723e+08 1.38089e+08 1.35408e+08 1.30581e+08 1.23722e+08 1.08528e+08 1.04125e+08 8.16254e+07 6.81323e+07 6.48913e+07 4.92683e+07 4.76039e+07 4.73265e+07 4.37003e+07 4.33176e+07 4.12719e+07 4.04837e+07 4.026e+07 3.7817e+07 3.56394e+07 3.18652e+07
threshold=532.93500000000006 995.5100000000001 192.50500000000002 1284.0350000000001 346.38500000000005 736.1450000000001 2.7840699300699305 1446.6800000000003 1110.2100000000003 23.935000000000006 422.64500000000004 121.34640698521464 258.2817674418605 37.532909090909094 622.37500000000011 121.78500000000001 6.1816455696202537 843.08500000000015 6.1450000000000005 855.88000000000011 12.445000000000002 -0.29749999999999993 16.595000000000002 3.7150000000000003 81.27500000000002 1233.3737500000004 7.6311952191235077 6.9601452282157696 7.0345957446808525 99.075000000000003
decision_type=2 2 2 2 2 2 2 2 2 2 2 2 2 2 2 2 2 2 2 2 2 2 2 2 2 2 2 2 2 2
left_child=2 5 6 8 12 14 13 24 20 17 26 15 28 -1 -2 -8 -13 -7 -10 -11 -3 -18 -16 -12 -5 29 -6 -14 -4 -9
right_child=1 3 4 7 10 9 11 25 18 19 23 16 27 -15 22 -17 21 -19 -20 -21 -22 -23 -24 -25 -26 -27 -28 -29 -30 -31
leaf_value=-2.8756549341935482 1.7618219053823092 4.7814190093551439 -1.1342710351368983 7.015475140506501 0.16623351993618143 3.0670784943831206 -2.1922124128128839 7.2921882597780137 5.642226978001105 3.9435115380125918 0.87018839160694583 -1.303853783544525 -0.5061549442193739 -2.4136910569227199 2.3270106018717427 -1.6843234843915778 -0.22213485480380313 3.8846563530940719 6.7181196742957754 4.7668820160366554 5.7057838564172574 2.8019467718664406 3.0911904128652172 1.5575427374862918 7.9392031495150484 9.1641270392150105 1.0915867304290852 0.20715190639348063 -0.58366985080398748 8.7257184272984691
leaf_weight=195968 35691 8341 59295 7384 40574 20780 82356 2365 7239 12449 41746 15375 58323 82329 28876 79172 1860 20006 24850 17460 16778 717 10101 11749 14022 14497 5318 8518 14663 4503
leaf_count=195968 35691 8341 59295 7384 40574 20780 82356 2365 7239 12449 41746 15375 58323 82329 28876 79172 1860 20006 24850 17460 16778 717 10101 11749 14022 14497 5318 8518 14663 4503
internal_value=0 4.60986 -1.62042 6.96065 -0.151527 2.99301 -2.39111 8.24194 6.00271 3.87259 0.675906 -1.85171 -0.735594 -2.73899 2.16023 -1.94327 -1.02779 3.46811 6.47541 4.42417 5.39884 0.619257 2.52505 1.02115 7.62056 8.86451 0.273464 -0.415253 -1.02511 8.23208
internal_weight=0 245342 697963 99979 240186 145363 457777 42771 57208 70695 99387 179480 140799 278297 74668 161528 17952 40786 32089 29909 25119 2577 38977 53495 21406 21365 45892 66841 73958 6868
internal_count=943305 245342 697963 99979 240186 145363 457777 42771 57208 70695 99387 179480 140799 278297 74668 161528 17952 40786 32089 29909 25119 2577 38977 53495 21406 21365 45892 66841 73958 6868
is_linear=0
shrinkage=0.01


Tree=17
num_leaves=31
num_cat=0
split_feature=10 10 10 10 10 10 10 14 10 9 10 10 10 10 10 10 9 10 258 9 9 184 258 1 10 1 1 9 258 14
split_gain=6.90622e+10 8.52933e+09 8.35233e+09 1.18336e+09 1.0467e+09 1.01566e+09 9.89649e+08 1.64889e+08 1.60276e+08 1.39593e+08 1.39413e+08 1.34121e+08 1.29427e+08 9.84904e+07 9.66732e+07 9.57181e+07 6.32076e+07 5.68484e+07 5.48397e+07 5.16337e+07 4.80351e+07 4.50114e+07 4.38357e+07 4.18868e+07 4.14531e+07 4.11117e+07 3.8716e+07 3.39582e+07 3.36989e+07 3.32911e+07
threshold=558.25500000000011 224.24500000000003 1027.6600000000003 85.458333333333343 780.95500000000015 1336.2650000000001 385.16500000000008 5.2203125000000012 1180.3104021739134 9.7350000000000012 305.89500000000004 662.50500000000011 155.02500000000003 31.801250000000007 479.06000000000006 1473.5400000000002 9.7350000000000012 909.66000000000008 278.00500000000005 16.595000000000002 64.045000000000016 9.5907518819862645 295.86500000000007 7.205000000000001 896.1450000000001 7.7516147859922189 6.9515175097276272 -45.304999999999993 379.01500000000004 7.172951807228916
decision_type=2 2 2 2 2 2 2 2 2 2 2 2 2 2 2 2 2 2 2 2 2 2 2 2 2 2 2 2 2 2
left_child=1 3 4 7 11 8 10 13 16 21 29 27 22 -1 23 -7 -4 -11 -9 -13 -10 24 -5 -8 -6 -20 -12 -2 -14 -3
right_child=2 6 5 12 9 15 14 18 20 17 26 19 28 -15 -16 -17 -18 -19 25 -21 -22 -23 -24 -25 -26 -27 -28 -29 -30 -31
leaf_value=-2.8503971601945342 1.654740352439551 -0.82961447268390343 5.0359696411482426 -1.9189906457240462 3.4485427044642711 7.8468373225716679 0.51885509206243974 -1.9753910220897206 6.2128411300468951 4.1587073591547945 -0.15189715268001647 2.5729803639968702 -1.3819614527768136 -2.4642557689666784 1.3313264956188238 8.8830352904611214 6.0212018146069397 4.9903431600937838 -0.92164498145135154 3.3653577822435734 7.1320573124961548 2.6748330085187892 -0.76360393075382005 1.2872472120384435 4.2400873357504905 2.7217816641019739 0.67941229625208921 2.2485940934940065 -0.32928678031065645 -0.33602446643063644
leaf_weight=190579 17370 60211 9078 96058 15161 17965 41480 18330 8743 16249 46167 26998 77667 101093 35721 17696 23034 16634 1955 11826 16253 4148 3400 8558 11739 368 6376 21607 3165 17676
leaf_count=190579 17370 60211 9078 96058 15161 17965 41480 18330 8743 16249 46167 26998 77667 101093 35721 17696 23034 16634 1955 11826 16253 4148 3400 8558 11739 368 6376 21607 3165 17676
internal_value=0 -1.55634 4.70419 -2.28304 3.17733 7.03692 0.0995541 -2.65542 6.21008 4.12534 -0.44907 2.39833 -1.63795 -2.71656 0.933951 8.36103 5.74268 4.57939 -1.79195 2.81434 6.81054 3.64445 -1.87949 0.650273 3.79397 -0.344468 -0.0510192 1.98394 -1.34074 -0.717597
internal_weight=0 708804 234501 492615 141732 92769 216189 312325 57108 63931 130430 77801 180290 291672 85759 35661 32112 32883 20653 38824 24996 31048 99458 50038 26900 2323 52543 38977 80832 77887
internal_count=943305 708804 234501 492615 141732 92769 216189 312325 57108 63931 130430 77801 180290 291672 85759 35661 32112 32883 20653 38824 24996 31048 99458 50038 26900 2323 52543 38977 80832 77887
is_linear=0
shrinkage=0.01


Tree=18
num_leaves=31
num_cat=0
split_feature=10 10 10 10 10 10 1 10 10 10 9 226 10 10 10 10 1 10 9 9 10 9 1 8 9 9 230 14 9 48
split_gain=6.76899e+10 8.9591e+09 7.5918e+09 1.17925e+09 1.11549e+09 1.02323e+09 8.2729e+08 1.59586e+08 1.59044e+08 1.57294e+08 1.516e+08 1.31227e+08 1.18776e+08 1.04336e+08 1.02499e+08 9.96701e+07 7.94583e+07 6.5477e+07 5.69317e+07 5.22682e+07 4.73248e+07 4.60209e+07 4.50654e+07 4.20781e+07 4.20554e+07 4.01647e+07 3.96286e+07 3.43528e+07 3.1193e+07 3.0742e+07
threshold=532.93500000000006 995.5100000000001 192.50500000000002 1284.0350000000001 336.03500000000003 736.1450000000001 2.7840699300699305 422.64500000000004 1446.6800000000003 1128.4350000000002 23.935000000000006 121.34640698521464 37.532909090909094 622.37500000000011 258.2817674418605 119.25500000000001 6.1816455696202537 843.08500000000015 6.1450000000000005 12.445000000000002 855.88000000000011 -0.29749999999999993 6.9515175097276272 3.7150000000000003 16.595000000000002 81.27500000000002 1233.3737500000004 6.8814940239043834 99.075000000000003 6.9601452282157696
decision_type=2 2 2 2 2 2 2 2 2 2 2 2 2 2 2 2 2 2 2 2 2 2 2 2 2 2 2 2 2 2
left_child=2 5 6 9 14 13 12 22 25 19 17 15 -1 -2 27 -8 -13 -7 -11 -3 -12 -18 -6 -9 -15 -5 28 -4 -10 -16
right_child=1 3 4 8 7 10 11 23 26 18 20 16 -14 24 29 -17 21 -19 -20 -21 -22 -23 -24 -25 -26 -27 -28 -29 -30 -31
leaf_value=-2.8189448043122414 1.7264018940349106 4.7462205448881321 -1.1167890112181138 6.8723090042659809 0.10582499133473017 3.0059701786573632 -2.1569570978597019 0.85242233573028303 7.1331726182611002 5.5737157646855229 3.865343175154631 -1.2755680360176893 -2.3663091686869526 2.2804674140580357 -0.53393843083272452 -1.6600820299652372 -0.2078618173086515 3.8074582000399881 6.6499215058860432 5.6570418997577248 4.6723102806414669 2.7742130510444589 0.93356867128137577 1.5298712111757262 3.030127507341863 7.7835628164669801 8.9852495343864245 -0.58991756676140672 8.5515016117727072 0.15109667711142022
leaf_weight=195968 35691 9319 58244 7384 45147 20780 79436 41746 2365 6320 12449 15375 82329 28876 52400 82092 1860 20006 22118 19451 17460 717 7699 11749 10101 14022 14497 15714 4503 7487
leaf_count=195968 35691 9319 58244 7384 45147 20780 79436 41746 2365 6320 12449 15375 82329 28876 52400 82092 1860 20006 22118 19451 17460 717 7699 11749 10101 14022 14497 15714 4503 7487
internal_value=0 4.51821 -1.5882 6.8224 -0.148378 2.93341 -2.34365 0.616177 8.07844 5.88334 3.79566 -1.81429 -2.68504 2.11704 -0.755825 -1.90443 -1.0032 3.39911 6.41075 5.36201 4.33643 0.621842 0.226417 1.00121 2.47474 7.46923 8.68881 -1.00484 8.0631 -0.448296
internal_weight=0 245342 697963 99979 240186 145363 457777 106341 42771 57208 70695 179480 278297 74668 133845 161528 17952 40786 28438 28770 29909 2577 52846 53495 38977 21406 21365 73958 6868 59887
internal_count=943305 245342 697963 99979 240186 145363 457777 106341 42771 57208 70695 179480 278297 74668 133845 161528 17952 40786 28438 28770 29909 2577 52846 53495 38977 21406 21365 73958 6868 59887
is_linear=0
shrinkage=0.01


Tree=19
num_leaves=31
num_cat=0
split_feature=10 10 10 1 10 10 10 10 9 224 10 10 10 1 10 10 9 10 10 9 9 10 9 9 1 9 1 223 9 10
split_gain=6.63449e+10 8.45616e+09 7.77712e+09 1.1391e+09 1.03372e+09 1.01134e+09 8.92229e+08 1.69124e+08 1.39448e+08 1.3819e+08 1.34048e+08 1.32771e+08 1.27207e+08 1.1133e+08 1.05169e+08 9.19913e+07 6.60308e+07 5.93776e+07 5.33665e+07 5.3035e+07 4.63376e+07 4.60951e+07 4.23909e+07 4.15498e+07 4.03248e+07 4.01705e+07 3.97674e+07 3.60025e+07 3.28358e+07 3.24039e+07
threshold=566.83000000000015 224.24500000000003 1043.2950000000003 3.0106783216783222 793.25500000000011 385.16500000000008 1336.2650000000001 50.430833333333339 9.7350000000000012 175.28500000000003 301.24500000000006 693.43000000000018 1180.3104021739134 6.2612500000000013 479.06000000000006 1497.2200000000003 1.0000000180025095e-35 938.16500000000008 171.70500000000001 6.1450000000000005 64.045000000000016 938.16500000000008 21.195000000000004 -23.134999999999994 7.205000000000001 16.595000000000002 6.8504618473895587 24.294583333333335 -20.577590909090905 111.65101226993868
decision_type=2 2 2 2 2 2 2 2 2 2 2 2 2 2 2 2 2 2 2 2 2 2 2 2 2 2 2 2 2 2
left_child=1 3 4 7 11 10 12 27 21 29 -3 23 19 18 24 25 -15 -10 -11 -4 -14 -6 -13 -2 -7 -8 -12 -1 -16 -5
right_child=2 5 6 9 8 14 15 -9 17 13 26 22 20 16 28 -17 -18 -19 -20 -21 -22 -23 -24 -25 -26 -27 -28 -29 -30 -31
leaf_value=-2.8600501919761774 1.8000839380817888 -0.71843447095721824 4.9882776744822177 -2.1870553469645735 3.3818883933450308 0.50809560918853969 6.8108741859225193 -2.2044327380874682 4.2075048412844342 -1.7069334200138153 -0.17176663232724704 2.6781914956428912 6.0883003545693706 -0.61419897822869352 1.1030019103616737 8.8218212189775862 2.1073439350540819 5.0509748292100554 -1.2736593252947015 5.9597233432221479 6.9911284070633108 4.2207867478659171 3.4679485495395754 2.4021151294692382 1.2620247399637037 7.9755013430179593 0.63212941377766352 -2.6072479828837083 1.6992998826414618 -1.7427985905360306
leaf_weight=129809 24386 74376 7683 37241 20588 41480 3546 75411 18695 59763 49017 21816 8743 6243 24435 14143 1040 15077 54218 20928 16253 9606 9872 21634 8558 17972 7037 99526 14845 29364
leaf_count=129809 24386 74376 7683 37241 20588 41480 3546 75411 18695 59763 49017 21816 8743 6243 24435 14143 1040 15077 54218 20928 16253 9606 9872 21634 8558 17972 7037 99526 14845 29364
internal_value=0 -1.51001 4.65776 -2.23769 3.20109 0.121269 6.96959 -2.61525 4.14258 -1.62525 -0.440125 2.4261 6.15417 -1.42424 0.941066 8.19534 -0.225567 4.58406 -1.50084 5.69886 6.67534 3.64878 2.92423 2.0831 0.63704 7.78358 -0.0708458 -2.75034 1.32836 -1.9912
internal_weight=0 712363 230942 492615 141674 219748 89268 304746 63966 187869 130430 77708 53607 121264 89318 35661 7283 33772 113981 28611 24996 30194 31688 46020 50038 21518 56054 229335 39280 66605
internal_count=943305 712363 230942 492615 141674 219748 89268 304746 63966 187869 130430 77708 53607 121264 89318 35661 7283 33772 113981 28611 24996 30194 31688 46020 50038 21518 56054 229335 39280 66605
is_linear=0
shrinkage=0.01


Tree=20
num_leaves=31
num_cat=0
split_feature=10 10 10 10 10 10 1 10 10 9 10 226 10 10 10 10 1 10 9 10 9 9 8 9 1 230 9 14 14 9
split_gain=6.50256e+10 8.60698e+09 7.29294e+09 1.13329e+09 1.07234e+09 9.82951e+08 7.95363e+08 1.53132e+08 1.51624e+08 1.4567e+08 1.40151e+08 1.29392e+08 1.09888e+08 1.09233e+08 1.01133e+08 1.00553e+08 7.53908e+07 6.30441e+07 6.0243e+07 4.55678e+07 4.38034e+07 4.30573e+07 4.07458e+07 4.05656e+07 4.05637e+07 3.87309e+07 3.87219e+07 3.33606e+07 3.29169e+07 3.04153e+07
threshold=532.93500000000006 995.5100000000001 192.50500000000002 1284.0350000000001 341.3534375000001 736.1450000000001 2.7516129032258072 1446.6800000000003 1110.2100000000003 23.935000000000006 422.64500000000004 127.47211300956937 258.2817674418605 37.532909090909094 121.78500000000001 622.37500000000011 5.7019531250000011 843.08500000000015 6.1450000000000005 855.88000000000011 12.445000000000002 -0.27965517241379306 3.7150000000000003 16.595000000000002 7.7516147859922189 1233.3737500000004 81.27500000000002 6.8814940239043834 7.1205063291139252 88.27500000000002
decision_type=2 2 2 2 2 2 2 2 2 2 2 2 2 2 2 2 2 2 2 2 2 2 2 2 2 2 2 2 2 2
left_child=2 5 6 8 12 15 13 26 20 17 24 14 27 -1 -8 -2 -13 -7 -10 -11 -3 -18 -12 -17 -6 29 -5 -4 -14 -9
right_child=1 3 4 7 10 9 11 25 18 19 22 16 28 -15 -16 23 21 -19 -20 -21 -22 -23 -24 -25 -26 -27 -28 -29 -30 -31
leaf_value=-2.7647531681374535 1.6914223211033592 4.5921297211253149 -1.0955697667412883 6.7342940183166311 0.14143409152941211 2.9456757145166628 -2.1083689647966173 6.8909357023010545 5.4189746781755082 3.7879895897135309 0.8351716627860134 -1.2548668358326649 -0.54108922413012217 -2.32550449588188 -1.6148372876798549 2.2352694393971206 -0.20952285890060338 3.7321323602919128 6.4556171953596584 4.5798354810996562 5.4788282123074117 2.5586405410366631 1.5018099026798097 2.9715311892850957 1.0573939439466782 8.8101589121887294 7.6290311987412638 -0.5763629925856385 0.0034846522224372539 8.3380383469259716
leaf_weight=195000 35691 8341 58244 7384 43851 20780 86167 2086 7239 12449 41746 13804 49107 79777 80134 28876 2132 20006 24850 17460 16778 763 11749 10101 5434 14497 14022 15714 14341 4782
leaf_count=195000 35691 8341 58244 7384 43851 20780 86167 2086 7239 12449 41746 13804 49107 79777 80134 28876 2132 20006 24850 17460 16778 763 11749 10101 5434 14497 14022 15714 14341 4782
internal_value=0 4.4284 -1.55663 6.68685 -0.145433 2.87505 -2.29706 7.91817 5.76627 3.72016 0.627143 -1.78629 -0.723321 -2.63722 -1.87056 2.07491 -0.947161 3.33144 6.22176 4.25025 5.18439 0.520048 0.981584 2.42607 0.242425 8.5171 7.32039 -0.985253 -0.418 7.89851
internal_weight=0 245342 697963 99979 240186 145363 457777 42771 57208 70695 102780 183000 137406 274777 166301 74668 16699 40786 32089 29909 25119 2895 53495 38977 49285 21365 21406 73958 63448 6868
internal_count=943305 245342 697963 99979 240186 145363 457777 42771 57208 70695 102780 183000 137406 274777 166301 74668 16699 40786 32089 29909 25119 2895 53495 38977 49285 21365 21406 73958 63448 6868
is_linear=0
shrinkage=0.01


Tree=21
num_leaves=31
num_cat=0
split_feature=10 10 10 10 10 10 10 14 9 10 10 10 10 10 10 10 10 258 9 184 9 9 9 10 221 8 1 1 258 9
split_gain=6.37341e+10 8.12396e+09 7.47182e+09 1.09636e+09 9.93045e+08 9.71574e+08 8.57628e+08 1.5583e+08 1.34058e+08 1.2889e+08 1.27648e+08 1.22535e+08 1.19553e+08 1.01337e+08 9.07798e+07 8.86984e+07 5.71013e+07 5.21808e+07 5.08964e+07 4.48874e+07 4.47274e+07 4.0679e+07 4.04051e+07 3.99552e+07 3.98992e+07 3.89121e+07 3.83446e+07 3.59686e+07 3.35937e+07 3.21822e+07
threshold=566.83000000000015 224.24500000000003 1043.2950000000003 85.458333333333343 793.25500000000011 385.16500000000008 1336.2650000000001 5.2203125000000012 9.7350000000000012 305.89500000000004 693.43000000000018 1180.3104021739134 152.39375000000001 479.06000000000006 27.592500000000005 1473.5400000000002 938.16500000000008 278.00500000000005 6.1450000000000005 9.5907518819862645 53.255000000000003 21.195000000000004 -23.134999999999994 938.16500000000008 -170.34666666666672 4.0950000000000006 7.7516147859922189 6.8504618473895587 396.90500000000003 -65.734999999999985
decision_type=2 2 2 2 2 2 2 2 2 2 2 2 2 2 2 2 2 2 2 2 2 2 2 2 2 2 2 2 2 2
left_child=1 3 4 7 10 9 11 14 19 -3 22 18 24 25 -1 -8 -10 -9 -4 23 -13 -12 -2 -6 -5 -7 -19 -11 -14 -15
right_child=2 5 6 12 8 13 15 17 16 27 21 20 28 29 -16 -17 -18 26 -20 -21 -22 -23 -24 -25 -26 -27 -28 -29 -30 -31
leaf_value=-2.7525200597429627 1.7624018015267471 -0.68952359618341319 4.8887592991425874 -0.73108036051704628 3.4587677434410002 0.48508448234952045 7.5379624269412755 -1.8911986852620901 4.1237802303423381 -0.14814865203395983 2.6252143347879713 5.9255466400375942 -1.3351072075878032 0.96256218437068375 -2.3910103200216062 8.5354407775768539 4.9509244627578433 -0.85771917007524334 5.84041695597704 2.5937286590447468 6.8329318178479079 3.3988605725552703 2.3560822798820724 4.2959390589632482 -1.85220143449851 1.1838100836331651 2.6609558435367502 0.63903242643082203 -0.23301879645643059 1.5435455830405205
leaf_weight=177584 24386 77887 7683 3287 17769 40090 17965 18330 18695 45898 21816 7980 81492 16290 114088 17696 15077 1955 20928 4031 17016 9872 21634 8394 92648 9948 368 6645 2863 22990
leaf_count=177584 24386 77887 7683 3287 17769 40090 17965 18330 18695 45898 21816 7980 81492 16290 114088 17696 15077 1955 20928 4031 17016 9872 21634 8394 92648 9948 368 6645 2863 22990
internal_value=0 -1.48 4.56519 -2.19325 3.1374 0.118916 6.83119 -2.55168 4.06018 -0.431329 2.37781 6.03174 -1.57232 0.922433 -2.61111 8.03294 4.49305 -1.71226 5.58487 3.57602 6.54325 2.86623 2.04149 3.72736 -1.81379 0.623997 -0.300305 -0.0485956 -1.2977 1.3026
internal_weight=0 712363 230942 492615 141674 219748 89268 312325 63966 130430 77708 53607 180290 89318 291672 35661 33772 20653 28611 30194 24996 31688 46020 26163 95935 50038 2323 52543 84355 39280
internal_count=943305 712363 230942 492615 141674 219748 89268 312325 63966 130430 77708 53607 180290 89318 291672 35661 33772 20653 28611 30194 24996 31688 46020 26163 95935 50038 2323 52543 84355 39280
is_linear=0
shrinkage=0.01


Tree=22
num_leaves=31
num_cat=0
split_feature=10 10 10 10 10 10 1 10 10 9 10 226 10 10 10 10 1 10 9 9 10 9 1 9 14 9 9 223 9 14
split_gain=6.24664e+10 7.79517e+09 7.46779e+09 1.00434e+09 9.94428e+08 9.16121e+08 9.16008e+08 1.48215e+08 1.43318e+08 1.32384e+08 1.28036e+08 1.24634e+08 1.14707e+08 1.06781e+08 1.03546e+08 1.02871e+08 6.59204e+07 5.31179e+07 5.21797e+07 4.84965e+07 4.34387e+07 4.23784e+07 3.9311e+07 3.79629e+07 3.72816e+07 3.60085e+07 3.50893e+07 3.35324e+07 3.35124e+07 3.19656e+07
threshold=549.53000000000009 1011.2450000000001 208.73500000000004 1310.3100000000002 367.95800000000003 758.55000000000007 2.9406013986013995 1145.9000000000003 50.430833333333339 23.935000000000006 282.81500000000005 146.64738719135951 1446.6800000000003 456.89500000000004 137.04500000000004 662.50500000000011 6.8504618473895587 868.99000000000012 12.445000000000002 12.445000000000002 896.1450000000001 -0.27965517241379306 7.2501898734177219 110.72500000000001 7.7227685950413232 -21.827228915662644 -44.104999999999997 20.868591269841236 -63.054999999999993 7.172951807228916
decision_type=2 2 2 2 2 2 2 2 2 2 2 2 2 2 2 2 2 2 2 2 2 2 2 2 2 2 2 2 2 2
left_child=2 5 6 7 10 15 8 19 27 17 29 14 -5 22 -8 26 -13 -7 -9 -3 -11 -18 -6 -14 -12 -17 -2 -1 -15 -4
right_child=1 3 4 12 13 9 11 18 -10 20 24 16 23 28 -16 25 21 -19 -20 -21 -22 -23 -24 -25 -26 -27 -28 -29 -30 -31
leaf_value=-2.7906993192177976 1.5356938040930619 4.6627773055894766 -0.92834724464137486 7.2615546914481444 0.35226891762097445 3.0348273327948001 -1.9602038885710116 5.4981354456824514 -2.1534924508973914 3.8983762409408191 -0.32422679555121925 -1.0152492675675817 7.695197308212637 0.8329498230154827 -1.4591923287727351 2.2377803649217207 -0.04390235396992076 3.7918084744043132 6.5201035848885258 5.5476957579599357 4.6613948836896597 3.0728333685058575 1.1325974871260824 8.6203602183065904 0.32907459939651917 2.9117527483591346 2.1119120370090858 -2.5476737233623816 1.3977177049902481 -0.4244834084348037
leaf_weight=116885 19346 9008 61248 17809 42199 20039 86386 6462 69413 14971 49194 11578 6283 18553 78953 14699 1375 17249 22023 19818 14874 639 7622 15082 10621 17207 23292 110402 24226 15849
leaf_count=116885 19346 9008 61248 17809 42199 20039 86386 6462 69413 14971 49194 11578 6283 18553 78953 14699 1375 17249 22023 19818 14874 639 7622 15082 10621 17207 23292 110402 24226 15849
internal_value=0 4.42792 -1.49553 6.6202 -0.0140693 2.93493 -2.2104 5.77669 -2.55119 3.78228 -0.555408 -1.64529 7.85425 0.786316 -1.72096 2.17182 -0.724793 3.385 6.28826 5.27116 4.27865 0.944973 0.47165 8.34829 -0.208224 2.60126 1.85047 -2.67265 1.15278 -0.824767
internal_weight=0 238162 705143 96485 229512 141677 475631 57311 296700 67133 136912 178931 39174 92600 165339 74544 13592 37288 28485 28826 29845 2014 49821 21365 59815 31906 42638 227287 42779 77097
internal_count=943305 238162 705143 96485 229512 141677 475631 57311 296700 67133 136912 178931 39174 92600 165339 74544 13592 37288 28485 28826 29845 2014 49821 21365 59815 31906 42638 227287 42779 77097
is_linear=0
shrinkage=0.01


Tree=23
num_leaves=31
num_cat=0
split_feature=10 10 10 10 10 10 1 10 10 9 10 221 10 10 10 10 1 10 9 10 9 9 1 8 230 9 1 14 9 48
split_gain=6.12257e+10 8.3345e+09 6.65505e+09 1.06786e+09 9.80934e+08 9.79305e+08 7.23315e+08 1.44068e+08 1.43164e+08 1.37242e+08 1.28644e+08 1.22824e+08 1.06892e+08 1.02726e+08 9.88895e+07 9.04312e+07 5.75745e+07 5.75091e+07 5.68696e+07 4.58794e+07 4.51704e+07 4.1154e+07 3.87965e+07 3.85331e+07 3.7808e+07 3.75754e+07 3.73823e+07 3.38226e+07 2.94399e+07 2.88615e+07
threshold=525.06500000000017 995.5100000000001 189.34625000000003 1284.0350000000001 736.1450000000001 336.03500000000003 2.7516129032258072 1446.6800000000003 1110.2100000000003 21.195000000000004 415.99000000000007 -197.215 603.36500000000012 37.532909090909094 258.2817674418605 119.25500000000001 7.6311952191235077 843.08500000000015 6.1450000000000005 855.88000000000011 16.595000000000002 12.445000000000002 6.9515175097276272 3.7150000000000003 1233.3737500000004 81.27500000000002 4.9406772908366543 7.0345957446808525 99.075000000000003 6.9601452282157696
decision_type=2 2 2 2 2 2 2 2 2 2 2 2 2 2 2 2 2 2 2 2 2 2 2 2 2 2 2 2 2 2
left_child=2 4 6 8 12 14 13 25 21 17 22 16 -2 -1 27 26 -8 -6 -10 -11 -14 -3 -7 -12 28 -5 -13 -4 -9 -16
right_child=1 3 5 7 9 10 11 24 18 19 23 15 20 -15 29 -17 -18 -19 -20 -21 -22 -23 -24 -25 -26 -27 -28 -29 -30 -31
leaf_value=-2.6834256861985479 1.5437185410475482 4.4555334787308176 -1.0693225929341734 6.5266989436619713 2.8528005110881174 0.075770691497713816 -0.76991532398314777 6.7502159421247363 5.2576319593737049 3.6585913496130211 0.75744542234994883 -2.0795034717973042 2.1133975653616117 -2.2573947024686842 -0.50905104342453344 -1.5623412742305172 1.9012446931369642 3.6106618002544533 6.2648315793196687 4.442818530917684 2.8376305870634848 5.3149982270774982 0.8763688143555517 1.4085549075943613 8.5543516546526881 7.4080905006418485 -1.3092235996606321 -0.54073137362363899 8.1281125603764153 0.1547014385685514
leaf_weight=195000 32304 8341 62548 7384 20416 42217 5204 2365 7239 12856 41888 80554 34443 79742 52400 85887 955 19650 24850 17773 11483 16778 7066 11608 14497 14022 6835 15010 4503 7487
leaf_count=195000 32304 8341 62548 7384 20416 42217 5204 2365 7239 12856 41888 80554 34443 79742 52400 85887 955 19650 24850 17773 11483 16778 7066 11608 14497 14022 6835 15010 4503 7487
internal_value=0 4.2553 -1.52529 6.48863 2.75598 -0.179194 -2.23726 7.68387 5.59502 3.60972 0.559157 -1.74345 1.98446 -2.55977 -0.731321 -1.79278 -0.355732 3.22449 6.03762 4.11365 2.29448 5.0296 0.190557 0.898728 8.26481 7.10405 -2.01926 -0.967023 7.65363 -0.42607
internal_weight=0 248904 694401 99979 148925 240224 454177 42771 57208 70695 102779 179435 78230 274742 137445 173276 6159 40066 32089 30629 45926 25119 49283 53496 21365 21406 87389 77558 6868 59887
internal_count=943305 248904 694401 99979 148925 240224 454177 42771 57208 70695 102779 179435 78230 274742 137445 173276 6159 40066 32089 30629 45926 25119 49283 53496 21365 21406 87389 77558 6868 59887
is_linear=0
shrinkage=0.01


Tree=24
num_leaves=31
num_cat=0
split_feature=10 10 10 10 10 10 10 10 14 9 10 10 10 10 223 10 10 258 9 184 14 9 9 9 10 8 258 1 14 9
split_gain=6.00094e+10 7.65072e+09 7.03713e+09 1.0357e+09 9.35161e+08 9.14723e+08 8.08098e+08 1.3638e+08 1.33522e+08 1.26408e+08 1.21772e+08 1.20428e+08 1.158e+08 9.57786e+07 8.47745e+07 6.80887e+07 5.37924e+07 4.91784e+07 4.7871e+07 4.39499e+07 4.38331e+07 4.26267e+07 3.87269e+07 3.85191e+07 3.79417e+07 3.69582e+07 3.63969e+07 3.49732e+07 3.29236e+07 3.17053e+07
threshold=566.83000000000015 224.24500000000003 1043.2950000000003 76.421063829787244 793.25500000000011 385.16500000000008 1336.2650000000001 147.17188139059309 5.0913291139240515 9.7350000000000012 315.78590277777784 693.43000000000018 1180.3104021739134 479.06000000000006 1404.9075000000005 21.991250000000004 938.16500000000008 278.00500000000005 6.1450000000000005 9.5907518819862645 6.3303307392996118 64.045000000000016 -19.304999999999996 -25.759518072289151 938.16500000000008 4.0950000000000006 379.01500000000004 7.4605447470817134 7.172951807228916 102.77500000000002
decision_type=2 2 2 2 2 2 2 2 2 2 2 2 2 2 2 2 2 2 2 2 2 2 2 2 2 2 2 2 2 2
left_child=1 3 4 8 11 10 12 20 15 19 28 23 18 25 29 -1 -11 -10 -4 24 -5 -14 -13 -2 -6 -7 -9 -19 -3 -8
right_child=2 5 6 7 9 13 14 26 17 16 -12 22 21 -15 -16 -17 -18 27 -20 -21 -22 -23 -24 -25 -26 -27 -28 -29 -30 -31
leaf_value=-2.6943507096433201 1.7017062759511268 -0.74801392246264142 4.7433420249048224 -1.8775514504662834 3.3575040038155679 0.46968197103449461 6.8477129287262528 -1.3193898773488173 -1.883483752728752 4.0015600239870288 -0.00019165353655917531 2.3880664481535616 5.7870693340386596 1.2647947349159878 8.3092718259840197 -2.3784492487608428 4.8043808449956895 -0.85682515624559141 5.6662821685137734 2.4975109088039376 -1.180627070955657 6.6529919284132166 3.0921199155870518 2.2807351085573102 4.1733090879646175 1.1506382815618328 -0.27232265487892038 2.5632014852056164 -0.2776818706444622 7.6810866977936465
leaf_weight=156363 23873 65797 7683 93306 17769 40090 7843 87988 18408 18695 45399 13983 8743 39280 16895 121050 15077 1696 20928 4031 9991 16253 17705 22147 8394 9948 3450 363 19234 10923
leaf_count=156363 23873 65797 7683 93306 17769 40090 7843 87988 18408 18695 45399 13983 8743 39280 16895 121050 15077 1696 20928 4031 9991 16253 17705 22147 8394 9948 3450 363 19234 10923
internal_value=0 -1.4361 4.42979 -2.12826 3.04415 0.115544 6.62888 -1.56116 -2.499 3.93963 -0.41836 2.30703 5.85286 0.895197 7.79541 -2.55651 4.35997 -1.71954 5.41844 3.46949 -1.81014 6.35011 2.78144 1.98036 3.61924 0.605062 -1.27988 -0.253877 -0.641625 7.33279
internal_weight=0 712363 230942 492615 141674 219748 89268 194735 297880 63966 130430 77708 53607 89318 35661 277413 33772 20467 28611 30194 103297 24996 31688 46020 26163 50038 91438 2059 85031 18766
internal_count=943305 712363 230942 492615 141674 219748 89268 194735 297880 63966 130430 77708 53607 89318 35661 277413 33772 20467 28611 30194 103297 24996 31688 46020 26163 50038 91438 2059 85031 18766
is_linear=0
shrinkage=0.01


Tree=25
num_leaves=31
num_cat=0
split_feature=10 10 10 10 10 10 1 10 10 9 226 10 10 10 10 10 1 9 10 9 9 9 10 9 230 9 8 14 14 9
split_gain=5.88164e+10 7.78621e+09 6.6003e+09 1.0262e+09 9.70069e+08 8.8904e+08 7.23018e+08 1.39236e+08 1.37718e+08 1.22765e+08 1.20638e+08 1.15705e+08 1.09899e+08 1.0655e+08 9.92905e+07 9.04808e+07 7.2478e+07 5.47999e+07 4.78396e+07 4.20231e+07 4.05775e+07 3.94771e+07 3.90522e+07 3.81082e+07 3.65417e+07 3.63153e+07 3.54491e+07 3.49618e+07 2.99734e+07 2.85751e+07
threshold=532.93500000000006 995.5100000000001 192.50500000000002 1284.0350000000001 346.38500000000005 747.1350000000001 2.7516129032258072 1446.6800000000003 1110.2100000000003 21.195000000000004 121.34640698521464 422.64500000000004 269.97500000000008 622.37500000000011 44.244714285714295 114.11500000000002 5.7019531250000011 6.1450000000000005 855.88000000000011 16.595000000000002 -0.27965517241379306 12.445000000000002 868.99000000000012 -17.164999999999996 1233.3737500000004 56.775000000000013 4.0950000000000006 6.8814940239043834 7.8227215189873425 88.27500000000002
decision_type=2 2 2 2 2 2 2 2 2 2 2 2 2 2 2 2 2 2 2 2 2 2 2 2 2 2 2 2 2 2
left_child=2 5 6 8 12 13 14 25 21 18 15 26 27 -2 -1 -8 -12 -10 -7 -15 -18 -3 -11 -13 29 -5 -6 -4 -14 -9
right_child=1 3 4 7 11 9 10 24 17 22 16 23 28 19 -16 -17 20 -19 -20 -21 -22 -23 -24 -25 -26 -27 -28 -29 -30 -31
leaf_value=-2.6156857378721758 1.6064679646129276 4.3669185349478488 -1.0069835722282945 6.2760716191681345 0.11711307367319007 2.8645196696366111 -2.0340819840866464 6.5250680503954941 5.1521668112826351 3.65898167992211 -1.2062475298853594 0.74596424532292083 -0.43011822246811549 2.1589382946878151 -2.1699419083916385 -1.5643846530833097 -0.19627812473189399 6.1408686399647889 3.579036377050111 2.8718054016862244 2.4484360259892988 5.2086909196566937 4.3895992375231057 1.3123302703776885 8.3871965320411128 7.2089589344477307 0.83093376843078792 -0.5117929990190172 0.20158513792371888 7.9277111923619827
leaf_weight=209111 35691 8341 66204 5680 37342 20013 76754 2086 7239 13320 15156 35686 47502 31242 65666 88075 2231 24850 17621 11246 784 16778 16230 17809 14497 15726 8550 18171 8922 4782
leaf_count=209111 35691 8341 66204 5680 37342 20013 76754 2086 7239 13320 15156 35686 47502 31242 65666 88075 2231 24850 17621 11246 784 16778 16230 17809 14497 15726 8550 18171 8922 4782
internal_value=0 4.21166 -1.48045 6.35974 -0.137933 2.73424 -2.18484 7.53143 5.48373 3.57786 -1.69785 0.618486 -0.671873 2.00926 -2.50916 -1.7831 -0.924562 5.91783 3.19907 2.34762 0.491435 4.92917 4.06027 0.934513 8.10254 6.96142 0.250103 -0.900339 -0.330231 7.50169
internal_weight=0 245342 697963 99979 240186 145363 457777 42771 57208 67184 183000 99387 140799 78179 274777 164829 18171 32089 37634 42488 3015 25119 29550 53495 21365 21406 45892 84375 56424 6868
internal_count=943305 245342 697963 99979 240186 145363 457777 42771 57208 67184 183000 99387 140799 78179 274777 164829 18171 32089 37634 42488 3015 25119 29550 53495 21365 21406 45892 84375 56424 6868
is_linear=0
shrinkage=0.01


Tree=26
num_leaves=31
num_cat=0
split_feature=10 10 10 10 10 10 10 10 14 9 10 10 10 10 10 10 10 258 9 184 14 9 9 9 9 10 1 1 258 15
split_gain=5.76478e+10 7.35069e+09 6.76088e+09 9.95956e+08 8.98391e+08 8.78577e+08 7.76769e+08 1.31069e+08 1.2935e+08 1.21482e+08 1.17141e+08 1.1591e+08 1.11549e+08 9.22989e+07 8.24358e+07 6.58058e+07 5.16896e+07 4.78083e+07 4.59396e+07 4.3053e+07 4.23187e+07 4.10968e+07 3.74606e+07 3.74558e+07 3.7015e+07 3.65837e+07 3.60065e+07 3.58629e+07 3.545e+07 3.44866e+07
threshold=566.83000000000015 224.24500000000003 1043.2950000000003 76.421063829787244 793.25500000000011 385.16500000000008 1336.2650000000001 147.17188139059309 5.0913291139240515 9.7350000000000012 301.24500000000006 693.43000000000018 1180.3104021739134 479.06000000000006 1497.2200000000003 20.37015151515152 938.16500000000008 221.12500000000003 6.1450000000000005 9.5907518819862645 6.3303307392996118 64.045000000000016 -25.759518072289151 -19.304999999999996 16.595000000000002 938.16500000000008 7.205000000000001 6.8504618473895587 612.25500000000011 6.6035992217898842
decision_type=2 2 2 2 2 2 2 2 2 2 2 2 2 2 2 2 2 2 2 2 2 2 2 2 2 2 2 2 2 2
left_child=1 3 4 8 11 10 12 20 15 19 -3 22 18 26 24 -1 -11 -10 -4 25 -5 -14 -2 -13 -8 -6 -7 -12 -9 -19
right_child=2 5 6 7 9 13 14 28 17 16 27 23 21 -15 -16 -17 -18 29 -20 -21 -22 -23 -24 -25 -26 -27 -28 -29 -30 -31
leaf_value=-2.6485311041395598 1.6658138891461456 -0.67005928189726027 4.6487052837840039 -1.8402196812796812 3.2915950904170801 0.470789349488835 6.3174344937517626 -1.2711080086856796 -1.8954341787790248 3.922012377975395 -0.16052488479911545 2.3396591309396904 5.6716124685462663 1.2402717747581467 8.2339947323764413 -2.3395430184892474 4.7089855408900974 -0.97470466780482046 5.5528352472614442 2.4383801520879205 -1.1554398339914616 6.5218538692856702 2.2368321623431644 3.0320616773267615 7.4353837794990127 4.0926673861165721 1.1832073573794257 0.60288697199776076 1.0324785971110146 2.0782236696639154
leaf_weight=149598 23873 74376 7683 93306 17769 41480 3546 90765 17137 18695 49017 13983 8743 39280 14143 127815 15077 2906 20928 4031 9991 16253 22147 17705 17972 8394 8558 7037 673 424
leaf_count=149598 23873 74376 7683 93306 17769 41480 3546 90765 17137 18695 49017 13983 8743 39280 14143 127815 15077 2906 20928 4031 9991 16253 22147 17705 17972 8394 8558 7037 673 424
internal_value=0 -1.40756 4.34175 -2.08601 2.98358 0.113356 6.49724 -1.5299 -2.44957 3.86128 -0.409892 2.2611 5.73642 0.87745 7.64094 -2.50617 4.27334 -1.68239 5.31005 3.40039 -1.77399 6.22446 1.94061 2.72652 7.25115 3.54861 0.592634 -0.0646864 -1.25415 -0.585983
