tree
version=v3
num_class=1
num_tree_per_iteration=1
label_index=0
max_feature_idx=264
objective=regression
feature_names=TurbID Wspd Wdir Etmp Itmp Ndir Pab1 Pab2 Pab3 Prtv Patv Wspd_simple_diff Wspd_simple_diff2 Wspd_rolling_mean6 Wspd_rolling_max6 Wspd_rolling_min6 Wspd_rolling_std6 Wspd_rolling_mean_diff6 Wspd_rolling_mean_diffn6 Wspd_rolling_mean_cal6 Wspd_rolling_mean12 Wspd_rolling_max12 Wspd_rolling_min12 Wspd_rolling_std12 Wspd_rolling_mean_diff12 Wspd_rolling_mean_diffn12 Wspd_rolling_mean_cal12 Wspd_rolling_mean36 Wspd_rolling_max36 Wspd_rolling_min36 Wspd_rolling_std36 Wspd_rolling_mean_diff36 Wspd_rolling_mean_diffn36 Wspd_rolling_mean_cal36 Wspd_rolling_mean72 Wspd_rolling_max72 Wspd_rolling_min72 Wspd_rolling_std72 Wspd_rolling_mean_diff72 Wspd_rolling_mean_diffn72 Wspd_rolling_mean_cal72 Wspd_rolling_mean144 Wspd_rolling_max144 Wspd_rolling_min144 Wspd_rolling_std144 Wspd_rolling_mean_diff144 Wspd_rolling_mean_diffn144 Wspd_rolling_mean_cal144 Wspd_past0 Wspd_past1 Wspd_past2 Wspd_past3 Wspd_past4 Wdir_simple_diff Wdir_simple_diff2 Wdir_rolling_mean6 Wdir_rolling_max6 Wdir_rolling_min6 Wdir_rolling_std6 Wdir_rolling_mean_diff6 Wdir_rolling_mean_diffn6 Wdir_rolling_mean_cal6 Wdir_rolling_mean12 Wdir_rolling_max12 Wdir_rolling_min12 Wdir_rolling_std12 Wdir_rolling_mean_diff12 Wdir_rolling_mean_diffn12 Wdir_rolling_mean_cal12 Wdir_rolling_mean36 Wdir_rolling_max36 Wdir_rolling_min36 Wdir_rolling_std36 Wdir_rolling_mean_diff36 Wdir_rolling_mean_diffn36 Wdir_rolling_mean_cal36 Wdir_rolling_mean72 Wdir_rolling_max72 Wdir_rolling_min72 Wdir_rolling_std72 Wdir_rolling_mean_diff72 Wdir_rolling_mean_diffn72 Wdir_rolling_mean_cal72 Wdir_rolling_mean144 Wdir_rolling_max144 Wdir_rolling_min144 Wdir_rolling_std144 Wdir_rolling_mean_diff144 Wdir_rolling_mean_diffn144 Wdir_rolling_mean_cal144 Wdir_past0 Wdir_past1 Wdir_past2 Wdir_past3 Wdir_past4 Etmp_simple_diff Etmp_simple_diff2 Etmp_rolling_mean6 Etmp_rolling_max6 Etmp_rolling_min6 Etmp_rolling_std6 Etmp_rolling_mean_diff6 Etmp_rolling_mean_diffn6 Etmp_rolling_mean_cal6 Etmp_rolling_mean12 Etmp_rolling_max12 Etmp_rolling_min12 Etmp_rolling_std12 Etmp_rolling_mean_diff12 Etmp_rolling_mean_diffn12 Etmp_rolling_mean_cal12 Etmp_rolling_mean36 Etmp_rolling_max36 Etmp_rolling_min36 Etmp_rolling_std36 Etmp_rolling_mean_diff36 Etmp_rolling_mean_diffn36 Etmp_rolling_mean_cal36 Etmp_rolling_mean72 Etmp_rolling_max72 Etmp_rolling_min72 Etmp_rolling_std72 Etmp_rolling_mean_diff72 Etmp_rolling_mean_diffn72 Etmp_rolling_mean_cal72 Etmp_rolling_mean144 Etmp_rolling_max144 Etmp_rolling_min144 Etmp_rolling_std144 Etmp_rolling_mean_diff144 Etmp_rolling_mean_diffn144 Etmp_rolling_mean_cal144 Etmp_past0 Etmp_past1 Etmp_past2 Etmp_past3 Etmp_past4 Itmp_simple_diff Itmp_simple_diff2 Itmp_rolling_mean6 Itmp_rolling_max6 Itmp_rolling_min6 Itmp_rolling_std6 Itmp_rolling_mean_diff6 Itmp_rolling_mean_diffn6 Itmp_rolling_mean_cal6 Itmp_rolling_mean12 Itmp_rolling_max12 Itmp_rolling_min12 Itmp_rolling_std12 Itmp_rolling_mean_diff12 Itmp_rolling_mean_diffn12 Itmp_rolling_mean_cal12 Itmp_rolling_mean36 Itmp_rolling_max36 Itmp_rolling_min36 Itmp_rolling_std36 Itmp_rolling_mean_diff36 Itmp_rolling_mean_diffn36 Itmp_rolling_mean_cal36 Itmp_rolling_mean72 Itmp_rolling_max72 Itmp_rolling_min72 Itmp_rolling_std72 Itmp_rolling_mean_diff72 Itmp_rolling_mean_diffn72 Itmp_rolling_mean_cal72 Itmp_rolling_mean144 Itmp_rolling_max144 Itmp_rolling_min144 Itmp_rolling_std144 Itmp_rolling_mean_diff144 Itmp_rolling_mean_diffn144 Itmp_rolling_mean_cal144 Itmp_past0 Itmp_past1 Itmp_past2 Itmp_past3 Itmp_past4 Ndir_simple_diff Ndir_simple_diff2 Ndir_rolling_mean6 Ndir_rolling_max6 Ndir_rolling_min6 Ndir_rolling_std6 Ndir_rolling_mean_diff6 Ndir_rolling_mean_diffn6 Ndir_rolling_mean_cal6 Ndir_rolling_mean12 Ndir_rolling_max12 Ndir_rolling_min12 Ndir_rolling_std12 Ndir_rolling_mean_diff12 Ndir_rolling_mean_diffn12 Ndir_rolling_mean_cal12 Ndir_rolling_mean36 Ndir_rolling_max36 Ndir_rolling_min36 Ndir_rolling_std36 Ndir_rolling_mean_diff36 Ndir_rolling_mean_diffn36 Ndir_rolling_mean_cal36 Ndir_rolling_mean72 Ndir_rolling_max72 Ndir_rolling_min72 Ndir_rolling_std72 Ndir_rolling_mean_diff72 Ndir_rolling_mean_diffn72 Ndir_rolling_mean_cal72 Ndir_rolling_mean144 Ndir_rolling_max144 Ndir_rolling_min144 Ndir_rolling_std144 Ndir_rolling_mean_diff144 Ndir_rolling_mean_diffn144 Ndir_rolling_mean_cal144 Ndir_past0 Ndir_past1 Ndir_past2 Ndir_past3 Ndir_past4 Patv_simple_diff Patv_simple_diff2 Patv_rolling_mean6 Patv_rolling_max6 Patv_rolling_min6 Patv_rolling_std6 Patv_rolling_mean_diff6 Patv_rolling_mean_diffn6 Patv_rolling_mean_cal6 Patv_rolling_mean12 Patv_rolling_max12 Patv_rolling_min12 Patv_rolling_std12 Patv_rolling_mean_diff12 Patv_rolling_mean_diffn12 Patv_rolling_mean_cal12 Patv_rolling_mean36 Patv_rolling_max36 Patv_rolling_min36 Patv_rolling_std36 Patv_rolling_mean_diff36 Patv_rolling_mean_diffn36 Patv_rolling_mean_cal36 Patv_rolling_mean72 Patv_rolling_max72 Patv_rolling_min72 Patv_rolling_std72 Patv_rolling_mean_diff72 Patv_rolling_mean_diffn72 Patv_rolling_mean_cal72 Patv_rolling_mean144 Patv_rolling_max144 Patv_rolling_min144 Patv_rolling_std144 Patv_rolling_mean_diff144 Patv_rolling_mean_diffn144 Patv_rolling_mean_cal144 Patv_past0 Patv_past1 Patv_past2 Patv_past3 Patv_past4 hour time_index
feature_infos=[34:67] [0:23.989999999999998] [-1412.3399999999999:571.80999999999995] [-272.95999999999998:394.04000000000002] [-273.17000000000002:261.24000000000001] [-514.13:700.62] [-1.99:93.780000000000015] [-1.99:99.980000000000004] [-1.99:99.980000000000004] [-581.89999999999998:374.97000000000003] [0:1567.02] [-14.789999999999999:13.420000000000002] [-18.650000000000002:20.239999999999998] [0:23.526666666666667] [0:25.059999999999999] [0:21.82] [0:8.3691849463772279] [-2.5749999999999993:3.0183333333333335] [-17.401666666666664:19.611666666666668] [-11.100000000000001:11.435] [0:22.465] [0:25.059999999999999] [0:19.890000000000001] [0:7.0860261013554258] [-1.3633333333333333:1.5466666666666669] [-16.310833333333335:19.286666666666665] [-12.973333333333334:15.064166666666665] [0:19.804444444444446] [0:25.059999999999999] [0:15.91] [0:7.6604404272654314] [-0.50722222222222246:0.5625] [-14.024166666666666:17.211111111111112] [-16.003888888888888:12.993611111111111] [0:17.260555555555559] [0:25.059999999999999] [0:15.35] [0:7.1891808166001629] [-0.31500000000000128:0.28472222222222143] [-13.240694444444443:13.929166666666664] [-17.487916666666663:13.036805555555555] [0:16.367916666666666] [0:25.059999999999999] [0:13.56] [0:6.6369382723455015] [-0.13951388888888872:0.13805555555555493] [-10.612118055555557:12.811805555555555] [-19.218124999999997:12.462777777777777] [0:24.300000000000001] [0:25.059999999999999] [0:24.460000000000001] [0:23.91] [0:25.059999999999999] [-1408.3599999999999:573.57999999999993] [-1456.8:577.21999999999991] [-234.89999999999998:214.81499999999997] [-170.88999999999999:1284.51] [-1412.3399999999999:161.72] [0:576.99072951824792] [-236.4083333333333:95.293333333333322] [-284.72166666666664:282.3416666666667] [-475.73666666666662:1177.7449999999999] [-169.92333333333332:162.04083333333335] [-158.63:1284.51] [-1412.3399999999999:151.94] [0:408.19925049669138] [-117.19583333333331:59.005833333333342] [-247.26166666666666:230.12833333333333] [-519.66916666666657:1296.0983333333334] [-152.94722222222219:143.43249999999998] [-136.00999999999999:1284.51] [-1412.3399999999999:115.98] [0:235.62312535063273] [-39.230277777777772:15.91] [-171.5563888888889:190.65777777777777] [-556.46805555555545:1370.1963888888888] [-120.92527777777777:114.34527777777777] [-42.380000000000003:1284.51] [-1412.3399999999999:62.710000000000001] [0:167.17705247952944] [-19.808611111111109:7.9544444444444462] [-124.69277777777778:127.49791666666667] [-557.38694444444434:1395.6455555555556] [-56.620243055555562:78.250902777777767] [-3.1855060728744937:1284.51] [-1412.3399999999999:27.010000000000002] [0:120.0202377951931] [-9.8213888888888885:3.918333333333333] [-84.552569444444444:93.858541666666682] [-563.14381944444438:1404.3154861111111] [-412.94999999999999:429.45999999999998] [-412.94999999999999:1284.51] [-178.78999999999999:389.29000000000002] [-177.52000000000001:560.29999999999995] [-1412.3399999999999:959.00999999999999] [-651.05999999999995:665.91999999999996] [-665.91999999999996:666.75] [-272.5804:394.04000000000002] [-272.5224:394.04000000000002] [-272.97000000000003:394.04000000000002] [0:348.81516702976103] [-110.98666666666668:110.98666666666668] [-657.08666666666659:657.08666666666659] [-541.88999999999999:540.16666666666674] [-272.51080000000002:394.04000000000002] [-272.38319999999999:394.04000000000002] [-272.97000000000003:394.04000000000002] [0:336.9190612631233] [-55.493333333333311:55.494166666666672] [-652.75999999999999:652.63416666666672] [-545.32166666666672:595.42666666666673] [-261.44934027777776:394.04000000000002] [-250.43000000000001:394.04000000000002] [-272.97000000000003:394.04000000000002] [0:326.78822068986358] [-18.497777777777799:18.520833333333343] [-370.16833333333335:341.46013888888888] [-341.46013888888888:630.19416666666666] [-259.12881944444445:394.04000000000002] [-250.43000000000001:394.04000000000002] [-272.97000000000003:394.04000000000002] [0:283.68884630122994] [-9.2488888888888141:9.2523611111110995] [-363.48402777777778:295.25979166666667] [-276.58131944444443:639.19708333333324] [-258.62725694444447:394.04000000000002] [-250.43000000000001:394.04000000000002] [-272.97000000000003:394.04000000000002] [0:217.40749667854737] [-4.6244444444444071:4.6303472222222126] [-362.57680555555555:294.83031249999999] [-272.8085069444445:645.05833333333339] [-272.95999999999998:394.04000000000002] [-272.97000000000003:394.04000000000002] [-272.95999999999998:394.04000000000002] [-272.97000000000003:394.04000000000002] [-272.95999999999998:394.04000000000002] [-306.21000000000004:318.58999999999997] [-319.69:323.89999999999998] [-272.5804:80.029999999999987] [-272.5224:324.20999999999998] [-273.17000000000002:57.189999999999998] [0:184.91506400687496] [-53.478333333333332:58.586666666666673] [-310.29833333333329:311.54999999999995] [-265.55833333333334:307.10833333333329] [-272.51079999999996:68.17583333333333] [-272.38319999999999:324.20999999999998] [-273.17000000000002:57.060000000000002] [0:160.91261442491302] [-26.653333333333332:26.526666666666667] [-308.39329999999995:311.75916666666666] [-292.12416666666672:304.10666666666663] [-261.37163194444446:57.721388888888882] [-250.43000000000001:324.20999999999998] [-273.17000000000002:56.149999999999999] [0.094641763996538425:153.96000355440074] [-9.0177777777777788:9.6219444444444235] [-302.63555555555553:308.30333333333334] [-290.95833333333337:306.39138888888891] [-259.12881944444439:55.501458333333332] [-250.43000000000001:324.20999999999998] [-273.17000000000002:54.216778242677819] [0.19285516396827021:152.5209846571239] [-4.4434722222222263:4.4515277777777804] [-300.7858333333333:305.09930555555553] [-275.26055555555558:313.52319444444447] [-258.62725694444447:54.286968851696884] [-250.43000000000001:324.20999999999998] [-273.17000000000002:53.156527196652718] [0.46117577382619351:151.00140786577984] [-2.2159722222222129:2.2522222222222226] [-300.17256944444449:305.02461805555555] [-274.45725694444445:315.32743055555557] [-273.17000000000002:139.78999999999999] [-273.17000000000002:151.87] [-273.17000000000002:261.24000000000001] [-273.17000000000002:324.20999999999998] [-273.17000000000002:92.700000000000003] [-197.81:157.59000000000003] [-905.38:965.44000000000005] [-499.97999999999996:700.40999999999997] [-495.89999999999998:700.62] [-530.88999999999999:700.39999999999998] [0:227.4221085118954] [-79.620000000000005:78.083333333333343] [-871.34333333333325:987.28166666666675] [-230.17499999999995:266.35166666666669] [-500.14749999999998:700.40166666666664] [-485.43000000000001:700.62] [-530.88999999999999:700.36000000000001] [0:232.67350694338361] [-44.562500000000028:45.500000000000021] [-887.5333333333333:942.255] [-314.42833333333334:331.82249999999999] [-465.02138888888891:691.56305555555548] [-422.60000000000002:700.62] [-530.88999999999999:687.69000000000005] [0:265.46806904331652] [-18.754722222222242:13.861111111111143] [-843.37055555555548:895.09119146005514] [-394.59305555555557:471.86000000000001] [-448.35388888888895:690.72958333333327] [-416.19:700.62] [-530.88999999999999:681.15999999999997] [0:274.76090148918399] [-9.9736111111111114:9.052916666666647] [-765.25833333333333:833.64791666666667] [-401.87826388888891:553.18430555555551] [-408.65041666666662:661.83972222222224] [-346.59289256198349:700.62] [-530.88999999999999:572.35000000000002] [0:302.24302301429429] [-5.8090277777777715:6.0847916666666642] [-679.85704861111117:774.81402777777782] [-537.20666666666671:701.84277777777788] [-514.13:700.62] [-506.60000000000002:700.62] [-530.88999999999999:700.62] [-506.60000000000002:700.62] [-517.71000000000004:700.62] [-1503.02:1506.46] [-1559.8099999999999:1549.01] [0:1556.7050000000002] [0:1567.02] [0:1551.51] [0:828.59021024814263] [-253.22700000000009:253.12416666666664] [-1528.5166666666667:1519.8283333333331] [-1177.6641666666665:1252.3258333333333] [0:1553.3075000000001] [0:1567.02] [0:1522.6500000000001] [0:778.14844598372463] [-126.66124999999988:129.87333333333345] [-1518.6866666666665:1518.665] [-1275.0401666666667:1378.3583333333333] [0:1519.6752222222221] [0:1567.02] [0:1519.01] [0:711.09798141219085] [-43.289722222222281:43.291111111111036] [-1451.2542361111111:1512.7680555555555] [-1392.2435185185186:1355.3182638888889] [0:1514.37625] [0:1567.02] [0:1409.8699999999999] [0:731.60639798076113] [-21.123472222222176:21.641250000000014] [-1302.6143055555556:1494.4554861111112] [-1403.2030092592593:1314.4724444444446] [0:1455.7269618055554] [0:1567.02] [0:1128.6199999999999] [0:649.14605345924542] [-10.558333333333337:10.822777777777731] [-1199.8793402777778:1380.8127187499999] [-1423.2120254629631:1292.0344444444445] [0:1559.3599999999999] [0:1559.4400000000001] [0:1567.02] [0:1560.55] [0:1560.55] -1:23:3:22:9:21:15:20:19:14:13:8:18:6:12:2:11:7:1:17:0:16:4:10:5 -1:4:5:3:0:1:2
tree_sizes=5376 5620 5628 5569 5593 5588 5573 5571 5558 5535 5623 5594 5615 5659 5591 5617 5610 5552 5593 5658 5619 5651 5553 5605 5544 5614 5590 5583 5620 5648 5541 5572 5577 5550 5613 5613 5568 5561 5586 5596 5549 5576 5548 5557 5558 5602 5572 5599 5561 5597 5606 5559 5598 5506 5628 5576 5567 5570 5609 5554 5572 5671 5570 5557 5587 5613 5583 5560 5569 5585 5606 5597 5567 5587 5605 5578 5629 5599 5588 5573 5599 5627 5595 5588 5627 5592 5627 5597 5495 5576 5587 5571 5601 5604 5561 5596 5566 5589 5579 5583 5602 5611 5598 5616 5637 5610 5567 5574 5618 5602 5611 5592 5587 5589 5597 5617 5573 5665 5574 5579 5566 5640 5561 5595 5631 5592 5589 5602 5583 5594 5550 5611 5560 5602 5551 5632 5583 5615 5599 5589 5563 5578 5600 5596 5595 5615 5608 5607 5635 5614 5607 5549 5584 5562 5557 5601 5622 5582 5597 5564 5608 5627 5636 5638 5541 5607 5601 5603 5605 5601 5629 5611 5602 5632 5571 5599 5608 5639 5561 5613 5539 5584 5577 5595 5597 5576 5585 5567 5571 5612 5607 5581 5591 5606 5629 5591 5617 5600 5597 5596 5592 5641 5618 5639 5584 5626 5641 5613 5620 5618 5588 5621 5610 5605 5635 5561 5627 5598 5637 5577 5583 5584 5611 5595 5610 5567 5553 5685 5597 5614 5605 5573 5614 5556 5639 5582 5546 5598 5594 5635 5655 5592 5580 5607 5605 5600 5536 5595 5649 5622 5568 5617 5598 5548 5622 5582 5567 5543 5625 5549 5630 5550 5600 5636 5584 5603 5596 5614 5635 5595 5592 5634 5610 5586 5572 5604 5629 5627 5546 5565 5662 5559 5640 5564 5588 5582 5623 5610 5604 5599 5581 5590 5590 5562 5580 5633 5589 5595 5642 5662 5573 5535 5588 5605 5613 5618 5600 5573 5555 5576 5579 5512 5609 5575 5587 5586 5595 5604 5648 5628 5593 5590 5581 5647 5592 5574 5573 5588 5604 5561 5644 5588 5608 5609 5563 5672 5615 5569 5603 5600 5619 5661 5602 5579 5595 5650 5613 5594 5608 5589 5597 5621 5660 5620 5611 5633 5582 5652 5646 5591 5641 5651 5616 5609 5663 5590 5637 5587 5560 5552 5606 5619 5605 5650 5639 5600 5625 5593 5600 5639 5622 5628 5602 5538 5585 5681 5624 5616 5594 5599 5635 5660 5626 5578 5576 5630 5598 5625 5629 5626 5633 5599 5577 5627 5588 5621 5581 5624 5606 5615 5622 5594 5596 5614 5574 5632 5610 5588 5596 5653 5623 5622 5567 5622 5616 5620 5622 5584 5581

Tree=0
num_leaves=57
num_cat=0
split_feature=262 160 257 77 160 8 77 8 77 240 77 77 257 257 240 257 67 8 192 257 192 67 257 240 77 56 240 257 257 77 67 160 77 77 67 67 240 160 257 77 192 240 240 192 240 257 192 262 240 8 107 8 8 192 77 192
split_gain=8.56667e+08 3.49857e+08 2.20015e+08 1.81104e+08 1.83813e+08 2.0469e+08 1.54184e+08 1.54316e+08 1.20969e+08 1.19906e+08 8.9502e+07 1.10045e+08 8.80086e+07 8.71595e+07 5.97439e+07 5.46635e+07 4.40222e+07 5.35193e+07 4.32874e+07 4.01716e+07 3.92574e+07 4.18174e+07 3.79386e+07 5.0176e+07 3.75327e+07 3.74915e+07 3.73341e+07 3.66536e+07 3.58691e+07 3.5354e+07 5.14555e+07 3.37912e+07 3.34621e+07 3.78588e+07 3.32909e+07 3.27084e+07 3.24257e+07 3.10464e+07 3.53659e+07 3.35742e+07 3.06072e+07 3.01106e+07 2.91775e+07 2.89658e+07 4.46229e+07 2.71947e+07 2.65786e+07 2.60036e+07 5.44055e+07 2.57725e+07 2.53932e+07 2.52095e+07 2.52053e+07 2.46092e+07 2.34032e+07 2.45697e+07
threshold=982.40500000000009 29.788333333333338 -15.330715277777761 32.345000000000006 25.584513888888896 0.45023305084745768 16.495000000000001 0.13048582995951422 171.20000000000002 5.2574826689006988 2.3350000000000004 5.1850000000000014 288.56119698083734 140.02768576388897 352.25036399625645 472.84509548611123 3.5970833333333343 0.010019920318725102 1.0000000180025095e-35 -747.29092303240725 0.89166666666665872 -27.767499999999995 -548.9744212962961 94.663757786652624 69.975000000000009 -0.55970711297071152 87.23216485243745 199.3152083333334 18.020672057748573 47.57500000000001 50.522500000000001 35.491736111111116 113.34500000000001 58.065000000000005 53.425833333333337 -3.3066666666666649 393.40043865780785 23.690555555555559 68.396646990740805 146.21500000000003 1.0425000000000753 8.8795475715074179 75.002017398017955 -1.7624999999999973 192.84653845254448 293.06034722222222 -0.0016666666666615979 224.15500000000003 80.032658899311642 0.010019920318725102 0.80784576044905432 13.745000000000003 90.365000000000023 -0.27833333333327909 3.0750000000000006 1.1300000000000383
decision_type=2 2 2 2 2 2 2 2 2 2 2 2 2 2 2 2 2 2 2 2 2 2 2 2 2 2 2 2 2 2 2 2 2 2 2 2 2 2 2 2 2 2 2 2 2 2 2 2 2 2 2 2 2 2 2 2
left_child=1 8 6 4 -2 18 7 26 9 12 -7 22 28 14 16 25 17 -11 19 31 21 -13 36 -24 35 -4 -3 52 -1 30 47 -6 33 41 -5 -16 -12 -30 39 -39 -32 -27 -43 44 -21 -25 -36 -15 -49 -28 -35 -23 -10 -44 -9 -56
right_child=3 2 15 34 5 10 -8 54 27 13 11 20 -14 29 24 -17 -18 -19 -20 43 -22 51 23 45 -26 32 49 -29 37 -31 40 -33 -34 50 46 -37 -38 38 -40 -41 -42 42 53 -45 -46 -47 -48 48 -50 -51 -52 -53 -54 -55 55 -57
leaf_value=388.89892726883465 389.44906206576991 389.79094150340597 389.36503723199274 389.4815306289828 390.56471203237584 389.33348187488417 389.49583403584325 389.61312923264018 389.97503027021213 389.34839600473987 389.70533123047733 389.50998529612718 389.85501700251064 389.22375476785504 390.06844330543765 389.35657214552191 389.32679533598309 389.46323986811552 389.50838283747879 390.62173290861597 389.63004692845482 389.91358110701862 389.77855628977818 390.24075170359828 389.33617186859368 389.87789056910532 389.44592623180063 390.59910942144529 389.05653650285518 389.37962657853205 390.23271108510858 389.73867704839176 389.39962784046389 389.4878783015364 390.43332598327589 389.61837974418825 390.44725336062476 389.88474908204995 389.16725901364606 389.02381569764947 389.33005864169508 389.366040792381 389.40632523315639 389.60897933305915 389.71766732613918 389.71740356409526 389.41419376075055 389.76415509387874 389.29844526207359 389.59504442135125 389.58551237134179 389.65339914840109 389.04111564703123 389.48486732941478 389.88954008299379 389.68226823612849
leaf_weight=2708 8442 2193 18605 18284 379 1198 74649 2077 586 24735 1611 1315 647 22161 957 28409 25321 47213 9609 297 4043 12562 1336 5866 1132 644 9999 324 3681 20848 356 415 30920 40937 267 1987 276 680 1652 247 260 15875 23145 6495 825 426 166 1069 16350 8644 14405 1690 144 51381 9945 2971
leaf_count=2708 8442 2193 18605 18284 379 1198 74649 2077 586 24735 1611 1315 647 22161 957 28409 25321 47213 9609 297 4043 12562 1336 5866 1132 644 9999 324 3681 20848 356 415 30920 40937 267 1987 276 680 1652 247 260 15875 23145 6495 825 426 166 1069 16350 8644 14405 1690 144 51381 9945 2971
internal_value=389.467 389.437 389.475 389.665 389.721 389.769 389.548 389.655 389.364 389.36 389.869 389.891 389.143 389.372 389.408 389.439 389.399 389.424 389.6 389.705 389.806 389.851 390.068 390.131 389.646 389.45 389.544 390.039 389.091 389.313 389.278 390.133 389.459 389.472 389.495 389.765 389.814 389.174 389.343 389.655 389.852 389.447 389.444 389.66 389.957 390.205 390.043 389.269 389.327 389.515 389.513 389.883 389.791 389.46 389.81 389.842
internal_weight=0 507857 334799 75502 56785 48343 110478 35829 173058 172004 30323 29125 9615 162389 101345 224321 97269 71948 18020 8411 19610 15567 9515 7628 4076 195912 20836 1054 8968 61044 40196 794 177307 146387 18717 2944 1887 6260 2579 927 616 91045 90401 7617 1122 6292 433 39580 17419 18643 55342 14252 730 74526 14993 12916
internal_count=583359 507857 334799 75502 56785 48343 110478 35829 173058 172004 30323 29125 9615 162389 101345 224321 97269 71948 18020 8411 19610 15567 9515 7628 4076 195912 20836 1054 8968 61044 40196 794 177307 146387 18717 2944 1887 6260 2579 927 616 91045 90401 7617 1122 6292 433 39580 17419 18643 55342 14252 730 74526 14993 12916
is_linear=0
shrinkage=1


Tree=1
num_leaves=57
num_cat=0
split_feature=15 141 257 237 141 205 205 253 206 197 253 205 253 141 197 197 7 141 257 180 180 205 180 180 237 141 180 205 180 177 197 253 253 231 257 231 206 177 180 206 197 197 231 7 180 180 15 237 197 206 257 180 237 206 205 180
split_gain=1.11198e+09 3.12005e+08 2.36907e+08 2.36802e+08 1.75474e+08 1.76559e+08 1.61951e+08 1.30122e+08 1.11165e+08 1.09213e+08 1.9669e+08 1.12832e+08 9.95103e+07 1.57383e+08 1.23518e+08 9.94563e+07 9.65386e+07 9.07448e+07 8.50645e+07 8.43335e+07 8.73481e+07 8.51519e+07 7.88028e+07 6.52466e+07 6.30682e+07 6.1986e+07 6.15026e+07 6.08865e+07 5.46733e+07 5.42771e+07 5.95015e+07 5.28304e+07 5.26467e+07 4.99744e+07 4.83336e+07 1.02654e+08 4.71832e+07 6.30212e+07 4.52224e+07 5.47893e+07 4.72655e+07 4.51871e+07 4.38341e+07 4.27853e+07 4.15415e+07 7.68575e+07 4.08642e+07 4.04619e+07 4.00485e+07 3.93905e+07 5.91329e+07 3.91974e+07 3.86859e+07 3.79143e+07 6.01328e+07 4.29624e+07
threshold=7.9513636363636371 25.655000000000005 -15.330715277777761 852.25326201201221 24.145000000000003 22.266530916331039 3.4448892331349419 0.68065789473684224 2.0570138888889038 15.425000000000002 68.565000000000012 37.002335634696671 173.08000000000001 37.315000000000005 -4.5376141078838144 -141.33499999999998 0.010019920318725102 30.255000000000006 472.84509548611123 -112.94499999999998 74.825000000000017 72.673820425948051 111.55500000000002 9.3900000000000023 1301.7702777777779 36.295000000000009 -5.899999999999987 15.747450400344265 427.99500000000006 37.485000000000007 113.59500000000001 26.885000000000002 1.0550000000000004 1090.5700000000002 445.40744791666674 58.135000000000012 0.78159722222221728 29.695000000000004 -229.76499999999996 -0.22222222222222529 -38.67499999999999 -170.09999999999997 1498.8500000000001 0.86045454545454558 -12.515477178423223 166.93025896414346 9.5519502074688827 671.23972222222233 -170.09999999999997 0.006944444444471288 -864.292583912037 -180.89499999999995 648.81694444444452 1.0013888888889257 71.290501256026218 496.33000000000004
decision_type=2 2 2 2 2 2 2 2 2 2 2 2 2 2 2 2 2 2 2 2 2 2 2 2 2 2 2 2 2 2 2 2 2 2 2 2 2 2 2 2 2 2 2 2 2 2 2 2 2 2 2 2 2 2 2 2
left_child=1 9 8 19 27 6 -6 25 16 10 -1 28 13 23 -15 -4 48 -7 29 -2 49 36 33 -9 31 -8 41 -5 34 30 -17 32 -16 -13 -11 -36 37 -22 40 -40 -14 -18 46 -34 51 -46 -39 -47 -3 50 -21 -31 -12 55 -55 -32
right_child=3 2 15 4 5 17 7 12 -10 11 52 22 38 14 24 18 26 -19 -20 20 21 -23 -24 -25 -26 -27 -28 -29 -30 44 53 -33 43 -35 35 -37 -38 42 39 -41 -42 -43 -44 -45 45 47 -48 -49 -50 -51 -52 -53 -54 54 -56 -57
leaf_value=-0.073486082463122465 0.25905576710850908 -0.22038612052109857 -0.2172163817192759 -0.14673682062762883 -0.22514255645361511 0.75168465352858471 0.39118600340139931 0.53628608235262987 -0.091111938765916556 -0.22648952730668595 0.60165302098890538 -0.00089804104966540658 1.0162720476536968 0.17426216510278342 1.4006442232710592 -0.11160325490170039 -0.075486770240696457 0.021699617079248966 -0.13789457073969269 0.24971484818603992 0.036840817917050336 -0.20651994752411795 -0.18899665242969427 0.19970436556092103 0.40379187011718753 -0.040959670151999701 0.072210084301233671 0.42778530441509205 0.43273941476210109 -0.019461420530311184 -0.053940132416923761 1.1894089877923499 0.17001471429591555 0.51953848901681698 0.64872547377984024 -0.16289562768605312 -0.042378106853365897 0.31358723500004071 0.57709500823438853 0.26988643759786562 -0.1718228926547738 0.21691370581857172 0.013701925574834623 0.83097886421238143 -0.077390061941889493 0.11575291011662747 0.76580699552951637 -0.2049188171194013 0.028914053171306981 0.062867885573589175 -0.17195962855253852 0.11737894515480753 -0.0061992774754762647 0.091252976632785393 -0.11475419729809137 0.57703081559806035
leaf_weight=20186 8842 2749 12661 4316 1573 745 2347 6882 16453 58448 2301 18324 153 1034 445 40338 2274 7950 28575 1541 1524 1616 11590 3463 808 3057 31534 890 530 13065 56015 2811 556 769 789 2969 1280 1259 3674 6311 1075 30058 597 1326 33119 16313 2189 1742 41319 9054 9727 23316 512 22335 7595 435
leaf_count=20186 8842 2749 12661 4316 1573 745 2347 6882 16453 58448 2301 18324 153 1034 445 40338 2274 7950 28575 1541 1524 1616 11590 3463 808 3057 31534 890 530 13065 56015 2811 556 769 789 2969 1280 1259 3674 6311 1075 30058 597 1326 33119 16313 2189 1742 41319 9054 9727 23316 512 22335 7595 435
internal_value=0 -0.0373153 -0.00955594 0.207758 0.298786 0.339684 0.402222 0.431296 0.0620258 -0.1279 -0.00444195 -0.158294 0.485183 0.580194 0.81226 -0.0444034 0.0853695 0.0842458 -0.0353937 0.0882149 0.0357407 0.206439 -0.0589056 0.423615 0.923206 0.146725 0.135055 -0.0485185 -0.206904 -0.0217244 -0.0481836 1.00489 0.781991 0.0200633 -0.212353 0.00750593 0.303875 0.383459 0.338382 0.382924 -0.0237948 0.196348 0.514051 0.63571 0.0165698 -0.0201621 0.600684 0.0848135 0.0133625 -0.0353624 -0.114292 0.0682374 0.491017 -0.0185676 0.0389768 -0.0490779
internal_weight=0 496314 379896 87045 49416 44210 35515 33942 124387 116418 22999 93419 28538 17325 6980 255509 107934 8695 242848 37629 28787 8465 30683 10345 5946 5404 63866 5206 62736 214273 126718 5138 2327 19093 62206 3758 6849 5569 11213 9985 1228 32332 4045 1882 87555 51174 3448 18055 44068 20322 11268 36381 2813 86380 29930 56450
internal_count=583359 496314 379896 87045 49416 44210 35515 33942 124387 116418 22999 93419 28538 17325 6980 255509 107934 8695 242848 37629 28787 8465 30683 10345 5946 5404 63866 5206 62736 214273 126718 5138 2327 19093 62206 3758 6849 5569 11213 9985 1228 32332 4045 1882 87555 51174 3448 18055 44068 20322 11268 36381 2813 86380 29930 56450
is_linear=0
shrinkage=0.002


Tree=2
num_leaves=57
num_cat=0
split_feature=242 260 242 36 132 162 132 71 132 245 245 162 196 196 36 132 162 242 71 196 245 242 196 260 162 196 242 245 242 245 242 260 260 245 132 71 196 36 132 260 242 36 196 132 245 260 132 162 36 71 162 132 162 242 36 36
split_gain=1.3394e+09 3.88068e+08 3.12106e+08 2.67247e+08 2.76478e+08 2.29475e+08 2.16113e+08 1.88376e+08 1.58849e+08 1.51876e+08 1.40322e+08 1.08581e+08 1.27333e+08 8.63055e+07 8.34526e+07 8.22832e+07 1.26277e+08 8.84615e+07 8.25082e+07 7.44748e+07 7.40696e+07 7.39321e+07 6.74194e+07 6.55061e+07 6.52843e+07 6.11526e+07 5.75191e+07 5.73459e+07 6.84332e+07 5.61993e+07 5.88175e+07 5.60027e+07 5.52797e+07 5.40403e+07 5.92502e+07 5.35824e+07 4.87363e+07 5.72951e+07 4.86114e+07 4.76093e+07 6.01441e+07 4.73249e+07 4.39503e+07 4.20575e+07 3.89227e+07 3.76245e+07 3.73691e+07 3.71611e+07 3.68913e+07 4.83642e+07 3.67565e+07 3.66285e+07 8.39226e+07 4.64763e+07 3.97419e+07 5.16066e+07
threshold=80.997722222222237 979.70059307359327 -319.59526041666663 5.6722978723404269 17.375000000000004 18.475000000000005 18.205000000000002 -2.2042857142857142 31.971341991341994 621.65311688311692 388.72500000000008 29.402500000000003 55.655000000000008 397.91500000000008 1.2550000000000001 14.325000000000001 28.425000000000004 -217.68397276334778 -135.97499999999997 29.035000000000004 70.005625000000023 791.92504783950642 -95.739999999999981 458.96500000000009 27.955000000000002 397.91500000000008 383.52248511904764 697.57500000000016 -18.828206018518561 281.52500000000003 -717.03164622414613 8.5590000000000028 120.65500000000002 1508.0800000000002 33.702500000000008 -11.614999999999997 201.78500000000003 0.58333333333333337 19.945000000000004 1336.7350000000004 889.39637500000015 1.2750000000000001 123.08000000000001 23.905000000000005 1157.0604906204908 128.57700000000003 14.325000000000001 21.065000000000001 0.66500000000000015 -164.93499999999997 -1.0000000180025095e-35 25.585000000000004 20.755000000000006 505.80852314814825 0.87250000000000016 3.8050000000000002
decision_type=2 2 2 2 2 2 2 2 2 2 2 2 2 2 2 2 2 2 2 2 2 2 2 2 2 2 2 2 2 2 2 2 2 2 2 2 2 2 2 2 2 2 2 2 2 2 2 2 2 2 2 2 2 2 2 2
left_child=2 6 8 25 -5 20 19 11 29 36 15 21 -13 23 24 -7 17 45 38 -2 -4 -6 -12 -11 -10 51 -14 28 50 -1 -31 -18 -20 -28 -35 -34 37 -8 -19 40 -36 42 -24 -43 -25 -17 -44 -23 49 -48 -22 52 -3 -54 -55 -56
right_child=1 3 5 4 7 10 9 -9 14 13 22 12 26 -15 -16 16 31 18 32 -21 27 47 41 44 -26 -27 33 -29 -30 30 -32 -33 35 34 39 -37 -38 -39 -40 -41 -42 43 46 -45 -46 -47 48 -49 -50 -51 -52 -53 53 54 55 -57
leaf_value=-0.31705646142281718 0.14681704733167597 -0.040960495299082869 -0.48453173453462789 -0.060989279224520895 0.037298086739611457 -0.17180839996982111 0.81986028707457836 -0.17926869186249633 -0.18026725747924222 0.052402795819310413 -0.29876568069946008 0.32154315889151758 0.38749698931772047 -0.041819852260272052 -0.21492163302896433 -0.20019388741437369 0.21869949791778559 0.3895551680379839 0.16335292279579397 -0.12097800463961844 0.075971025012788324 -0.020657574149592298 -0.098059358022287962 0.06846083641089834 0.02558192769878137 -0.073970127360918736 1.0459192494769358 -0.28147943042560192 0.051954868972780267 -0.25526564381180611 -0.14011255237268838 -0.0047610512971762312 0.22907914295772999 0.83344120086310125 0.77142169180976017 0.75917083469288582 0.18949892089728151 0.33381622767899649 1.0111218965927322 0.83449623325892852 -0.05909149052189086 -0.16999570449131579 -0.16537535283021332 -0.03774326828705888 0.18977915569610099 0.40117928715606233 0.60216524234693869 0.54782634175868428 0.078370978721970075 -0.032082205637978568 -0.23753604479462023 0.12141336962046433 0.1281358912021299 -0.039346943895458737 0.67320553876921108 0.23374709244591677
leaf_weight=14167 4882 2648 3006 4481 2419 4145 1191 1609 7731 54359 3752 4105 1638 20398 10859 1861 5735 938 5922 27856 1764 526 14289 15223 30379 4843 2497 9569 7843 27202 51021 20600 1522 4665 540 1529 7920 5231 1086 812 985 13902 3908 31214 34669 536 490 3663 35518 25931 9842 22319 2212 546 3274 1587
leaf_count=14167 4882 2648 3006 4481 2419 4145 1191 1609 7731 54359 3752 4105 1638 20398 10859 1861 5735 938 5922 27856 1764 526 14289 15223 30379 4843 2497 9569 7843 27202 51021 20600 1522 4665 540 1529 7920 5231 1086 812 985 13902 3908 31214 34669 536 490 3663 35518 25931 9842 22319 2212 546 3274 1587
internal_value=0 0.115067 -0.0800469 0.246213 0.394223 -0.0301737 0.0651458 0.481175 -0.152339 0.0995793 -0.00136703 0.52981 0.622641 0.0771539 -0.0602489 0.096339 0.124315 0.282422 0.358306 -0.0810435 -0.185683 0.315685 -0.0345967 0.100433 -0.0161767 0.135727 0.733623 -0.154725 -0.0923613 -0.201149 -0.180157 0.0439022 0.276029 0.793308 0.703224 0.494733 0.294483 0.423956 0.723064 0.443292 0.234992 -0.0266833 0.00248653 -0.0784954 0.152763 -0.0657191 0.0243053 0.476444 0.0362731 -0.0203195 -0.189886 0.166892 0.265756 0.372357 0.472267 0.529733
internal_weight=0 237098 346261 65369 27940 204902 171729 23459 141359 138991 172878 21850 15242 124649 48969 43874 39729 13394 10997 32738 32024 6608 129004 104251 38110 37429 11137 29018 19449 92390 78223 26335 8973 9499 7002 3051 14342 6422 2024 2337 1525 125252 80136 45116 49892 2397 65847 4189 61939 26421 11606 32586 10267 7619 5407 4861
internal_count=583359 237098 346261 65369 27940 204902 171729 23459 141359 138991 172878 21850 15242 124649 48969 43874 39729 13394 10997 32738 32024 6608 129004 104251 38110 37429 11137 29018 19449 92390 78223 26335 8973 9499 7002 3051 14342 6422 2024 2337 1525 125252 80136 45116 49892 2397 65847 4189 61939 26421 11606 32586 10267 7619 5407 4861
is_linear=0
shrinkage=0.002


Tree=3
num_leaves=57
num_cat=0
split_feature=249 1 249 99 99 244 129 99 121 34 34 99 34 121 129 129 129 249 34 121 228 249 228 244 244 101 244 129 121 99 228 244 129 121 34 101 249 129 259 1 129 241 129 99 228 129 121 99 241 228 228 34 121 249 244 34
split_gain=1.5998e+09 6.62432e+08 3.24535e+08 2.97287e+08 2.41639e+08 1.69438e+08 2.77219e+08 1.5045e+08 1.41794e+08 1.22223e+08 1.23283e+08 1.12678e+08 1.11531e+08 1.04609e+08 9.34894e+07 8.29636e+07 7.9543e+07 7.80251e+07 9.35812e+07 7.35764e+07 8.94078e+07 7.20313e+07 6.62827e+07 6.53592e+07 6.49473e+07 6.48402e+07 7.40716e+07 1.08157e+08 7.0373e+07 6.65248e+07 6.29638e+07 9.02098e+07 5.96875e+07 8.49054e+07 5.98104e+07 6.78849e+07 5.91202e+07 5.46451e+07 5.43869e+07 5.42582e+07 5.37527e+07 5.3218e+07 5.20314e+07 5.11797e+07 6.01132e+07 4.90538e+07 4.83424e+07 4.78367e+07 4.72327e+07 4.57481e+07 4.57381e+07 4.53956e+07 4.46556e+07 4.35879e+07 4.59929e+07 4.28145e+07
threshold=-226.59475587962962 9.1825726141078849 185.47512316561847 17.565000000000001 14.935 1025.7194751082254 0.0036805555555550211 30.095000000000002 0.92725425269022044 2.1234027777777782 0.96701388888888895 9.3550000000000022 1.3335416666666671 1.9165103579824199 1.0000000180025095e-35 0.024461805555551667 0.042430555555557532 -684.54993865740732 2.4485416666666673 3.6807722810469223 872.6166666666669 797.79069444444451 -400.41083333333324 486.80123263888896 9.5156304824561406 -0.12666666666666823 746.17583333333346 0.0071527777777813393 3.5868050370155315 17.565000000000001 140.03559523809511 218.87296422101454 0.02333333333333432 1.349753863435752 9.9031250000000011 -0.0066666666666703725 -815.73584490740723 1.0000000180025095e-35 981.28336940836948 2.1425000000000005 0.018541666666664906 -11.422222222222215 -0.030833333333332821 31.524307359307361 852.43865333333349 0.010902777777773489 2.3948877394953896 27.065000000000001 -9.8078952991453026 405.80266666666671 174.64361842105259 9.4349305555555585 2.5537704411993576 28.394915839947078 447.41731944444456 6.7278472222222234
decision_type=2 2 2 2 2 2 2 2 2 2 2 2 2 2 2 2 2 2 2 2 2 2 2 2 2 2 2 2 2 2 2 2 2 2 2 2 2 2 2 2 2 2 2 2 2 2 2 2 2 2 2 2 2 2 2 2
left_child=7 3 -3 11 -4 13 42 17 -8 10 -5 -2 -13 -6 55 25 23 -1 46 48 40 47 -12 36 -24 -15 27 29 45 -27 31 -16 34 -34 43 41 -9 -38 -23 -33 53 -36 -7 44 52 -28 -19 -10 -14 -29 -26 -30 -32 -21 -55 -11
right_child=1 2 4 9 5 6 8 16 21 14 22 12 19 15 30 -17 -18 18 -20 20 -22 38 24 -25 50 26 28 49 51 -31 32 39 33 -35 35 -37 37 -39 -40 -41 -42 -43 -44 -45 -46 -47 -48 -49 -50 -51 -52 -53 -54 54 -56 -57
leaf_value=-0.317489827399909 -0.27371101234884332 -0.01096903578986683 -0.092941869044342346 -0.52174903932530836 0.11644990882411396 -0.14712562138616703 -0.24990823263465811 -0.24448160630818411 0.10728715569355766 0.033183985279841982 -0.080113833995965805 -0.47418994097749068 -0.1911791735199225 0.1856870203981805 0.12497088285529556 -0.11252155461643111 0.17886047959262699 -0.2295864919909606 -0.14695918473971958 -0.061013256662542169 1.0707298082970167 0.35237376259801922 0.9511451076867643 -0.30642189101182821 0.29197434837925218 1.0253349435619503 0.63499488969033402 0.077999873781571971 0.51030849631216613 0.10745508950539977 0.028624572237324564 0.11155958719915655 0.67714776991071746 0.19904658276828821 0.20024941930837878 0.050985161842383775 -0.13744546812894767 -0.003571455670380488 0.788432277642104 -0.053236605391087023 -0.61828938864596072 1.0902747675612878 0.31826009366252372 -0.0061972531436141724 0.46815145322677709 0.21261106966530408 -0.44715812082387207 1.1279771415468693 -0.029177578632803833 0.83675312150224312 0.90599147597410701 1.2533687194181744 0.24544444103856242 0.68646757678498938 0.066750135880655953 -0.048624689406645029
leaf_weight=23079 11105 16874 5581 752 13042 1062 545 8439 197 100132 1456 2420 8651 4988 37763 1466 4035 10427 59015 1485 441 1547 731 6165 7905 337 3339 389 503 5031 9814 10817 1768 9308 427 1015 22031 27320 4393 30595 358 725 10099 13971 2158 1640 6716 2714 42887 1738 517 950 6200 1019 904 34373
leaf_count=23079 11105 16874 5581 752 13042 1062 545 8439 197 100132 1456 2420 8651 4988 37763 1466 4035 10427 59015 1485 441 1547 731 6165 7905 337 3339 389 503 5031 9814 10817 1768 9308 427 1015 22031 27320 4393 30595 358 725 10099 13971 2158 1640 6716 2714 42887 1738 517 950 6200 1019 904 34373
internal_value=0 0.0656504 0.233873 0.0277987 0.303239 0.3442 0.487077 -0.165962 0.740205 0.0577434 0.260782 -0.0891041 -0.0538585 0.256323 0.0488394 0.345828 -0.0934873 -0.215617 -0.184745 -0.035611 0.218705 0.801172 0.31625 -0.11067 0.379301 0.381353 0.451431 0.316313 0.60888 0.165079 0.0883201 0.0542752 0.147711 0.275363 0.106502 0.428106 -0.0897874 -0.0633348 0.674866 -0.0101911 0.118933 0.760378 0.273977 0.0848199 0.154796 0.495869 -0.314823 1.0589 -0.0563706 0.697987 0.329667 0.996136 0.112569 0.196376 0.395139 0.0122776
internal_weight=0 416132 76435 339697 59561 53980 20557 167227 9396 270427 11361 69270 58165 33423 259066 20381 67990 99237 76158 55745 4207 8851 10609 63955 9153 18915 13927 7495 6432 5368 124561 79175 45386 11076 34310 2167 57790 49351 5940 41412 3766 1152 11161 32143 18172 4979 17143 2911 51538 2127 8422 1453 16014 3408 1923 134505
internal_count=583359 416132 76435 339697 59561 53980 20557 167227 9396 270427 11361 69270 58165 33423 259066 20381 67990 99237 76158 55745 4207 8851 10609 63955 9153 18915 13927 7495 6432 5368 124561 79175 45386 11076 34310 2167 57790 49351 5940 41412 3766 1152 11161 32143 18172 4979 17143 2911 51538 2127 8422 1453 16014 3408 1923 134505
is_linear=0
shrinkage=0.002


Tree=4
num_leaves=57
num_cat=0
split_feature=235 102 112 165 252 252 201 102 235 252 102 165 165 112 220 112 102 112 102 252 252 226 112 235 220 197 148 112 148 165 226 112 220 252 112 148 252 252 112 102 112 112 165 165 220 252 252 65 165 165 197 165 112 252 165 197
split_gain=1.32177e+09 5.43718e+08 2.86183e+08 2.64726e+08 2.4791e+08 2.23537e+08 1.6744e+08 1.64267e+08 1.45832e+08 1.41531e+08 1.52578e+08 1.33199e+08 1.48395e+08 1.33044e+08 1.28683e+08 1.22789e+08 1.19347e+08 1.16437e+08 1.19253e+08 1.09966e+08 1.08943e+08 1.12572e+08 1.02361e+08 1.01772e+08 9.58167e+07 1.23867e+08 8.1569e+07 7.95791e+07 7.59167e+07 7.34257e+07 6.9679e+07 7.53596e+07 6.45351e+07 7.57414e+07 6.68085e+07 6.62517e+07 7.757e+07 6.00307e+07 5.9137e+07 5.58453e+07 5.37963e+07 5.22046e+07 4.89591e+07 4.87203e+07 4.87159e+07 4.83602e+07 4.6893e+07 5.24282e+07 4.70629e+07 7.00664e+07 4.68108e+07 4.62495e+07 4.49656e+07 4.48172e+07 4.47274e+07 4.45685e+07
threshold=103.87050000000001 1.3650000000000031 18.855000000000004 -4.2188541666666657 1320.0600000000002 215.16500000000002 -21.72569444444445 -9.605833333333333 -446.12201388888883 669.9000000000002 5.605833333333333 1.9586111111111129 6.9897916666666697 17.145000000000003 186.98500000000004 28.925000000000004 3.9401515151515238 20.125000000000004 2.2533333333333316 1518.9550000000002 369.86000000000007 3.2569426785403599 34.395000000000003 1157.4043333333336 392.96500000000009 203.51500000000001 34.715000000000011 30.992500000000003 22.735000000000003 -1.6487152777777803 5.1679771825588059 32.922500000000007 79.620000000000019 1502.5350000000001 33.430194805194809 26.555000000000003 578.30500000000018 1488.4050000000004 38.070373443983407 0.32666666666666183 32.605000000000011 11.795000000000002 3.5325000000000029 0.93861111111110962 239.07500000000002 1506.845 927.43000000000018 0.89028574650060233 3.1315277777777752 1.7639583333333297 -67.484999999999985 -4.403958333333331 23.215000000000003 1519.4750000000001 -0.67229166666666618 -4.5376141078838144
decision_type=2 2 2 2 2 2 2 2 2 2 2 2 2 2 2 2 2 2 2 2 2 2 2 2 2 2 2 2 2 2 2 2 2 2 2 2 2 2 2 2 2 2 2 2 2 2 2 2 2 2 2 2 2 2 2 2
left_child=3 2 41 14 46 -5 15 -4 22 10 17 37 24 39 -1 -6 -15 18 -10 44 21 28 -7 32 25 55 -25 -14 -19 -22 -31 42 34 35 51 -34 -37 -8 -12 -11 -21 -2 43 -32 -18 -24 47 -3 49 -49 -36 -9 -27 -41 -20 -13
right_child=1 4 7 5 6 8 11 23 9 13 38 12 27 16 -16 -17 19 20 54 40 29 -23 45 26 -26 52 -28 -29 -30 30 31 -33 33 -35 50 36 -38 -39 -40 53 -42 -43 -44 -45 -46 -47 -48 48 -50 -51 -52 -53 -54 -55 -56 -57
leaf_value=-0.27015036854248531 -0.36935657347907069 0.56092935459457383 -0.22161964050926217 -0.3801321489065268 0.66923367575470882 -0.16774572380115249 0.44349745056212597 0.062705537191395419 0.076537815577547325 -0.10896621054541282 -0.25578768400432816 0.25894806660920988 0.50839164476677068 -0.047828455259401617 -0.10119171614597441 -0.020837609848739176 -0.02853115456075081 -0.48038956092198692 0.36166312271376788 0.64340592606832314 -0.12903686058260988 0.2258214951050472 0.0098893663228174951 0.48623269700820893 -0.035841420037702326 0.35518578013792557 0.12598313290113947 -0.046035551358327251 0.87039953162500538 -0.057794676173558809 0.2723528341506728 0.10322824533507342 -0.034800429098396889 -0.023276095162770703 -0.11529794756228316 0.60309267957220702 0.12574337596058335 0.088938511626259542 0.12747091495962809 -0.39054214767191014 0.070638260072212744 -0.10194864784603962 0.06098855726705632 0.61777185552367442 0.18064810887119584 -0.20457222351664051 0.060855215216515296 0.053538223867458108 0.032400780306492787 0.56231165159530838 0.13514789956819245 0.31118570736761436 0.85279789106284587 0.4079310879869526 -0.45767763048360732 0.55887982283324267
leaf_weight=35246 3364 1631 6265 7899 1251 49182 3039 3877 9372 8048 6573 2799 1756 111367 36917 5876 10942 180 295 2114 3664 4252 27444 4947 919 804 5112 2524 2207 4029 3182 8469 10655 27221 3891 1408 41409 5142 2133 6448 951 22138 1617 3356 7510 4967 16557 2057 4690 2286 12824 13190 7523 294 2759 6787
leaf_count=35246 3364 1631 6265 7899 1251 49182 3039 3877 9372 8048 6573 2799 1756 111367 36917 5876 10942 180 295 2114 3664 4252 27444 4947 919 804 5112 2524 2207 4029 3182 8469 10655 27221 3891 1408 41409 5142 2133 6448 951 22138 1617 3356 7510 4967 16557 2057 4690 2286 12824 13190 7523 294 2759 6787
internal_value=0 0.120743 0.0565917 -0.0753455 0.273496 -0.0483095 0.376954 0.0943799 -0.0389937 -0.00989322 0.0797429 0.439964 0.517596 -0.0415099 -0.183715 0.10029 -0.0214826 0.128234 -0.0353074 0.114877 0.193881 0.420951 -0.11024 0.110277 0.593997 0.626309 0.303153 0.181435 0.768539 0.131886 0.178176 0.235366 0.0933289 0.0626035 0.166721 0.106322 0.141441 0.220647 -0.161888 -0.22145 0.465689 -0.137223 0.372592 0.449659 0.0566052 -0.022977 0.127475 0.230908 0.17132 0.321338 0.0768479 0.25474 0.804752 -0.355723 -0.378534 0.471303
internal_weight=0 221942 156301 361417 65641 289254 38420 130799 281355 199762 52088 31293 23112 147674 72163 7127 132884 43382 12426 21517 30956 6639 81593 124534 18832 17913 10059 4280 2387 24317 20653 16624 114475 80693 33782 53472 42817 8181 8706 14790 3065 25502 8155 6538 18452 32411 27221 10664 9033 4343 16715 17067 8327 6742 3054 9586
internal_count=583359 221942 156301 361417 65641 289254 38420 130799 281355 199762 52088 31293 23112 147674 72163 7127 132884 43382 12426 21517 30956 6639 81593 124534 18832 17913 10059 4280 2387 24317 20653 16624 114475 80693 33782 53472 42817 8181 8706 14790 3065 25502 8155 6538 18452 32411 27221 10664 9033 4343 16715 17067 8327 6742 3054 9586
is_linear=0
shrinkage=0.002


Tree=5
num_leaves=57
num_cat=0
split_feature=235 109 42 109 42 42 235 186 252 109 186 186 235 109 252 109 235 186 109 261 186 252 40 186 235 186 23 109 42 23 40 252 42 107 252 109 23 252 235 186 227 23 235 235 107 109 235 42 109 109 261 252 252 42 252 235
split_gain=1.33317e+09 5.59677e+08 2.65765e+08 2.4572e+08 2.426e+08 2.25646e+08 1.65536e+08 1.56743e+08 1.27945e+08 1.51903e+08 1.34687e+08 1.27141e+08 1.19843e+08 9.85849e+07 1.27096e+08 8.9364e+07 8.91914e+07 9.59248e+07 8.52418e+07 1.15578e+08 1.31823e+08 8.43051e+07 8.22445e+07 7.82099e+07 8.21732e+07 7.71832e+07 7.09569e+07 6.78667e+07 6.47782e+07 6.41151e+07 5.822e+07 6.56351e+07 6.58137e+07 5.29453e+07 5.06935e+07 4.74279e+07 4.72297e+07 4.63266e+07 5.76291e+07 5.36895e+07 4.61376e+07 4.51606e+07 4.46232e+07 4.32935e+07 3.79285e+07 3.79214e+07 4.31931e+07 3.71253e+07 4.77519e+07 3.69259e+07 5.19617e+07 3.65776e+07 4.09547e+07 3.5918e+07 3.4857e+07 3.47801e+07
threshold=108.87201388888889 1.2870833333333318 12.275 -2.9108333333333305 16.185000000000006 4.4250000000000007 -446.12201388888883 -2.3316666666666577 669.9000000000002 5.8161361974504144 4.243333333333319 245.4941666666667 1053.0412763409963 3.8558333333333361 1518.9550000000002 -9.7022456709956675 954.04576388888904 -37.069166666666696 6.786666666666668 834.1350000000001 -232.00249999999997 1515.7850000000001 -3.1482638888888883 245.4941666666667 -292.33604166666663 155.40250000000006 0.66132414231607251 -9.7022456709956675 10.711957446808512 0.25872868049453474 2.8719444444444449 1045.3750000000002 17.075000000000003 0.47317992617208282 622.05000000000007 -5.2875000000000032 2.5549280958896952 369.86000000000007 -212.23083333333338 -185.37083333333331 -51.515833333333312 0.76242187874995715 -83.625787429378576 -1405.9572499999997 0.034494668114280494 -5.0858333333333308 1216.3990104166669 14.545000000000002 -5.2875000000000032 2.2318750000000009 120.79500000000002 1415.0550000000001 679.21500000000015 8.030145228215769 603.20500000000015 716.58611892135661
decision_type=2 2 2 2 2 2 2 2 2 2 2 2 2 2 2 2 2 2 2 2 2 2 2 2 2 2 2 2 2 2 2 2 2 2 2 2 2 2 2 2 2 2 2 2 2 2 2 2 2 2 2 2 2 2 2 2
left_child=3 7 16 23 11 -5 26 12 9 10 36 18 15 -10 25 -2 17 29 19 -4 55 27 -22 24 -1 -15 -7 -9 -28 -3 31 34 35 -18 -17 -33 37 38 -8 -40 -24 -27 -12 -25 -20 -23 -47 -14 -49 -39 -51 52 -31 -26 -52 -21
right_child=1 2 4 5 -6 6 8 21 13 -11 42 -13 47 14 -16 30 33 -19 44 20 22 45 40 43 53 41 28 -29 -30 51 -32 32 -34 -35 -36 -37 -38 49 39 -41 -42 -43 -44 -45 -46 46 -48 48 -50 50 54 -53 -54 -55 -56 -57
leaf_value=-0.27042773564849948 -0.28492913103313361 0.7212061739346004 0.37592990761215311 -0.36513690639246094 0.033745217158683984 -0.17831762311463009 0.030054998699297057 -0.4300577391561719 -0.059801161765046525 -0.17835226617552852 -0.08136990543666163 -0.23273256500344416 0.21300978103602899 -0.031968008409466661 0.45084514955428456 0.20919141920148768 0.60616895965235829 0.046761620069966078 1.0940649170334806 0.76551925821891897 0.26672965673498206 0.037852464150093697 0.53196442689443768 0.84387179129464296 0.012291837427495771 0.51035825399702361 -0.0039414643512048902 0.051372126867502567 -0.15859280376810739 0.48678281125155359 -0.11128070857344222 0.018987324445009959 -0.064507548458277053 0.14554263369122167 -0.058904142605857843 0.21398222091232352 1.050577144156257 0.11348135534805609 0.82158256642101035 0.32548781327938897 0.90350053417115561 0.049745912041326966 0.09717639702515149 -0.043294023555632562 0.18345814609468281 -0.17614299287116561 0.13522153359729758 -0.16961237928970999 0.50872745098631555 0.14676011024152977 0.34375932617413724 0.42312735349349395 0.099667876806755831 -0.15986476693416124 0.85559666968856651 0.12802096552567394
leaf_weight=32878 2501 1135 7313 8593 5463 35586 1297 1201 115686 7805 10530 913 7016 16872 3228 3715 2690 21182 194 422 1110 5920 1604 224 5864 1841 29946 47287 16975 1287 4804 5878 4766 1587 11726 33004 278 12397 1439 2217 8030 1584 11957 12400 3216 17671 1982 460 4253 3156 1349 2751 7258 27967 879 1813
leaf_count=32878 2501 1135 7313 8593 5463 35586 1297 1201 115686 7805 10530 913 7016 16872 3228 3715 2690 21182 194 422 1110 5920 1604 224 5864 1841 29946 47287 16975 1287 4804 5878 4766 1587 11726 33004 278 12397 1439 2217 8030 1584 11957 12400 3216 17671 1982 460 4253 3156 1349 2751 7258 27967 879 1813
internal_value=0 0.123757 0.27465 -0.0735125 0.415017 -0.0459899 -0.0360182 0.0563656 -0.00389602 0.0794271 0.123647 0.499636 0.118861 -0.0358005 0.0822245 0.0859365 0.163224 0.12861 0.527847 0.577014 0.690315 -0.00955689 0.782246 -0.171906 -0.199223 0.0235997 -0.110969 0.0394476 -0.059891 0.268077 0.100454 0.117668 0.157314 0.435251 0.00559783 0.184504 0.231215 0.221195 0.392256 0.52075 0.841642 0.297333 0.0135684 -0.0275522 0.235264 -0.102472 -0.144742 0.305233 0.44252 0.173545 0.311845 0.222548 0.157973 -0.130024 0.545692 0.24839
internal_weight=0 220152 67968 362948 30078 283615 275022 152184 192515 53304 45499 24615 78123 139211 23525 66394 37890 33613 23702 20292 12979 74061 10744 79333 66709 20297 82507 48488 46921 12431 63893 59089 43648 4277 15441 38882 23012 22734 4953 3656 9634 3425 22487 12624 3410 25573 19653 11729 4713 17781 5384 11296 8545 33831 2228 2235
internal_count=583100 220152 67968 362948 30078 283615 275022 152184 192515 53304 45499 24615 78123 139211 23525 66394 37890 33613 23702 20292 12979 74061 10744 79333 66709 20297 82507 48488 46921 12431 63893 59089 43648 4277 15441 38882 23012 22734 4953 3656 9634 3425 22487 12624 3410 25573 19653 11729 4713 17781 5384 11296 8545 33831 2228 2235
is_linear=0
shrinkage=0.002


Tree=6
num_leaves=57
num_cat=0
split_feature=46 238 109 252 46 252 109 214 197 206 252 238 46 46 206 214 46 109 238 214 46 201 214 46 252 6 46 252 70 109 201 214 238 252 252 214 70 214 252 46 238 206 201 201 238 109 226 214 197 46 197 238 252 206 46 252
split_gain=1.89987e+09 4.25577e+08 4.65218e+08 3.48561e+08 3.21165e+08 1.89931e+08 1.61292e+08 1.86875e+08 1.61052e+08 2.00559e+08 1.54872e+08 1.55244e+08 1.52391e+08 1.26486e+08 1.22359e+08 1.1898e+08 1.27114e+08 1.13186e+08 1.42036e+08 1.11976e+08 1.10627e+08 1.06533e+08 9.4975e+07 9.4722e+07 1.29396e+08 9.12881e+07 9.05314e+07 8.67654e+07 8.59398e+07 7.98038e+07 7.51817e+07 9.59093e+07 8.82286e+07 7.75251e+07 7.09736e+07 6.99971e+07 6.97563e+07 6.77815e+07 6.67127e+07 6.63773e+07 6.60587e+07 6.37566e+07 6.21858e+07 6.12386e+07 6.03071e+07 6.01583e+07 5.82953e+07 7.60797e+07 5.79492e+07 5.717e+07 5.46236e+07 5.4072e+07 5.34905e+07 5.2805e+07 6.32041e+07 7.15426e+07
threshold=-2.1131076388888888 1307.4550000000002 1.2870833333333318 669.9000000000002 3.7199131944444446 184.28500000000003 -2.4358333333333335 -27.844444444444431 54.760000000000012 0.59097222222222812 369.86000000000007 53.244487179487187 0.23246527777777806 -3.3181423611111103 2.1290277777777722 -128.10243055555554 1.5435416666666668 -3.1616666666666657 273.14500000000004 -79.154140504436725 2.870243055555556 1.0000000180025095e-35 434.25725694444446 8.9681597222222234 1519.5150000000001 7.7650000000000015 -1.372836272475795 1415.0550000000001 30.455000000000002 6.0799999999999974 -13.659166666666676 -259.52387152777771 1512.0050000000003 1438.4650000000004 184.28500000000003 159.59548611111111 59.025000000000013 -181.47052083333327 1129.0600000000002 0.39510416666666753 1055.0816666666667 -3.5509722222221991 19.458749999999998 -10.475902777777803 669.79500000000007 4.0899999999999981 5.6059260321012374 -131.47293402777777 319.57500000000005 0.82979166666666637 -141.33499999999998 374.94500000000005 1509.0450000000003 1.0000000180025095e-35 2.754375 1495.9450000000004
decision_type=2 2 2 2 2 2 2 2 2 2 2 2 2 2 2 2 2 2 2 2 2 2 2 2 2 2 2 2 2 2 2 2 2 2 2 2 2 2 2 2 2 2 2 2 2 2 2 2 2 2 2 2 2 2 2 2
left_child=13 3 23 5 21 39 12 14 -6 28 11 -7 -5 17 15 38 27 -1 -19 53 22 -4 41 30 -25 -23 -13 -17 35 46 -3 32 -32 37 -15 48 -24 -33 -8 -2 -14 -9 -34 -28 51 49 -12 50 -10 -40 -48 -29 -22 -18 -55 -56
right_child=1 2 4 6 8 10 7 20 9 -11 29 26 40 34 -16 16 19 18 -20 -21 52 25 36 24 -26 -27 43 44 -30 -31 31 33 42 -35 -36 -37 -38 -39 45 -41 -42 -43 -44 -45 -46 -47 47 -49 -50 -51 -52 -53 -54 54 55 -57
leaf_value=-0.37389431044245736 -0.49774529521451255 -0.028393772392722692 0.092528532662887769 0.026880732596735912 0.20296246874863935 1.0821115550197007 -0.059095873923440026 0.23290131671316944 0.80201440890742814 0.042166213369559995 0.020702716832105571 -0.057645018924179905 -0.20041537949416269 -0.42729191619254447 -0.11398083149618078 0.061900991639584527 0.39860398249614365 -0.33818994441271494 -0.13946340869412804 0.21948489003560601 -0.035475701976876058 0.48877846836233346 0.059469869280808149 -0.18374242894506607 0.56462963795549992 -0.011109784856103241 0.094927095394968339 0.24971702171765608 -0.10213790244147891 -0.10732690993466053 0.12601371664927624 1.0974128303429769 0.88947071265439781 0.053984288600185823 -0.10854220052912895 -0.018779910523631226 0.81860205640208961 0.23656846474299043 0.21723619403253927 0.45250883663401886 -0.007847192269409423 -0.013766426766421406 -0.031775975150745005 0.56746858695394597 0.097342159802202205 0.38478058005307464 -0.22656616900900137 0.1693964669711514 1.1701487006554236 -0.033895232119336996 0.49512769194860146 0.80814299268859302 -0.25558244345128678 0.46013027563790904 1.2898429812680052 0.13297723230582018
leaf_weight=22156 2175 22562 12793 29753 3140 1267 13306 4375 5922 1502 8094 1860 33620 2960 8808 17024 2426 21949 41752 6892 7558 6737 957 1268 3408 1866 1464 1266 378 4482 2147 389 1558 42807 49884 339 980 6152 6421 340 9042 99884 361 4376 1947 3031 460 28974 2405 8330 4765 1534 10625 1165 1204 260
leaf_count=22156 2175 22562 12793 29753 3140 1267 13306 4375 5922 1502 8094 1860 33620 2960 8808 17024 2426 21949 41752 6892 7558 6737 957 1268 3408 1866 1464 1266 378 4482 2147 389 1558 42807 49884 339 980 6152 6421 340 9042 99884 361 4376 1947 3031 460 28974 2405 8330 4765 1534 10625 1165 1204 260
internal_value=0 0.064744 0.169043 0.0280169 0.361305 0.16834 -0.00221444 0.0273259 0.60057 0.718955 0.192597 0.43337 -0.0829819 -0.203381 0.107194 0.137255 0.21954 -0.250764 -0.207937 0.38531 -0.0199443 0.208258 0.0047369 0.0854126 0.361692 0.380352 0.326623 0.128573 0.831354 0.146439 0.0684088 0.109298 0.404544 0.0849714 -0.126397 0.872071 0.443543 0.287764 0.0480078 -0.369282 -0.159602 -0.00341556 0.716167 0.44901 0.367676 0.128152 0.173332 0.209455 0.908339 0.0754204 0.431591 0.555655 -0.164092 0.611397 0.807758 1.08439
internal_weight=0 444399 115734 328665 35082 58257 270408 197993 13686 10546 55742 8967 72415 138701 73614 64806 33718 85857 63701 11947 124379 21396 106196 80652 4676 8603 7700 21771 9044 46775 75976 53414 4066 49348 52844 8666 1937 6541 31088 2515 42662 104259 1919 5840 4747 17782 42293 34199 8327 14751 5225 2800 18183 5055 2629 1464
internal_count=583100 444399 115734 328665 35082 58257 270408 197993 13686 10546 55742 8967 72415 138701 73614 64806 33718 85857 63701 11947 124379 21396 106196 80652 4676 8603 7700 21771 9044 46775 75976 53414 4066 49348 52844 8666 1937 6541 31088 2515 42662 104259 1919 5840 4747 17782 42293 34199 8327 14751 5225 2800 18183 5055 2629 1464
is_linear=0
shrinkage=0.002


Tree=7
num_leaves=57
num_cat=0
split_feature=21 172 172 37 83 172 37 21 253 37 6 99 247 99 253 83 99 247 172 253 49 247 6 99 247 247 83 247 253 21 124 247 83 99 172 99 172 117 99 6 49 253 247 99 83 253 253 247 37 21 253 99 247 247 99 115
split_gain=1.06049e+09 5.25219e+08 4.027e+08 3.78936e+08 3.0321e+08 1.51261e+08 1.33962e+08 1.19607e+08 1.4284e+08 1.89333e+08 1.15464e+08 1.11711e+08 1.08688e+08 1.50348e+08 2.8322e+08 8.93263e+07 8.53405e+07 8.09507e+07 7.98375e+07 8.50142e+07 7.71687e+07 7.57568e+07 7.32053e+07 1.06108e+08 7.21139e+07 6.80527e+07 8.2304e+07 6.44428e+07 6.36308e+07 6.11536e+07 5.90941e+07 5.66387e+07 5.65419e+07 8.66775e+07 5.50412e+07 5.28186e+07 5.24295e+07 5.04231e+07 5.00782e+07 4.91485e+07 6.65862e+07 5.8439e+07 4.82265e+07 8.52819e+07 4.62458e+07 4.56315e+07 4.0027e+07 3.9613e+07 5.31049e+07 3.95794e+07 3.88397e+07 7.59502e+07 3.99427e+07 3.87996e+07 4.22646e+07 4.31566e+07
threshold=10.035000000000002 2.4487847222222219 0.87836805555555142 2.8622105029445239 19.787812500000005 -4.0699652777777784 3.1117234200053585 11.015000000000002 199.24500000000003 1.7265322598622779 14.755000000000001 8.9950000000000028 353.58581917902922 19.025000000000002 81.330000000000013 22.430902777777778 22.295000000000005 13.624138157714173 -8.1369444444444436 2.7550000000000003 6.9516666666666671 535.47775034102676 0.52038461538461556 14.935 453.97297061749697 59.535284902799624 -0.57038194444444346 174.01058954216941 0.98185185185185186 13.975000000000003 4.9247222222222238 480.37157461620808 2.0289062500000012 27.685000000000006 -5.0420138888888824 30.925000000000004 5.7014236111111094 3.265763888888888 31.185000000000006 0.010019920318725102 3.3105762081784391 5.0550000000000006 342.43680539805433 27.685000000000006 -2.0869791666666662 59.140000000000008 0.73388888888888892 30.083383577920532 0.51838443760099384 1.5050000000000001 291.46268398268404 33.935000000000009 387.48197103652598 118.86554041031833 23.915000000000003 0.15111111111111078
decision_type=2 2 2 2 2 2 2 2 2 2 2 2 2 2 2 2 2 2 2 2 2 2 2 2 2 2 2 2 2 2 2 2 2 2 2 2 2 2 2 2 2 2 2 2 2 2 2 2 2 2 2 2 2 2 2 2
left_child=2 6 5 7 12 18 10 -3 9 16 22 -7 13 14 37 39 -9 -15 19 -1 -14 -5 30 -24 25 38 -27 -16 -18 -30 -2 -22 33 53 -25 -34 -11 49 -20 -13 47 -42 -36 45 -21 -44 -37 48 -41 -4 52 -52 -10 54 -19 -56
right_child=1 3 4 21 -6 11 -8 8 50 36 -12 15 20 17 27 -17 28 32 24 44 31 -23 23 34 -26 26 -28 -29 29 -31 -32 -33 35 -35 42 46 -38 -39 -40 40 41 -43 43 -45 -46 -47 -48 -49 -50 -51 51 -53 -54 -55 55 -57
leaf_value=-0.096191889175600093 0.023678421309825601 0.29994861936222328 -0.47616176871749677 -0.057297885922777118 -0.46134363786651633 -0.29842334099393575 -0.068655620616123417 0.20558297833596986 0.063454934866647536 0.58459706794744537 -0.029441533309801621 -0.090309069478670581 -0.1054315794495419 0.76498041796583949 0.9899245635250159 -0.37301558408794983 0.58123080741046051 0.46939951222616533 -0.1412394726014293 -0.28715422070439367 0.043105489885516643 0.39432244847074471 -0.051297031104870189 0.044962666173789197 0.087764983578544689 -0.31765776502485754 -0.15975164519694934 0.31201378722181039 1.2811367884886893 0.72189893597399979 0.45921254089575814 0.49874661478182164 0.080446849114926333 0.026266362212099749 0.41913178090931297 0.27633075650726213 0.13366805725754891 0.24288035514196296 0.20043614553911132 -0.21457293356012125 0.063456274860954967 -0.06141778039186991 0.50157685795274354 0.018748057337321961 0.43576621128296716 -0.031218645300624594 0.081836863587355424 -0.081163910754136967 0.29148815742766521 -0.15384382868592361 0.82596873578646735 0.23478762019410426 0.73501422003979955 0.11351729731447566 0.082237649105610169 0.87552179117838547
leaf_weight=20448 12427 7148 1666 7084 4877 7335 17048 513 2154 3973 13064 56387 27733 713 912 3300 926 3150 5667 433 6486 1880 4097 3010 3481 25020 27956 1457 3515 1006 1385 1312 21970 67904 11648 14893 1393 1189 2461 1220 46431 22138 3823 4243 1939 773 5913 56684 2591 17868 1562 1960 424 13006 3204 300
leaf_count=20448 12427 7148 1666 7084 4877 7335 17048 513 2154 3973 13064 56387 27733 713 912 3300 926 3150 5667 433 6486 1880 4097 3010 3481 25020 27956 1457 3515 1006 1385 1312 21970 67904 11648 14893 1393 1189 2461 1220 46431 22138 3823 4243 1939 773 5913 56684 2591 17868 1562 1960 424 13006 3204 300
internal_value=0 0.182906 -0.0390205 0.38941 0.0310505 -0.0871084 0.0860673 0.517808 0.607173 0.740059 0.134492 -0.0562646 0.043711 0.0666965 -0.0821049 -0.0468541 0.985421 0.0929158 -0.156304 -0.0546152 -0.0560073 0.0374195 0.186215 0.245712 -0.192234 -0.208185 -0.234329 0.572991 1.05887 1.1567 0.0673517 0.119766 0.0892394 0.0601246 0.297499 0.148838 0.467537 -0.156994 -0.0377868 -0.0410503 -0.0195295 0.0231398 0.334602 0.223209 0.3038 0.411966 0.221056 -0.0678937 0.129485 -0.181333 0.360439 0.496975 0.173905 0.177068 0.301286 0.150156
internal_weight=0 105056 478044 33538 194553 283491 71518 24574 17426 11326 54470 196086 189676 154145 23092 188751 5960 131053 87405 22820 35531 8964 41406 27594 64585 61104 52976 2369 5447 4521 13812 7798 130340 87564 23497 42776 5366 20723 8128 185451 129064 68569 20487 8839 2372 4596 20806 60495 3811 19534 6100 3522 2578 19660 6654 3504
internal_count=583100 105056 478044 33538 194553 283491 71518 24574 17426 11326 54470 196086 189676 154145 23092 188751 5960 131053 87405 22820 35531 8964 41406 27594 64585 61104 52976 2369 5447 4521 13812 7798 130340 87564 23497 42776 5366 20723 8128 185451 129064 68569 20487 8839 2372 4596 20806 60495 3811 19534 6100 3522 2578 19660 6654 3504
is_linear=0
shrinkage=0.002


Tree=8
num_leaves=57
num_cat=0
split_feature=9 127 255 171 127 48 28 28 169 128 127 127 255 127 255 169 171 128 127 127 128 28 28 150 28 28 28 8 150 171 169 28 128 169 127 128 169 171 232 28 169 150 127 169 150 127 9 128 169 255 127 28 28 150 9 127
split_gain=1.31345e+09 4.46042e+08 2.24847e+08 1.84601e+08 1.57189e+08 1.52596e+08 1.47898e+08 1.33262e+08 9.85667e+07 9.77685e+07 9.04239e+07 1.0295e+08 1.86745e+08 1.11897e+08 9.18104e+07 8.91772e+07 8.66812e+07 7.74367e+07 9.04514e+07 7.44654e+07 6.92682e+07 6.04675e+07 5.74636e+07 5.42768e+07 5.383e+07 6.52757e+07 5.36388e+07 5.17045e+07 4.94137e+07 4.86573e+07 5.40158e+07 1.15674e+08 9.27905e+07 5.88417e+07 5.92692e+07 7.58401e+07 5.65436e+07 5.04071e+07 4.68119e+07 4.27996e+07 4.02249e+07 3.88286e+07 3.84343e+07 4.17331e+07 3.61587e+07 3.50467e+07 3.48929e+07 3.44145e+07 3.44084e+07 3.37548e+07 4.02927e+07 3.30628e+07 3.21233e+07 3.18526e+07 3.16841e+07 4.84069e+07
threshold=39.995000000000012 8.9650000000000016 -1.3022902777777572 0.0085416666666766634 -1.0000000180025095e-35 9.271493506493508 15.405000000000003 10.050809128630707 15.325000000000001 4.178627973394426 13.165000000000001 28.725000000000005 3.3252546296296264 24.295000000000005 7.1786458333333352 32.905000000000008 -0.043353792070082157 2.5523610288439085 29.375000000000004 7.6050000000000013 2.6180549274853915 8.3120954356846486 2.3650000000000007 0.30250000000000382 11.015000000000002 17.685000000000006 13.575000000000001 1.0225541125541129 0.067500000000004348 -0.058888888888889206 24.475000000000005 9.5712770562770579 3.2576139578732173 25.765000000000004 19.405000000000005 3.6938695929016911 24.595000000000002 -0.015763888888889795 390.38000000000005 13.905000000000003 26.635000000000002 0.15250000000000699 27.505000000000006 28.595000000000002 0.0099999999999989004 22.405000000000005 -0.29999999999999988 4.3623104544451747 25.405000000000005 9.1612847222222076 18.485000000000003 2.2050000000000005 14.525 0.081666666666668788 -105.29499999999999 12.515000000000002
decision_type=2 2 2 2 2 2 2 2 2 2 2 2 2 2 2 2 2 2 2 2 2 2 2 2 2 2 2 2 2 2 2 2 2 2 2 2 2 2 2 2 2 2 2 2 2 2 2 2 2 2 2 2 2 2 2 2
left_child=1 4 16 9 -1 8 7 -5 51 24 -9 13 40 14 44 -14 -3 18 -10 -6 -7 53 -21 27 -2 -26 49 28 -15 -19 31 32 37 34 -32 36 -36 -31 -29 -40 -13 -41 43 -22 -12 48 -45 -35 -38 -11 -51 -4 -33 -18 -39 -56
right_child=3 2 5 6 19 20 -8 10 17 26 11 12 15 23 -16 -17 21 29 -20 22 42 -23 -24 -25 25 -27 -28 38 -30 30 33 52 -34 47 35 -37 45 54 39 41 -42 -43 -44 46 -46 -47 -48 -49 -50 50 -52 -53 -54 -55 55 -57
leaf_value=-0.051867288510541752 -0.0066844460895574683 -0.21366285793057524 -0.49076515663608405 0.13799251840770291 -0.3584554156805228 0.0055940850256598409 -0.11136208088366011 0.1239305084472007 -0.12071759332862471 0.2464248398382545 0.50852278089026037 0.050241471109214737 0.44141524617687333 0.82547723464548262 0.81456845965770175 -0.12743626108574072 -0.057826976231957219 -0.21141872443765852 0.030609240315768785 -0.47710974565151087 0.16884291134612048 -0.12199707121913886 -0.12719959817689871 -0.031691184596011515 0.2123479524347287 -0.13495696999127177 0.76466463375168403 0.48278120951186743 0.26439874700407084 -0.16295689659965384 0.044532367692312766 0.17893392163072142 -0.14716956095722361 0.033578640681351649 1.4750746613226997 -0.12476188908759085 0.38847993708662848 0.45377562658629444 1.2199114659061703 0.23953366318727151 0.79510969731431835 1.2251085286017274 0.044054504330317518 0.46517800243355173 0.20080011629143019 0.017050879330238331 0.16938834488667656 0.14040472391529563 0.87433146961058117 1.3650741192390179 -0.1644042605964505 -0.14085771771145239 0.85143088541804135 0.018247183280516839 -0.032330732232544943 0.2292238053703001
leaf_weight=17905 10179 16237 1207 6345 20964 8227 2461 2820 33414 4176 2589 326 1707 1770 2045 3112 64767 3253 29971 2182 8136 42883 13445 304 18193 2457 1241 604 973 3469 4364 7078 23428 125456 225 974 1896 985 2341 390 2626 271 3802 5253 3725 637 2291 13346 842 232 98 10280 296 33353 6585 4964
leaf_count=17905 10179 16237 1207 6345 20964 8227 2461 2820 33414 4176 2589 326 1707 1770 2045 3112 64767 3253 29971 2182 8136 42883 13445 304 18193 2457 1241 604 973 3469 4364 7078 23428 125456 225 974 1896 985 2341 390 2626 271 3802 5253 3725 637 2291 13346 842 232 98 10280 296 33353 6585 4964
internal_value=0 -0.0343781 -0.0140094 0.255918 -0.20542 0.0180657 0.361072 0.397464 0.00369563 0.156994 0.461767 0.503584 0.316723 0.600313 0.446266 0.074064 -0.0752832 0.0116702 -0.0491641 -0.280558 0.159474 -0.0593483 -0.176058 0.793861 0.112349 0.171025 0.396486 0.833389 0.626451 0.0311648 0.035221 -0.0239874 -0.066984 0.0539786 0.211269 0.37035 0.504305 0.0504056 0.990803 1.09302 0.712851 0.643604 0.224456 0.268199 0.326979 0.439587 0.375351 0.0438501 0.537891 0.295086 0.910865 -0.177624 0.205929 -0.0319678 0.109457 0.0800908
internal_weight=0 512115 457619 70985 54496 300379 34409 31948 272670 36576 25603 22783 7771 15012 8359 4819 157240 261183 63385 36591 27709 141003 15627 6653 30829 20650 5747 6349 2743 197798 194545 46805 39431 147740 8938 4574 3600 16003 3606 3002 2952 661 19482 15680 6314 3375 7544 138802 2738 4506 330 11487 7374 98120 12534 11549
internal_count=583100 512115 457619 70985 54496 300379 34409 31948 272670 36576 25603 22783 7771 15012 8359 4819 157240 261183 63385 36591 27709 141003 15627 6653 30829 20650 5747 6349 2743 197798 194545 46805 39431 147740 8938 4574 3600 16003 3606 3002 2952 661 19482 15680 6314 3375 7544 138802 2738 4506 330 11487 7374 98120 12534 11549
is_linear=0
shrinkage=0.002


Tree=9
num_leaves=57
num_cat=13
split_feature=15 148 29 263 148 215 215 114 134 29 215 134 101 263 134 215 215 15 215 173 215 263 243 134 29 114 263 263 215 29 114 263 263 159 29 134 263 29 134 29 15 243 114 263 263 15 215 15 263 134 29 15 263 29 263 15
split_gain=1.07126e+09 3.05693e+08 1.62873e+08 2.10384e+08 2.00399e+08 1.5165e+08 1.10804e+08 1.12947e+08 9.85073e+07 9.37867e+07 9.03441e+07 8.62317e+07 8.45525e+07 8.22889e+07 7.83812e+07 7.68083e+07 6.31084e+07 5.86249e+07 5.63721e+07 7.58445e+07 5.83477e+07 5.61097e+07 7.46506e+07 5.8484e+07 4.67298e+07 5.19519e+07 5.83922e+07 4.61857e+07 4.56143e+07 4.00495e+07 3.88509e+07 5.11629e+07 3.90843e+07 3.88027e+07 3.86476e+07 3.85355e+07 3.84434e+07 3.76833e+07 3.64684e+07 4.75299e+07 5.637e+07 3.56855e+07 3.43462e+07 3.34632e+07 3.34241e+07 3.21488e+07 3.19374e+07 3.47661e+07 5.40026e+07 5.58027e+07 4.92653e+07 3.14565e+07 5.50685e+07 3.59335e+07 3.89098e+07 3.07431e+07
threshold=8.1632034632034642 25.655000000000005 5.8412350597609572 0 28.715000000000003 25.775138888888893 -25.399374999999996 0.58686725467812717 9.3650000000000002 2.1750000000000003 -120.33656249999994 31.665000000000003 1.0000000180025095e-35 1 36.042709163346622 55.16020833333333 -32.605312500000025 11.090121457489881 38.897777777777797 -3.9852083333333321 15.598020833333335 2 118.53987749287752 22.205000000000002 0.75500000000000012 2.1566071052277489 3 4 23.022812500000004 2.2050000000000005 1.1004854628466745 5 6 0.81583333333333219 8.7102892561983492 33.745000000000012 7 1.3150000000000002 21.305000000000003 9.2008333333333336 9.2050000000000018 517.93777777777791 2.4525029893284644 8 9 3.3050000000000002 12.822430555555572 3.6950000000000007 10 12.505000000000001 1.2050000000000003 5.2822457627118657 11 3.851274900398407 12 2.8050000000000002
decision_type=2 2 2 1 2 2 2 2 2 2 2 2 2 1 2 2 2 2 2 2 2 1 2 2 2 2 1 1 2 2 2 1 1 2 2 2 1 2 2 2 2 2 2 1 1 2 2 2 1 2 2 2 1 2 1 2
left_child=1 8 3 27 5 16 -6 12 -1 14 -11 28 -8 18 30 24 -4 -7 19 35 44 22 45 -23 -10 46 -27 -2 38 -28 31 -3 37 -22 -30 -13 -17 -32 -9 40 -40 -29 -16 -42 -21 -12 47 -26 49 -49 -51 -25 -53 54 -54 -34
right_child=2 9 4 -5 6 17 7 11 15 10 21 13 -14 -15 42 36 -18 -19 -20 20 33 23 -24 51 25 26 29 41 34 -31 32 -33 55 -35 -36 -37 -38 -39 39 -41 43 -43 -44 -45 -46 -47 -48 48 -50 50 -52 52 53 -55 -56 -57
leaf_value=-0.29904849696205621 0.57122766411706927 -0.32690287344026059 0.45133543565914291 -0.098777057374718022 0.041210756038031468 0.2853722115760427 0.33191500751270969 0.020303103107930452 -0.20512630574576937 -0.16382488056429856 0.3149316054404358 0.62192688254306194 -0.08226446900382875 0.39014857990140017 0.014535929179280149 0.086560769023482045 -0.044041085319098422 1.0327702240721426 -0.027824899971140602 0.66049646951823404 0.45312603664649165 -0.035128135678387067 -0.15576287760225599 0.057245063185907809 -0.14714854265907681 0.28211145132278248 -0.2161213730309075 0.20002908359065133 0.34108616668252389 0.13156224218103293 0.09915870581114089 -0.074670939516519805 -0.072745089184833259 1.2138080616331939 0.75617519685444079 1.354531417950481 -0.091670258230365564 -0.065031784801377363 0.20741926708797717 0.19595211878986424 0.34752344346193925 0.99806952104193669 0.1479382230154061 0.68640461491248927 0.17224243976419623 0.027042572350827444 -0.20175325661420548 0.31617918078949153 -0.13457651773413792 0.48136514284607446 -0.065862951995017641 -0.013016858849158654 0.41209463101301286 0.13110349762916565 0.14628443194856311 0.00081882711121747896
leaf_weight=11178 1708 3386 1127 12846 4294 892 5270 1564 22732 8340 1759 380 3150 4725 49805 11391 11790 793 346 1382 380 16554 11074 41948 24401 2805 3208 10542 1700 2258 16440 61810 61280 912 1900 1176 8403 8473 2714 5262 1930 229 9136 3281 980 13158 14779 2635 11297 721 7538 7920 4495 22400 4387 36116
leaf_count=11178 1708 3386 1127 12846 4294 892 5270 1564 22732 8340 1759 380 3150 4725 49805 11391 11790 793 346 1382 380 16554 11074 41948 24401 2805 3208 10542 1700 2258 16440 61810 61280 912 1900 1176 8403 8473 2714 5262 1930 229 9136 3281 980 13158 14779 2635 11297 721 7538 7920 4495 22400 4387 36116
internal_value=0 -0.0335388 0.213974 0.0808986 0.274212 0.0727948 0.345345 0.380592 -0.120007 -0.00535909 0.0376534 0.440473 0.176967 0.587112 -0.0284033 -0.102165 -0.0008198 0.637115 0.752559 0.80583 0.648361 0.0512379 -0.0313498 0.0732034 -0.126391 -0.100691 0.0481071 0.265725 0.35832 -0.0723612 -0.0484009 -0.0878324 -0.0273822 0.990078 0.560161 1.17562 0.0108951 0.0432996 0.30906 0.343307 0.441147 0.216795 0.0352136 0.562877 0.461444 0.0609902 -0.120745 -0.0950487 -0.0377601 0.0627037 -0.0180906 0.0953113 0.136044 0.173732 0.281434 -0.0454617
internal_weight=0 501827 81273 25325 55948 14602 41346 37052 123346 378481 132035 28632 8420 10281 246446 112168 12917 1685 5556 5210 3654 123695 25991 97704 92374 69642 8271 12479 18351 5466 187505 65196 122309 1292 3600 1556 19794 24913 14751 13187 7925 10771 58941 5211 2362 14917 61371 46592 22191 10894 8259 81150 39202 31282 8882 97396
internal_count=583100 501827 81273 25325 55948 14602 41346 37052 123346 378481 132035 28632 8420 10281 246446 112168 12917 1685 5556 5210 3654 123695 25991 97704 92374 69642 8271 12479 18351 5466 187505 65196 122309 1292 3600 1556 19794 24913 14751 13187 7925 10771 58941 5211 2362 14917 61371 46592 22191 10894 8259 81150 39202 31282 8882 97396
cat_boundaries=0 1 2 3 4 5 6 7 8 9 10 11 12 13
cat_threshold=4095 13615111 507904 15728702 896 126976 4194424 8188 14647303 245760 2046 536592 1991
is_linear=0
shrinkage=0.002


Tree=10
num_leaves=57
num_cat=0
split_feature=230 162 43 109 196 109 43 106 196 162 58 58 43 43 162 196 109 196 254 43 106 162 162 254 254 109 254 109 254 162 109 230 109 239 109 254 43 254 43 254 109 162 239 43 4 239 254 239 239 106 106 109 106 254 239 196
split_gain=9.21421e+08 3.47061e+08 2.93777e+08 3.3061e+08 3.05402e+08 2.52903e+08 1.56659e+08 1.37741e+08 1.27504e+08 1.07865e+08 1.09377e+08 1.065e+08 1.02716e+08 1.00743e+08 8.72006e+07 8.23316e+07 1.21092e+08 8.08368e+07 7.99501e+07 1.00297e+08 7.41621e+07 1.26139e+08 7.39458e+07 6.96706e+07 1.21019e+08 1.35485e+08 6.79004e+07 1.3804e+08 1.0987e+08 7.3738e+07 7.68658e+07 6.42735e+07 8.3944e+07 6.31832e+07 6.76329e+07 6.14612e+07 9.18409e+07 7.54412e+07 6.08076e+07 5.70978e+07 7.46773e+07 5.48289e+07 5.31212e+07 5.28279e+07 5.20826e+07 6.6615e+07 5.11887e+07 5.096e+07 5.04188e+07 4.87827e+07 4.81231e+07 4.7983e+07 5.00547e+07 4.74867e+07 4.59299e+07 4.48227e+07
threshold=986.56666666666672 18.975000000000005 1.7350000000000001 1.2133333333333367 44.95000000000001 -1.9447619047618969 0.7811111111111112 19.125000000000004 409.54500000000007 27.505000000000006 0.056205849144658392 0.056205849144658392 2.8050000000000002 2.5250000000000004 23.985000000000003 42.735000000000007 -3.4224999999999981 -95.739999999999981 39.866617900528986 0.29500000000000004 16.855000000000004 28.055000000000003 27.855000000000004 47.935870073717119 216.84925023141525 3.7433333333333336 521.07728724590731 2.3208333333333324 405.10564214716356 25.105000000000004 -1.0000000180025095e-35 498.58750000000003 -7.3825000000000003 242.45500000000001 3.8558333333333361 360.35512078449381 1.5650000000000002 241.42455905683738 1.9850000000000001 467.83449824549029 -6.4549999999999956 19.965000000000003 86.095000000000013 2.1650000000000005 24.875000000000004 113.21000000000002 389.49026367189714 746.47803030303044 746.47803030303044 22.105000000000004 30.465000000000003 -3.9879166666666648 13.605000000000002 196.6284536199806 613.03056277056282 131.02500000000003
decision_type=2 2 2 2 2 2 2 2 2 2 2 2 2 2 2 2 2 2 2 2 2 2 2 2 2 2 2 2 2 2 2 2 2 2 2 2 2 2 2 2 2 2 2 2 2 2 2 2 2 2 2 2 2 2 2 2
left_child=1 15 22 14 -5 6 31 -8 9 -6 -11 12 -7 35 -4 16 -1 -13 50 20 -20 -22 41 -17 25 -25 28 -28 29 30 -21 39 -33 -30 -35 37 -37 -9 -18 40 -3 -2 -12 49 45 -26 54 -16 55 -29 -19 -47 -53 -40 -24 -31
right_child=2 5 3 4 8 11 7 13 -10 10 42 17 -14 -15 47 23 38 18 19 26 21 -23 46 24 44 -27 27 43 33 48 -32 32 -34 34 -36 36 -38 -39 53 -41 -42 -43 -44 -45 -46 51 -48 -49 -50 -51 -52 52 -54 -55 -56 -57
leaf_value=-0.33949269692846218 0.029251415262403147 -0.34155378257072622 -0.087543770303709828 0.048770575978516958 -0.088971405974940257 0.65889584845280746 -0.18397407576982941 -0.01931155400610033 -0.29916938833588536 -0.24582801106700136 1.4773032821320053 -0.18872458024968505 -0.11161465009053548 -0.15034132016243582 0.15327240008284054 -0.41391916177992216 0.055271222081089942 -0.42660421321061298 -0.10428408074201191 0.094828871117052946 0.36052709665631222 0.080369016679212812 0.13658194283281258 -0.016025016260663386 -0.35291684747530261 -0.44121976663022183 -0.072310930823437591 0.68567610317430139 -0.12515527894861833 -0.016425518430856424 -0.105378683560371 -0.28660569692946342 0.11206958745046877 -0.0093896169999865085 0.51736855207170751 -0.059686679540714618 0.35487859647651265 0.24928474777781348 1.2228375646283962 -0.024860504847275117 -0.15877236167923117 0.3373468044452973 0.88762713769065205 1.3578210285401446 -0.085369505937015158 -0.37552638100216734 -0.023332110290359573 0.3693297484047301 0.68098954694024449 0.23257908355488496 0.076361198822439538 0.21998572333855532 -0.20159555307917904 0.3276081562223418 0.74472597822010955 0.057975241169694082
leaf_weight=2866 3533 12048 3494 2923 475 2008 13861 6056 412 326 665 7343 1056 8634 8961 4812 6008 2494 4828 10393 9078 22025 4662 24475 18214 3416 4303 1393 32635 42314 29284 2998 7153 4777 1225 14437 2509 13523 298 8189 34670 6677 7537 231 6166 1997 18190 8517 493 2992 1095 2127 2395 1158 556 138094
leaf_count=2866 3533 12048 3494 2923 475 2008 13861 6056 412 326 665 7343 1056 8634 8961 4812 6008 2494 4828 10393 9078 22025 4662 24475 18214 3416 4303 1393 32635 42314 29284 2998 7153 4777 1225 14437 2509 13523 298 8189 34670 6677 7537 231 6166 1997 18190 8517 493 2992 1095 2127 2395 1158 556 138094
internal_value=0 -0.0288154 0.220606 0.353723 0.613499 -0.00760668 -0.0841903 -0.00957796 0.788826 0.838615 0.890281 0.0222692 0.393341 0.0439508 0.200895 -0.155651 0.00995734 0.0186597 0.0236095 0.0271123 0.12634 0.162138 0.0887088 -0.182549 -0.163611 -0.0681015 0.0138154 0.185394 0.0079118 0.0251447 -0.0529363 -0.151878 -0.00567531 -0.0904708 0.098121 0.0898787 0.00169325 0.166205 0.144138 -0.178907 -0.205909 0.230736 0.935437 0.425624 -0.249822 -0.290821 0.0267601 0.258557 0.0422703 0.376516 -0.27315 -0.117324 -0.00329759 0.510835 0.201382 0.0405248
internal_weight=0 516071 66928 33310 12338 442139 124078 59020 9415 9003 8528 318061 3064 45159 20972 73932 10330 314997 307654 304065 35931 31103 33618 63602 58790 27891 268134 8919 259215 220578 39677 65058 10151 38637 6002 36525 16946 19579 7464 54907 46718 10210 8202 4616 30899 24733 23408 17478 180901 4385 3589 6519 4522 1456 5218 180408
internal_count=582999 516071 66928 33310 12338 442139 124078 59020 9415 9003 8528 318061 3064 45159 20972 73932 10330 314997 307654 304065 35931 31103 33618 63602 58790 27891 268134 8919 259215 220578 39677 65058 10151 38637 6002 36525 16946 19579 7464 54907 46718 10210 8202 4616 30899 24733 23408 17478 180901 4385 3589 6519 4522 1456 5218 180408
is_linear=0
shrinkage=0.002


Tree=11
num_leaves=57
num_cat=0
split_feature=25 223 43 172 169 169 172 16 172 81 172 207 25 25 169 43 169 43 169 169 81 207 207 81 172 169 43 207 207 207 43 172 207 25 172 169 43 172 43 207 43 172 43 16 43 81 25 207 207 207 207 43 172 25 81 81
split_gain=1.19165e+09 4.0904e+08 3.39649e+08 2.91883e+08 2.60684e+08 2.10941e+08 1.98272e+08 1.74182e+08 1.74415e+08 2.50581e+08 1.57151e+08 1.54569e+08 1.46635e+08 1.16926e+08 1.11001e+08 9.52213e+07 9.09321e+07 8.94042e+07 8.91675e+07 1.00139e+08 1.00174e+08 8.28485e+07 8.08852e+07 7.9867e+07 7.84226e+07 7.74114e+07 1.11765e+08 7.4008e+07 8.28437e+07 7.0578e+07 6.83677e+07 6.33211e+07 6.32866e+07 6.30073e+07 6.02693e+07 1.07631e+08 7.08752e+07 6.29495e+07 5.95499e+07 5.90962e+07 5.52302e+07 5.37154e+07 5.34248e+07 5.10838e+07 5.14143e+07 5.01161e+07 4.96778e+07 7.0318e+07 5.71443e+07 4.94776e+07 4.8378e+07 4.77138e+07 4.66806e+07 4.51714e+07 5.59198e+07 4.49487e+07
threshold=0.39250000000000057 984.79916666666657 1.8250000000000004 1.3186458333333368 18.755000000000006 23.205000000000002 -2.8934722222222251 0.070261416627065573 1.0918055555555546 -13.647152777777777 6.1928125000000049 -2.9575694444444491 11.054583333333335 -7.6504166666666658 33.435000000000009 1.9150000000000003 17.705000000000002 1.0650000000000002 20.515000000000004 28.205000000000002 1.5577777777777781 201.31732638888892 275.75722222222231 -35.706215277777765 15.011684027777781 19.895000000000003 1.2750000000000001 28.305694444444473 191.37593750000002 -117.22895833333331 1.0450000000000002 -0.29805555555555502 -9.5065277777777837 5.4993927125506081 -4.1539930555555591 15.325000000000001 1.2350000000000001 -7.6622048611111131 0.93500000000000016 -11.948784722222191 3.0350000000000006 21.129600694444449 6.9002092050209214 0.070261416627065573 0.58500000000000008 -1.3678472222222215 3.3968750000000001 -32.729513888888839 -171.2534722222222 132.5978472222223 -124.67069444444445 2.3750000000000004 -2.3726736111111069 -4.0245833333333314 30.443263888888893 1.9431944444444447
decision_type=2 2 2 2 2 2 2 2 2 2 2 2 2 2 2 2 2 2 2 2 2 2 2 2 2 2 2 2 2 2 2 2 2 2 2 2 2 2 2 2 2 2 2 2 2 2 2 2 2 2 2 2 2 2 2 2
left_child=3 6 14 13 17 29 51 -7 49 -10 12 15 27 21 39 18 32 -5 30 20 41 31 34 -13 42 26 55 46 -29 -4 -8 -1 -17 -27 37 -36 53 -15 -23 -3 45 -20 -12 -21 -45 -18 48 -48 -11 50 -9 -2 -38 -37 -55 -25
right_child=1 2 5 4 -6 7 11 8 9 10 24 23 -14 22 -16 16 40 -19 19 43 -22 38 -24 25 -26 33 -28 28 -30 -31 -32 -33 -34 -35 35 36 52 -39 -40 -41 -42 -43 -44 44 -46 -47 47 -49 -50 -51 -52 -53 -54 54 -56 -57
leaf_value=-0.35066290904953901 -0.045050465468643629 0.29344730735886498 0.51883939526384049 -0.34442682550623571 0.040136893932786119 -0.24883157898899846 0.046431367499569588 0.54957841653534867 -0.14185465193724564 1.6046170392225017 -0.16447529132549579 0.40407981083605793 -0.098160533628253152 -0.071344890642883421 -0.04862026572272906 0.99015577987506187 0.14584248795296981 0.24981688806073479 0.38924563032104359 0.7450809311230977 0.051738372555276475 -0.096077397318028696 0.039761170880750034 0.1293518319633272 0.9809236248585973 0.016039474479155678 -0.37423746261564256 1.2775306084159699 0.16263309334905862 -0.1017890553841795 -0.28769539754727058 0.0051821609651879373 -0.51768894830322265 0.19627047142258014 -0.28456504080235645 -0.1243732826694635 -0.0018711268225381542 -0.22505430141771612 0.60857643532367212 0.088606575525436687 0.15216453587749446 1.3741489472578277 0.70256270256354314 0.19324779968115632 0.036605824764688967 0.54301244072939558 0.60489772991427759 1.0755756122009892 0.41493063290155374 0.795735749790624 0.15643140561780638 -0.24167111932389782 -0.20555270109944532 -0.014586176947375719 -0.38864022194466941 -0.16484576789515434
leaf_weight=17000 32041 11052 905 9987 91853 1252 10403 1584 1436 177 1261 2141 634 15290 12071 1019 1976 1127 9140 480 4563 2144 13665 5085 442 56101 4706 2604 297 3855 3204 2267 125 9004 11185 24769 5590 35175 618 11491 9971 227 367 12534 25300 3561 2113 3181 1844 697 5973 5836 23100 63424 1640 3512
leaf_count=17000 32041 11052 905 9987 91853 1252 10403 1584 1436 177 1261 2141 634 15290 12071 1019 1976 1127 9140 480 4563 2144 13665 5085 442 56101 4706 2604 297 3855 3204 2267 125 9004 11185 24769 5590 35175 618 11491 9971 227 367 12534 25300 3561 2113 3181 1844 697 5973 5836 23100 63424 1640 3512
internal_value=0 0.0991562 0.239442 -0.0824863 0.0051322 0.400633 0.0550056 0.477318 0.517527 0.650722 0.738813 0.0852862 0.835158 -0.12428 0.106155 0.146131 0.281248 -0.284168 0.111963 0.149522 0.294739 -0.262355 -0.108588 0.0229654 0.233819 0.0125587 -0.126464 0.893079 1.16339 0.0162086 -0.0322445 -0.308793 0.8254 0.0409654 -0.119839 -0.0970231 -0.0793248 -0.178483 0.0615895 0.189032 0.241107 0.413114 0.0309811 0.0967253 0.0884996 0.401274 0.785879 0.887713 0.519124 0.285864 0.238838 -0.0753453 -0.165867 -0.0516857 -0.0240146 0.00916782
internal_weight=0 264165 63236 318834 102967 28622 200929 23862 22610 14356 12920 163052 10850 215867 34614 82503 16652 11114 65851 52244 13930 22029 193838 80549 2070 78408 13303 10216 2901 4760 13607 19267 1144 65105 180173 129708 118523 50465 2762 22543 15508 9367 1628 38314 37834 5537 7315 5294 2021 8254 7557 37877 28690 89833 65064 8597
internal_count=582999 264165 63236 318834 102967 28622 200929 23862 22610 14356 12920 163052 10850 215867 34614 82503 16652 11114 65851 52244 13930 22029 193838 80549 2070 78408 13303 10216 2901 4760 13607 19267 1144 65105 180173 129708 118523 50465 2762 22543 15508 9367 1628 38314 37834 5537 7315 5294 2021 8254 7557 37877 28690 89833 65064 8597
is_linear=0
shrinkage=0.002


Tree=12
num_leaves=57
num_cat=3
split_feature=256 14 120 44 256 120 44 120 44 256 256 44 256 134 44 120 135 120 120 204 256 256 44 120 256 135 256 120 120 44 8 263 256 164 120 44 256 14 135 44 263 120 120 120 263 204 120 204 14 8 142 164 44 120 256 135
split_gain=1.89121e+09 7.28488e+08 4.83973e+08 3.63642e+08 2.60301e+08 2.59239e+08 1.97967e+08 1.97151e+08 1.61826e+08 1.68694e+08 1.37056e+08 1.65836e+08 1.30082e+08 1.25071e+08 1.23742e+08 1.16781e+08 1.15574e+08 1.08913e+08 1.82917e+08 1.13984e+08 1.08364e+08 8.88142e+07 8.61102e+07 8.59038e+07 8.36463e+07 8.33352e+07 8.30173e+07 7.60498e+07 7.23874e+07 7.18829e+07 1.0925e+08 9.39592e+07 7.64682e+07 6.84571e+07 6.44448e+07 6.42514e+07 5.83996e+07 5.54591e+07 6.28497e+07 5.52891e+07 7.48043e+07 5.51294e+07 5.47863e+07 5.35063e+07 5.31165e+07 5.06965e+07 4.80989e+07 7.69927e+07 4.77922e+07 6.48764e+07 4.52025e+07 4.67801e+07 4.4314e+07 1.34004e+08 1.03758e+08 1.02016e+08
threshold=-368.78716956018513 9.9023376623376631 9.3050000000000015 1.797462037560652 491.49610643262997 22.195000000000004 0.86817653403536899 32.37406926406927 2.8181860384872821 -130.51468721064813 6.0836203177609613 1.4207796585654608 437.81266577606431 18.405000000000005 1.8920575761813023 -1.0000000180025095e-35 30.015000000000004 13.205000000000002 23.505000000000006 194.81000000000003 108.33968886530309 -59.032321289577503 2.1989505729422261 24.605000000000004 752.76303137183254 13.825000000000001 491.49610643262997 1.0000000180025095e-35 24.605000000000004 2.4809483435269128 8.6250000000000018 0 847.66380381944452 -0.12749999999999415 19.165000000000003 3.9676080014584771 336.7942399183724 3.1950000000000007 24.812500000000004 2.9174668990462744 1 12.505000000000001 21.955000000000002 16.575000000000003 2 68.920000000000016 26.385000000000002 302.55500000000006 12.145000000000001 0.66028925619834722 0.057532599682854867 0.096111111111107497 1.9231506406807808 16.365000000000006 351.31800737639566 13.665000000000001
decision_type=2 2 2 2 2 2 2 2 2 2 2 2 2 2 2 2 2 2 2 2 2 2 2 2 2 2 2 2 2 2 2 1 2 2 2 2 2 2 2 2 1 2 2 2 1 2 2 2 2 2 2 2 2 2 2 2
left_child=16 2 14 4 -3 43 42 28 9 22 11 13 25 -11 21 -16 -1 -5 20 26 -19 27 -8 41 -9 -10 -20 -2 -7 32 31 -31 -22 -12 35 -27 -32 -13 -39 -21 48 -15 -4 -6 -14 -18 47 52 49 -41 -48 -52 55 -54 -55 -35
right_child=1 3 6 17 5 7 8 24 12 10 33 37 44 23 15 -17 45 18 19 39 29 -23 -24 -25 -26 34 -28 -29 -30 30 36 -33 -34 46 -36 -37 -38 38 -40 40 -42 -43 -44 -45 -46 -47 50 -49 -50 -51 51 -53 53 54 -56 -57
leaf_value=-0.32273012842968318 0.14403606953710207 0.0046411401906361512 -0.47248481759025651 -0.056349657143146173 -0.00016400008337266408 0.62993227644544236 0.023376288303567541 0.14840995189150072 -0.33196746934161947 -0.026396013146337927 0.31487211578246604 0.0051348078538248545 0.0084177280979265204 -0.087246528474197185 -0.054825245969357096 -0.40947389052584837 -0.26608718945655652 0.054385356019994439 0.095097735461736305 0.37902102950725342 0.1143379989859223 0.049504746631223215 -0.12883722006848236 0.31180741873973411 0.82798110296888461 0.067822229494657951 -0.15759972547673853 -0.40323727570801932 1.1606465685731076 0.85271341323852545 0.39518603784045919 0.22131870763187206 0.70013108183856498 0.34028870356302265 -0.013924144227844317 0.44090992851720651 0.92127886804549675 0.04261360325002788 0.2072397842364074 -0.05051055373793923 -0.0090167717415067829 0.73635737780188781 -0.066194787471683406 0.41785255188052373 -0.2893621605802329 -0.1221248383741917 0.19009043113124241 -0.042114418959524953 0.18842553103145065 1.2524946422466225 -0.032995297453946797 0.14078800673269001 -0.032302084892289216 0.32830146285393996 -0.045963608849253802 0.0028323779670760734
leaf_weight=52811 1335 3713 3798 8833 2144 1354 59215 1927 2939 2654 3984 13308 3148 353 4993 14498 16506 4242 19773 6913 4444 8899 19850 6578 1161 7313 7056 4246 4270 1166 1192 4898 1115 4293 55963 2470 2891 13802 28288 217 4707 4112 2041 2857 10109 24028 4923 15181 954 517 46988 7137 8911 16700 3602 21679
leaf_count=52811 1335 3713 3798 8833 2144 1354 59215 1927 2939 2654 3984 13308 3148 353 4993 14498 16506 4242 19773 6913 4444 8899 19850 6578 1161 7313 7056 4246 4270 1166 1192 4898 1115 4293 55963 2470 2891 13802 28288 217 4707 4112 2041 2857 10109 24028 4923 15181 954 517 46988 7137 8911 16700 3602 21679
internal_value=0 0.0495544 0.0138606 0.216279 0.474397 0.601591 0.0348724 0.809936 0.0407409 0.0635061 0.0940963 0.166394 -0.0374818 0.363446 -0.214583 -0.318624 -0.261076 0.151014 0.181498 0.103703 0.338027 -0.0745383 -0.0148383 0.457138 0.403909 -0.002473 0.0286386 -0.272327 1.03288 0.414636 0.514783 0.344496 0.231834 0.0566488 0.0122562 0.162019 0.76769 0.117674 0.153256 0.255033 0.121002 0.671244 -0.330468 0.238643 -0.218863 -0.180748 0.0486994 0.08402 0.480764 0.867274 0.0066088 -0.01008 0.118719 0.172157 0.261899 0.0586117
internal_weight=0 489654 403310 86344 17426 13713 369339 8712 363500 281558 202493 69095 81942 13697 33971 19491 93345 68918 60085 40137 19948 14480 79065 11043 3088 68685 26829 5581 5624 15706 10147 6064 5559 133398 65746 9783 4083 55398 42090 13308 6395 4465 5839 5001 13257 40534 129414 70366 1688 734 59048 54125 55185 29213 20302 25972
internal_count=582999 489654 403310 86344 17426 13713 369339 8712 363500 281558 202493 69095 81942 13697 33971 19491 93345 68918 60085 40137 19948 14480 79065 11043 3088 68685 26829 5581 5624 15706 10147 6064 5559 133398 65746 9783 4083 55398 42090 13308 6395 4465 5839 5001 13257 40534 129414 70366 1688 734 59048 54125 55185 29213 20302 25972
cat_boundaries=0 1 2 3
cat_threshold=992 516096 4032
is_linear=0
shrinkage=0.002


Tree=13
num_leaves=57
num_cat=0
split_feature=155 102 191 33 217 102 111 102 115 102 102 217 115 217 111 217 115 33 102 115 139 102 111 102 217 111 3 191 191 3 155 33 155 137 155 33 191 191 98 115 102 111 16 217 115 111 191 217 135 191 102 155 217 102 102 3
split_gain=4.85613e+08 2.7399e+08 1.61881e+08 1.1398e+08 1.13046e+08 8.31101e+07 7.49797e+07 7.35556e+07 7.20316e+07 5.66817e+07 1.01424e+08 5.6259e+07 4.82872e+07 5.4628e+07 5.98865e+07 5.22285e+07 4.60528e+07 4.43139e+07 4.5845e+07 4.35166e+07 4.26058e+07 6.63955e+07 4.86027e+07 6.44271e+07 4.55501e+07 4.01787e+07 3.81036e+07 3.75995e+07 3.86207e+07 3.47003e+07 3.46718e+07 3.23291e+07 3.29432e+07 3.20663e+07 3.16415e+07 4.14347e+07 2.83833e+07 3.09457e+07 2.95306e+07 2.77178e+07 2.70543e+07 2.68552e+07 4.96811e+07 2.63603e+07 2.58587e+07 2.45059e+07 4.60968e+07 3.63802e+07 2.41111e+07 3.33132e+07 2.78962e+07 2.37973e+07 2.92072e+07 2.36067e+07 2.2677e+07 5.11862e+07
threshold=23.795000000000005 -1.6450000000000002 7.1872610104539811 -0.18083333333333348 36.765000000000008 -6.8683333333333367 10.94986111111111 -2.5416666666666647 -0.11444444444443923 1.1349999999999991 5.605833333333333 -133.41499999999996 -0.1558333333333328 183.08500000000004 21.173194444444444 386.13500000000005 -0.17111111111110053 2.6344444444444441 5.8433333333333364 0.21069444444443877 35.029166666666683 0.75999999999999901 29.66083333333334 6.2520779220779241 -17.584999999999997 324.55986111111116 14.705000000000002 19.323544478418224 1.0000000180025095e-35 18.255000000000006 -1.0000000180025095e-35 0.1715972222222221 15.605000000000002 1.0000000180025095e-35 20.722500000000004 -2.5740277777777769 4.9633298863545514 1.0000000180025095e-35 34.195000000000007 -0.26916666666666517 -2.7150000000000021 28.809444444444448 0.71796239455904132 -133.41499999999996 -0.32430555555555246 26.556527777777781 6.1613543251810112 36.765000000000008 24.715000000000003 1.0000000180025095e-35 2.9199999999999995 35.145000000000003 114.50000000000001 -4.9749999999999988 0.68000000000000071 15.745000000000003
decision_type=2 2 2 2 2 2 2 2 2 2 2 2 2 2 2 2 2 2 2 2 2 2 2 2 2 2 2 2 2 2 2 2 2 2 2 2 2 2 2 2 2 2 2 2 2 2 2 2 2 2 2 2 2 2 2 2
left_child=4 5 3 9 7 -2 30 34 44 -3 12 -4 -11 51 -15 36 -8 18 19 -13 24 -22 -23 33 -5 41 -26 28 -10 -30 -6 32 -18 -24 -1 -36 37 -16 -39 -37 -34 42 -20 -31 -7 46 47 53 49 50 -28 52 -14 -45 -33 -56
right_child=1 2 11 20 6 8 16 -9 27 10 -12 17 13 14 15 -17 31 -19 25 -21 21 22 23 -25 26 -27 48 -29 29 43 -32 54 40 -35 35 39 -38 38 -40 -41 -42 -43 -44 45 -46 -47 -48 -49 -50 -51 -52 -53 -54 -55 55 -57
leaf_value=-0.26707047522285371 -0.13474727298140302 0.1025625080910561 -0.16919507012702054 -0.17842418005601415 -0.086243147382920118 0.71790874743852462 0.065635923746488925 0.0796656325725386 -0.14767118801960785 0.037611881970367224 0.024481739950750373 0.041429356137752706 -0.010457541268550698 -0.0068104119852671645 0.33781574616476751 0.029796477919868801 -0.23313170188031859 -0.070792366133854742 -0.12655457997115618 0.17208663035027669 0.0071634268093578634 0.03685490115786532 0.19592838934791493 -0.066969087895901683 -0.1788294216554164 0.75112895388719514 0.42250113883314289 -0.14471950286035506 -0.16225063393093786 -0.25409719882261 -0.30713548156605192 -0.13451034439720305 -0.15706762790486645 0.37681631861143788 0.86302473877523556 1.5072312566583808 0.33087209037714133 0.71099726918581674 0.39892649522603946 -0.097820222918645283 -0.035572527531341235 -0.10466611101719214 0.28915500975418262 0.07183402146233453 0.06391539827828642 -0.019869388529170171 -0.01799361993704884 0.10956514143127906 0.015033788398587633 0.057002942298371884 0.10029543613884717 0.28660593935509282 0.31015939331054687 0.54878186909892523 -0.37227431283584456 -0.11186458265804446
leaf_weight=4333 31860 23566 5939 4240 3630 244 5407 18121 9204 2884 7692 125385 3182 1348 2140 1150 5438 16191 2425 11099 16047 7713 9208 2591 2903 246 2273 13719 5152 1452 13099 27391 9868 6826 214 44 3664 4114 1720 1966 28519 14482 2187 576 27258 25654 9628 6312 19388 9174 2039 6754 1768 1486 5878 6208
leaf_count=4333 31860 23566 5939 4240 3630 244 5407 18121 9204 2884 7692 125385 3182 1348 2140 1150 5438 16191 2425 11099 16047 7713 9208 2591 2903 246 2273 13719 5152 1452 13099 27391 9868 6826 214 44 3664 4114 1720 1966 28519 14482 2187 576 27258 25654 9628 6312 19388 9174 2039 6754 1768 1486 5878 6208
internal_value=0 0.0307587 0.062402 0.112665 -0.107869 -0.0457176 -0.136389 0.0139839 -0.0175457 0.178989 0.228447 0.0221858 0.283067 0.310462 0.394137 0.436402 -0.113228 0.0287934 0.039141 0.0520545 0.0643863 0.108575 0.170362 0.22565 0.0175827 -0.0519912 0.0408119 -0.0503391 -0.0285645 -0.00675278 -0.259204 -0.124838 -0.0874434 0.272936 -0.167535 0.0263898 0.47658 0.543532 0.618991 -0.0626848 -0.0668048 -0.0623383 0.070574 0.0110074 0.0697177 0.0198248 0.0763914 0.184911 0.0602077 0.125151 0.270141 0.2094 0.104058 0.415551 -0.166351 -0.238514
internal_weight=0 452883 320338 142384 130116 132545 105438 24678 100685 59982 36416 177954 28724 25840 14136 12788 88709 172015 155824 136484 82402 42385 26338 18625 40017 19340 35777 73183 59464 50260 16729 83302 43825 16034 6557 2224 11638 7974 5834 2010 38387 19094 4612 45108 27502 43656 18002 8374 32874 13486 4312 11704 4950 2062 39477 12086
internal_count=582999 452883 320338 142384 130116 132545 105438 24678 100685 59982 36416 177954 28724 25840 14136 12788 88709 172015 155824 136484 82402 42385 26338 18625 40017 19340 35777 73183 59464 50260 16729 83302 43825 16034 6557 2224 11638 7974 5834 2010 38387 19094 4612 45108 27502 43656 18002 8374 32874 13486 4312 11704 4950 2062 39477 12086
is_linear=0
shrinkage=0.002


Tree=14
num_leaves=57
num_cat=0
split_feature=22 161 212 86 214 36 212 214 212 214 214 162 22 166 162 86 22 86 214 36 214 161 212 36 214 214 36 86 164 214 214 199 214 214 212 212 164 212 214 212 214 212 214 166 86 166 178 86 36 86 214 214 212 166 86 36
split_gain=1.00404e+09 3.619e+08 2.34863e+08 3.747e+08 2.04513e+08 1.53387e+08 1.18833e+08 2.72225e+08 2.44945e+08 1.63177e+08 1.49794e+08 1.12587e+08 1.01996e+08 1.10213e+08 8.28849e+07 8.18779e+07 7.68673e+07 8.64071e+07 8.36781e+07 7.48311e+07 7.14853e+07 7.08264e+07 9.40443e+07 7.30151e+07 8.67247e+07 1.02716e+08 1.04253e+08 8.44187e+07 7.01153e+07 6.69854e+07 6.66857e+07 6.37025e+07 6.31009e+07 5.99804e+07 5.55503e+07 6.45621e+07 5.36106e+07 5.11598e+07 1.52479e+08 8.95639e+07 7.86442e+07 9.66786e+07 7.09603e+07 6.22158e+07 5.51087e+07 5.38386e+07 5.37726e+07 5.09118e+07 4.93516e+07 4.73673e+07 4.71681e+07 4.64951e+07 6.59921e+07 4.62937e+07 4.54329e+07 4.43505e+07
threshold=7.8814935064935074 33.022500000000015 9.3376883151719632 2.540634774191465 38.886527777777758 2.1550000000000007 15.699025661995911 -27.844444444444431 37.349456870548003 -131.47293402777777 -77.206927083333369 18.635000000000002 5.370909090909092 -1.0307638888888897 29.402500000000003 8.7627882598184801 0.78500000000000014 41.780727444079339 26.205937500000012 4.0950000000000006 182.57715473184226 28.435000000000006 60.613280712549276 3.1350000000000002 1.0000000180025095e-35 99.897916666666688 6.1640041493775941 11.990361184677154 -0.093888888888889341 81.293940972222245 247.15827546296302 0.12249999999995966 -265.78217013888883 -7.2813571202166996 85.140283624776131 138.26205069990979 -0.084722222222220353 47.311963325408662 -22.253333333333327 84.278204127736998 -121.98777777777777 13.582218853585156 88.89942708333335 3.7348958333333324 8.0136281377405858 -4.1636805555555538 35.095000000000006 72.610787023190724 3.8050000000000002 30.237068525924531 -284.12388888888887 9.768836805555539 7.8349499134050093 0.51826388888888897 51.05117819225206 0.46500000000000002
decision_type=2 2 2 2 2 2 2 2 2 2 2 2 2 2 2 2 2 2 2 2 2 2 2 2 2 2 2 2 2 2 2 2 2 2 2 2 2 2 2 2 2 2 2 2 2 2 2 2 2 2 2 2 2 2 2 2
left_child=1 6 51 4 14 -5 7 9 11 -1 15 -8 32 -14 -4 -11 -10 19 -19 34 -6 22 -7 -23 28 26 -26 29 -25 53 -13 -31 -3 -15 36 -36 -18 38 40 45 41 54 -40 -44 -42 -39 -41 55 -27 -35 -30 -2 -53 -28 -34 -20
right_child=2 12 3 5 20 21 8 -9 16 10 -12 30 13 33 -16 -17 17 18 47 -21 -22 23 -24 24 25 48 27 -29 50 31 -32 -33 37 49 35 -37 -38 39 42 46 44 -43 43 -45 -46 -47 -48 -49 -50 -51 -52 52 -54 -55 -56 -57
leaf_value=-0.15401695681919447 -0.21154751315376469 -0.11845704050911116 0.038358317969330639 0.032528051807790281 1.4798700063018688 -0.046366624269135813 -0.36762032998451172 -0.14160735582769837 -0.21335842826170903 0.94219387614463224 0.19336936097795585 -0.18763988846131738 -0.033265858254501804 0.22544125049829999 0.64950408489884437 0.026739071880724496 0.15209457515956085 -0.079128305818336769 0.054146512949294963 0.26949380702588072 -0.11054101314389608 0.59980368937132289 0.63703869670103397 -0.16570622131059756 0.13608552385742786 0.86802587822181887 0.75299268407715048 -0.19006606281557464 0.65580372819958077 1.3122098722781166 0.33717947916989283 0.33847847608588205 0.070574509701096869 0.021491285665888114 -0.23579860081649257 0.076049730056835019 -0.084178800564643164 0.16610906186109262 -0.14587115953869129 -0.087585334675183271 0.35555299675141894 -0.072987617350735029 -0.037229977402790722 0.33617439132129778 0.095263411779887897 0.03773202993096219 0.0092791835784723949 0.89569609568378716 0.11681780400277234 0.27680460225946318 0.20796037038348708 -0.089952341779266323 0.84883720930232565 0.31158847134274897 1.4049470795253538 0.33625921847317525
leaf_weight=2492 5474 20514 1130 14789 1397 4923 20024 16776 13072 2395 3995 24092 22281 18520 4139 467 4507 7691 5414 2258 123 3018 963 1961 1937 379 2773 427 994 1180 1009 348 166 16267 16497 3165 26008 15774 41717 36791 4654 12067 15687 2014 10813 76146 60821 404 4543 3539 17547 987 430 1446 265 3789
leaf_count=2492 5474 20514 1130 14789 1397 4923 20024 16776 13072 2395 3995 24092 22281 18520 4139 467 4507 7691 5414 2258 123 3018 963 1961 1937 379 2773 427 994 1180 1009 348 166 16267 16497 3165 26008 15774 41717 36791 4654 12067 15687 2014 10813 76146 60821 404 4543 3539 17547 987 430 1446 265 3789
internal_value=0 -0.0310652 0.222867 0.260631 0.704879 0.20793 -0.11212 0.0107995 -0.137221 0.284281 0.443569 -0.25577 0.00381067 0.0785913 0.518437 0.792817 -0.0726174 -0.0462344 0.0763395 -0.0866709 1.35117 0.269053 0.0654443 0.301839 0.275024 0.402588 0.5409 0.667905 0.193932 0.731652 -0.166543 1.09044 -0.0114274 0.14362 -0.102699 -0.1856 -0.0492817 -0.00349855 -0.0435344 0.0149598 0.0782447 -0.0397436 -0.10085 0.00525555 0.173584 0.0597623 -0.0272301 0.200801 0.174662 0.0671115 0.23197 -0.127963 0.194931 0.601708 0.891012 0.170296
internal_weight=0 512091 70908 64017 6789 57228 154055 26125 127930 9349 6857 45125 358036 60607 5269 2862 82805 69733 17298 52435 1520 42439 5886 36553 33535 13033 8111 6174 20502 5747 25101 1528 297429 38326 50177 19662 30515 276915 87383 189532 27965 12498 59418 17701 15467 91920 97612 9607 4922 19806 18541 6891 1417 4219 431 9203
internal_count=582999 512091 70908 64017 6789 57228 154055 26125 127930 9349 6857 45125 358036 60607 5269 2862 82805 69733 17298 52435 1520 42439 5886 36553 33535 13033 8111 6174 20502 5747 25101 1528 297429 38326 50177 19662 30515 276915 87383 189532 27965 12498 59418 17701 15467 91920 97612 9607 4922 19806 18541 6891 1417 4219 431 9203
is_linear=0
