tree
version=v3
num_class=1
num_tree_per_iteration=1
label_index=0
max_feature_idx=264
objective=regression
feature_names=TurbID Wspd Wdir Etmp Itmp Ndir Pab1 Pab2 Pab3 Prtv Patv Wspd_simple_diff Wspd_simple_diff2 Wspd_rolling_mean6 Wspd_rolling_max6 Wspd_rolling_min6 Wspd_rolling_std6 Wspd_rolling_mean_diff6 Wspd_rolling_mean_diffn6 Wspd_rolling_mean_cal6 Wspd_rolling_mean12 Wspd_rolling_max12 Wspd_rolling_min12 Wspd_rolling_std12 Wspd_rolling_mean_diff12 Wspd_rolling_mean_diffn12 Wspd_rolling_mean_cal12 Wspd_rolling_mean36 Wspd_rolling_max36 Wspd_rolling_min36 Wspd_rolling_std36 Wspd_rolling_mean_diff36 Wspd_rolling_mean_diffn36 Wspd_rolling_mean_cal36 Wspd_rolling_mean72 Wspd_rolling_max72 Wspd_rolling_min72 Wspd_rolling_std72 Wspd_rolling_mean_diff72 Wspd_rolling_mean_diffn72 Wspd_rolling_mean_cal72 Wspd_rolling_mean144 Wspd_rolling_max144 Wspd_rolling_min144 Wspd_rolling_std144 Wspd_rolling_mean_diff144 Wspd_rolling_mean_diffn144 Wspd_rolling_mean_cal144 Wspd_past0 Wspd_past1 Wspd_past2 Wspd_past3 Wspd_past4 Wdir_simple_diff Wdir_simple_diff2 Wdir_rolling_mean6 Wdir_rolling_max6 Wdir_rolling_min6 Wdir_rolling_std6 Wdir_rolling_mean_diff6 Wdir_rolling_mean_diffn6 Wdir_rolling_mean_cal6 Wdir_rolling_mean12 Wdir_rolling_max12 Wdir_rolling_min12 Wdir_rolling_std12 Wdir_rolling_mean_diff12 Wdir_rolling_mean_diffn12 Wdir_rolling_mean_cal12 Wdir_rolling_mean36 Wdir_rolling_max36 Wdir_rolling_min36 Wdir_rolling_std36 Wdir_rolling_mean_diff36 Wdir_rolling_mean_diffn36 Wdir_rolling_mean_cal36 Wdir_rolling_mean72 Wdir_rolling_max72 Wdir_rolling_min72 Wdir_rolling_std72 Wdir_rolling_mean_diff72 Wdir_rolling_mean_diffn72 Wdir_rolling_mean_cal72 Wdir_rolling_mean144 Wdir_rolling_max144 Wdir_rolling_min144 Wdir_rolling_std144 Wdir_rolling_mean_diff144 Wdir_rolling_mean_diffn144 Wdir_rolling_mean_cal144 Wdir_past0 Wdir_past1 Wdir_past2 Wdir_past3 Wdir_past4 Etmp_simple_diff Etmp_simple_diff2 Etmp_rolling_mean6 Etmp_rolling_max6 Etmp_rolling_min6 Etmp_rolling_std6 Etmp_rolling_mean_diff6 Etmp_rolling_mean_diffn6 Etmp_rolling_mean_cal6 Etmp_rolling_mean12 Etmp_rolling_max12 Etmp_rolling_min12 Etmp_rolling_std12 Etmp_rolling_mean_diff12 Etmp_rolling_mean_diffn12 Etmp_rolling_mean_cal12 Etmp_rolling_mean36 Etmp_rolling_max36 Etmp_rolling_min36 Etmp_rolling_std36 Etmp_rolling_mean_diff36 Etmp_rolling_mean_diffn36 Etmp_rolling_mean_cal36 Etmp_rolling_mean72 Etmp_rolling_max72 Etmp_rolling_min72 Etmp_rolling_std72 Etmp_rolling_mean_diff72 Etmp_rolling_mean_diffn72 Etmp_rolling_mean_cal72 Etmp_rolling_mean144 Etmp_rolling_max144 Etmp_rolling_min144 Etmp_rolling_std144 Etmp_rolling_mean_diff144 Etmp_rolling_mean_diffn144 Etmp_rolling_mean_cal144 Etmp_past0 Etmp_past1 Etmp_past2 Etmp_past3 Etmp_past4 Itmp_simple_diff Itmp_simple_diff2 Itmp_rolling_mean6 Itmp_rolling_max6 Itmp_rolling_min6 Itmp_rolling_std6 Itmp_rolling_mean_diff6 Itmp_rolling_mean_diffn6 Itmp_rolling_mean_cal6 Itmp_rolling_mean12 Itmp_rolling_max12 Itmp_rolling_min12 Itmp_rolling_std12 Itmp_rolling_mean_diff12 Itmp_rolling_mean_diffn12 Itmp_rolling_mean_cal12 Itmp_rolling_mean36 Itmp_rolling_max36 Itmp_rolling_min36 Itmp_rolling_std36 Itmp_rolling_mean_diff36 Itmp_rolling_mean_diffn36 Itmp_rolling_mean_cal36 Itmp_rolling_mean72 Itmp_rolling_max72 Itmp_rolling_min72 Itmp_rolling_std72 Itmp_rolling_mean_diff72 Itmp_rolling_mean_diffn72 Itmp_rolling_mean_cal72 Itmp_rolling_mean144 Itmp_rolling_max144 Itmp_rolling_min144 Itmp_rolling_std144 Itmp_rolling_mean_diff144 Itmp_rolling_mean_diffn144 Itmp_rolling_mean_cal144 Itmp_past0 Itmp_past1 Itmp_past2 Itmp_past3 Itmp_past4 Ndir_simple_diff Ndir_simple_diff2 Ndir_rolling_mean6 Ndir_rolling_max6 Ndir_rolling_min6 Ndir_rolling_std6 Ndir_rolling_mean_diff6 Ndir_rolling_mean_diffn6 Ndir_rolling_mean_cal6 Ndir_rolling_mean12 Ndir_rolling_max12 Ndir_rolling_min12 Ndir_rolling_std12 Ndir_rolling_mean_diff12 Ndir_rolling_mean_diffn12 Ndir_rolling_mean_cal12 Ndir_rolling_mean36 Ndir_rolling_max36 Ndir_rolling_min36 Ndir_rolling_std36 Ndir_rolling_mean_diff36 Ndir_rolling_mean_diffn36 Ndir_rolling_mean_cal36 Ndir_rolling_mean72 Ndir_rolling_max72 Ndir_rolling_min72 Ndir_rolling_std72 Ndir_rolling_mean_diff72 Ndir_rolling_mean_diffn72 Ndir_rolling_mean_cal72 Ndir_rolling_mean144 Ndir_rolling_max144 Ndir_rolling_min144 Ndir_rolling_std144 Ndir_rolling_mean_diff144 Ndir_rolling_mean_diffn144 Ndir_rolling_mean_cal144 Ndir_past0 Ndir_past1 Ndir_past2 Ndir_past3 Ndir_past4 Patv_simple_diff Patv_simple_diff2 Patv_rolling_mean6 Patv_rolling_max6 Patv_rolling_min6 Patv_rolling_std6 Patv_rolling_mean_diff6 Patv_rolling_mean_diffn6 Patv_rolling_mean_cal6 Patv_rolling_mean12 Patv_rolling_max12 Patv_rolling_min12 Patv_rolling_std12 Patv_rolling_mean_diff12 Patv_rolling_mean_diffn12 Patv_rolling_mean_cal12 Patv_rolling_mean36 Patv_rolling_max36 Patv_rolling_min36 Patv_rolling_std36 Patv_rolling_mean_diff36 Patv_rolling_mean_diffn36 Patv_rolling_mean_cal36 Patv_rolling_mean72 Patv_rolling_max72 Patv_rolling_min72 Patv_rolling_std72 Patv_rolling_mean_diff72 Patv_rolling_mean_diffn72 Patv_rolling_mean_cal72 Patv_rolling_mean144 Patv_rolling_max144 Patv_rolling_min144 Patv_rolling_std144 Patv_rolling_mean_diff144 Patv_rolling_mean_diffn144 Patv_rolling_mean_cal144 Patv_past0 Patv_past1 Patv_past2 Patv_past3 Patv_past4 hour time_index
feature_infos=[68:101] [0:24.609999999999999] [-570.05999999999995:2266.9499999999998] [-272.97000000000003:393.70999999999998] [-272.97000000000003:59.439999999999998] [-602.07000000000005:700.42999999999995] [-1.7166666666666668:92.876666666666665] [-10:97.079999999999998] [-1.71:90.890000000000001] [-500.13999999999999:394.38] [0:1560.9300000000001] [-13.34:11.860000000000001] [-19.039999999999999:21.469999999999999] [0:22.831666666666667] [0:24.699999999999999] [0:21.32] [0:7.8082718958806945] [-2.3299999999999983:2.8816666666666677] [-16.645000000000003:19.303333333333335] [-10.198333333333332:10.545] [0:21.421666666666667] [0:24.719999999999999] [0:20.23] [0:7.1980917083921723] [-1.2466666666666661:1.5408333333333317] [-16.055833333333332:18.786666666666665] [-12.420833333333334:11.618333333333334] [0:18.968611111111112] [0:24.719999999999999] [0:15.869999999999999] [0:7.3535658772537866] [-0.50555555555555465:0.5572222222222214] [-14.406944444444443:16.52277777777778] [-15.946111111111112:13.176388888888889] [0:17.698611111111109] [0:24.719999999999999] [0:14.93] [0:6.9182370184086599] [-0.28875000000000028:0.28555555555555578] [-13.072638888888889:14.203611111111115] [-17.354305555555555:13.014722222222224] [0:16.899097222222224] [0:24.719999999999999] [0:13.789999999999999] [0:6.431793080697302] [-0.15312500000000107:0.14972222222221987] [-10.277430555555554:13.166875000000001] [-18.83625:12.474652777777777] [0:24.469999999999999] [0:24.699999999999999] [0:23.579999999999998] [0:24.609999999999999] [0:23.579999999999998] [-574.50999999999999:2276.5299999999997] [-576.91999999999996:2266.52] [-250.86166666666668:376.05833333333334] [-169.61000000000001:2266.9499999999998] [-1075.04:159.84999999999999] [0:926.35214294385185] [-126.05333333333333:378.63333333333333] [-375.59833333333336:374.70666666666665] [-1890.8916666666664:473.69166666666661] [-167.25666666666666:189.05833333333331] [-155.75:2266.9499999999998] [-1075.04:154.71000000000001] [0:654.54940106407048] [-47.684999999999988:189.16833333333329] [-274.87583333333333:241.78000000000003] [-2077.8916666666664:522.38083333333327] [-151.42138888888888:157.84805555555556] [-118.95:2266.9499999999998] [-1075.04:145.66999999999999] [0:378.17978839530053] [-20.967222222222219:62.963611111111106] [-191.01138888888889:167.39916666666667] [-2205.7408333333333:554.33819444444441] [-114.42333333333333:128.66159722222221] [-41.399999999999999:2266.9499999999998] [-1075.04:41.979999999999997] [0:267.43457360679901] [-8.7231944444444434:31.534861111111109] [-148.05979166666668:129.27784722222222] [-2235.8230555555556:561.50604166666665] [-62.988819444444438:74.842986111111102] [-3.4665338645418324:2266.9499999999998] [-1075.04:28.300000000000001] [0:190.32783792272764] [-4.7149305555555561:15.689930555555554] [-89.411249999999995:75.30138888888888] [-2255.0161805555554:566.76336805555547] [-1075.04:468.80000000000001] [-176.19:554.35000000000002] [-176.19:1454.6800000000001] [-741.15999999999997:755.89999999999998] [-815.5:655.33000000000004] [-649.82999999999993:314.82999999999998] [-666.21857142857141:666.26999999999998] [-272.48999999999995:393.70999999999998] [-272.25142857142856:393.70999999999998] [-272.97000000000003:393.70999999999998] [0:344.18732676649597] [-108.87500000000003:111.10500000000002] [-666.09000000000003:666.14142857142861] [-368.27666666666664:541.52499999999998] [-268.00520833333331:393.70999999999998] [-263.30041666666665:393.70999999999998] [-272.97000000000003:393.70999999999998] [0:332.52563036781874] [-55.518214285714265:55.548214285714295] [-658.9375:660.63583333333327] [-413.98238095238094:595.67750000000001] [-261.8024652777778:393.70999999999998] [-252.18000000000001:393.70999999999998] [-272.97000000000003:393.70999999999998] [0:332.11024193504176] [-18.506071428571431:18.516071428571422] [-394.6563888888889:394.6563888888889] [-394.6563888888889:631.77916666666658] [-260.59513888888893:393.70999999999998] [-250.43000000000001:393.70999999999998] [-272.97000000000003:393.70999999999998] [0:302.23583235325276] [-9.2530357142857724:9.2587499999999636] [-289.41277777777782:296.6779166666667] [-279.28479166666665:640.80458333333331] [-259.3630121527778:393.70999999999998] [-250.43000000000001:393.70999999999998] [-272.97000000000003:393.70999999999998] [0:234.85428261650921] [-4.6265178571428578:4.6293749999999818] [-285.98542361111117:292.15892361111116] [-276.98604166666667:646.36916666666662] [-272.95999999999998:393.70999999999998] [-272.97000000000003:393.70999999999998] [-272.95999999999998:393.70999999999998] [-272.95999999999998:393.70999999999998] [-272.97000000000003:393.70999999999998] [-308.81999999999999:314.82999999999998] [-324.84000000000003:320.29000000000002] [-272.49000000000001:59.770000000000003] [-272.25142857142856:111.17] [-272.97000000000003:58.149999999999999] [0:166.91747418010715] [-52.914999999999992:52.519999999999996] [-314.41500000000008:314.14812499999999] [-251.76833333333335:257.78500000000003] [-268.00520833333331:59.011666666666663] [-263.30041666666665:111.17] [-272.97000000000003:55.920000000000002] [0:158.05981862458387] [-26.534999999999993:26.853333333333346] [-305.47020833333329:311.89687500000002] [-274.45583333333332:282.78500000000003] [-261.8024652777778:56.500555555555565] [-252.18000000000001:111.17] [-272.97000000000003:55.189999999999998] [0.064694642863093996:151.77072117308057] [-8.8408333333333342:8.8463888888888889] [-299.46486111111108:305.45533564814809] [-276.20569444444448:300.51638888888891] [-260.59513888888893:55.03071527777778] [-250.43000000000001:111.17] [-272.97000000000003:53.926666666666662] [0.19339317302848824:148.69655603489389] [-4.4663888888888881:4.3611111111111107] [-294.89645833333333:303.20541666666668] [-280.23145833333336:306.81444444444446] [-259.3630121527778:54.291649305555552] [-250.43000000000001:111.17] [-272.97000000000003:53.156166666666664] [0.44316164212172782:148.90767618883291] [-2.2215277777777835:2.2247222222222192] [-291.0026458333333:298.29302083333334] [-278.24625000000003:312.97790406704178] [-272.95999999999998:111.17] [-272.97000000000003:59.490000000000002] [-272.95999999999998:60.439999999999998] [-272.95999999999998:60.700000000000003] [-272.97000000000003:60.630000000000003] [-196.69000000000003:163.16] [-971.16000000000008:963.07999999999993] [-529.67333333333329:697.44166666666661] [-477.66000000000003:700.42999999999995] [-682.33000000000004:682.53999999999996] [0:202.15994839895737] [-87.50333333333333:68.036666666666662] [-857.01999999999998:954.23500000000001] [-210.57833333333332:276.65666666666664] [-529.10833333333335:683.35000000000002] [-467.07999999999998:700.42999999999995] [-682.33000000000004:672.07000000000005] [0:247.45919075249256] [-45.810000000000002:42.933333333333337] [-829.39750000000004:926.85416666666674] [-288.48416666666668:370.87166666666667] [-466.53999999999996:681.45527777777772] [-443.94999999999999:700.42999999999995] [-682.33000000000004:653.59000000000003] [0:244.41351676229175] [-18.487222222222272:20.009444444444455] [-801.78638888888884:900.27839968511034] [-407.4616666666667:442.24370071684586] [-458.81083333333328:657.20666666666659] [-442.57999999999998:700.42999999999995] [-682.33000000000004:563.13999999999999] [0:270.65393927061763] [-10.774166666666588:10.054166666666667] [-744.14722222222224:891.88021423751684] [-459.5207795138889:545.92513888888891] [-444.21212934027778:573.16743055555548] [-391.43000000000001:700.42999999999995] [-682.33000000000004:543.88999999999999] [0:321.25646302902192] [-5.5388194444444441:6.2213194444444611] [-655.52784722222225:750.79441379892035] [-525.22458333333338:642.97100694444441] [-598.00999999999999:700.42999999999995] [-551.64999999999998:700.42999999999995] [-551.64999999999998:700.42999999999995] [-551.64999999999998:700.42999999999995] [-682.33000000000004:700.38] [-1507.7425000000001:1475.865] [-1559.5999999999999:1559.8699999999999] [0:1560.01] [0:1560.9300000000001] [0:1559.54] [0:794.9594177985872] [-248.72666666666674:254.16312500000004] [-1556.165:1559.2841666666666] [-1153.8266666666666:1192.7166666666667] [0:1559.7091666666668] [0:1560.9300000000001] [0:1559.3499999999999] [0:738.68409413258064] [-126.61250000000001:128.55854166666671] [-1546.5125:1557.4658333333334] [-1269.2093333333335:1294.3867916666668] [0:1559.4875000000002] [0:1560.9300000000001] [0:1558.8] [0:720.04782812924259] [-43.226111111111095:43.328888888888969] [-1543.5744444444445:1543.5958333333333] [-1429.8730555555558:1304.7967361111112] [0:1552.0070833333332] [0:1560.9300000000001] [0:1500.1300000000001] [0:709.63927432199114] [-21.668333333333294:21.601249999999993] [-1467.2191666666668:1490.5203535353537] [-1427.0920601851851:1327.7541666666666] [1.989704861111111:1517.9959722222222] [4.4347500000000002:1560.9300000000001] [0:1215.47] [0.65820348414031282:714.40433568688945] [-10.833958333333328:10.832222222222242] [-1191.9747083333332:1368.3612326388889] [-1458.7064872685185:1257.7902777777776] [0:1560.2] [0:1560.8299999999999] [0:1560.9300000000001] [0:1560.2] [0:1560.8299999999999] -1:23:3:22:9:21:15:20:19:14:13:8:18:6:12:2:11:7:1:17:0:16:4:10:5 -1:4:5:3:0:1:2
tree_sizes=791 793 794 821 798 791 813 798 785 794 797 786 818 797 803 798 813 818 801 814 795 791 812 819 800 785 790 828 798 797 814 814 805 827 788 800 797 827 799 801 797 791 812 815 810 810 811 797 794 795 801 801 795 808 809 793 818 821 812 792 797 807 808 791 800 790 824 809 795 785 805 809 796 797 804 802 808 781 801 797 795 806 810 792 806 802 827 826 838 797 827 818 807 812 785 804 799 806 790 793 800 834 812 807 804 802 810 802 828 813 814 816 791 814 828 803 802 798 801 812 805 803 812 811 794 823 791 822 830 783 801 789 805 804 808 797 813 805 834 820 809 803 803 787 800 797 841 804 797 801 794 836 802 831 798 801 824 802 808 822 803 808 807 786 816 804 805 799 832 818 798 829 804 826 829 791 818 821 808 806 804 807 805 800 826 838 828 819 838 806 801 832 797 835 807 809 818 821 839

Tree=0
num_leaves=7
num_cat=0
split_feature=29 222 1 37 35 4
split_gain=3.96106e+09 5.7268e+08 3.88889e+08 2.93084e+08 2.10262e+08 2.59531e+08
threshold=5.6208125000000004 365.4550000000001 8.6610548523206763 3.5524741865003335 10.391582278481016 37.735000000000007
decision_type=2 2 2 2 2 2
left_child=1 4 -2 -4 5 -1
right_child=2 -3 3 -5 -6 -7
leaf_value=362.91736397118655 368.64084904532649 366.86157318715203 373.83263461936008 363.98542507811317 365.16633284472152 365.08521604024162
leaf_weight=104358 11043 27231 20441 1285 32737 28021
leaf_count=104358 11043 27231 20441 1285 32737 28021
internal_value=365.301 364.174 371.697 373.25 363.731 363.376
internal_weight=0 192347 32769 21726 165116 132379
internal_count=225116 192347 32769 21726 165116 132379
is_linear=0
shrinkage=1


Tree=1
num_leaves=7
num_cat=0
split_feature=15 36 223 141 30 158
split_gain=3.72715e+09 6.73442e+08 4.17123e+08 2.06079e+08 1.96094e+08 2.15656e+08
threshold=7.2115182186234827 1.9850000000000003 517.99333333333357 37.701274900398417 3.3631402972054256 4.3056250000000036
decision_type=2 2 2 2 2 2
left_child=2 -2 3 -1 5 -3
right_child=1 4 -4 -5 -6 -7
leaf_value=-1.9635047969908297 1.5468789790147717 6.5889795404858686 1.0889301221765002 -0.13987622286331008 -2.9677775009592429 10.957071335415824
leaf_weight=127974 11864 21303 26762 30741 733 5739
leaf_count=127974 11864 21303 26762 30741 733 5739
internal_value=0 5.53557 -1.22083 -1.61029 7.23933 7.516
internal_weight=0 39639 185477 158715 27775 27042
internal_count=225116 39639 185477 158715 27775 27042
is_linear=0
shrinkage=0.02


Tree=2
num_leaves=7
num_cat=0
split_feature=22 78 10 244 28 4
split_gain=3.55951e+09 5.26106e+08 5.25991e+08 2.37082e+08 2.11293e+08 2.03324e+08
threshold=6.8720318725099609 -29.474999999999998 477.15000000000003 713.68062500000008 18.165000000000003 37.735000000000007
decision_type=2 2 2 2 2 2
left_child=2 -2 5 -3 -5 -1
right_child=1 3 -4 4 -6 -7
leaf_value=-1.9995017025116621 0.87132369571618418 4.2326571705414082 1.1251615021394543 8.6351667504595611 -0.63738152940799786 -0.23468690345995577
leaf_weight=121890 7134 8947 34004 18872 1037 33232
leaf_count=121890 7134 8947 34004 18872 1037 33232
internal_value=0 5.73458 -1.1276 6.93691 8.15219 -1.62142
internal_weight=0 35990 189126 28856 19909 155122
internal_count=225116 35990 189126 28856 19909 155122
is_linear=0
shrinkage=0.02


Tree=3
num_leaves=7
num_cat=1
split_feature=29 10 9 37 263 174
split_gain=3.53946e+09 5.10658e+08 3.73256e+08 2.53061e+08 2.49131e+08 1.85735e+08
threshold=5.6208125000000004 477.15000000000003 41.950158730158741 3.4414420489323825 0 37.570443037974691
decision_type=2 2 2 2 1 2
left_child=1 5 -2 -4 -3 -1
right_child=2 4 3 -5 -6 -7
leaf_value=-1.9388292913616365 4.0742473454643138 -0.9291428534511802 9.0944836825538555 -0.73784350931012588 2.3908586169831825 -0.26711029847038548
leaf_weight=120882 17682 15295 13955 1132 22091 34079
leaf_count=120882 17682 15295 13955 1132 22091 34079
internal_value=0 -1.06502 6.04593 8.35675 1.033 -1.57119
internal_weight=0 192347 32769 15087 37386 154961
internal_count=225116 192347 32769 15087 37386 154961
cat_boundaries=0 1
cat_threshold=8372224
is_linear=0
shrinkage=0.02


Tree=4
num_leaves=7
num_cat=0
split_feature=29 222 9 37 35 140
split_gain=3.3993e+09 5.0117e+08 3.58475e+08 2.4304e+08 1.9533e+08 2.26857e+08
threshold=5.6208125000000004 365.4550000000001 41.950158730158741 3.4414420489323825 10.391582278481016 38.510836653386455
decision_type=2 2 2 2 2 2
left_child=1 4 -2 -4 5 -1
right_child=2 -3 3 -5 -6 -7
leaf_value=-2.2184336880816877 3.9927622105106888 1.4701548671550806 8.9125940887002866 -0.72308666215768558 -0.075024167699499517 -0.16068572934501685
leaf_weight=105485 17682 27231 13955 1132 32737 26894
leaf_count=105485 17682 27231 13955 1132 32737 26894
internal_value=0 -1.04371 5.92501 8.18961 -1.4583 -1.80038
internal_weight=0 192347 32769 15087 165116 132379
internal_count=225116 192347 32769 15087 165116 132379
is_linear=0
shrinkage=0.02


Tree=5
num_leaves=7
num_cat=0
split_feature=29 10 1 79 130 4
split_gain=3.22852e+09 4.89297e+08 3.34941e+08 2.10266e+08 1.83093e+08 1.80969e+08
threshold=5.5603212851405628 491.23500000000007 8.5914893617021288 2.7175242240604738 0.85986111111111196 37.925000000000004
decision_type=2 2 2 2 2 2
left_child=1 5 4 -4 -2 -1
right_child=2 -3 3 -5 -6 -7
leaf_value=-1.8257518656898284 0.20476065571529442 1.1155872729980851 9.7851913898996141 5.7182826002923512 5.3102381357582669 -0.1444832579235775
leaf_weight=123739 5322 35772 7772 14709 5952 32292
leaf_count=123739 5322 35772 7772 14709 5952 32292
internal_value=0 -0.994122 5.71344 7.12427 2.90015 -1.4778
internal_weight=0 191803 33755 22481 11274 156031
internal_count=225558 191803 33755 22481 11274 156031
is_linear=0
shrinkage=0.02


Tree=6
num_leaves=7
num_cat=1
split_feature=29 10 9 263 36 37
split_gain=3.10315e+09 5.29667e+08 3.06247e+08 2.30063e+08 2.11499e+08 2.0444e+08
threshold=5.8102589641434266 498.68500000000006 65.885000000000005 0 3.3950000000000005 3.6752227251423339
decision_type=2 2 2 1 2 2
left_child=1 -1 -2 4 -3 -4
right_child=2 3 5 -5 -6 -7
leaf_value=-1.4343924180586121 4.2428178046020371 -2.1481617698258448 8.9468983234708688 2.3125750131880536 5.5057970915623136 -1.6009486934116908
leaf_weight=157497 18557 10210 11765 25063 1682 784
leaf_count=157497 18557 10210 11765 25063 1682 784
internal_value=0 -0.928771 5.87472 1.22612 -1.06469 8.28792
internal_weight=0 194452 31106 36955 11892 12549
internal_count=225558 194452 31106 36955 11892 12549
cat_boundaries=0 1
cat_threshold=4161536
is_linear=0
shrinkage=0.02


Tree=7
num_leaves=7
num_cat=0
split_feature=29 10 9 37 140 252
split_gain=2.98026e+09 5.08966e+08 2.9412e+08 1.96344e+08 1.74221e+08 1.63296e+08
threshold=5.8102589641434266 484.34500000000008 65.885000000000005 3.6752227251423339 38.615000000000002 1438.7150000000004
decision_type=2 2 2 2 2 2
left_child=1 4 -2 -4 5 -1
right_child=2 -3 3 -5 -6 -7
leaf_value=-2.1204213020526796 4.1579615424772323 1.1535840373162531 8.7679605694214331 -1.5689297742259747 -0.092733311208611405 -0.31983396371211936
leaf_weight=99144 18557 38368 11765 784 31655 25285
leaf_count=99144 18557 38368 11765 784 31655 25285
internal_value=0 -0.910193 5.75723 8.12216 -1.4175 -1.75453
internal_weight=0 194452 31106 12549 156084 124429
internal_count=225558 194452 31106 12549 156084 124429
is_linear=0
shrinkage=0.02


Tree=8
num_leaves=7
num_cat=0
split_feature=15 244 37 10 172 78
split_gain=2.88199e+09 5.81766e+08 3.70366e+08 2.97599e+08 2.17984e+08 2.01446e+08
threshold=6.920358565737053 696.44185185185199 3.6752227251423339 498.68500000000006 2.45333333333333 -7.4049999999999994
decision_type=2 2 2 2 2 2
left_child=3 5 4 -1 -3 -2
right_child=1 2 -4 -5 -6 -7
leaf_value=-1.42595442101967 1.1874247126305879 5.8247744199819254 -3.327139549784031 0.89536049844539445 9.9069984429548192 6.4018699199294407
leaf_weight=156218 16464 13693 1371 25730 8468 3614
leaf_count=156218 16464 13693 1371 25730 8468 3614
internal_value=0 4.62682 6.76056 -1.09769 7.38464 2.12601
internal_weight=0 43610 23532 181948 22161 20078
internal_count=225558 43610 23532 181948 22161 20078
is_linear=0
shrinkage=0.02


Tree=9
num_leaves=7
num_cat=0
split_feature=22 244 10 30 172 121
split_gain=2.74074e+09 4.66101e+08 3.5071e+08 2.27477e+08 2.26535e+08 1.76423e+08
threshold=6.5802826086956534 696.44185185185199 498.68500000000006 3.1209602968618815 2.4956944444444429 3.3870301774785356
decision_type=2 2 2 2 2 2
left_child=2 -2 5 4 -3 -1
right_child=1 3 -4 -5 -6 -7
leaf_value=-1.7160051082588095 2.1746901226043702 5.4370685572204378 1.0121407172427375 -2.375198485203053 9.5837115508539128 -0.021323121833669984
leaf_weight=126267 16384 13970 28881 1085 8462 30509
leaf_count=126267 16384 13970 28881 1085 8462 30509
internal_value=0 4.76445 -1.01312 6.5687 7.0013 -1.38622
internal_weight=0 39901 185657 23517 22432 156776
internal_count=225558 39901 185657 23517 22432 156776
is_linear=0
shrinkage=0.02


Tree=10
num_leaves=7
num_cat=0
split_feature=22 223 78 121 163 42
split_gain=2.6888e+09 4.72106e+08 3.72026e+08 1.81817e+08 1.71915e+08 1.6531e+08
threshold=7.2417529880478098 497.98020833333334 -30.104999999999997 3.4708438614641355 0.66289719772520173 18.265000000000004
decision_type=2 2 2 2 2 2
left_child=1 3 -2 -1 -3 -4
right_child=2 4 5 -5 -6 -7
leaf_value=-1.6710220964826181 0.71851005410804658 8.3214798724295083 6.8346271202472542 0.079168369137604597 0.9261602755738545 1.1851569623126099
leaf_weight=128978 5693 1305 24286 29099 34446 2265
leaf_count=128978 5693 1305 24286 29099 34446 2265
internal_value=0 -0.879436 5.35792 -1.34884 1.19611 6.35268
internal_weight=0 193828 32244 158077 35751 26551
internal_count=226072 193828 32244 158077 35751 26551
is_linear=0
shrinkage=0.02


Tree=11
num_leaves=7
num_cat=0
split_feature=15 37 10 244 226 45
split_gain=2.614e+09 4.50641e+08 3.97778e+08 3.27379e+08 1.71883e+08 1.71306e+08
threshold=7.5813692946058096 3.0146081964697626 477.15000000000003 782.37981481481495 10.003588284792446 0.019861111111111
decision_type=2 2 2 2 2 2
left_child=2 3 -1 5 -4 -2
right_child=1 -3 4 -5 -6 -7
leaf_value=-1.3536179993387247 0.61383260163499875 0.47367370708859752 9.6904195474504355 8.0744529450629372 0.77787515304972432 5.4410054176788867
leaf_weight=155394 4499 7084 888 15488 34229 8490
leaf_count=155394 4499 7084 888 15488 34229 8490
internal_value=0 4.98772 -0.919176 6.11065 1.00325 3.76902
internal_weight=0 35561 190511 28477 35117 12989
internal_count=226072 35561 190511 28477 35117 12989
is_linear=0
shrinkage=0.02


Tree=12
num_leaves=7
num_cat=1
split_feature=29 10 37 15 263 35
split_gain=2.51389e+09 3.69725e+08 2.8071e+08 2.92696e+08 2.16309e+08 1.84885e+08
threshold=5.5603212851405628 412.07500000000005 3.4951351875745877 8.33357142857143 0 10.391582278481016
decision_type=2 2 2 2 1 2
left_child=1 -1 3 -2 -3 -6
right_child=2 4 -4 -5 5 -7
leaf_value=-1.3495388491119957 3.1667262575025852 -0.96345551268624596 -2.0291137125922178 7.0952487301617362 0.53316692847845215 3.9711166098464732
leaf_weight=148478 12661 17762 2101 18926 15773 10371
leaf_count=148478 12661 17762 2101 18926 15773 10371
internal_value=0 -0.872761 5.04973 5.52058 0.73957 1.89623
internal_weight=0 192384 33688 31587 43906 26144
internal_count=226072 192384 33688 31587 43906 26144
cat_boundaries=0 1
cat_threshold=8372224
is_linear=0
shrinkage=0.02


Tree=13
num_leaves=7
num_cat=0
split_feature=22 223 37 244 78 254
split_gain=2.39683e+09 4.21374e+08 4.18838e+08 2.17931e+08 1.77111e+08 1.63628e+08
threshold=7.2417529880478098 497.98020833333334 3.0146081964697626 782.37981481481495 -7.4049999999999994 79.985490037789603
decision_type=2 2 2 2 2 2
left_child=1 5 3 4 -2 -1
right_child=2 -3 -4 -5 -6 -7
leaf_value=-3.4042507688356505 2.1556010056241148 1.1305097628388012 0.42286807251948771 7.6810798196971266 7.7411988303818386 -1.0794699607029945
leaf_weight=13215 7093 35751 6278 15533 3340 144862
leaf_count=13215 7093 35751 6278 15533 3340 144862
internal_value=0 -0.830347 5.05862 6.17945 3.94376 -1.27382
internal_weight=0 193828 32244 25966 10433 158077
internal_count=226072 193828 32244 25966 10433 158077
is_linear=0
shrinkage=0.02


Tree=14
num_leaves=7
num_cat=0
split_feature=15 78 36 79 254 123
split_gain=2.33261e+09 3.82953e+08 3.72182e+08 1.90354e+08 1.71638e+08 1.5145e+08
threshold=7.5813692946058096 -30.104999999999997 3.8550000000000004 2.6836972896095697 79.985490037789603 -4.6979513888888889
decision_type=2 2 2 2 2 2
left_child=2 -2 4 -3 -1 -6
right_child=1 3 -4 -5 5 -7
leaf_value=-3.3289350789976488 0.77084441814605387 8.1349590695133163 2.1213206119018073 4.6309649615758079 -2.3032825359617108 -0.67498861272788357
leaf_weight=13131 7722 9325 15317 18514 27523 134540
leaf_count=13131 7722 9325 15317 18514 27523 134540
internal_value=0 4.71158 -0.868329 5.80467 -1.12971 -0.95152
internal_weight=0 35561 190511 27839 175194 162063
internal_count=226072 35561 190511 27839 175194 162063
is_linear=0
shrinkage=0.02


Tree=15
num_leaves=7
num_cat=0
split_feature=15 37 36 172 244 128
split_gain=2.15685e+09 3.96094e+08 3.81777e+08 2.53222e+08 2.48515e+08 1.87387e+08
threshold=7.7711685823754797 3.1072737607626637 3.9550000000000005 1.6146180555555534 740.86994791666677 3.1769165447686114
decision_type=2 2 2 2 2 2
left_child=2 4 5 -4 -2 -1
right_child=1 -3 3 -5 -6 -7
leaf_value=-1.7778462193972897 3.441133021601924 0.040281278515755733 -0.020915681492776651 5.1716401775750116 7.3172857441588226 -0.47135748050822129
leaf_weight=81113 11232 5976 8699 6612 16100 95748
leaf_count=81113 11232 5976 8699 6612 16100 95748
internal_value=0 4.70457 -0.808261 2.22147 5.72439 -1.07055
internal_weight=0 33308 192172 15311 27332 176861
internal_count=225480 33308 192172 15311 27332 176861
is_linear=0
shrinkage=0.02


Tree=16
num_leaves=7
num_cat=1
split_feature=29 228 9 263 37 35
split_gain=2.14578e+09 3.40835e+08 2.67147e+08 2.13263e+08 1.86042e+08 1.77144e+08
threshold=5.4507659574468095 374.82083333333338 54.455000000000005 0 3.6110982312864679 10.391582278481016
decision_type=2 2 2 1 2 2
left_child=1 -1 -2 5 -4 -3
right_child=2 3 4 -5 -6 -7
leaf_value=-1.1523085554717734 3.0832201987778936 1.2511516540772465 7.2585682437862964 -0.29697195354054323 -1.5266604149732057 6.4031178387506023
leaf_weight=166175 20211 6225 13560 13597 1038 4674
leaf_count=166175 20211 6225 13560 13597 1038 4674
internal_value=0 -0.827652 4.57228 1.37474 6.63389 3.45738
internal_weight=0 190671 34809 24496 14598 10899
internal_count=225480 190671 34809 24496 14598 10899
cat_boundaries=0 1
cat_threshold=4095
is_linear=0
shrinkage=0.02


Tree=17
num_leaves=7
num_cat=1
split_feature=29 228 1 263 35 46
split_gain=2.0608e+09 3.27337e+08 2.50953e+08 2.04819e+08 1.70129e+08 1.65273e+08
threshold=5.4507659574468095 374.82083333333338 8.7330000000000023 0 10.391582278481016 -2.4359027777777773
decision_type=2 2 2 1 2 2
left_child=1 5 -2 4 -3 -1
right_child=2 3 -4 -5 -6 -7
leaf_value=-2.1994987607404095 2.2526854964816265 1.2261294906187219 5.775080477371815 -0.29103685009108937 6.2750554756553036 -0.75754276937631759
leaf_weight=42838 12790 6225 22019 13597 4674 123337
leaf_count=42838 12790 6225 22019 13597 4674 123337
internal_value=0 -0.811099 4.48083 1.34725 3.38824 -1.12926
internal_weight=0 190671 34809 24496 10899 166175
internal_count=225480 190671 34809 24496 10899 166175
cat_boundaries=0 1
cat_threshold=4095
is_linear=0
shrinkage=0.02


Tree=18
num_leaves=7
num_cat=0
split_feature=15 36 77 172 128 168
split_gain=1.93171e+09 3.45448e+08 3.15529e+08 2.39115e+08 1.78157e+08 1.70946e+08
threshold=7.7711685823754797 3.9550000000000005 6.1050000000000013 1.6146180555555534 3.1676336541938874 36.225000000000001
decision_type=2 2 2 2 2 2
left_child=1 4 -2 -3 -1 -6
right_child=2 3 -4 -5 5 -7
leaf_value=-1.7096630167053954 7.0449681150656094 -0.061996335841851088 2.9907519834119158 4.9838486620562046 -1.4901974451838049 0.23689392102270951
leaf_weight=80408 12007 8699 21301 6612 37516 58937
leaf_count=80408 12007 8699 21301 6612 37516 58937
internal_value=0 -0.764946 4.45223 2.11703 -1.01444 -0.434869
internal_weight=0 192172 33308 15311 176861 96453
internal_count=225480 192172 33308 15311 176861 96453
is_linear=0
shrinkage=0.02


Tree=19
num_leaves=7
num_cat=1
split_feature=29 228 37 9 263 172
split_gain=1.91179e+09 3.06576e+08 2.52443e+08 2.74325e+08 1.95944e+08 1.6313e+08
threshold=5.4507659574468095 374.82083333333338 3.6752227251423339 54.455000000000005 0 2.5343923611111099
decision_type=2 2 2 2 1 2
left_child=1 -1 3 5 -3 -2
right_child=2 4 -4 -5 -6 -7
leaf_value=-1.0891495092173598 1.9428143396450253 3.3038202119701907 -2.879365731380279 6.8943345447039199 -0.29484427857961437 5.8954280481371333
leaf_weight=166175 13251 10899 1847 13612 13597 6099
leaf_count=166175 13251 10899 1847 13612 13597 6099
internal_value=0 -0.781241 4.31578 4.71895 1.30754 3.18865
internal_weight=0 190671 34809 32962 24496 19350
internal_count=225480 190671 34809 32962 24496 19350
cat_boundaries=0 1
cat_threshold=4095
is_linear=0
shrinkage=0.02


Tree=20
num_leaves=7
num_cat=0
split_feature=1 244 36 35 168 71
split_gain=1.8567e+09 3.91052e+08 2.4486e+08 2.39845e+08 1.70111e+08 1.59323e+08
threshold=8.0917975206611583 771.51062500000012 3.9550000000000005 17.335000000000004 36.695000000000007 -6.714999999999999
decision_type=2 2 2 2 2 2
left_child=2 5 4 -3 -1 -2
right_child=1 3 -4 -5 -6 -7
leaf_value=-1.7284245087647452 0.88591863397643522 6.7832333539218306 1.7714278679408895 -0.65273047429006581 -0.45922125930831548 4.3296240652192619
leaf_weight=79050 15133 16497 13263 1939 90714 8333
leaf_count=79050 15133 16497 13263 1939 90714 8333
internal_value=0 3.82136 -0.845751 6.00116 -1.05022 2.10881
internal_weight=0 41902 183027 18436 169764 23466
internal_count=224929 41902 183027 18436 169764 23466
is_linear=0
shrinkage=0.02


Tree=21
num_leaves=7
num_cat=0
split_feature=15 79 10 249 140 226
split_gain=1.78466e+09 2.99932e+08 2.99593e+08 1.80912e+08 1.62948e+08 1.5077e+08
threshold=7.7118525896414356 2.6485390529767363 463.78406250000006 212.05850694444445 38.615000000000002 10.003588284792446
decision_type=2 2 2 2 2 2
left_child=2 -2 4 -3 -1 -4
right_child=1 3 5 -5 -6 -7
leaf_value=-1.4488308317075835 7.4626261729960257 0.77989157001303 8.8905702436518101 4.3543776803264045 0.17972763548331855 0.66757047668869141
leaf_weight=122405 8646 8547 914 16789 30749 36879
leaf_count=122405 8646 8547 914 16789 30749 36879
internal_value=0 4.24617 -0.72833 3.14854 -1.12186 0.866439
internal_weight=0 33982 190947 25336 153154 37793
internal_count=224929 33982 190947 25336 153154 37793
is_linear=0
shrinkage=0.02


Tree=22
num_leaves=7
num_cat=1
split_feature=1 78 36 42 34 263
split_gain=1.71911e+09 3.71013e+08 2.30174e+08 1.73838e+08 1.73475e+08 2.34915e+08
threshold=8.0917975206611583 -7.9449999999999994 3.9550000000000005 18.265000000000004 9.3704166666666691 0
decision_type=2 2 2 2 2 1
left_child=2 4 -1 -3 5 -2
right_child=1 3 -4 -5 -6 -7
leaf_value=-1.0120983383135629 -2.291648790049639 6.7488544250688651 1.7236259700093777 -1.0398168450565246 4.6607904145894876 2.6449464245946825
leaf_weight=169764 5530 14317 13263 1246 8124 12685
leaf_count=169764 5530 14317 13263 1246 8124 12685
internal_value=0 3.677 -0.813855 6.12528 2.23039 1.14641
internal_weight=0 41902 183027 15563 26339 18215
internal_count=224929 41902 183027 15563 26339 18215
cat_boundaries=0 1
cat_threshold=2064384
is_linear=0
shrinkage=0.02


Tree=23
num_leaves=7
num_cat=1
split_feature=1 78 36 244 168 263
split_gain=1.65103e+09 3.56321e+08 2.21059e+08 2.1197e+08 1.60072e+08 1.4641e+08
threshold=8.0917975206611583 -7.9449999999999994 3.9550000000000005 782.37981481481495 36.695000000000007 0
decision_type=2 2 2 2 2 1
left_child=2 3 4 5 -1 -2
right_child=1 -3 -4 -5 -6 -7
leaf_value=-1.6497432088039492 -1.6784940962357953 6.0027748267037673 1.689153456970873 5.0038646217256817 -0.41856058562735199 2.1900128054264711
leaf_weight=79050 5556 15563 13263 7597 90714 13186
leaf_count=79050 5556 15563 13263 7597 90714 13186
internal_value=0 3.60347 -0.797578 2.18578 -0.991856 1.04348
internal_weight=0 41902 183027 26339 169764 18742
internal_count=224929 41902 183027 26339 169764 18742
cat_boundaries=0 1
cat_threshold=2064384
is_linear=0
shrinkage=0.02


Tree=24
num_leaves=7
num_cat=0
split_feature=22 249 37 222 175 252
split_gain=1.58829e+09 3.28217e+08 2.9773e+08 1.98143e+08 1.62995e+08 1.6164e+08
threshold=6.4600398406374513 245.40916608796303 3.3382390837024061 336.37875000000003 38.655000000000008 1120.4700000000003
decision_type=2 2 2 2 2 2
left_child=3 -2 -3 4 5 -1
right_child=1 2 -4 -5 -6 -7
leaf_value=-1.8841099184628969 0.98278748371790103 5.4039660284511051 -2.0500394470371477 0.948293129667793 0.34230446204923881 -0.44644760797309724
leaf_weight=80466 13435 25752 2338 23231 28529 51178
leaf_count=80466 13435 25752 2338 23231 28529 51178
internal_value=0 3.55385 4.78355 -0.777844 -1.0282 -1.3252
internal_weight=0 41525 28090 183404 160173 131644
internal_count=224929 41525 28090 183404 160173 131644
is_linear=0
shrinkage=0.02


Tree=25
num_leaves=7
num_cat=0
split_feature=22 37 10 172 45 120
split_gain=1.47653e+09 3.02437e+08 2.05758e+08 1.99713e+08 2.06806e+08 1.61432e+08
threshold=6.6405744680851067 2.6646350792614748 443.52000000000004 2.45333333333333 0.019861111111111 22.825000000000003
decision_type=2 2 2 2 2 2
left_child=2 3 -1 4 -2 -6
right_child=1 -3 -4 -5 5 -7
leaf_value=-1.067894707568708 1.1047220642565849 0.61432805175312921 0.63077344272151681 6.9288860828778525 7.663569347189636 2.6566136033194407
leaf_weight=151091 8591 10426 35161 9686 5465 4872
leaf_count=151091 8591 10426 35161 9686 5465 4872
internal_value=0 3.53057 -0.747217 4.59315 3.39788 5.30371
internal_weight=0 39040 186252 28614 18928 10337
internal_count=225292 39040 186252 28614 18928 10337
is_linear=0
shrinkage=0.02


Tree=26
num_leaves=7
num_cat=0
split_feature=1 79 36 172 37 39
split_gain=1.42715e+09 3.54511e+08 2.29574e+08 1.6974e+08 1.56216e+08 1.67026e+08
threshold=8.3905284552845547 2.7893076694099963 3.9550000000000005 1.5034548611111147 3.0752523831806955 0.90135416666666679
decision_type=2 2 2 2 2 2
left_child=2 -2 -1 -4 5 -3
right_child=1 4 3 -5 -6 -7
leaf_value=-0.92891565565107115 6.8087739551261572 0.50695715848560485 -0.22293665720670983 4.1076324035654004 -0.44220060243985665 4.2953479801298515
leaf_weight=172450 9759 6629 8264 6443 6113 15634
leaf_count=172450 9759 6629 8264 6443 6113 15634
internal_value=0 3.52059 -0.724356 1.67425 2.38973 3.16732
internal_weight=0 38135 187157 14707 28376 22263
internal_count=225292 38135 187157 14707 28376 22263
is_linear=0
shrinkage=0.02


Tree=27
num_leaves=7
num_cat=1
split_feature=15 78 245 263 141 165
split_gain=1.37185e+09 3.1396e+08 1.86925e+08 2.73514e+08 1.73653e+08 1.55507e+08
threshold=6.9807594936708872 -23.824999999999996 1425.5540000000003 0 38.614578059071739 1.9703125000000006
decision_type=2 2 2 1 2 2
left_child=2 -2 4 -4 -1 -3
right_child=1 5 3 -5 -6 -7
leaf_value=-1.2879242970404685 0.45870545313537409 3.1773040876210947 -1.3276073847327541 3.1712429913252183 0.47555277232408394 6.1062358350579089
leaf_weight=134215 11861 19116 10507 11116 26795 11682
leaf_count=134215 11861 19116 10507 11116 26795 11682
internal_value=0 3.2235 -0.75997 0.986024 -0.99445 4.28828
internal_weight=0 42659 182633 21623 161010 30798
internal_count=225292 42659 182633 21623 161010 30798
cat_boundaries=0 1
cat_threshold=16646151
is_linear=0
shrinkage=0.02


Tree=28
num_leaves=7
num_cat=0
split_feature=1 79 245 141 249 65
split_gain=1.32595e+09 3.33333e+08 2.18005e+08 1.8513e+08 1.69038e+08 1.48199e+08
threshold=8.3905284552845547 2.7893076694099963 1425.5540000000003 38.614578059071739 251.36406712962975 0.87560020959051943
decision_type=2 2 2 2 2 2
left_child=2 -2 3 -1 -3 -5
right_child=1 4 -4 5 -6 -7
leaf_value=-1.2572465170576936 6.5819542566427058 0.56398737697288337 1.1142357332573445 7.5340545355955513 3.6719517411969882 0.23287860744786493
leaf_weight=136379 9759 12554 23249 1161 15822 26368
leaf_count=136379 9759 12554 23249 1161 15822 26368
internal_value=0 3.3935 -0.698182 -0.955258 2.29694 0.540796
internal_weight=0 38135 187157 163908 28376 27529
internal_count=225292 38135 187157 163908 28376 27529
is_linear=0
shrinkage=0.02


Tree=29
num_leaves=7
num_cat=0
split_feature=29 9 37 9 254 128
split_gain=1.27719e+09 3.10357e+08 1.9116e+08 1.80524e+08 1.51452e+08 1.62003e+08
threshold=6.0800398406374514 8.0350000000000019 3.6752227251423339 94.445000000000007 77.99077619599106 3.0924633156030006
decision_type=2 2 2 2 2 2
left_child=1 4 3 -2 -1 -6
right_child=2 -3 -4 -5 5 -7
leaf_value=-3.0235121780680636 3.2638635967912233 1.6323907029047684 -3.1440762768707593 6.8294264487995386 -1.4228224842795305 -0.14811422702153296
leaf_weight=12071 18772 22526 1437 8144 70473 91869
leaf_count=12071 18772 22526 1437 8144 70473 91869
internal_value=0 -0.576845 3.96325 4.3427 -0.862175 -0.701468
internal_weight=0 196939 28353 26916 174413 162342
internal_count=225292 196939 28353 26916 174413 162342
is_linear=0
shrinkage=0.02


Tree=30
num_leaves=7
num_cat=1
split_feature=22 37 35 263 9 244
split_gain=1.2607e+09 2.71547e+08 2.35243e+08 2.33443e+08 1.67e+08 1.56005e+08
threshold=7.1110743801652907 3.0752523831806955 10.391582278481016 0 86.975000000000009 828.80281250000019
decision_type=2 2 2 1 2 2
left_child=2 4 -1 -4 -2 -5
right_child=1 -3 3 5 -6 -7
leaf_value=-0.99854152116578909 3.2328632926789216 -0.26944723687882421 -0.8266070245705176 1.4089473066351241 6.460361416216978 6.118520241752357
leaf_weight=148978 17602 6047 21131 18818 10088 3308
leaf_count=148978 17602 6047 21131 18818 10088 3308
internal_value=0 3.57019 -0.621543 0.676846 4.4087 2.11211
internal_weight=0 33737 192235 43257 27690 22126
internal_count=225972 33737 192235 43257 27690 22126
cat_boundaries=0 1
cat_threshold=16646151
is_linear=0
shrinkage=0.02


Tree=31
num_leaves=7
num_cat=1
split_feature=1 77 245 263 72 249
split_gain=1.22121e+09 3.03067e+08 1.95962e+08 2.35713e+08 1.6597e+08 1.29834e+08
threshold=8.0325862068965534 6.1050000000000013 1437.865 0 0.88047963506738625 251.36406712962975
decision_type=2 2 2 1 2 2
left_child=2 -2 4 -4 -1 -3
right_child=1 5 3 -5 -6 -7
leaf_value=6.5208042381180045 5.5186333541310999 0.5442589796798577 -1.0855746339383767 3.1191927949142837 -1.0011399146956195 3.2000149938965654
leaf_weight=1182 13509 14414 10291 11053 160470 15053
leaf_count=1182 13509 14414 10291 11053 160470 15053
internal_value=0 3.03811 -0.708323 1.09282 -0.946139 1.90093
internal_weight=0 42976 182996 21344 161652 29467
internal_count=225972 42976 182996 21344 161652 29467
cat_boundaries=0 1
cat_threshold=16646151
is_linear=0
shrinkage=0.02


Tree=32
num_leaves=7
num_cat=2
split_feature=1 36 263 245 263 4
split_gain=1.17312e+09 2.65802e+08 2.50958e+08 1.95844e+08 2.33144e+08 1.66877e+08
threshold=8.1550000000000029 1.9850000000000003 0 1437.865 1 39.34108695652175
decision_type=2 2 1 2 1 2
left_child=3 2 -2 5 -5 -1
right_child=1 -3 -4 4 -6 -7
leaf_value=-1.1994008882803369 -2.3705045068056667 4.2053266788291577 3.022176698985334 -1.0487844492706144 3.0937919271466758 0.53669834644329317
leaf_weight=136304 5797 27169 8504 10459 11296 26443
leaf_count=136304 5797 27169 8504 10459 11296 26443
internal_value=0 3.04364 0.836675 -0.679085 1.10313 -0.917321
internal_weight=0 41470 14301 184502 21755 162747
internal_count=225972 41470 14301 184502 21755 162747
cat_boundaries=0 1 2
cat_threshold=4177920 16646151
is_linear=0
shrinkage=0.02


Tree=33
num_leaves=7
num_cat=1
split_feature=15 37 10 263 244 45
split_gain=1.13598e+09 2.69872e+08 2.39187e+08 1.38502e+08 1.33572e+08 1.42377e+08
threshold=7.8415189873417726 3.0752523831806955 512.40000000000009 0 771.51062500000012 0.019463258078796123
decision_type=2 2 2 1 2 2
left_child=2 4 3 -1 5 -2
right_child=1 -3 -4 -5 -6 -7
leaf_value=-1.8272272874954341 -0.37428521585561592 -0.29680325479032904 0.94310099021754312 -0.52750671482296274 5.5860613727409145 4.3025579880612295
leaf_weight=46210 3928 6230 33999 113021 14861 7723
leaf_count=46210 3928 6230 33999 113021 14861 7723
internal_value=0 3.4489 -0.579696 -0.904843 4.32909 2.72581
internal_weight=0 32742 193230 159231 26512 11651
internal_count=225972 32742 193230 159231 26512 11651
cat_boundaries=0 1
cat_threshold=12582943
is_linear=0
shrinkage=0.02


Tree=34
num_leaves=7
num_cat=0
split_feature=15 37 10 79 128 249
split_gain=1.091e+09 2.59185e+08 2.29716e+08 1.49095e+08 1.52146e+08 1.59859e+08
threshold=7.8415189873417726 3.0752523831806955 512.40000000000009 2.6134434167182534 3.0504477990009256 212.05850694444445
decision_type=2 2 2 2 2 2
left_child=2 3 -1 -2 -5 -6
right_child=1 -3 -4 4 5 -7
leaf_value=-0.88674912160491592 6.6544301383246696 -0.29086722668790127 0.92423904701241211 1.1274646598755154 0.8556007124044972 6.1944298200201944
leaf_weight=159231 7393 6230 33999 7659 3061 8399
leaf_count=159231 7393 6230 33999 7659 3061 8399
internal_value=0 3.37992 -0.568104 4.24251 3.30986 4.76841
internal_weight=0 32742 193230 26512 19119 11460
internal_count=225972 32742 193230 26512 19119 11460
is_linear=0
shrinkage=0.02


Tree=35
num_leaves=7
num_cat=0
split_feature=29 128 228 9 147 35
split_gain=1.05343e+09 2.15986e+08 2.29241e+08 1.97683e+08 1.51084e+08 1.39475e+08
threshold=5.4507659574468095 3.2310008915759645 318.78916666666674 38.155000000000008 36.32500000000001 10.391582278481016
decision_type=2 2 2 2 2 2
left_child=1 -1 4 -2 5 -3
right_child=3 2 -4 -5 -6 -7
leaf_value=-1.2852446413890533 1.8190063942941954 -1.5462506317191234 2.1558888214598877 4.8436904487996353 0.78435051694692026 0.94659439638114962
leaf_weight=91373 18950 41804 17276 15891 28947 11433
leaf_count=91373 18950 41804 17276 15891 28947 11433
internal_value=0 -0.583253 0.0616598 3.19857 -0.378571 -1.0109
internal_weight=0 190833 99460 34841 82184 53237
internal_count=225674 190833 99460 34841 82184 53237
is_linear=0
shrinkage=0.02


Tree=36
num_leaves=7
num_cat=0
split_feature=36 172 9 255 81 128
split_gain=1.01533e+09 2.77613e+08 2.66238e+08 2.08782e+08 1.47001e+08 1.45026e+08
threshold=3.8550000000000004 2.2157986111111101 9.4650000000000016 5.8553819444444466 -15.209201388888888 3.593797029922249
decision_type=2 2 2 2 2 2
left_child=2 3 -1 -2 -3 -4
right_child=1 4 5 -5 -6 -7
leaf_value=-0.86759168331893566 0.82386957966780461 -1.9260142415364585 -0.024884310302634015 5.9075386911452981 5.857167008798033 3.2021138772780757
leaf_weight=166405 19040 1050 12163 3892 12846 10278
leaf_count=166405 19040 1050 12163 3892 12846 10278
internal_value=0 3.03838 -0.591821 1.68667 5.26906 1.45308
internal_weight=0 36828 188846 22932 13896 22441
internal_count=225674 36828 188846 22932 13896 22441
is_linear=0
shrinkage=0.02


Tree=37
num_leaves=7
num_cat=1
split_feature=1 77 141 252 263 58
split_gain=9.81871e+08 2.58281e+08 1.71526e+08 1.65574e+08 1.48183e+08 1.28829e+08
threshold=8.3317021276595771 6.4750000000000005 38.614578059071739 1365.2600000000002 0 0.4891761774736364
decision_type=2 2 2 2 1 2
left_child=2 -2 3 -1 -5 -4
right_child=1 -3 5 4 -6 -7
leaf_value=-1.2780362691273355 5.1228206203510602 1.7011821233309232 7.0688660872349667 -1.3951539568530489 1.0727496934593013 0.47814626436825008
leaf_weight=112494 13529 25376 1234 15148 27178 30715
leaf_count=112494 13529 25376 1234 15148 27178 30715
internal_value=0 2.89104 -0.601513 -0.876846 0.189439 0.732707
internal_weight=0 38905 186769 154820 42326 31949
internal_count=225674 38905 186769 154820 42326 31949
cat_boundaries=0 1
cat_threshold=16515079
is_linear=0
shrinkage=0.02


Tree=38
num_leaves=7
num_cat=0
split_feature=29 9 172 45 206 41
split_gain=9.48257e+08 2.17198e+08 1.89977e+08 1.58686e+08 1.37613e+08 1.86742e+08
threshold=5.8102589641434266 9.4650000000000016 2.7039583333333295 0.028194444444446191 1.4717361111111134 11.352916666666667
decision_type=2 2 2 2 2 2
left_child=1 4 3 -2 5 -1
right_child=2 -3 -4 -5 -6 -7
leaf_value=-0.50045747220671422 0.54611934156254149 1.4092135482813621 5.4476801309033185 4.0830060943948192 -1.849416208033988 13.100289190598476
leaf_weight=137415 11302 20915 10445 9208 35984 405
leaf_count=137415 11302 20915 10445 9208 35984 405
internal_value=0 -0.516336 3.25213 2.13401 -0.74805 -0.46049
internal_weight=0 194719 30955 20510 173804 137820
internal_count=225674 194719 30955 20510 173804 137820
is_linear=0
shrinkage=0.02


Tree=39
num_leaves=7
num_cat=0
split_feature=244 45 37 130 140 39
split_gain=9.1717e+08 3.33891e+08 2.97127e+08 1.90164e+08 1.56401e+08 1.53924e+08
threshold=794.26211226851854 0.0292361111111108 3.6110982312864679 1.2023437500000009 37.465000000000011 0.96607638888888936
decision_type=2 2 2 2 2 2
left_child=1 4 3 -2 -1 -3
right_child=2 5 -4 -5 -6 -7
leaf_value=-1.1152011827921802 2.6093609186467708 0.081669796033542852 -2.408079332955531 6.2197854390241547 0.2743297372275546 3.2459867518655341
leaf_weight=131492 12844 11912 3026 10694 42996 12710
leaf_count=131492 12844 11912 3026 10694 42996 12710
internal_value=0 -0.465148 3.49127 4.24968 -0.772804 1.71511
internal_weight=0 199110 26564 23538 174488 24622
internal_count=225674 199110 26564 23538 174488 24622
is_linear=0
shrinkage=0.02


Tree=40
num_leaves=7
num_cat=0
split_feature=15 37 46 206 41 77
split_gain=8.81073e+08 2.36116e+08 1.75787e+08 1.7385e+08 1.75996e+08 1.29834e+08
threshold=7.7118525896414356 3.0752523831806955 -2.084305555555555 0.86951388888888925 11.675190972222223 154.18000000000004
decision_type=2 2 2 2 2 2
left_child=2 -2 -1 4 -4 -5
right_child=1 -3 3 5 -6 -7
leaf_value=-1.5344183896649259 3.7677013011581169 -0.49819933201229655 0.23026365677667449 -1.4763062760176187 13.57296663452456 5.0018561717527392
leaf_weight=50699 27654 6389 100354 39052 397 1278
leaf_count=50699 27654 6389 100354 39052 397 1278
internal_value=0 2.9671 -0.524338 -0.161354 0.282839 -1.27102
internal_weight=0 34043 191780 141081 100751 40330
internal_count=225823 34043 191780 141081 100751 40330
is_linear=0
shrinkage=0.02


Tree=41
num_leaves=7
num_cat=0
split_feature=1 30 245 72 79 254
split_gain=8.73112e+08 2.21256e+08 2.16088e+08 1.72518e+08 1.38601e+08 1.17408e+08
threshold=8.7330000000000023 2.4517032542176165 1437.865 0.88047963506738625 2.7175242240604738 75.824200592838181
decision_type=2 2 2 2 2 2
left_child=2 4 3 -1 -2 -5
right_child=1 -3 -4 5 -6 -7
leaf_value=6.257399628026203 6.0543662397267806 0.018393345519935683 1.2542334794358978 -2.7729132849492033 2.8784363326528246 -0.69210256928492786
leaf_weight=1382 7787 8007 23872 11666 18686 154423
leaf_count=1382 7787 8007 23872 11666 18686 154423
internal_value=0 2.93153 -0.525949 -0.779703 3.81263 -0.838258
internal_weight=0 34480 191343 167471 26473 166089
internal_count=225823 34480 191343 167471 26473 166089
is_linear=0
shrinkage=0.02


Tree=42
num_leaves=7
num_cat=1
split_feature=15 37 245 263 72 44
split_gain=8.16045e+08 2.28435e+08 2.19998e+08 2.86868e+08 1.4844e+08 1.43935e+08
threshold=8.0330161943319869 3.0752523831806955 1437.865 0 0.88047963506738625 2.7203853248857777
decision_type=2 2 2 1 2 2
left_child=2 -2 4 5 -1 -4
right_child=1 -3 3 -5 -6 -7
leaf_value=6.1340484483356184 3.8956284873539926 -0.46330861089700043 2.0469157510174965 3.4123604740608564 -0.78070504355908532 -2.4774650440156347
leaf_weight=1251 24560 5980 4342 12538 169167 7985
leaf_count=1251 24560 5980 4342 12538 169167 7985
internal_value=0 3.04211 -0.47353 1.28387 -0.729945 -0.883104
internal_weight=0 30540 195283 24865 170418 12327
internal_count=225823 30540 195283 24865 170418 12327
cat_boundaries=0 1
cat_threshold=16678919
is_linear=0
shrinkage=0.02


Tree=43
num_leaves=7
num_cat=1
split_feature=36 172 128 235 263 29
split_gain=7.89322e+08 2.16249e+08 2.15404e+08 2.21322e+08 1.58737e+08 1.72113e+08
threshold=3.7250000000000005 2.3766666666666638 3.2735941389724674 313.98437500000006 0 7.6436286919831238
decision_type=2 2 2 2 1 2
left_child=2 4 -1 -4 5 -2
right_child=1 -3 3 -5 -6 -7
leaf_value=-1.219755521942721 1.4698359239018413 4.6704003159343213 -0.33712149156021731 2.092036815118608 0.29939767652595323 7.2260291600689266
leaf_weight=92083 5458 13467 77246 18619 15595 3355
leaf_count=92083 5458 13467 77246 18619 15595 3355
internal_value=0 2.63588 -0.528914 0.134672 1.51335 3.657
internal_weight=0 37875 187948 95865 24408 8813
internal_count=225823 37875 187948 95865 24408 8813
cat_boundaries=0 1
cat_threshold=16744448
is_linear=0
shrinkage=0.02


Tree=44
num_leaves=7
num_cat=2
split_feature=1 37 245 263 263 141
split_gain=7.88028e+08 2.19453e+08 1.95491e+08 2.41449e+08 1.53527e+08 1.45891e+08
threshold=8.7330000000000023 3.0146081964697626 1437.865 0 1 39.362500000000004
decision_type=2 2 2 1 1 2
left_child=2 -2 5 -4 -3 -1
right_child=1 4 3 -5 -6 -7
leaf_value=-0.98366135573226843 3.5861264084408648 -3.2553764664677454 -1.1203798968176502 2.9407790988998652 2.6887198390972067 0.69516271968117016
leaf_weight=143268 27538 3598 10275 13597 3344 24203
leaf_count=143268 27538 3598 10275 13597 3344 24203
internal_value=0 2.78501 -0.499679 1.19354 -0.392888 -0.741037
internal_weight=0 34480 191343 23872 6942 167471
internal_count=225823 34480 191343 23872 6942 167471
cat_boundaries=0 1 2
cat_threshold=16515079 16744448
is_linear=0
shrinkage=0.02


Tree=45
num_leaves=7
num_cat=1
split_feature=36 9 9 263 39 39
split_gain=7.47253e+08 2.18091e+08 1.97219e+08 1.73594e+08 1.3454e+08 1.32867e+08
threshold=3.8550000000000004 9.4650000000000016 38.155000000000008 0 2.5734777556440904 1.365104166666667
decision_type=2 2 2 1 2 2
left_child=1 -1 5 -3 -5 -2
right_child=2 3 -4 4 -6 -7
leaf_value=-0.7467581221469668 -1.0968102045264894 -1.5249870792319196 4.5668745940183006 1.4050035513853416 5.6454582417831833 2.3820563529297427
leaf_weight=166485 5842 6118 13278 12480 3937 17685
leaf_count=166485 5842 6118 13278 12480 3937 17685
internal_value=0 -0.496818 2.61807 1.3497 2.42044 1.51822
internal_weight=0 189020 36805 22535 16417 23527
internal_count=225825 189020 36805 22535 16417 23527
cat_boundaries=0 1
cat_threshold=4128768
is_linear=0
shrinkage=0.02


Tree=46
num_leaves=7
num_cat=1
split_feature=29 245 263 41 242 206
split_gain=7.19255e+08 1.87222e+08 2.78931e+08 1.56484e+08 1.6042e+08 1.42447e+08
threshold=6.3110917030567695 1437.865 0 11.108194444444445 249.95129540598293 1.4717361111111134
decision_type=2 2 1 2 2 2
left_child=1 5 -3 4 -4 -1
right_child=-2 2 3 -5 -6 -7
leaf_value=-0.34859149798983652 3.1237456868520601 -1.0492313770863484 1.0227740715041278 14.862082363459617 5.4976161421974989 -1.7777534109727358
leaf_weight=138512 26237 12085 8464 438 5157 34932
leaf_count=138512 26237 12085 8464 438 5157 34932
internal_value=0 -0.398609 1.17913 3.09315 2.71698 -0.636428
internal_weight=0 199588 26144 14059 13621 173444
internal_count=225825 199588 26144 14059 13621 173444
cat_boundaries=0 1
cat_threshold=16711683
is_linear=0
shrinkage=0.02


Tree=47
num_leaves=7
num_cat=0
split_feature=36 172 128 228 81 255
split_gain=6.94611e+08 2.15357e+08 1.95934e+08 2.02088e+08 1.5162e+08 1.50756e+08
threshold=3.8550000000000004 2.2931423611111126 3.2214431169220936 346.57520471014499 -14.402152777777776 6.3391249999999966
decision_type=2 2 2 2 2 2
left_child=2 5 -1 -4 -3 -2
right_child=1 4 3 -5 -6 -7
leaf_value=-1.1634909383535881 0.69623412098680748 -2.5532092087382567 -0.30465916996263254 1.995432735006414 5.1576323365855101 5.2938512926989496
leaf_weight=88748 19907 1111 81465 18807 12457 3330
leaf_count=88748 19907 1111 81465 18807 12457 3330
internal_value=0 2.52413 -0.479042 0.126746 4.52624 1.3551
internal_weight=0 36805 189020 100272 13568 23237
internal_count=225825 36805 189020 100272 13568 23237
is_linear=0
shrinkage=0.02


Tree=48
num_leaves=7
num_cat=0
split_feature=244 45 35 4 172 58
split_gain=6.70168e+08 2.91285e+08 2.15555e+08 1.35511e+08 1.22948e+08 1.22443e+08
threshold=794.26211226851854 0.030277777777778517 17.335000000000004 36.99414893617022 2.45333333333333 0.4891761774736364
decision_type=2 2 2 2 2 2
left_child=1 3 4 -1 -2 -5
right_child=2 -3 -4 5 -6 -7
leaf_value=-0.98059921559778129 2.5085385112889038 1.7184852458586284 -1.7587515405508187 6.7301858594425825 5.4916673252889554 0.13225227912204665
leaf_weight=132938 14013 23226 3328 1156 9125 42039
leaf_count=132938 14013 23226 3328 1156 9125 42039
internal_value=0 -0.386767 3.00047 -0.664379 3.685 0.308829
internal_weight=0 199359 26466 176133 23138 43195
internal_count=225825 199359 26466 176133 23138 43195
is_linear=0
shrinkage=0.02


Tree=49
num_leaves=7
num_cat=0
split_feature=1 37 245 72 72 37
split_gain=6.70902e+08 1.78929e+08 1.60008e+08 1.45102e+08 1.26955e+08 1.22963e+08
threshold=8.870043668122273 3.0438198724362358 1419.6800000000003 0.88047963506738625 2.7641366371935123 3.6752227251423339
decision_type=2 2 2 2 2 2
left_child=2 4 3 -1 -2 -4
right_child=1 -3 5 -5 -6 -7
leaf_value=5.815188774686443 5.1346811179490128 -0.34799140692054858 1.7976143589764961 -0.72056303113508247 2.2854594766657224 -1.4227903772957349
leaf_weight=1370 10138 6408 19683 165644 16334 6248
leaf_count=1370 10138 6408 19683 165644 16334 6248
internal_value=0 2.65073 -0.440008 -0.666951 3.37663 1.02167
internal_weight=0 32880 192945 167014 26472 25931
internal_count=225825 32880 192945 167014 26472 25931
is_linear=0
shrinkage=0.02


Tree=50
num_leaves=7
num_cat=0
split_feature=244 45 37 130 147 246
split_gain=6.5883e+08 2.54354e+08 2.53785e+08 1.69685e+08 1.28501e+08 1.25432e+08
threshold=805.64291666666679 0.028194444444446191 3.8343572970586788 1.320104166666668 37.335000000000008 169.68500000000003
decision_type=2 2 2 2 2 2
left_child=1 4 3 -2 -1 -3
right_child=2 5 -4 -5 -6 -7
leaf_value=-0.99852598217168931 2.1456190405807156 0.9688108113675622 -2.9180603567477874 5.5887429701807996 0.22317323413422696 5.4635609944661461
leaf_weight=126354 12911 23638 2599 10287 47341 2775
leaf_count=126354 12911 23638 2599 10287 47341 2775
internal_value=0 -0.387493 3.00847 3.67245 -0.665549 1.44104
internal_weight=0 200108 25797 23198 173695 26413
internal_count=225905 200108 25797 23198 173695 26413
is_linear=0
shrinkage=0.02


Tree=51
num_leaves=7
num_cat=0
split_feature=244 45 37 130 175 128
split_gain=6.3274e+08 2.44282e+08 2.43735e+08 1.62965e+08 1.2203e+08 1.17317e+08
threshold=805.64291666666679 0.028194444444446191 3.8343572970586788 1.320104166666668 36.393043478260871 3.4683001585833044
decision_type=2 2 2 2 2 2
left_child=1 4 3 -2 -1 -3
right_child=2 5 -4 -5 -6 -7
leaf_value=-0.97548775856044545 2.1027065628107304 0.054911669933171703 -2.8596992101078542 5.4769681456810506 0.21712236466688636 2.7211696805305712
leaf_weight=126616 12911 12967 2599 10287 47079 13446
leaf_count=126616 12911 12967 2599 10287 47079 13446
internal_value=0 -0.379743 2.9483 3.599 -0.652238 1.41222
internal_weight=0 200108 25797 23198 173695 26413
internal_count=225905 200108 25797 23198 173695 26413
is_linear=0
shrinkage=0.02


Tree=52
num_leaves=7
num_cat=0
split_feature=244 45 37 39 212 128
split_gain=6.07683e+08 2.34608e+08 2.3438e+08 1.28906e+08 1.48482e+08 1.20138e+08
threshold=805.64291666666679 0.028194444444446191 3.926909259381643 1.0286458333333346 38.521887540035507 3.4767852861365935
decision_type=2 2 2 2 2 2
left_child=1 -1 -2 4 -3 -5
right_child=2 3 -4 5 -6 -7
leaf_value=-0.63919310981340249 3.5056295625321114 4.4810629115993121 -3.0075258603031547 0.67545176889235137 -1.021408163474838 4.5021029821629712
leaf_weight=173695 23356 2399 2441 5978 10760 7276
leaf_count=173695 23356 2399 2441 5978 10760 7276
internal_value=0 -0.372148 2.88933 1.38397 -0.0182599 2.77615
internal_weight=0 200108 25797 26413 13159 13254
internal_count=225905 200108 25797 26413 13159 13254
is_linear=0
shrinkage=0.02


Tree=53
num_leaves=7
num_cat=0
split_feature=244 45 28 27 206 39
split_gain=5.83619e+08 2.25318e+08 1.89588e+08 1.24671e+08 1.37378e+08 1.23802e+08
threshold=805.64291666666679 0.028194444444446191 17.225000000000005 1.4234722222222222 1.4346527777778137 1.0286458333333346
decision_type=2 2 2 2 2 2
left_child=1 3 -2 -1 -5 -3
right_child=2 5 -4 4 -6 -7
leaf_value=-2.9058759398875229 3.3839507170010377 -0.017894713553045921 -2.4900747839164263 -0.2058057899627827 -1.6334816953929627 2.7206314553404281
leaf_weight=9095 23371 13159 2426 130629 33971 13254
leaf_count=9095 23371 13159 2426 130629 33971 13254
internal_value=0 -0.364705 2.83155 -0.626409 -0.500457 1.35629
internal_weight=0 200108 25797 173695 164600 26413
internal_count=225905 200108 25797 173695 164600 26413
is_linear=0
shrinkage=0.02


Tree=54
num_leaves=7
num_cat=1
split_feature=9 77 245 263 72 41
split_gain=5.41555e+08 1.97124e+08 1.77517e+08 2.0656e+08 1.31915e+08 1.15612e+08
threshold=20.875000000000004 6.0150000000000006 1437.865 0 0.88047963506738625 3.0707465277777781
decision_type=2 2 2 1 2 2
left_child=2 -2 4 -4 -1 -5
right_child=1 -3 3 5 -6 -7
leaf_value=5.0335731936870598 4.7799272194492799 1.3722413519801078 -0.90165447618300865 15.725485896060341 -0.69618710921160509 2.4225037403210803
leaf_weight=1623 9731 22468 11498 266 165480 14839
leaf_count=1623 9731 22468 11498 266 165480 14839
internal_value=0 2.40209 -0.398962 1.11846 -0.640536 2.65501
internal_weight=0 32199 193706 26603 167103 15105
internal_count=225905 32199 193706 26603 167103 15105
cat_boundaries=0 1
cat_threshold=16646151
is_linear=0
shrinkage=0.02


Tree=55
num_leaves=7
num_cat=0
split_feature=36 130 9 22 81 244
split_gain=5.74988e+08 2.02286e+08 1.51861e+08 1.48311e+08 1.43836e+08 1.36905e+08
threshold=3.7250000000000005 1.3620312500000014 8.0350000000000019 8.3426239669421509 -16.63944444444444 593.05938657407421
decision_type=2 2 2 2 2 2
left_child=2 3 -1 -2 -3 -6
right_child=1 4 -4 -5 5 -7
leaf_value=-0.67195872348906516 -0.3554973180858928 -2.9542974266216908 1.0659325425886796 2.941107989274931 -0.008591087455783181 5.3415258489028039
leaf_weight=164744 13105 1112 22909 9356 2266 12287
leaf_count=164744 13105 1112 22909 9356 2266 12287
internal_value=0 2.2343 -0.459794 1.01768 3.97872 4.50848
internal_weight=0 38126 187653 22461 15665 14553
internal_count=225779 38126 187653 22461 15665 14553
is_linear=0
shrinkage=0.02


Tree=56
num_leaves=7
num_cat=1
split_feature=36 172 128 263 255 235
split_gain=5.52218e+08 1.90077e+08 1.80598e+08 1.67098e+08 1.78197e+08 1.5641e+08
threshold=3.7250000000000005 2.2157986111111101 3.2735941389724674 0 5.0258101851851658 290.6183333333334
decision_type=2 2 2 1 2 2
left_child=2 3 -1 4 -2 -4
right_child=1 -3 5 -5 -6 -7
leaf_value=-1.081403784155367 1.6455145669713571 4.0139534531414069 -0.24703521368335207 -0.073870161950420954 8.4238830760895027 1.7725056385705988
leaf_weight=92274 5682 14285 76171 16025 2134 19208
leaf_count=92274 5682 14285 76171 16025 2134 19208
internal_value=0 2.18961 -0.450598 1.09651 3.49174 0.159672
internal_weight=0 38126 187653 23841 7816 95379
internal_count=225779 38126 187653 23841 7816 95379
cat_boundaries=0 1
cat_threshold=8355840
is_linear=0
shrinkage=0.02


Tree=57
num_leaves=7
num_cat=1
split_feature=36 130 263 45 206 247
split_gain=5.3035e+08 1.88458e+08 1.6226e+08 1.66671e+08 1.41612e+08 1.51069e+08
threshold=3.7250000000000005 1.320104166666668 0 0.0292361111111108 1.362638888888853 43.935193769987897
decision_type=2 2 1 2 2 2
left_child=4 2 3 -2 5 -1
right_child=1 -3 -4 -5 -6 -7
leaf_value=-2.2955706641949436 1.3725168431211443 3.8156862178990116 -0.24100446199438982 7.8614496846915847 -1.4594730746241769 0.048332305218325676
leaf_weight=11988 5106 15818 14907 2295 42337 133328
leaf_count=11988 5106 15818 14907 2295 42337 133328
internal_value=0 2.14582 0.961764 3.38012 -0.441586 -0.14503
internal_weight=0 38126 22308 7401 187653 145316
internal_count=225779 38126 22308 7401 187653 145316
cat_boundaries=0 1
cat_threshold=8355840
is_linear=0
shrinkage=0.02


Tree=58
num_leaves=7
num_cat=0
split_feature=15 123 245 30 252 206
split_gain=5.04375e+08 1.46553e+08 1.57098e+08 1.37862e+08 1.29516e+08 1.28233e+08
threshold=7.8415189873417726 -4.8824652777777802 1425.5540000000003 2.4211492984911929 319.54000000000002 1.4346527777778137
decision_type=2 2 2 2 2 2
left_child=1 -1 4 -2 -3 -6
right_child=3 2 -4 -5 5 -7
leaf_value=-1.7280865223169344 2.9860229901693915 -2.6691301073739226 1.4915763410681551 -0.18694694644760174 0.078769781775906503 -1.431753771357239
leaf_weight=28062 25457 9366 20115 6979 107366 28434
leaf_count=28062 25457 9366 20115 6979 107366 28434
internal_value=0 -0.391754 -0.164867 2.30332 -0.394392 -0.237506
internal_weight=0 193343 165281 32436 145166 135800
internal_count=225779 193343 165281 32436 145166 135800
is_linear=0
shrinkage=0.02


Tree=59
num_leaves=7
num_cat=0
split_feature=36 128 242 99 9 9
split_gain=4.92799e+08 1.7227e+08 1.59156e+08 1.63602e+08 1.58457e+08 1.2935e+08
threshold=3.7250000000000005 3.2735941389724674 94.437693739935597 31.742500000000003 34.255000000000003 5.5250000000000012
decision_type=2 2 2 2 2 2
left_child=1 -1 3 -3 -2 -4
right_child=4 2 5 -5 -6 -7
leaf_value=-1.0417399756891568 1.0898859701503143 -1.0837161579910193 0.51549471022680915 1.0794197987870877 3.7672989717886618 3.3553347795114048
leaf_weight=92274 24191 43951 21829 20513 13935 9086
leaf_count=92274 24191 43951 21829 20513 13935 9086
internal_value=0 -0.42565 0.170384 -0.395388 2.06848 1.35013
internal_weight=0 187653 95379 64464 38126 30915
internal_count=225779 187653 95379 64464 38126 30915
is_linear=0
shrinkage=0.02


Tree=60
num_leaves=7
num_cat=0
split_feature=9 46 212 35 71 208
split_gain=4.57751e+08 1.6252e+08 1.48788e+08 1.40001e+08 1.28464e+08 1.26812e+08
threshold=38.155000000000008 -1.8925694444444441 79.969649180795741 15.695000000000002 -9.2749999999999968 -30.152500000000018
decision_type=2 2 2 2 2 2
left_child=1 3 4 -1 -2 -3
right_child=2 5 -4 -5 -6 -7
leaf_value=-1.4026177567798934 0.73874794444592851 -0.90616034962007574 -0.3155250320966741 6.3472384402372564 4.1377058647188436 0.40119462374524462
leaf_weight=53320 6215 41980 6308 949 15643 101274
leaf_count=53320 6215 41980 6308 949 15643 101274
internal_value=0 -0.33502 2.39037 -1.2671 3.17126 0.0180796
internal_weight=0 197523 28166 54269 21858 143254
internal_count=225689 197523 28166 54269 21858 143254
is_linear=0
shrinkage=0.02


Tree=61
num_leaves=7
num_cat=0
split_feature=1 158 254 121 30 72
split_gain=4.42437e+08 1.36185e+08 1.47521e+08 1.42311e+08 1.3229e+08 1.27296e+08
threshold=8.6610548523206763 -4.6006250000000035 79.985490037789603 3.538501278083038 2.3907790845319634 0.88047963506738625
decision_type=2 2 2 2 2 2
left_child=1 -1 -3 5 -2 -4
right_child=4 2 3 -5 -6 -7
leaf_value=-1.6108162230775289 2.7574572104450112 -2.278126719952934 6.2198230135195143 1.5236095115785542 -0.1108375731903285 -0.29038186146281758
leaf_weight=30061 26690 11988 1213 21733 8474 125530
leaf_count=30061 26690 11988 1213 21733 8474 125530
internal_value=0 -0.375422 -0.143986 0.0283252 2.06624 -0.228076
internal_weight=0 190525 160464 148476 35164 126743
internal_count=225689 190525 160464 148476 35164 126743
is_linear=0
shrinkage=0.02


Tree=62
num_leaves=7
num_cat=0
split_feature=1 37 144 254 121 58
split_gain=4.24916e+08 1.6193e+08 1.31393e+08 1.44344e+08 1.3358e+08 1.25366e+08
threshold=8.6610548523206763 3.0146081964697626 -5.4649999999999936 79.985490037789603 3.538501278083038 0.4891761774736364
decision_type=2 2 2 2 2 2
left_child=2 -2 -1 -4 5 -5
right_child=1 -3 3 4 -6 -7
leaf_value=-1.7744222092117201 2.7010559426940977 -0.69937035881409115 -2.2482534578478255 5.2985926261132263 1.3779587413388501 -0.3238173854251023
leaf_weight=23316 28172 6992 12398 1606 23652 129553
leaf_count=23316 28172 6992 12398 1606 23652 129553
internal_value=0 2.02492 -0.367914 -0.171787 -0.00549376 -0.254973
internal_weight=0 35164 190525 167209 154811 131159
internal_count=225689 35164 190525 167209 154811 131159
is_linear=0
shrinkage=0.02


Tree=63
num_leaves=7
num_cat=0
split_feature=9 46 212 35 37 245
split_gain=4.19896e+08 1.50342e+08 1.39192e+08 1.34892e+08 1.10115e+08 2.00946e+08
threshold=38.155000000000008 -1.8925694444444441 79.969649180795741 15.695000000000002 3.6752227251423339 1437.865
decision_type=2 2 2 2 2 2
left_child=1 3 -2 -1 5 -3
right_child=2 4 -4 -5 -6 -7
leaf_value=-1.3504558337612969 3.0446071658892322 -0.15544233951128619 -0.32787304352716168 6.2566724546088812 -2.3636583026781319 2.0987588058141058
leaf_weight=53320 21858 117616 6308 949 7362 18276
leaf_count=53320 21858 117616 6308 949 7362 18276
internal_value=0 -0.320953 2.28931 -1.21743 0.0186603 0.147723
internal_weight=0 197523 28166 54269 143254 135892
internal_count=225689 197523 28166 54269 143254 135892
is_linear=0
shrinkage=0.02


Tree=64
num_leaves=7
num_cat=0
split_feature=9 77 46 35 208 14
split_gain=4.03268e+08 1.48032e+08 1.4497e+08 1.16167e+08 1.14003e+08 1.09156e+08
threshold=38.155000000000008 6.1050000000000013 -2.4359027777777773 15.695000000000002 -35.233194444444443 1.7950000000000002
decision_type=2 2 2 2 2 2
left_child=2 -2 3 -1 -4 -6
right_child=1 -3 4 -5 5 -7
leaf_value=-1.4755870846173844 4.3362994291893306 1.2389832392861895 -0.92990690400437004 6.3777073854448894 -1.7289421275001438 0.49056318867069421
leaf_weight=42567 9135 19031 41065 767 9694 103430
leaf_count=42567 9135 19031 41065 767 9694 103430
internal_value=0 2.24353 -0.314534 -1.33659 -0.0272915 0.300366
internal_weight=0 28166 197523 43334 154189 113124
internal_count=225689 28166 197523 43334 154189 113124
is_linear=0
shrinkage=0.02


Tree=65
num_leaves=7
num_cat=0
split_feature=35 36 72 88 165 35
split_gain=3.97529e+08 1.97744e+08 1.30604e+08 1.11281e+08 1.34662e+08 1.75453e+08
threshold=10.391582278481016 3.0650000000000004 1.366680659733148 -3.8046701388888886 1.603055555555555 17.335000000000004
decision_type=2 2 2 2 2 2
left_child=2 -2 -1 -3 -5 -6
right_child=1 3 -4 4 5 -7
leaf_value=4.6799535976978053 0.27538024273369621 0.39260234488607704 -0.63523020394107055 1.7760969284888963 5.8543899424654642 -1.4816962404900196
leaf_weight=1872 39592 8424 151682 13986 8897 1528
leaf_count=1872 39592 8424 151682 13986 8897 1528
internal_value=0 1.22707 -0.570432 2.37461 3.05858 4.77913
internal_weight=0 72427 153554 32835 24411 10425
internal_count=225981 72427 153554 32835 24411 10425
is_linear=0
shrinkage=0.02


Tree=66
num_leaves=7
num_cat=1
split_feature=1 37 130 206 263 128
split_gain=3.93381e+08 1.47896e+08 1.36197e+08 1.5338e+08 1.29516e+08 1.28611e+08
threshold=9.08266666666667 3.0752523831806955 -4.2419097222222222 1.2498611111111206 0 4.8903155805877354
decision_type=2 2 2 2 1 2
left_child=2 -2 5 -4 -3 -1
right_child=1 4 3 -5 -6 -7
leaf_value=-2.1938048939430725 2.7996217776252945 -3.4057013891721533 0.25119408206511484 -1.2408224860631878 2.4252190576257089 0.52874616482210557
leaf_weight=25549 24627 3246 124804 35371 2855 9529
leaf_count=25549 24627 3246 124804 35371 2855 9529
internal_value=0 2.10901 -0.325476 -0.0782838 -0.678694 -1.45422
internal_weight=0 30728 195253 160175 6101 35078
internal_count=225981 30728 195253 160175 6101 35078
cat_boundaries=0 1
cat_threshold=16744448
is_linear=0
shrinkage=0.02


Tree=67
num_leaves=7
num_cat=2
split_feature=1 37 123 245 263 263
split_gain=3.77994e+08 1.42655e+08 1.33417e+08 1.50686e+08 1.34178e+08 1.30756e+08
threshold=8.870043668122273 3.0438198724362358 -3.7851736111111136 1437.865 0 1
decision_type=2 2 2 2 1 1
left_child=2 -2 -1 -4 -5 -3
right_child=1 5 3 4 -6 -7
leaf_value=-1.4077368799964882 2.6425531285480388 -3.3365534367215806 -0.30269889431286795 -0.28675394067090249 3.1519258244994051 2.3163890155528946
leaf_weight=37241 26368 3440 137446 8168 10213 3105
leaf_count=37241 26368 3440 137446 8168 10213 3105
internal_value=0 1.98655 -0.332283 -0.075261 1.62543 -0.656311
internal_weight=0 32913 193068 155827 18381 6545
internal_count=225981 32913 193068 155827 18381 6545
cat_boundaries=0 1 2
cat_threshold=16580615 16744448
is_linear=0
shrinkage=0.02


Tree=68
num_leaves=7
num_cat=0
split_feature=35 37 45 72 158 128
split_gain=3.62719e+08 2.9359e+08 1.61348e+08 1.2404e+08 1.13263e+08 9.46885e+07
threshold=10.391582278481016 3.0438198724362358 0.027708333333333227 1.366680659733148 4.4613888888888864 3.6899112389452431
decision_type=2 2 2 2 2 2
left_child=3 2 4 -1 -2 -3
right_child=1 5 -4 -5 -6 -7
leaf_value=4.5717944571973996 0.70856478497105779 -1.8201964534195119 3.5716480669439021 -0.60811193967085286 4.0503436184050114 0.84511952948153846
leaf_weight=1872 28080 13227 17446 151682 4742 8932
leaf_count=1872 28080 13227 17446 151682 4742 8932
internal_value=0 1.17204 2.01747 -0.544963 1.19137 -0.745843
internal_weight=0 72427 50268 153554 32822 22159
internal_count=225981 72427 50268 153554 32822 22159
is_linear=0
shrinkage=0.02


Tree=69
num_leaves=7
num_cat=0
split_feature=1 123 245 44 79 58
split_gain=3.51759e+08 1.3181e+08 1.48219e+08 1.36222e+08 1.24216e+08 1.16515e+08
threshold=9.08266666666667 -3.7851736111111136 1437.865 3.7223243846754666 2.6485390529767363 0.4891761774736364
decision_type=2 2 2 2 2 2
left_child=1 -1 5 -4 -2 -3
right_child=4 2 3 -5 -6 -7
leaf_value=-1.3712023843237757 4.3178461084632476 5.0038587743341996 2.4817622411391316 -1.66797499070404 1.2983841674670464 -0.34436442135890866
leaf_weight=37637 7082 1649 14960 4013 23646 136994
leaf_count=37637 7082 1649 14960 4013 23646 136994
internal_value=0 -0.3078 -0.0538709 1.60405 1.99429 -0.280753
internal_weight=0 195253 157616 18973 30728 138643
internal_count=225981 195253 157616 18973 30728 138643
is_linear=0
shrinkage=0.02


Tree=70
num_leaves=7
num_cat=0
split_feature=9 71 27 208 212 128
split_gain=3.64118e+08 1.28153e+08 1.25525e+08 1.23856e+08 1.09465e+08 1.04127e+08
threshold=23.705000000000002 -9.2749999999999968 1.4234722222222222 -36.911875000000016 80.730602254997308 3.0249792051209057
decision_type=2 2 2 2 2 2
left_child=2 -2 -1 -4 -3 -5
right_child=1 4 3 5 -6 -7
leaf_value=-2.5892949251841442 0.26187713921480271 3.5724661524934254 -1.0562369225417629 -0.58382880771745027 -0.37610837186090351 0.55254201961124294
leaf_weight=9216 11044 17290 49342 52563 3353 83479
leaf_count=9216 11044 17290 49342 52563 3353 83479
internal_value=0 2.00079 -0.31111 -0.197854 2.93111 0.113479
internal_weight=0 31687 194600 185384 20643 136042
internal_count=226287 31687 194600 185384 20643 136042
is_linear=0
shrinkage=0.02


Tree=71
num_leaves=7
num_cat=0
split_feature=9 46 71 42 65 235
split_gain=3.49699e+08 1.25498e+08 1.23079e+08 1.01609e+08 9.53733e+07 1.04327e+08
threshold=23.705000000000002 -2.4908159722222214 -9.2749999999999968 16.425000000000004 0.87560020959051943 -273.30708333333331
decision_type=2 2 2 2 2 2
left_child=1 -1 -2 -4 -3 -6
right_child=2 4 3 -5 5 -7
leaf_value=-1.2716126632137641 0.25663958247266616 4.2288258763507995 3.4208427904822187 -0.71800451559732781 0.9155414253981331 -0.37072344150871561
leaf_weight=42095 11044 2067 17908 2735 32052 118386
leaf_count=42095 11044 2067 17908 2735 32052 118386
internal_value=0 -0.304887 1.96077 2.87249 -0.0380483 -0.0966746
internal_weight=0 194600 31687 20643 152505 150438
internal_count=226287 194600 31687 20643 152505 150438
is_linear=0
shrinkage=0.02


Tree=72
num_leaves=7
num_cat=0
split_feature=244 45 35 129 123 35
split_gain=3.34277e+08 1.82516e+08 1.60572e+08 1.10028e+08 1.31124e+08 1.16906e+08
threshold=828.80281250000019 0.030833333333333383 17.335000000000004 -0.019097222222219653 0.94750000000000345 14.875000000000002
decision_type=2 2 2 2 2 2
left_child=1 -1 3 -2 5 -5
right_child=2 -3 -4 4 -6 -7
leaf_value=-0.47114228630925181 6.6331832922699254 1.4028366114551449 -1.8844758994906556 -0.31240333006330567 4.0248558468035798 6.1712884159690145
leaf_weight=178685 2725 23526 3264 7743 9045 1299
leaf_count=178685 2725 23526 3264 7743 9045 1299
internal_value=0 -0.253116 2.23986 2.88669 2.32224 0.619063
internal_weight=0 202211 24076 20812 18087 9042
internal_count=226287 202211 24076 20812 18087 9042
is_linear=0
shrinkage=0.02


Tree=73
num_leaves=7
num_cat=0
split_feature=244 45 35 4 130 35
split_gain=3.21039e+08 1.75288e+08 1.54213e+08 1.07322e+08 1.07189e+08 1.4825e+08
threshold=828.80281250000019 0.030833333333333383 17.335000000000004 38.631195219123512 0.82230902777777726 14.875000000000002
decision_type=2 2 2 2 2 2
left_child=1 3 4 -1 5 -2
right_child=2 -3 -4 -5 -6 -7
leaf_value=-0.69224831959511779 0.36286510558715557 1.3747799235088305 -1.8467864661123239 0.5804468106089099 4.2879155820195862 6.7365014187794818
leaf_weight=146319 8827 23526 3264 32366 10236 1749
leaf_count=146319 8827 23526 3264 32366 10236 1749
internal_value=0 -0.248054 2.19506 -0.461719 2.82896 1.4169
internal_weight=0 202211 24076 178685 20812 10576
internal_count=226287 202211 24076 178685 20812 10576
is_linear=0
shrinkage=0.02


Tree=74
num_leaves=7
num_cat=0
split_feature=9 206 34 77 206 243
split_gain=3.1855e+08 1.24594e+08 1.36717e+08 1.1695e+08 1.07533e+08 1.5824e+08
threshold=23.705000000000002 1.5079166666666455 1.678090277777778 6.1050000000000013 -0.27902777777778803 -40.172673611111129
decision_type=2 2 2 2 2 2
left_child=1 2 -1 -2 -4 -6
right_child=3 -3 4 -5 5 -7
leaf_value=-2.6016566870622064 3.6769078088685445 -1.3433120313776763 -0.51485111766119229 1.0536452158925775 2.0360143834545195 0.050925057002905429
leaf_weight=7962 9876 36561 66202 21811 21652 62223
leaf_count=7962 9876 36561 66202 21811 21652 62223
internal_value=0 -0.291156 -0.0477482 1.87125 0.0877438 0.563368
internal_weight=0 194600 158039 31687 150077 83875
internal_count=226287 194600 158039 31687 150077 83875
is_linear=0
shrinkage=0.02


Tree=75
num_leaves=7
num_cat=0
split_feature=28 37 192 128 128 122
split_gain=2.9251e+08 2.67495e+08 1.18382e+08 9.74416e+07 8.76924e+07 8.60667e+07
threshold=10.315000000000003 2.9584973767933618 -1.0000000180025095e-35 2.6335528099945815 3.6992180503290313 0.075208333333332447
decision_type=2 2 2 2 2 2
left_child=2 3 -1 -2 -3 -6
right_child=1 4 -4 -5 5 -7
leaf_value=0.26181038248403427 0.26739762679907109 -1.9132491925795301 -0.8106615030228761 2.7993994031293785 2.2885718802783175 -3.4302693441242513
leaf_weight=67977 7702 10425 104394 28862 4963 1336
leaf_count=67977 7702 10425 104394 28862 4963 1336
internal_value=0 1.30771 -0.387717 2.26605 -0.787508 1.07562
internal_weight=0 53288 172371 36564 16724 6299
internal_count=225659 53288 172371 36564 16724 6299
is_linear=0
shrinkage=0.02


Tree=76
num_leaves=7
num_cat=1
split_feature=35 37 263 45 36 148
split_gain=2.94938e+08 2.86243e+08 1.49706e+08 1.3044e+08 1.07935e+08 1.01134e+08
threshold=10.615 3.1758162508208199 0 0.027222222222222151 0.96275316455696214 39.245000000000012
decision_type=2 2 1 2 2 2
left_child=5 3 -3 -2 -4 -1
right_child=1 2 4 -5 -6 -7
leaf_value=-0.66187580675714974 1.1406808871510972 -2.7136574868428922 -1.418815300592859 3.2810409204864159 2.9231210775036902 0.84099339628862668
leaf_weight=136579 31828 9724 4388 17736 4790 20614
leaf_count=136579 31828 9724 4388 17736 4790 20614
internal_value=0 1.10799 -0.986073 1.90659 0.84632 -0.464792
internal_weight=0 68466 18902 49564 9178 157193
internal_count=225659 68466 18902 49564 9178 157193
cat_boundaries=0 1
cat_threshold=16744451
is_linear=0
shrinkage=0.02


Tree=77
num_leaves=7
num_cat=0
split_feature=35 44 256 127 46 148
split_gain=2.83255e+08 1.87046e+08 2.08874e+08 1.22357e+08 1.10117e+08 9.71287e+07
threshold=10.615 3.4127532974767241 -432.24006944444437 22.835000000000004 -0.90506944444444437 39.245000000000012
decision_type=2 2 2 2 2 2
left_child=5 2 -2 -3 -5 -1
right_child=1 3 -4 4 -6 -7
leaf_value=-0.64863829318828381 -3.3628669910831483 1.2520718792298988 1.994912514834696 4.2369431903291854 -2.944094525910927 0.82417355117805258
leaf_weight=136579 3095 6955 48839 948 8629 20614
leaf_count=136579 3095 6955 48839 948 8629 20614
internal_value=0 1.08582 1.67562 -0.766986 -2.23326 -0.455496
internal_weight=0 68466 51934 16532 9577 157193
internal_count=225659 68466 51934 16532 9577 157193
is_linear=0
shrinkage=0.02


Tree=78
num_leaves=7
num_cat=0
split_feature=9 254 71 128 41 72
split_gain=2.71168e+08 1.15923e+08 1.12764e+08 1.1114e+08 1.28626e+08 1.02246e+08
threshold=20.875000000000004 75.824200592838181 -9.2749999999999968 3.0422917608899058 11.108194444444445 0.88047963506738625
decision_type=2 2 2 2 2 2
left_child=1 -1 -2 5 -5 -3
right_child=2 3 -4 4 -6 -7
leaf_value=-2.230710146457191 0.095067374013381375 4.8043700527433417 2.5655610033020304 0.1762433258355238 5.7396330319952868 -0.8389708344021588
leaf_weight=11380 11362 1307 21142 105167 1689 73612
leaf_count=11380 11362 1307 21142 105167 1689 73612
internal_value=0 -0.272503 1.70198 -0.149909 0.26418 -0.74052
internal_weight=0 193155 32504 181775 106856 74919
internal_count=225659 193155 32504 181775 106856 74919
is_linear=0
shrinkage=0.02


Tree=79
num_leaves=7
num_cat=0
split_feature=9 71 251 39 79 206
split_gain=2.60429e+08 1.08299e+08 1.07967e+08 1.19162e+08 1.25706e+08 1.03428e+08
threshold=20.875000000000004 -9.2749999999999968 94.747554976851873 0.99604166666666638 23.477748747636834 1.4346527777778137
decision_type=2 2 2 2 2 2
left_child=2 -2 3 -1 -5 -4
right_child=1 -3 5 4 -6 -7
leaf_value=-1.9390081065341978 0.093166061694133953 2.5142497984240495 0.15067770776334358 -2.767927590853001 8.2783201780210955 -1.0975718050036343
leaf_weight=21700 11362 21142 136824 717 969 32945
leaf_count=21700 11362 21142 136824 717 969 32945
internal_value=0 1.66794 -0.267053 -1.54107 3.58072 -0.0915549
internal_weight=0 32504 193155 23386 1686 169769
internal_count=225659 32504 193155 23386 1686 169769
is_linear=0
shrinkage=0.02


Tree=80
num_leaves=7
num_cat=0
split_feature=244 37 45 130 172 79
split_gain=2.88015e+08 1.51734e+08 1.37328e+08 1.09469e+08 9.88751e+07 1.07286e+08
threshold=828.80281250000019 3.8343572970586788 0.024930555555555792 1.320104166666668 -4.3914409722222212 2.3964541163439166
decision_type=2 2 2 2 2 2
left_child=2 3 -1 -2 -4 -6
right_child=1 -3 4 -5 5 -7
leaf_value=-0.48353542361890589 1.3192002509491711 -2.7178339647947998 -1.9189445106712741 4.1813823335443603 6.5538343747330474 1.0720885714302861
leaf_weight=169274 12055 2394 4214 9603 1509 26647
leaf_count=169274 12055 2394 4214 9603 1509 26647
internal_value=0 2.06013 -0.255295 2.58827 0.938253 1.36588
internal_weight=0 24052 201644 21658 32370 28156
internal_count=225696 24052 201644 21658 32370 28156
is_linear=0
shrinkage=0.02


Tree=81
num_leaves=7
num_cat=0
split_feature=244 37 45 144 39 205
split_gain=2.76609e+08 1.45725e+08 1.31889e+08 9.81014e+07 9.61294e+07 1.13826e+08
threshold=828.80281250000019 3.8343572970586788 0.024930555555555792 -5.4649999999999936 1.0619444444444446 7.9576821537214837
decision_type=2 2 2 2 2 2
left_child=2 -2 3 -1 5 -4
right_child=1 -3 4 -5 -6 -7
leaf_value=-1.7113011187601268 2.5365055380625807 -2.6634772763614767 9.3328876352697847 -0.28652840093889215 2.0372184010353531 -0.43283968435578535
leaf_weight=22257 21658 2394 492 147017 15777 16101
leaf_count=22257 21658 2394 492 147017 15777 16101
internal_value=0 2.01893 -0.250189 -0.473865 0.919488 -0.143276
internal_weight=0 24052 201644 169274 32370 16593
internal_count=225696 24052 201644 169274 32370 16593
is_linear=0
shrinkage=0.02


Tree=82
num_leaves=7
num_cat=0
split_feature=244 37 172 45 128 32
split_gain=2.65667e+08 1.42786e+08 1.31022e+08 1.44718e+08 1.14749e+08 1.0713e+08
threshold=817.72618055555552 3.8343572970586788 -4.4804861111111132 0.024930555555555792 3.5588951219584897 -2.1723611111111101
decision_type=2 2 2 2 2 2
left_child=2 -2 -1 5 -5 -4
right_child=1 -3 3 4 -6 -7
leaf_value=-1.3861298451957922 2.4465124164255552 -2.6159717329545451 0.52988531890358936 0.19227995732385961 2.7872263334894196 -0.66198653060776091
leaf_weight=33754 22379 2475 44203 16043 11852 94990
leaf_count=33754 22379 2475 44203 16043 11852 94990
internal_value=0 1.94238 -0.249589 -0.0199932 1.29482 -0.283488
internal_weight=0 24854 200842 167088 27895 139193
internal_count=225696 24854 200842 167088 27895 139193
is_linear=0
shrinkage=0.02


Tree=83
num_leaves=7
num_cat=0
split_feature=244 35 45 129 128 112
split_gain=2.55324e+08 1.36961e+08 1.22439e+08 1.10797e+08 1.0759e+08 1.05151e+08
threshold=828.80281250000019 17.335000000000004 0.030833333333333383 -0.018125000000003052 3.54931883704135 29.935000000000006
decision_type=2 2 2 2 2 2
left_child=2 3 -1 5 -4 -2
right_child=1 -3 4 -5 -6 -7
leaf_value=-0.41957984886548366 9.049155621298107 -1.8496071923398116 -0.14820845966586388 1.9567332120993743 2.5616681775050245 1.0415116876334509
leaf_weight=178094 1841 3293 12573 17899 10977 1019
leaf_count=178094 1841 3293 12573 17899 10977 1019
internal_value=0 1.9397 -0.240367 2.5408 1.1149 6.19608
internal_weight=0 24052 201644 20759 23550 2860
internal_count=225696 24052 201644 20759 23550 2860
is_linear=0
shrinkage=0.02


Tree=84
num_leaves=7
num_cat=0
split_feature=244 35 172 45 128 129
split_gain=2.45213e+08 1.31537e+08 1.25883e+08 1.40038e+08 1.06985e+08 1.06409e+08
threshold=828.80281250000019 17.335000000000004 -4.4804861111111132 0.024930555555555792 3.5588951219584897 -0.018125000000003052
decision_type=2 2 2 2 2 2
left_child=2 5 -1 -4 -5 -2
right_child=1 -3 3 4 -6 -7
leaf_value=-1.3488683006384321 6.0721606952160396 -1.8126149811152446 -0.2710158252353711 0.21620443784201332 2.7075683444461238 1.9175986078548874
leaf_weight=33813 2860 3293 139608 16244 11979 17899
leaf_count=33813 2860 3293 139608 16244 11979 17899
internal_value=0 1.9009 -0.23556 -0.0112613 1.27364 2.48998
internal_weight=0 24052 201644 167831 28223 20759
internal_count=225696 24052 201644 167831 28223 20759
is_linear=0
shrinkage=0.02


Tree=85
num_leaves=7
num_cat=0
split_feature=35 37 32 105 74 12
split_gain=2.1519e+08 2.36375e+08 1.07843e+08 9.73727e+07 7.85825e+07 7.6419e+07
threshold=10.664787234042555 2.9584973767933618 1.4983333333333337 36.542000000000009 -2.8693055555555547 1.9023417721518994
decision_type=2 2 2 2 2 2
left_child=3 2 -2 5 -4 -1
right_child=1 -3 4 -5 -6 -7
leaf_value=-0.90051833495428313 0.41823411293148705 -0.64968226493816517 0.95354357364454689 0.65586708702703722 3.2192422681553228 0.25007214220100732
leaf_weight=98936 14435 23773 8780 28707 20236 30119
leaf_count=98936 14435 23773 8780 28707 20236 30119
internal_value=0 0.953663 1.83089 -0.397648 2.53366 -0.631992
internal_weight=0 67224 43451 157762 29016 129055
internal_count=224986 67224 43451 157762 29016 129055
is_linear=0
shrinkage=0.02


Tree=86
num_leaves=7
num_cat=1
split_feature=35 37 263 45 105 85
split_gain=2.06782e+08 2.18074e+08 2.03532e+08 1.05193e+08 9.85774e+07 7.92725e+07
threshold=10.391582278481016 2.9584973767933618 0 0.025833333333333489 36.542000000000009 -112.52499999999999
decision_type=2 2 1 2 2 2
left_child=4 3 -3 -2 -1 -4
right_child=1 2 5 -5 -6 -7
leaf_value=-0.6522864051248396 0.94629109903796349 -2.6822031584897981 -1.4935907000611708 2.8810142014488505 0.66197768613569197 1.952880702199665
leaf_weight=124655 30226 10925 3691 17897 27946 9646
leaf_count=124655 30226 10925 3691 17897 27946 9646
internal_value=0 0.886356 -0.659684 1.66582 -0.411604 0.998325
internal_weight=0 72385 24262 48123 152601 13337
internal_count=224986 72385 24262 48123 152601 13337
cat_boundaries=0 1
cat_threshold=16744449
is_linear=0
shrinkage=0.02


Tree=87
num_leaves=7
num_cat=1
split_feature=35 37 263 32 81 144
split_gain=1.99204e+08 2.1831e+08 1.9469e+08 1.02339e+08 9.73319e+07 9.17522e+07
threshold=10.664787234042555 2.9584973767933618 0 1.4983333333333337 -15.209201388888888 -5.4649999999999936
decision_type=2 2 1 2 2 2
left_child=5 3 -3 -2 -5 -1
right_child=1 2 -4 4 -6 -7
leaf_value=-1.7605250200189642 0.3844484953766345 -2.6089309888668253 1.0253238734833727 -1.4237361469916037 2.7919932881180194 -0.21377589262864749
leaf_weight=17220 14435 10780 12993 2387 26629 140542
leaf_count=17220 14435 10780 12993 2387 26629 140542
internal_value=0 0.917544 -0.623315 1.76058 2.44519 -0.382606
internal_weight=0 67224 23773 43451 29016 157762
internal_count=224986 67224 23773 43451 29016 157762
cat_boundaries=0 1
cat_threshold=16744449
is_linear=0
shrinkage=0.02


Tree=88
num_leaves=7
num_cat=1
split_feature=35 37 263 109 252 121
split_gain=1.91314e+08 2.09668e+08 1.86987e+08 9.30577e+07 1.09082e+08 9.53029e+07
threshold=10.664787234042555 2.9584973767933618 0 -3.9199999999999986 319.54000000000002 3.5854025686064177
decision_type=2 2 1 2 2 2
left_child=3 -2 -3 -1 -5 -6
right_child=1 2 -4 4 5 -7
leaf_value=-1.4450437344419569 1.7253702636347914 -2.5568007099763235 1.0048331659415737 -2.2457164448676661 -0.22258605438740325 1.3829751268649957
leaf_weight=26953 43451 10780 12993 9270 104308 17231
leaf_count=26953 43451 10780 12993 9270 104308 17231
internal_value=0 0.899188 -0.610862 -0.374954 -0.154464 0.00503985
internal_weight=0 67224 23773 157762 130809 121539
internal_count=224986 67224 23773 157762 130809 121539
cat_boundaries=0 1
cat_threshold=16744449
is_linear=0
shrinkage=0.02


Tree=89
num_leaves=7
num_cat=0
split_feature=45 128 79 249 113 140
split_gain=1.86728e+08 1.38115e+08 1.37501e+08 1.18388e+08 1.15986e+08 1.02128e+08
threshold=0.025833333333333489 3.5588951219584897 2.6134434167182534 105.18408068783067 24.505000000000006 37.465000000000011
decision_type=2 2 2 2 2 2
left_child=5 2 -2 -3 -5 -1
right_child=1 3 -4 4 -6 -7
leaf_value=-0.54340453406689027 3.6533079658520093 0.39140820065190723 -0.47349086000520429 5.7833346800490641 1.696145598143618 0.52960676198289836
leaf_weight=136502 3882 6318 19215 5780 5346 47943
leaf_count=136502 3882 6318 19215 5780 5346 47943
internal_value=0 1.23461 0.220116 2.57786 3.81946 -0.264495
internal_weight=0 40541 23097 17444 11126 184445
internal_count=224986 40541 23097 17444 11126 184445
is_linear=0
shrinkage=0.02


Tree=90
num_leaves=7
num_cat=1
split_feature=9 128 138 39 263 250
split_gain=2.13354e+08 9.73132e+07 1.57261e+08 9.85075e+07 9.59978e+07 1.30384e+08
threshold=9.4650000000000016 3.5680358619325165 4.5208297872340433 0.99604166666666638 0 -88.848263888888866
decision_type=2 2 2 2 1 2
left_child=4 2 -2 -3 5 -1
right_child=1 3 -4 -5 -6 -7
leaf_value=0.79484610883110995 -0.32281134486851842 0.59374021207121841 3.5283360592610502 3.9636519640916856 0.040221763102439988 -1.4200721392033253
leaf_weight=13689 18244 5692 5526 8887 125776 47587
leaf_count=13689 18244 5692 5526 8887 125776 47587
internal_value=0 1.36152 0.572495 2.64796 -0.276057 -0.925111
internal_weight=0 38349 23770 14579 187052 61276
internal_count=225401 38349 23770 14579 187052 61276
cat_boundaries=0 1
cat_threshold=12582975
is_linear=0
shrinkage=0.02


Tree=91
num_leaves=7
num_cat=2
split_feature=45 205 263 263 174 37
split_gain=1.89479e+08 1.38619e+08 1.73061e+08 1.23248e+08 1.01878e+08 9.60267e+07
threshold=0.022291666666667046 21.778880260956196 0 1 36.393043478260871 1.9621168574945538
decision_type=2 2 1 1 2 2
left_child=4 3 -3 -2 -1 -4
right_child=1 2 5 -5 -6 -7
leaf_value=-0.59668045725242513 4.0815677688543062 -2.2215584623565836 -0.74148933062425348 1.0286971518398731 0.46615792669164374 2.3887139166021623
leaf_weight=127768 9051 8409 6069 12764 50268 11072
leaf_count=127768 9051 8409 6069 12764 50268 11072
internal_value=0 1.12674 0.126984 2.29767 -0.296591 1.27968
internal_weight=0 47365 25550 21815 178036 17141
internal_count=225401 47365 25550 21815 178036 17141
cat_boundaries=0 1 2
cat_threshold=8355840 16711687
is_linear=0
shrinkage=0.02


Tree=92
num_leaves=7
num_cat=0
split_feature=45 208 79 168 121 44
split_gain=1.81979e+08 1.10116e+08 1.21943e+08 1.09441e+08 7.51125e+07 8.06612e+07
threshold=0.022291666666667046 -33.715208333333315 20.021193027719228 34.655000000000008 1.9066228365428928 3.242997151372816
decision_type=2 2 2 2 2 2
left_child=3 -2 -3 -1 -5 -6
right_child=1 2 -4 4 5 -7
leaf_value=-0.9221473679420461 -0.75913202371545818 2.2604135667312142 -0.38359244200049647 -0.65870801741496565 0.7336402789759443 -1.1145446462678501
leaf_weight=67906 10006 28074 9285 35493 63542 11095
leaf_count=67906 10006 28074 9285 35493 63542 11095
internal_value=0 1.10422 1.60329 -0.290659 0.0987158 0.458902
internal_weight=0 47365 37359 178036 110130 74637
internal_count=225401 47365 37359 178036 110130 74637
is_linear=0
shrinkage=0.02


Tree=93
num_leaves=7
num_cat=0
split_feature=9 206 34 121 71 206
split_gain=1.97185e+08 9.92329e+07 1.12962e+08 9.48889e+07 9.41628e+07 8.95128e+07
threshold=23.705000000000002 1.5830555555555608 1.678090277777778 2.7279503758452481 -9.2749999999999968 0.027152777777757823
decision_type=2 2 2 2 2 2
left_child=1 2 -1 -4 -2 -5
right_child=4 -3 3 5 -6 -7
leaf_value=-2.3211605768279489 -0.041707529746975468 -1.2080275279440569 -0.27233015549035361 0.047158311361659939 2.2597472450621585 1.6955908395410555
leaf_weight=8136 10832 34538 97770 29808 20701 23616
leaf_count=8136 10832 34538 97770 29808 20701 23616
internal_value=0 -0.236165 -0.0254937 0.0980399 1.46917 0.775845
internal_weight=0 193868 159330 151194 31533 53424
internal_count=225401 193868 159330 151194 31533 53424
is_linear=0
shrinkage=0.02


Tree=94
num_leaves=7
num_cat=0
split_feature=35 128 78 256 208 249
split_gain=1.73574e+08 1.15513e+08 1.0695e+08 9.64851e+07 9.71268e+07 9.12134e+07
threshold=10.615 2.7229795996414485 -32.434999999999995 399.64668200231489 -159.88673611111111 257.41710441217737
decision_type=2 2 2 2 2 2
left_child=-1 -2 3 4 -3 -4
right_child=1 2 5 -5 -6 -7
leaf_value=-0.36324782838123709 -0.58929127026862727 9.1769720238095243 0.40264665101431951 -3.161435384377524 0.4115480133132256 2.6549967880678382
leaf_weight=157189 16899 525 10338 3095 13722 23633
leaf_count=157189 16899 525 10338 3095 13722 23633
internal_value=0 0.844869 1.31718 0.0392417 0.734553 1.96957
internal_weight=0 68212 51313 17342 14247 33971
internal_count=225401 68212 51313 17342 14247 33971
is_linear=0
shrinkage=0.02


Tree=95
num_leaves=7
num_cat=1
split_feature=35 37 256 263 36 65
split_gain=1.73961e+08 1.82894e+08 1.21253e+08 1.12213e+08 1.04405e+08 8.66994e+07
threshold=10.615 3.2506300018893195 -423.31757986111103 0 0.96275316455696214 0.87560020959051943
decision_type=2 2 2 1 2 2
left_child=5 2 -2 4 -3 -1
right_child=1 3 -4 -5 -6 -7
leaf_value=3.5012273166098415 -2.8075849275588989 -1.4751454525678838 1.6597969545977884 -2.153325986952257 3.6326559370339635 -0.44544141603638088
leaf_weight=2259 2560 3091 47940 11107 3320 154559
leaf_count=2259 2560 3091 47940 11107 3320 154559
internal_value=0 0.82251 1.43333 -0.938337 1.16816 -0.388589
internal_weight=0 68018 50500 17518 6411 156818
internal_count=224836 68018 50500 17518 6411 156818
cat_boundaries=0 1
cat_threshold=32752
is_linear=0
shrinkage=0.02


Tree=96
num_leaves=7
num_cat=0
split_feature=9 256 35 206 27 77
split_gain=1.70494e+08 1.07241e+08 9.905e+07 8.91093e+07 9.34464e+07 8.77519e+07
threshold=38.155000000000008 -400.05615451388888 18.175000000000004 1.4717361111111134 1.4931944444444449 6.1050000000000013
decision_type=2 2 2 2 2 2
left_child=1 2 -1 4 -3 -2
right_child=5 3 -4 -5 -6 -7
leaf_value=-1.5326874330171691 3.0561001466617945 -1.9449931942536214 7.5941119889188409 -0.98119388765771198 0.31355118880305066 0.66222342155617542
leaf_weight=27533 9082 7770 484 32439 128715 18813
leaf_count=27533 9082 7770 484 32439 128715 18813
internal_value=0 -0.229037 -1.37502 -0.038969 0.184974 1.44162
internal_weight=0 196941 28017 168924 136485 27895
internal_count=224836 196941 28017 168924 136485 27895
is_linear=0
shrinkage=0.02


Tree=97
num_leaves=7
num_cat=0
split_feature=9 254 84 71 121 65
split_gain=1.63743e+08 9.09543e+07 8.69143e+07 8.35059e+07 8.27958e+07 9.5647e+07
threshold=38.155000000000008 79.985490037789603 164.93500000000003 -9.0849999999999991 3.4078432703214103 0.11520176036380474
decision_type=2 2 2 2 2 2
left_child=1 -1 4 -2 5 -3
right_child=3 2 -4 -5 -6 -7
leaf_value=-1.8233633598276526 -0.091025058461529279 4.561243621826172 2.9892037812653962 2.2090503754455253 0.73713327036108323 -0.4253764237159256
leaf_weight=13272 9657 1555 3552 18238 32895 145667
leaf_count=13272 9657 1555 3552 18238 32895 145667
internal_value=0 -0.224456 -0.108918 1.41278 -0.170015 -0.372706
internal_weight=0 196941 183669 27895 180117 147222
internal_count=224836 196941 183669 27895 180117 147222
is_linear=0
shrinkage=0.02


Tree=98
num_leaves=7
num_cat=0
split_feature=35 37 45 46 58 121
split_gain=1.59309e+08 1.7426e+08 8.55623e+07 8.5316e+07 8.1745e+07 8.30253e+07
threshold=10.615 3.2506300018893195 0.033055555555553624 -2.4359027777777773 0.4891761774736364 3.6847889025038181
decision_type=2 2 2 2 2 2
left_child=4 2 3 -2 -1 -6
right_child=1 -3 -4 -5 5 -7
leaf_value=3.2804209011133842 -2.5038616159637344 -0.93132163279376923 2.6635536156369204 1.1386619634316399 -0.61004781791804896 0.75684884023747812
leaf_weight=2414 2790 17518 14779 32931 133909 20495
leaf_count=2414 2790 17518 14779 32931 133909 20495
internal_value=0 0.787457 1.38369 0.854162 -0.371516 -0.428611
internal_weight=0 68018 50500 35721 156818 154404
internal_count=224836 68018 50500 35721 156818 154404
is_linear=0
shrinkage=0.02


Tree=99
num_leaves=7
num_cat=0
split_feature=45 128 79 39 120 46
split_gain=1.54141e+08 1.05817e+08 1.1302e+08 1.03368e+08 1.06752e+08 9.52812e+07
threshold=0.028194444444446191 3.54931883704135 2.6836972896095697 1.2220833333333334 24.395000000000003 -2.2941493055555555
decision_type=2 2 2 2 2 2
left_child=5 2 -2 -3 -5 -1
right_child=1 3 -4 4 -6 -7
leaf_value=-1.0656875253464415 3.4220697268005198 0.32160043689269557 -0.49898646002042901 5.4044133650494777 1.1938131131117604 -0.0015910581970180182
leaf_weight=43807 3590 5969 16251 5790 4124 145305
leaf_count=43807 3590 5969 16251 5790 4124 145305
internal_value=0 1.18438 0.210483 2.40096 3.6529 -0.248085
internal_weight=0 35724 19841 15883 9914 189112
internal_count=224836 35724 19841 15883 9914 189112
is_linear=0
shrinkage=0.02


Tree=100
num_leaves=7
num_cat=0
split_feature=9 27 208 81 215 77
split_gain=1.57597e+08 8.7838e+07 9.7433e+07 8.74146e+07 9.06433e+07 8.31953e+07
threshold=18.375000000000004 1.3806944444444447 -37.775138888888883 -5.4997222222222213 11.0938888888889 6.0150000000000006
decision_type=2 2 2 2 2 2
left_child=1 -1 -3 -4 -5 -2
right_child=5 2 3 4 -6 -7
leaf_value=-2.2460430654347858 2.8030415089260328 -0.90278389564000283 -0.65600451102236634 1.0686906014161504 -0.15292373070508719 0.616557575160533
leaf_weight=8198 9946 48237 39055 49106 48087 23193
leaf_count=8198 9946 48237 39055 49106 48087 23193
internal_value=0 -0.220338 -0.130322 0.14316 0.464287 1.27279
internal_weight=0 192683 184485 136248 97193 33139
internal_count=225822 192683 184485 136248 97193 33139
is_linear=0
shrinkage=0.02


Tree=101
num_leaves=7
num_cat=1
split_feature=9 206 34 206 263 200
split_gain=1.51356e+08 9.49242e+07 9.68999e+07 9.49492e+07 1.40565e+08 8.71423e+07
threshold=18.375000000000004 1.362638888888853 1.6228472222222226 -0.25763888888887715 0 -1.9952777777777724
decision_type=2 2 2 2 1 2
left_child=1 2 -1 -4 -5 -6
right_child=-2 -3 3 4 5 -7
leaf_value=-2.2548802916854984 1.2473307124677495 -1.0878405980382924 -0.42803996434326008 -1.4823152404416322 1.7581155828601212 0.30605703802334477
leaf_weight=7200 33139 39664 67471 11160 29373 37815
leaf_count=7200 33139 39664 67471 11160 29373 37815
internal_value=0 -0.215931 0.0100758 0.121911 0.595513 0.940723
internal_weight=0 192683 153019 145819 78348 67188
internal_count=225822 192683 153019 145819 78348 67188
cat_boundaries=0 1
cat_threshold=8388615
is_linear=0
shrinkage=0.02


Tree=102
num_leaves=7
num_cat=0
split_feature=9 206 130 206 226 33
split_gain=1.45363e+08 9.11649e+07 9.4855e+07 9.90689e+07 1.45496e+08 8.23138e+07
threshold=18.375000000000004 1.362638888888853 -4.327465277777776 -0.27902777777778803 4.2378724262142944 0.015347222222222403
decision_type=2 2 2 2 2 2
left_child=1 2 -1 -4 -5 -6
right_child=-2 -3 3 4 5 -7
leaf_value=-1.0732706993172183 1.2223841365276751 -1.0660837860922989 -0.36955880413129139 -1.1860306851263465 2.0938136637473725 0.53756797905182208
leaf_weight=26698 33139 39664 57952 12606 23490 32273
leaf_count=26698 33139 39664 57952 12606 23490 32273
internal_value=0 -0.211614 0.00987236 0.238795 0.754458 1.19313
internal_weight=0 192683 153019 126321 68369 55763
internal_count=225822 192683 153019 126321 68369 55763
is_linear=0
shrinkage=0.02


Tree=103
num_leaves=7
num_cat=0
split_feature=244 151 72 128 35 252
split_gain=1.34334e+08 1.07694e+08 1.10129e+08 9.8191e+07 9.7501e+07 9.03429e+07
threshold=794.26211226851854 -5.4491666666666685 1.4895481080638533 3.126417250484907 17.045000000000005 293.51000000000005
decision_type=2 2 2 2 2 2
left_child=1 -1 -3 -4 -2 -5
right_child=4 2 3 5 -6 -7
leaf_value=-1.3940257112844492 1.8254415463102986 5.4222287371225768 -0.59950863684413214 -2.2269139001678426 -1.6935174124700751 0.50631135539587224
leaf_weight=25445 22772 1485 73791 5101 3655 93573
leaf_count=25445 22772 1485 73791 5101 3655 93573
internal_value=0 -0.178739 -0.000970092 -0.0476662 1.33875 0.365016
internal_weight=0 199395 173950 172465 26427 98674
internal_count=225822 199395 173950 172465 26427 98674
is_linear=0
shrinkage=0.02


Tree=104
num_leaves=7
num_cat=0
split_feature=206 121 206 226 81 200
split_gain=1.33294e+08 1.40297e+08 1.31146e+08 1.43726e+08 8.92837e+07 9.58701e+07
threshold=1.362638888888853 1.9348804998749987 0.0060560053981084669 6.6560536791861349 -5.4997222222222213 2.0662500000000255
decision_type=2 2 2 2 2 2
left_child=1 -1 -3 -4 -5 -6
right_child=-2 2 3 4 5 -7
leaf_value=-0.51083447071787524 -0.99927899832853717 0.11034740209249058 -1.0764459805875211 0.15267708791408457 3.6194928840415468 1.3690680838765008
leaf_weight=64931 43263 71437 7400 8492 14864 15435
leaf_count=64931 43263 71437 7400 8492 14864 15435
internal_value=0 0.235411 0.647341 1.47783 1.9651 2.47308
internal_weight=0 182559 117628 46191 38791 30299
internal_count=225822 182559 117628 46191 38791 30299
is_linear=0
shrinkage=0.02


Tree=105
num_leaves=7
num_cat=0
split_feature=79 128 123 32 102 200
split_gain=1.34203e+08 1.4554e+08 1.31216e+08 1.1908e+08 1.42825e+08 1.295e+08
threshold=2.7175242240604738 3.0924633156030006 -2.2830555555555541 1.707083333333334 -0.43166666666666748 29.471111111111103
decision_type=2 2 2 2 2 2
